weevil -0.35179999470710754 0.6884700059890747 0.12467999756336212 -0.6047099828720093 -0.4064500033855438 0.10997000336647034 -0.4274600148200989 -0.6543200016021729 0.07860200107097626 -0.4398599863052368 -0.2111400067806244 -0.5548200011253357 -0.05412900075316429 -0.3686099946498871 0.9437000155448914 0.34595000743865967 0.05047300085425377 -0.8911700248718262 0.12093000113964081 0.1680299937725067 -0.025388000532984734 0.040314000099897385 -0.0898360013961792 0.1648399978876114 -0.5585500001907349 -0.6888399720191956 -0.46494001150131226 -0.04651099815964699 -0.2669000029563904 0.4583300054073334 -0.3874399960041046 -0.5859000086784363 0.4011499881744385 -0.619979977607727 -0.34255000948905945 0.6146600246429443 0.04360400140285492 0.22144000232219696 -0.6796500086784363 0.46845999360084534 -0.35877999663352966 0.2712799906730652 -0.8855999708175659 -0.011384000070393085 0.28878000378608704 0.3726400136947632 -0.3631399869918823 0.9219099879264832 0.22939999401569366 0.25679001212120056 -0.9277799725532532 -0.3988400101661682 -0.07366599887609482 0.10113000124692917 0.9116399884223938 -0.13679000735282898 -0.2581599950790405 -0.17973999679088593 -0.14088000357151031 -0.022251000627875328 0.14778000116348267 0.5931400060653687 0.3877300024032593 0.36462000012397766 0.17170000076293945 0.03574699908494949 -0.803659975528717 -0.2996799945831299 -0.6448400020599365 0.03772899881005287 -0.41898998618125916 1.083400011062622 -0.47348999977111816 0.035909999161958694 -0.12794999778270721 -0.11924000084400177 -0.188060000538826 0.26715001463890076 0.18331000208854675 -0.21503999829292297 0.20305000245571136 0.862500011920929 0.5321800112724304 0.6031000018119812 0.15248000621795654 -0.6638000011444092 0.24132999777793884 -0.22859999537467957 -0.500469982624054 0.6478300094604492 -0.12025000154972076 0.5042399764060974 0.20453999936580658 -0.08865199983119965 -0.2469400018453598 -0.039962999522686005 0.17076000571250916 -0.5013999938964844 -0.30570998787879944 0.4960399866104126 -0.478630006313324 0.37560001015663147 0.09630800038576126 0.1316400021314621 -0.6659299731254578 -1.4390000104904175 -0.3376399874687195 -0.12223999947309494 -0.25485000014305115 -0.2956799864768982 -0.0016693000216037035 0.8180800080299377 -0.24638999998569489 0.24256999790668488 0.32370999455451965 -0.3317199945449829 -0.6984300017356873 -0.8470600247383118 -0.4873499870300293 -0.39612001180648804 -0.7684199810028076 0.5828800201416016 0.4018000066280365 -0.2667199969291687 -0.8377699851989746 -0.149959996342659 0.2551099956035614 0.26669999957084656 -0.34126999974250793 0.4522800147533417 -0.6621900200843811 -0.7565699815750122 -0.10176999866962433 0.9005799889564514 -0.4384100139141083 -0.1641799956560135 0.3163500130176544 0.2743600010871887 0.4399400055408478 0.33327001333236694 -0.4683600068092346 0.5564299821853638 -0.24301999807357788 -0.2835499942302704 0.3900499939918518 -0.5148500204086304 0.14920000731945038 -0.3789899945259094 0.3186199963092804 0.37237998843193054 -0.571399986743927 -0.8155199885368347 0.13806000351905823 -0.12183000147342682 -1.000499963760376 0.251010000705719 -0.0783730000257492 -0.2145099937915802 0.26447999477386475 0.6540799736976624 -0.05335700139403343 -0.6100800037384033 -0.5567299723625183 0.5874800086021423 0.17137999832630157 0.306410014629364 0.19109000265598297 -0.3931100070476532 0.2955699861049652 0.0918160006403923 0.07087700068950653 1.020799994468689 0.019067000597715378 0.011501000262796879 -0.5532500147819519 -0.2973400056362152 0.12471000105142593 0.5175399780273438 0.25731998682022095 0.012842999771237373 -0.10507000237703323 0.4703499972820282 -0.2300799936056137 0.4174500107765198 -0.5506899952888489 0.17645999789237976 -0.14622999727725983 -0.24146999418735504 -0.5871099829673767 0.08423800021409988 0.400409996509552 -0.04202599823474884 -0.2151699960231781 0.4784899950027466 -0.06361400336027145 -0.4613099992275238 0.05519400164484978 0.25558000802993774 0.2866399884223938 -0.1715800017118454 -0.0876379981637001 0.26131999492645264 -0.3375299870967865 0.6268100142478943 0.2171500027179718 -0.6424000263214111 0.5488200187683105 0.8179399967193604 0.16359999775886536 0.5782300233840942 -0.04168599843978882 0.6706299781799316 -0.1314300000667572 0.024250000715255737 -0.14600999653339386 -0.47203999757766724 -0.11223000288009644 0.4619100093841553 0.2462500035762787 -0.30889999866485596 -0.22561000287532806 0.2541100084781647 0.918150007724762 0.21371999382972717 0.17484000325202942 0.6964100003242493 0.2791999876499176 -0.20010000467300415 0.2813499867916107 0.6815299987792969 0.7396799921989441 -0.18573999404907227 -0.23972000181674957 0.34099000692367554 0.07303699851036072 -0.4718700051307678 -0.09870299696922302 0.3115699887275696 0.8532599806785583 -0.1945900022983551 0.576200008392334 -0.4680199921131134 0.213359996676445 -0.21423999965190887 -0.2597000002861023 -0.22524000704288483 0.29989999532699585 0.8833900094032288 0.3475799858570099 0.5589200258255005 0.3304600119590759 0.06436999887228012 -0.018122000619769096 0.12636999785900116 -0.29374000430107117 -0.2475000023841858 0.3934600055217743 -0.3208000063896179 1.2689000368118286 -0.025911999866366386 0.07253199815750122 0.44929999113082886 0.20630000531673431 -0.7840200066566467 -0.2065500020980835 0.30994001030921936 -0.2859100103378296 -0.6643000245094299 -0.3972499966621399 0.30842000246047974 0.15629999339580536 -0.8355699777603149 0.4917199909687042 -0.7789899706840515 0.1714800000190735 -0.09692999720573425 0.2690100073814392 -0.1447100043296814 -0.17966000735759735 -0.009987100027501583 -0.29910001158714294 -0.10170000046491623 -0.2826499938964844 -1.332200050354004 0.15418000519275665 -0.3060699999332428 0.7712799906730652 0.00889469962567091 -0.48012998700141907 -0.5426899790763855 0.016341999173164368 1.0394999980926514 0.06150500103831291 -0.5573599934577942 -0.18869000673294067 0.17847000062465668 0.06647899746894836 0.22045999765396118 -0.6001499891281128 -0.41887998580932617
lamont -0.3477100133895874 0.054117001593112946 -0.2967599928379059 0.035020001232624054 0.2662999927997589 -0.2649100124835968 -0.2572000026702881 -0.005688900128006935 0.04527600109577179 -0.5675399899482727 -0.0057622999884188175 -0.36267998814582825 0.39989998936653137 -0.14031000435352325 -0.2819199860095978 0.08610299974679947 0.48085999488830566 -1.5325000286102295 -0.24178999662399292 -0.5450999736785889 -0.12241999804973602 -0.034446001052856445 0.9095900058746338 0.10027000308036804 0.10582999885082245 0.2833400070667267 -0.09678500145673752 0.3994300067424774 0.10191000252962112 0.5964800119400024 0.3228699862957001 -0.18898999691009521 -0.09986499696969986 -0.08193500339984894 -0.2798900008201599 0.017030000686645508 -0.5446400046348572 -0.06499800086021423 -0.4723399877548218 0.2604599893093109 0.2994900047779083 0.3345000147819519 -0.020167000591754913 -0.04002099856734276 0.4260300099849701 0.3209800124168396 0.37926000356674194 -0.08049699664115906 0.004930799826979637 0.26335999369621277 0.5772299766540527 0.40347999334335327 -0.8423200249671936 -0.16245999932289124 0.3959699869155884 0.08285900205373764 -0.07562799751758575 0.24727000296115875 0.1268099993467331 -0.3455600142478943 -0.5051000118255615 -0.29043999314308167 -0.2624799907207489 -0.4129500091075897 0.6575800180435181 -0.14392000436782837 -0.26625001430511475 0.02583399973809719 0.2925899922847748 -0.2140599936246872 0.11392000317573547 0.22957000136375427 0.3446600139141083 -0.5674700140953064 0.07087299972772598 -0.3905999958515167 -0.249439999461174 0.6653299927711487 -0.026384999975562096 -0.5689499974250793 0.24859000742435455 0.6377400159835815 0.36632999777793884 0.5430300235748291 -0.19061000645160675 0.21371999382972717 1.919700026512146 -0.5063899755477905 0.0030799000523984432 -0.25764000415802 -0.5667200088500977 0.2537800073623657 -0.0007719200220890343 0.20702999830245972 0.4741699993610382 0.17247000336647034 0.4618299901485443 0.40817001461982727 -0.4090900123119354 0.3583199977874756 0.4188399910926819 0.3608900010585785 -0.07739099860191345 0.19446000456809998 -0.004559699911624193 -0.7202200293540955 -0.20531000196933746 -0.40516000986099243 -0.08865299820899963 -0.593720018863678 0.29089000821113586 0.507669985294342 -0.038353998214006424 -0.17270000278949738 -0.6593000292778015 0.26554998755455017 1.1655000448226929 -0.3009699881076813 0.14034999907016754 -0.06666400283575058 -0.35405999422073364 0.7027199864387512 0.4467799961566925 0.3480300009250641 -0.34297001361846924 -0.25964000821113586 -0.3630000054836273 0.044475000351667404 0.49178001284599304 0.5605400204658508 -0.7821099758148193 0.04869899898767471 0.6148399710655212 -0.590179979801178 -0.13606999814510345 0.00244490010663867 0.26236000657081604 -0.13118000328540802 0.5652300119400024 -0.7219899892807007 -0.2130099982023239 -0.34198999404907227 -0.6738399863243103 0.4567599892616272 0.13898000121116638 -0.15544000267982483 0.6984800100326538 0.1768999993801117 0.5361599922180176 0.22152000665664673 0.27849000692367554 -0.25512000918388367 -0.2327200025320053 -0.3088200092315674 -0.35635000467300415 0.43334001302719116 0.13022999465465546 -0.25268998742103577 -0.22548000514507294 0.4831799864768982 0.7483699917793274 -0.2154099941253662 -0.07335200160741806 -0.22116999328136444 1.0642999410629272 0.1563500016927719 -0.1298699975013733 -0.15086999535560608 0.04665900021791458 0.16535000503063202 -0.8258600234985352 0.04491500183939934 0.6065599918365479 0.3690199851989746 -0.05693700164556503 -0.3705199956893921 0.05973700061440468 0.5618000030517578 0.07288199663162231 -0.13169999420642853 -0.06544400006532669 -0.013069000095129013 0.18577000498771667 -0.23070000112056732 0.18142999708652496 0.5335800051689148 0.13163000345230103 0.1012599989771843 -0.1912499964237213 -0.04372600093483925 -0.2062000036239624 -0.03293300047516823 0.0881040021777153 0.05118599906563759 0.5305799841880798 0.8536800146102905 0.0867300033569336 0.09026499837636948 -0.15091000497341156 -0.3371799886226654 -0.028219999745488167 0.09004899859428406 0.4963200092315674 -0.5691499710083008 -0.35920000076293945 0.03731599822640419 -0.32308998703956604 -0.18226000666618347 0.12071000039577484 -0.4719499945640564 -0.1513800024986267 0.3181999921798706 0.6452299952507019 -0.05428599938750267 -0.23962999880313873 -0.6621599793434143 0.3549000024795532 0.2088100016117096 0.13729000091552734 0.35168999433517456 0.6979399919509888 0.46772000193595886 -0.28672000765800476 -0.1675799936056137 -0.7400500178337097 0.32798999547958374 -0.6794400215148926 -0.9084399938583374 -0.25637000799179077 0.23531000316143036 0.44530999660491943 0.0026444001123309135 0.1098100021481514 -0.34375 -0.8765900135040283 -0.4046199917793274 -0.1877100020647049 -0.47551000118255615 0.18957999348640442 0.1652500033378601 -0.42743000388145447 0.24049000442028046 0.38561999797821045 0.031943999230861664 -0.45080000162124634 0.1958400011062622 0.22290000319480896 -0.17563000321388245 0.03708000108599663 -0.17318999767303467 -0.03742099925875664 -0.2096399962902069 0.1635199934244156 0.19481000304222107 0.5534999966621399 -0.8204399943351746 -0.6582599878311157 -0.347790002822876 -0.3242399990558624 0.03853699937462807 -0.3709399998188019 -0.043379999697208405 0.23368999361991882 0.3163500130176544 -0.3187200129032135 -0.24111999571323395 0.20453999936580658 0.3353300094604492 -0.1714099943637848 0.630299985408783 -0.48824000358581543 0.7864400148391724 0.5367400050163269 0.3281500041484833 -0.13931000232696533 0.13359999656677246 0.3586899936199188 -0.11333999782800674 0.503600001335144 -0.25505000352859497 -0.7589600086212158 -0.5578399896621704 -0.2633900046348572 0.3888700008392334 -0.12987999618053436 0.3836899995803833 -0.11958999931812286 -0.1068200021982193 -1.0536999702453613 -0.41324999928474426 0.28619998693466187 -0.03267500177025795 -0.11986000090837479 -0.8135799765586853 0.20413999259471893 -0.4524799883365631 -0.2820500135421753 -0.14882999658584595 -0.34171000123023987 -0.12982000410556793
hakim -0.053964000195264816 0.04432300105690956 -0.1923999935388565 0.3425599932670593 0.293720006942749 -0.37250998616218567 0.24616000056266785 -0.8679100275039673 0.10384000092744827 -1.4534000158309937 0.3495199978351593 -0.32120001316070557 -0.04928399994969368 0.03923200070858002 -0.33862999081611633 0.43977001309394836 -0.009893699549138546 -0.9991300106048584 -0.23005999624729156 0.09466899931430817 0.133650004863739 -0.016011999920010567 0.5505399703979492 0.30375999212265015 0.4708400070667267 -0.4440099895000458 -0.399370014667511 0.3948400020599365 0.27305999398231506 0.1784600019454956 0.27717000246047974 -0.29517000913619995 -0.3405199944972992 0.28850001096725464 -0.015186999924480915 0.11027000099420547 -0.017520999535918236 0.22112999856472015 -0.09630200266838074 -0.38530001044273376 -0.26377999782562256 0.013047999702394009 0.17050999402999878 0.17921000719070435 0.21727000176906586 -0.01813100092113018 -0.18231000006198883 0.29848000407218933 0.00801829993724823 0.7061899900436401 0.10538999736309052 0.5382300019264221 -0.3684700131416321 0.5842599868774414 -0.3352699875831604 0.00919019989669323 0.25898000597953796 0.18991999328136444 -0.09907799959182739 0.02230600081384182 -0.3046700060367584 -0.004926399793475866 -0.04761900007724762 -0.2762700021266937 -0.1816300004720688 0.25036001205444336 0.16827000677585602 0.1472499966621399 0.3287400007247925 -0.060176998376846313 -0.11664000153541565 -0.17861999571323395 -0.5708799958229065 0.04600000008940697 0.05862899869680405 -0.412990003824234 0.11348000168800354 0.3094399869441986 0.03770200163125992 -0.06166300177574158 0.5011399984359741 0.1561499983072281 0.11101000010967255 0.24818000197410583 0.46020999550819397 -0.017167000100016594 0.9433199763298035 -0.5421800017356873 -0.20685000717639923 -0.4762200117111206 0.09188699722290039 -0.1214200034737587 -0.3578900098800659 -0.25071001052856445 0.28960999846458435 0.3185200095176697 0.32708999514579773 0.0449259988963604 -0.6396099925041199 -0.2583700120449066 0.22713999450206757 -0.05634099990129471 -0.02537900023162365 0.6132599711418152 0.6629599928855896 -1.3055000305175781 0.5930299758911133 -0.7067300081253052 0.2229200005531311 -0.277539998292923 0.1383100003004074 0.2878299951553345 -0.19033999741077423 0.08532600104808807 -0.3672800064086914 0.23549999296665192 0.38637998700141907 0.049539998173713684 0.26041001081466675 0.042100999504327774 0.17207999527454376 0.367220014333725 0.2469400018453598 0.792639970779419 0.8814799785614014 0.1674100011587143 0.33226001262664795 -0.28744998574256897 -0.04355999827384949 0.28227001428604126 -0.592270016670227 -0.4147999882698059 0.3148699998855591 0.05409900099039078 0.009569600224494934 -0.30924999713897705 -0.06788100302219391 -0.03857700154185295 0.3150799870491028 0.258109986782074 -0.07508700340986252 0.6002399921417236 0.016777999699115753 -0.3777100145816803 -0.15298999845981598 0.0454460009932518 1.156999945640564 0.4586299955844879 -0.45083001255989075 0.09768100082874298 -0.1129399985074997 -0.6456699967384338 0.1265999972820282 -0.016870999708771706 0.7297499775886536 0.05390800163149834 -0.05375500023365021 -0.41863998770713806 -0.29107001423835754 0.1509999930858612 0.32253000140190125 -0.3314000070095062 -0.048253998160362244 0.2088399976491928 0.6181300282478333 -0.5853800177574158 0.07991299778223038 -0.126910001039505 -0.0665929988026619 0.07387900352478027 -0.1644199937582016 0.18087999522686005 0.01718899980187416 0.259880006313324 -0.13888999819755554 -0.47861000895500183 0.42405998706817627 -0.4663200080394745 -0.23295000195503235 -0.2761099934577942 -0.10905999690294266 -0.29128000140190125 0.026642000302672386 0.3157399892807007 -0.39111000299453735 -0.055698998272418976 0.30316999554634094 -0.05074699968099594 0.5758699774742126 -0.05324700102210045 -0.4529399871826172 -0.3667699992656708 0.26350000500679016 -0.00020060999668203294 0.13470999896526337 0.7166799902915955 0.34567999839782715 -0.08416800200939178 0.12804999947547913 -0.11992000043392181 0.021581999957561493 0.19368000328540802 0.004794999957084656 -0.37689998745918274 0.060545001178979874 0.0963520035147667 0.06741499900817871 0.1743600070476532 -0.39524999260902405 0.42478999495506287 -0.2747200131416321 0.24887000024318695 -0.39326000213623047 0.05125400051474571 -0.6541000008583069 -1.035099983215332 -0.3320600092411041 0.14893999695777893 0.11337000131607056 0.4203000068664551 -0.25352999567985535 0.12396000325679779 0.027406999841332436 -0.13242000341415405 -0.17106999456882477 0.17479999363422394 -0.2941800057888031 0.48949000239372253 -0.38082998991012573 -0.12921999394893646 0.11604999750852585 0.24666999280452728 0.34567001461982727 0.11270999908447266 -0.2810400128364563 0.4190399944782257 -0.01732099987566471 0.7442600131034851 0.35833001136779785 -0.014074999839067459 -0.3941900134086609 0.9068300127983093 -0.26919999718666077 -0.22931000590324402 -0.254940003156662 0.011842000298202038 0.37470999360084534 0.37953999638557434 -0.36699000000953674 -0.3832699954509735 0.024442000314593315 -0.029330000281333923 -0.4344500005245209 -0.01705699972808361 0.9227499961853027 -0.5589399933815002 0.216839998960495 -0.2894900143146515 -0.6286600232124329 0.06135899946093559 -0.335970014333725 -0.13585999608039856 0.14544999599456787 -0.013128000311553478 -0.18574999272823334 -0.4275200068950653 0.6237999796867371 -0.35945001244544983 -0.35725998878479004 0.4449099898338318 0.25213998556137085 0.20298999547958374 -0.3308500051498413 0.3168199956417084 0.20027999579906464 -0.21392999589443207 0.4291999936103821 -0.3521200120449066 -0.064580999314785 0.0925230011343956 -0.015277000144124031 -0.334989994764328 -0.5890899896621704 0.15961000323295593 -0.6285799741744995 -0.12525999546051025 0.22578999400138855 -0.017077000811696053 -0.4786800146102905 0.21517999470233917 0.6119400262832642 -0.07657299935817719 -0.3858799934387207 -0.2697199881076813 1.113800048828125 -0.42952999472618103 0.12353000044822693 0.20090000331401825 -0.19187000393867493 -0.15185999870300293
bagpipe 0.3675000071525574 0.6832699775695801 0.025570999830961227 0.2290399968624115 0.5141299962997437 -1.1267000436782837 0.623989999294281 0.05737999826669693 -0.44405999779701233 -0.18386000394821167 -0.12442000210285187 0.4359099864959717 0.6066799759864807 0.14785000681877136 -0.15237000584602356 0.12261000275611877 0.06336499750614166 -0.7527099847793579 -0.34132999181747437 0.004381699953228235 0.21458999812602997 -0.03474299982190132 -0.3317599892616272 0.634090006351471 0.07617200165987015 0.7494400143623352 -0.696619987487793 0.3059299886226654 0.5568400025367737 0.243149995803833 0.4827300012111664 0.0845630019903183 -0.7080699801445007 0.5436300039291382 0.31226998567581177 0.0624379999935627 -0.1527400016784668 0.2840900123119354 0.9324300289154053 -0.17231999337673187 0.062380000948905945 0.32354000210762024 0.6382499933242798 0.2596000134944916 0.7766299843788147 0.11958000063896179 0.33924001455307007 0.46494001150131226 0.15625 0.4625900089740753 -0.2473199963569641 -0.03086799941956997 -0.4061200022697449 0.6123800277709961 0.2468400001525879 0.1424500048160553 0.8802400231361389 -0.26892998814582825 -0.6001799702644348 -0.10429000109434128 -0.34848999977111816 -0.40935999155044556 -0.10627000033855438 0.2278899997472763 -0.4180000126361847 -0.12490999698638916 0.36948999762535095 0.7010700106620789 0.07877899706363678 0.07351800054311752 -0.35030999779701233 0.5313900113105774 0.5710200071334839 -0.23557999730110168 0.15108999609947205 -0.24477000534534454 0.016540000215172768 0.8398699760437012 -0.537310004234314 -0.2297399938106537 0.3740600049495697 -0.20870999991893768 0.05542299896478653 0.12958000600337982 -0.15661999583244324 0.6090800166130066 0.506380021572113 -0.15014000236988068 -0.22652000188827515 0.120899997651577 -0.718529999256134 0.2353699952363968 -0.27522000670433044 0.4022200107574463 0.13967999815940857 -0.3012700080871582 0.6097000241279602 0.04941000044345856 0.07346300035715103 -0.47714999318122864 -1.0947999954223633 -0.7038999795913696 0.6574900150299072 1.2532000541687012 -0.4004899859428406 -1.3964999914169312 -0.05514499917626381 0.20950999855995178 0.11151999980211258 -0.5012199878692627 0.41863998770713806 0.21157999336719513 -0.4113900065422058 0.36616000533103943 0.043977998197078705 0.3160000145435333 0.7705199718475342 0.6421099901199341 -0.07873900234699249 -0.14736999571323395 0.6272500157356262 -0.3323400020599365 0.17504000663757324 0.2900199890136719 -0.5756800174713135 0.06882800161838531 0.041342999786138535 0.14302000403404236 0.2826699912548065 -0.10790000110864639 0.11259999871253967 -0.418940007686615 0.2705000042915344 0.26291000843048096 -0.10153999924659729 -0.2903299927711487 0.05217599868774414 0.11308000236749649 0.7841500043869019 -0.296999990940094 -1.1531000137329102 0.20276999473571777 -0.2322700023651123 -0.24324999749660492 0.019362999126315117 0.3700700104236603 0.37490999698638916 -0.0895489975810051 0.009576999582350254 -0.041728001087903976 -0.17260000109672546 0.11873000115156174 -0.31450000405311584 0.10075999796390533 0.22404000163078308 -0.21299000084400177 0.591189980506897 -0.26287999749183655 0.4210200011730194 -0.21794000267982483 0.44279998540878296 0.5421500205993652 0.001868800027295947 0.22980999946594238 0.5634899735450745 -0.14240999519824982 -0.19482000172138214 -0.15205000340938568 -0.7844600081443787 -0.14618000388145447 -0.26715999841690063 0.6567599773406982 -0.05334300175309181 0.7123900055885315 -0.13350999355316162 -0.15051999688148499 0.05339900031685829 0.057548001408576965 -0.20506000518798828 0.3471899926662445 -0.3546299934387207 -0.026813000440597534 0.6780200004577637 0.04659000039100647 -0.35874998569488525 -0.17125000059604645 -0.3128199875354767 -0.02862199954688549 -0.0450190007686615 -0.09579599648714066 -0.7234200239181519 0.36423999071121216 0.11045999825000763 -0.4968999922275543 0.16936999559402466 -0.07336399704217911 -0.3764500021934509 0.4936699867248535 -0.08619700372219086 -0.32117998600006104 -0.03112800046801567 0.5574600100517273 0.13436000049114227 0.5719599723815918 0.19352999329566956 -0.29554998874664307 0.11439000070095062 -0.463809996843338 0.2411700040102005 -0.057068999856710434 -0.13898999989032745 0.7850000262260437 0.07754100114107132 0.3404200077056885 -0.4494999945163727 0.7194399833679199 0.13102999329566956 0.06755200028419495 0.18573999404907227 -0.29559001326560974 -0.32548999786376953 -0.22401000559329987 0.32791000604629517 -0.2902899980545044 -0.4108799993991852 0.3769400119781494 -0.3673200011253357 0.36517998576164246 -0.22222000360488892 -0.00583200016990304 0.43226000666618347 -0.305649995803833 -0.37650999426841736 -0.539929986000061 0.48827001452445984 0.13537000119686127 -0.27177000045776367 0.10598000138998032 0.3290500044822693 -0.5407099723815918 -0.1639000028371811 0.19137999415397644 0.12346000224351883 -1.1830999851226807 -0.17833000421524048 0.8525999784469604 -0.05766800045967102 -0.11281999945640564 0.23996999859809875 -0.8034999966621399 0.16392000019550323 -0.1651100069284439 0.40424999594688416 0.48636001348495483 0.18747000396251678 -0.7092999815940857 0.5252900123596191 -0.18289999663829803 0.37206000089645386 0.17128999531269073 0.48587000370025635 -0.09002000093460083 -0.4036499857902527 -0.7239999771118164 0.06145700067281723 0.5494099855422974 -0.39489999413490295 -0.28685998916625977 0.2536099851131439 0.5031200051307678 -0.6777799725532532 -0.12156999856233597 0.5031599998474121 -0.20906999707221985 -0.2553600072860718 0.4022800028324127 -0.023618999868631363 -0.48969998955726624 0.6084700226783752 -0.6057900190353394 -0.029526999220252037 0.27448999881744385 -0.15997999906539917 0.03922700136899948 -0.23319999873638153 0.09526699781417847 -0.07818499952554703 -0.03415599837899208 0.3290500044822693 -0.41826000809669495 0.17122000455856323 -0.6742100119590759 0.4027099907398224 -0.2656500041484833 0.18559999763965607 0.8017200231552124 -0.06103599816560745 0.3781000077724457 0.11449000239372253 0.322160005569458
leroy -0.5180699825286865 0.3161099851131439 -0.29662999510765076 -0.02115499973297119 0.06917600333690643 0.13343000411987305 0.4526900053024292 -0.3388400077819824 -0.13029000163078308 -0.7960500121116638 -0.11569000035524368 -0.8801299929618835 0.6729599833488464 -0.2523899972438812 -0.27803999185562134 -0.10372000187635422 0.03341199830174446 -0.6523000001907349 0.1913899928331375 -0.5679799914360046 0.26493000984191895 0.03359000012278557 -0.0294560007750988 -0.006273800041526556 0.1142600029706955 -0.05203799903392792 -0.5246400237083435 0.20528000593185425 0.010551000013947487 0.2845500111579895 0.022019000723958015 -0.06048800051212311 0.4249100089073181 -0.23463000357151031 -0.36684998869895935 -0.34391000866889954 -0.49028000235557556 0.264490008354187 -0.25382000207901 0.48903998732566833 -0.3855000138282776 -0.1010499969124794 0.1257299929857254 0.1381399929523468 0.04977700114250183 -0.134210005402565 0.18374000489711761 -0.540440022945404 0.45458000898361206 0.07973399758338928 0.4667600095272064 0.023087000474333763 -0.1855500042438507 0.40031999349594116 0.17271000146865845 0.23181000351905823 -0.01592100039124489 0.23120999336242676 0.6660000085830688 -0.20270000398159027 -0.30171999335289 0.17027999460697174 0.0251499991863966 0.06390699744224548 0.39024999737739563 -0.06859499961137772 -0.23878000676631927 0.6393300294876099 0.42961999773979187 -0.36406999826431274 0.5430600047111511 -0.2587999999523163 -0.1314699947834015 -0.36601001024246216 0.0016351999947801232 -0.2492000013589859 -0.19810999929904938 0.11349999904632568 0.121799997985363 -0.1651799976825714 0.15275999903678894 0.35756000876426697 0.5922600030899048 0.32284000515937805 -0.6180099844932556 -0.34683001041412354 1.5052000284194946 -0.38951000571250916 -0.5720000267028809 -0.2044299989938736 -0.4477599859237671 -0.0017438000068068504 -0.3808700144290924 -0.4744400084018707 0.46448999643325806 -0.033622998744249344 0.19117000699043274 0.18526999652385712 -0.6116600036621094 -0.13586999475955963 -0.07655099779367447 0.19690999388694763 0.1730400025844574 0.151869997382164 -0.4624300003051758 -0.5077000260353088 0.06593699753284454 -0.19128000736236572 -0.5956400036811829 -0.35815998911857605 0.0013849999522790313 0.33548998832702637 0.030202999711036682 -0.574970006942749 -0.28400999307632446 0.22428999841213226 0.7041900157928467 0.20512999594211578 0.5484899878501892 0.10606999695301056 0.21589000523090363 0.12737999856472015 0.3280799984931946 0.48148998618125916 -0.3201099932193756 -0.46173998713493347 -0.02942899987101555 0.03686099871993065 0.07469300180673599 0.32433998584747314 0.08704300224781036 0.057186998426914215 0.5714399814605713 -0.5051299929618835 -0.534089982509613 0.16960999369621277 -0.6114000082015991 -0.04380299896001816 -0.49792999029159546 0.009658699855208397 -1.1024999618530273 0.3612399995326996 -0.6021999716758728 0.3110499978065491 -0.10723999887704849 0.21145999431610107 0.8672199845314026 0.47464999556541443 -0.010084000416100025 -0.14959000051021576 0.20410999655723572 -0.12599000334739685 -0.6986500024795532 -0.33730000257492065 0.4265100061893463 -0.030642999336123466 0.026653999462723732 -0.4700799882411957 0.2085999995470047 0.20434999465942383 0.18967999517917633 0.19898000359535217 0.006385500077158213 0.2112399935722351 0.7739899754524231 0.18577000498771667 0.2484399974346161 0.016248000785708427 0.10362999886274338 -0.27044999599456787 0.25968998670578003 0.595990002155304 0.20253999531269073 -0.17323000729084015 -0.7920600175857544 -0.2359199970960617 0.011869999580085278 0.18427999317646027 0.01448800042271614 0.6198099851608276 0.11771000176668167 0.22276000678539276 -0.001832999987527728 -0.04603099822998047 0.12268999963998795 -0.058678001165390015 0.3422200083732605 -0.07963699847459793 -0.3656100034713745 -0.46417999267578125 -0.1440799981355667 -0.7074000239372253 0.5484499931335449 -0.05069499835371971 0.2932800054550171 1.1014000177383423 0.1702200025320053 -0.1451600044965744 0.24786999821662903 -0.24966000020503998 0.2615100145339966 0.09898799657821655 -0.25725001096725464 -0.06284300237894058 -0.29986000061035156 -0.2517299950122833 -0.08843500167131424 -0.4487000107765198 -0.06635099649429321 0.22944000363349915 0.017883000895380974 0.31488001346588135 0.2583799958229065 0.27682000398635864 -0.13866999745368958 -0.014573999680578709 -0.08485099673271179 0.10465999692678452 0.24354000389575958 0.5092800259590149 -0.09529600292444229 0.038005001842975616 0.5763000249862671 -0.6040999889373779 -0.3283500075340271 -0.44223999977111816 -0.10152000188827515 -0.2118699997663498 -0.07272499799728394 -0.23201000690460205 -0.5029600262641907 0.21401000022888184 0.24130000174045563 -0.2654300034046173 -0.3656199872493744 -0.38324999809265137 -0.2933200001716614 0.05097699910402298 -0.3206300139427185 -0.3631899952888489 0.32530999183654785 -0.24762000143527985 0.10683000087738037 -0.2528800070285797 -0.5440099835395813 0.024607999250292778 -0.5256900191307068 0.2949199974536896 -0.1331299990415573 -0.832319974899292 0.13113999366760254 -0.27790001034736633 -0.22067999839782715 0.586430013179779 0.005056099966168404 -0.6247299909591675 0.3062500059604645 -0.6473299860954285 -0.2191299945116043 -0.06571199744939804 0.09817200154066086 -0.23433999717235565 0.058694999665021896 0.48037999868392944 -0.3224000036716461 -0.24580000340938568 0.386680006980896 -0.2653299868106842 -0.8299400210380554 0.3556300103664398 -0.30101001262664795 -0.20330999791622162 0.5897200107574463 0.006354399956762791 0.35607001185417175 -0.19731999933719635 0.331030011177063 -0.6452900171279907 0.16132999956607819 -0.3694100081920624 -0.6786699891090393 -0.4994199872016907 -0.63850998878479 0.16439999639987946 0.4311800003051758 0.24640999734401703 0.09830199927091599 0.005370799917727709 -0.27222999930381775 -0.08511199802160263 0.2801100015640259 -0.23884999752044678 -0.199630007147789 -0.3948499858379364 0.5191799998283386 0.41784000396728516 0.27140000462532043 -0.07655099779367447 -0.3080599904060364 0.21080000698566437
rifle 0.16107000410556793 -0.008615500293672085 -0.2410999983549118 -0.13797999918460846 -0.44828999042510986 -1.1517000198364258 -0.00818649958819151 0.26155000925064087 -0.27722999453544617 1.1706000566482544 -0.3400000035762787 -0.3416999876499176 0.1649399995803833 -0.10673999786376953 -0.23830999433994293 -0.04341999813914299 -0.06994500011205673 1.1655999422073364 -0.3603000044822693 0.22829000651836395 0.7202900052070618 -0.6210899949073792 0.5611500144004822 -0.7075700163841248 -0.06469699740409851 0.2599000036716461 -0.6887900233268738 0.12661999464035034 -0.486380010843277 -0.008399499580264091 -0.03140699863433838 0.20714999735355377 0.06275700032711029 0.7460100054740906 0.11885000020265579 -0.35842999815940857 1.0506999492645264 -0.21411000192165375 0.5027199983596802 -0.3175399899482727 0.09276799857616425 0.01361900009214878 0.15963999927043915 -0.5888000130653381 0.7722100019454956 0.4980599880218506 0.11285000294446945 0.12122999876737595 -0.027605999261140823 0.6262000203132629 0.24357999861240387 0.14854000508785248 -0.9485999941825867 0.6885300278663635 -0.48761001229286194 -0.5191799998283386 0.15500999987125397 -0.2953000068664551 -0.24467000365257263 0.15473000705242157 -0.25023001432418823 -0.04939400032162666 0.3078100085258484 0.2543100118637085 0.05194399878382683 -0.5250099897384644 0.2096100002527237 -0.22115999460220337 -0.032510001212358475 -0.05734400078654289 -0.24955999851226807 -0.7460500001907349 0.06862799823284149 0.7985100150108337 0.1511099934577942 0.1960200071334839 0.3964099884033203 -0.8236500024795532 -0.5352299809455872 0.7818700075149536 -0.8088799715042114 -0.6022199988365173 0.41517001390457153 0.5569400191307068 1.0978000164031982 0.5173500180244446 0.6989799737930298 0.26568999886512756 0.8077300190925598 -0.052646998316049576 0.28227001428604126 0.19699999690055847 -0.13102999329566956 -1.0205999612808228 -0.1057400032877922 -0.1405699998140335 0.509850025177002 -0.09471999853849411 0.0035220999270677567 0.25821998715400696 -0.31867000460624695 0.5830199718475342 0.1667799949645996 0.4203000068664551 -0.2040099948644638 -1.1207000017166138 0.17944000661373138 0.3133299946784973 0.37860000133514404 -0.5834199786186218 0.4596500098705292 0.006605700124055147 -0.19473999738693237 -0.21309000253677368 -0.15459999442100525 0.5051100254058838 1.0023000240325928 -0.2913399934768677 0.059046000242233276 -0.25850000977516174 0.33013999462127686 -0.21191999316215515 0.4534299969673157 0.1608400046825409 -0.2727400064468384 -0.13515999913215637 -0.1325400024652481 -0.04614099860191345 -0.3233799934387207 -0.16621999442577362 0.3948900103569031 -0.017629999667406082 -0.2473199963569641 0.010455000214278698 0.1076899990439415 -0.41290000081062317 0.3078500032424927 0.25641000270843506 0.5414900183677673 0.2757999897003174 -1.6589000225067139 0.09627699851989746 -0.05353900045156479 -0.3548299968242645 0.6420900225639343 0.282150000333786 0.3621099889278412 -0.5141900181770325 0.5397499799728394 -0.18151000142097473 -0.06088799983263016 -0.018650000914931297 -0.06964699923992157 0.14167000353336334 -0.6864299774169922 0.19187000393867493 -0.5440700054168701 -0.015305999666452408 0.37233999371528625 -0.08534900099039078 -0.12869000434875488 -0.2537899911403656 0.33535000681877136 0.3499799966812134 -0.07622899860143661 0.12144999951124191 -0.5770699977874756 -0.3151099979877472 0.5080699920654297 -0.1285499930381775 0.3255600035190582 -0.25099998712539673 -0.52360999584198 -0.07847899943590164 -0.23273000121116638 -0.6117600202560425 -0.14475999772548676 0.06663399934768677 0.16721999645233154 0.42048999667167664 -0.10339999943971634 -0.20463000237941742 -0.3719100058078766 0.444350004196167 -0.16487999260425568 -0.0166849996894598 -0.189970001578331 -0.014418999664485455 0.43029001355171204 0.6295700073242188 0.13439999520778656 0.04309900104999542 0.5093799829483032 0.0850680023431778 0.18282000720500946 0.24782000482082367 -0.576259970664978 -0.5269200205802917 -0.20487000048160553 -0.8982700109481812 0.11264000087976456 -0.22258999943733215 0.16106000542640686 0.6286399960517883 -0.49143001437187195 0.2968299984931946 0.16878999769687653 -0.22790999710559845 -0.3158699870109558 -0.04092299938201904 0.1552799940109253 0.5253099799156189 -0.18015000224113464 0.2439900040626526 0.7158399820327759 -0.4071199893951416 -0.6529600024223328 0.5996800065040588 -0.09722500294446945 0.12313000112771988 0.7134600281715393 0.17745999991893768 0.5940499901771545 0.5964599847793579 0.27505001425743103 -0.20291000604629517 0.7617800235748291 0.6503099799156189 0.45792001485824585 0.9783599972724915 -0.24865999817848206 -0.44225001335144043 -0.05484899878501892 -0.7384899854660034 0.32003000378608704 -0.19142000377178192 0.14256000518798828 0.18890999257564545 -0.051389001309871674 0.18831999599933624 -0.8829500079154968 0.25 0.21077999472618103 -0.18187999725341797 0.13012999296188354 0.9836300015449524 -0.013779999688267708 -0.17815999686717987 0.2526699900627136 -0.14664000272750854 0.12173999845981598 -0.06171200051903725 -0.4959000051021576 0.0344570018351078 0.02699499949812889 0.27437999844551086 0.2178799957036972 0.863319993019104 -0.6395000219345093 0.35899001359939575 -0.9122599959373474 0.14337000250816345 0.38183000683784485 -0.3628099858760834 -0.12380000203847885 0.7921900153160095 0.19077999889850616 -0.08934400230646133 -0.5961300134658813 0.553849995136261 1.0240000486373901 -0.2974900007247925 0.2560499906539917 0.1130400002002716 0.6256600022315979 0.685949981212616 0.3496600091457367 -0.5664600133895874 -0.06147800013422966 -0.7377099990844727 -0.2525700032711029 0.18529999256134033 -0.4711099863052368 -0.488970011472702 0.32975998520851135 -0.5564000010490417 -0.23952999711036682 0.06472200155258179 0.04100099951028824 0.13586999475955963 0.1378600001335144 -0.5361999869346619 -0.4134500026702881 0.4353800117969513 0.5548999905586243 -0.10719999670982361 -0.6973900198936462 -0.4223099946975708 -0.5404499769210815 0.6960800290107727
honor 0.052257999777793884 -0.1157199963927269 0.3314400017261505 0.19994999468326569 0.1736699938774109 -0.4414199888706207 0.46143001317977905 0.23649999499320984 -0.14204999804496765 3.1631999015808105 0.09502699971199036 -0.16737000644207 0.10290999710559845 0.33678001165390015 -0.0819230005145073 0.004041200038045645 0.0960640013217926 0.1303499937057495 -0.2959499955177307 0.4663600027561188 0.06909599900245667 -0.47800999879837036 -0.09015499800443649 0.19121000170707703 0.033027999103069305 -0.009977499954402447 -0.3890799880027771 -0.2507300078868866 -0.32638001441955566 0.7271400094032288 0.5149099826812744 -0.022168999537825584 -0.34191998839378357 0.5906999707221985 -0.37108999490737915 -0.14139999449253082 0.01968800090253353 -0.30869001150131226 0.20124000310897827 0.519819974899292 -0.060770999640226364 0.2602500021457672 0.5795000195503235 0.04369200021028519 0.722350001335144 -0.1682800054550171 -0.10409999638795853 0.30008000135421753 -0.16833999752998352 -0.1879899948835373 -0.1746699959039688 0.002117200056090951 0.03407299891114235 0.16874000430107117 0.2662999927997589 0.0839809998869896 0.0417729988694191 0.34929001331329346 -0.48361000418663025 0.19540999829769135 0.0808430016040802 0.0010778000578284264 0.2884100079536438 0.021250000223517418 0.25018998980522156 0.020399000495672226 0.3835900127887726 -0.4396499991416931 0.24842000007629395 -0.09801000356674194 -0.05588100105524063 0.0009550799732096493 -0.3279699981212616 -0.2658799886703491 0.15413999557495117 0.34863001108169556 0.3402000069618225 0.25422999262809753 -0.1478700041770935 -0.024153999984264374 -0.3956800103187561 0.5382500290870667 -0.07511299848556519 0.09404700249433517 -0.21769000589847565 -0.474590003490448 -0.433789998292923 -0.16548000276088715 -0.28600001335144043 -0.2782500088214874 -0.350849986076355 0.06449899822473526 0.16783000528812408 0.14271999895572662 -0.2722100019454956 0.06259699910879135 -0.16482000052928925 -0.41958001255989075 0.6721299886703491 0.23684999346733093 -0.23551000654697418 0.121799997985363 0.12515999376773834 0.21991999447345734 -0.1428299993276596 0.08862599730491638 0.07060699909925461 0.6385899782180786 0.26916998624801636 -0.38962000608444214 -0.09177800267934799 0.30849000811576843 0.3326700031757355 0.2569200098514557 0.20608000457286835 0.2219499945640564 -0.17511999607086182 -0.09087099879980087 -0.26680999994277954 -0.056001000106334686 0.2522299885749817 -0.019492000341415405 0.1589599996805191 0.977840006351471 0.3093299865722656 -0.1971299946308136 0.33285000920295715 0.1334799975156784 0.01549299992620945 -0.28044000267982483 -0.17528000473976135 0.41907998919487 -0.3727400004863739 -0.14113999903202057 -0.41027000546455383 -0.46417000889778137 -0.018561000004410744 0.11405999958515167 0.5878199934959412 0.26431000232696533 -1.0913000106811523 0.3703100085258484 0.05266699939966202 0.42886000871658325 0.07392500340938568 0.28044000267982483 0.3297100067138672 0.14693999290466309 -0.37303000688552856 0.010243999771773815 -0.6120700240135193 0.27702000737190247 0.44870999455451965 0.30810999870300293 -0.17395000159740448 -0.017399000003933907 -0.13439999520778656 -0.2500799894332886 0.09941600263118744 -0.002251700032502413 0.032003000378608704 0.1835400015115738 -0.19357000291347504 0.17264999449253082 -0.000272019999101758 -0.4609200060367584 -0.039556000381708145 0.14090999960899353 0.22363999485969543 0.008683600462973118 0.09492599964141846 0.11935000121593475 0.9516599774360657 -0.04338899999856949 0.09333399683237076 0.08761899918317795 -0.2724300026893616 -0.1979299932718277 -0.3492499887943268 0.13414999842643738 0.0325700007379055 0.06192599982023239 0.1279599964618683 -0.023823000490665436 -0.13545000553131104 0.04759800061583519 -0.19208000600337982 -0.32927998900413513 -0.1468999981880188 0.41071000695228577 -0.29131001234054565 -0.06101100146770477 -0.4969800114631653 -0.7704499959945679 0.625789999961853 0.41773998737335205 0.07043399661779404 -0.2746399939060211 0.31894999742507935 0.4099000096321106 0.16360999643802643 -0.029704000800848007 -0.26225998997688293 0.10379999876022339 -0.1294800043106079 -0.07099699974060059 0.18618999421596527 0.11298999935388565 0.12110999971628189 -0.1677599996328354 -0.01193699985742569 0.7476999759674072 -0.26162999868392944 0.01582000032067299 0.0027002000715583563 0.644070029258728 0.14788000285625458 -0.7293099761009216 -0.0385419987142086 0.3255099952220917 -0.24480000138282776 -0.10023999959230423 -0.2657800018787384 -0.20855000615119934 0.4393399953842163 -0.07689700275659561 0.5438699722290039 -0.3481000065803528 -0.33792999386787415 0.3401400148868561 -0.3993400037288666 -0.11873999983072281 -0.35826998949050903 0.03075999952852726 -0.6201800107955933 -0.015567000024020672 -0.13450999557971954 0.5724300146102905 -0.059094998985528946 0.15525999665260315 -0.014113999903202057 -0.3995000123977661 0.23624999821186066 -0.1186399981379509 0.5908899903297424 -0.13327999413013458 -0.2517699897289276 -0.4220600128173828 0.26350998878479004 -0.3372200131416321 0.06715700030326843 0.5729100108146667 -0.5487599968910217 -0.08563599735498428 -0.49803999066352844 -0.0013023000210523605 0.11231999844312668 0.02674500085413456 -0.08476100116968155 0.043487999588251114 -0.10995999723672867 0.24617999792099 -0.4593200087547302 0.32886001467704773 -1.0085999965667725 -0.0629040002822876 0.3693999946117401 -0.10988999903202057 -0.2510800063610077 0.4002299904823303 -0.1667100042104721 -0.17919999361038208 0.20440000295639038 0.3265500068664551 0.1713400036096573 0.26600000262260437 -0.244609996676445 0.003095699939876795 0.1982399970293045 0.15025000274181366 -0.370959997177124 0.1289999932050705 0.09525399655103683 -0.330130010843277 -0.4015499949455261 -0.16880999505519867 -0.05986599996685982 -0.4722200036048889 0.01190400030463934 0.3790999948978424 -0.25679999589920044 -0.17609000205993652 -0.20722000300884247 -0.0846249982714653 -0.1637900024652481 -0.4531799852848053 0.1814900040626526 0.34042999148368835 0.0318400003015995 -0.21533000469207764
caterpillar 0.3517700135707855 0.6870399713516235 0.0605739988386631 -0.5510600209236145 0.3776499927043915 0.7266299724578857 -0.4988099932670593 0.03888300061225891 0.3437899947166443 -0.24632999300956726 -0.32666999101638794 -0.7137399911880493 -0.5229099988937378 -0.06817200034856796 -0.2890700101852417 0.5990200042724609 -0.6303499937057495 0.5246899724006653 -0.07871299982070923 -0.07112400233745575 0.4020499885082245 -0.1602800041437149 -0.7979099750518799 0.6573899984359741 -0.27897998690605164 0.40158000588417053 -0.35258999466896057 -0.025049999356269836 0.60589998960495 0.38561999797821045 -0.6706699728965759 -0.5622199773788452 -0.34926000237464905 0.36645999550819397 -0.18741999566555023 0.44064000248908997 0.8553599715232849 0.7232599854469299 -0.19267000257968903 -0.19051000475883484 -0.08381099998950958 -0.02192699909210205 -0.7780200242996216 0.3391900062561035 0.6325100064277649 -0.24518999457359314 -0.17114000022411346 0.6304100155830383 0.08882399648427963 -0.4563499987125397 -0.3656100034713745 -0.5173599720001221 0.2467299997806549 -0.1279599964618683 0.05998200178146362 -0.6562299728393555 -0.733460009098053 0.12323000282049179 -0.25571998953819275 0.023881999775767326 -0.23765000700950623 0.5496600270271301 -0.02558100037276745 -0.1830500066280365 1.0609999895095825 -0.41242000460624695 -0.35141998529434204 0.12870000302791595 -0.09431000053882599 -0.20332999527454376 -0.7951899766921997 0.010351000353693962 -0.27592000365257263 -0.1443600058555603 -0.1900400072336197 0.006868000142276287 -0.19312000274658203 0.02026900090277195 0.4575499892234802 -0.35106998682022095 0.6205700039863586 0.16447000205516815 0.25255998969078064 -0.002105399966239929 0.591949999332428 -0.2865400016307831 1.363800048828125 0.25727999210357666 -0.328139990568161 0.8119699954986572 0.06580299884080887 0.5482500195503235 0.06907500326633453 -0.20318999886512756 0.009600300341844559 0.3521299958229065 -0.41244998574256897 -0.523580014705658 0.2572300136089325 0.07135599851608276 -0.257860004901886 0.5577999949455261 0.5898100137710571 0.22316999733448029 -0.94896000623703 -1.4292000532150269 0.2054699957370758 0.035291001200675964 -0.09178300201892853 0.21209000051021576 -0.28769001364707947 -0.2894800007343292 -0.031021999195218086 -0.5846999883651733 -0.009465199895203114 -0.6159399747848511 -0.17776000499725342 -0.2928600013256073 0.31509000062942505 -0.684719979763031 -0.5749499797821045 -0.08736100047826767 0.8561400175094604 -0.6952099800109863 -0.9111999869346619 0.30048999190330505 0.9006999731063843 -0.1279599964618683 -0.009199700318276882 0.2837199866771698 0.08810800313949585 -1.033400058746338 -0.13993999361991882 -0.08225200325250626 0.1836400032043457 0.0549280010163784 0.127360001206398 0.5080400109291077 -0.2372100055217743 -0.20834000408649445 -1.3974000215530396 -0.3497900068759918 -0.07136599719524384 0.4765099883079529 -0.3566800057888031 -0.675819993019104 0.0537710003554821 -0.18877999484539032 0.34097999334335327 -0.2448900043964386 -0.46397000551223755 -0.3589800000190735 -0.0046513997949659824 -0.10261999815702438 0.1726900041103363 -0.2708199918270111 0.23836000263690948 -0.3591200113296509 0.02824700064957142 -0.025505000725388527 -0.3023900091648102 -0.1038300022482872 0.049952998757362366 0.04841800034046173 0.3028799891471863 0.45006000995635986 -0.21513999998569489 -0.2520799934864044 0.17928999662399292 0.13338999450206757 -0.17319999635219574 0.14422999322414398 -0.38291001319885254 0.3817799985408783 -0.5659499764442444 -0.2500399947166443 0.722350001335144 0.19199000298976898 0.3271099925041199 1.1114000082015991 -0.19943000376224518 0.3776000142097473 0.33423998951911926 -0.44359999895095825 -0.42026999592781067 -0.028505999594926834 -0.3159700036048889 0.21726000308990479 -0.1137000024318695 0.256989985704422 -0.4774700105190277 0.5055099725723267 0.1112700030207634 -0.03599099814891815 -0.050237998366355896 -0.1869799941778183 0.4031200110912323 0.2533299922943115 -0.03703700006008148 -0.7570899724960327 0.28850001096725464 0.05550200119614601 -0.749779999256134 -0.10975000262260437 -0.0517829991877079 -0.27469998598098755 0.7045900225639343 -0.0426269993185997 -0.0673379972577095 -0.48447999358177185 0.44846999645233154 0.3760400116443634 0.2803899943828583 -0.3016600012779236 0.2692500054836273 0.06112299859523773 -0.33649998903274536 0.016127999871969223 -0.15042999386787415 -0.43004998564720154 0.6571599841117859 -0.46180999279022217 1.0527000427246094 0.16033999621868134 0.4629000127315521 0.24255000054836273 -0.0999469980597496 0.6472200155258179 0.06383299827575684 0.06140600144863129 -0.26444000005722046 -0.04521999880671501 -0.22134999930858612 0.20744000375270844 -0.1630299985408783 -0.27268001437187195 -0.7714300155639648 0.01040599960833788 0.14645999670028687 0.5679900050163269 0.11270000040531158 -0.4135200083255768 -0.36667001247406006 0.2517699897289276 -0.4345700144767761 -0.8392599821090698 0.03775300085544586 0.5827500224113464 0.06734800338745117 0.05370600149035454 0.1963299959897995 -0.22044000029563904 0.2246599942445755 0.3246900141239166 -0.2781600058078766 -0.31654998660087585 0.135670006275177 -0.040382999926805496 0.5609999895095825 0.3546000123023987 -0.23252999782562256 -0.46349000930786133 0.047189999371767044 -0.31446999311447144 0.8160899877548218 0.10608000308275223 -0.4187699854373932 -0.3176400065422058 -0.14273999631404877 -0.2611500024795532 -0.159170001745224 -0.34626999497413635 -0.1433899998664856 0.07824400067329407 -0.4171299934387207 0.002611099975183606 -0.3854300081729889 0.60343998670578 0.57573002576828 -0.4472000002861023 -0.03796200081706047 0.5712900161743164 -0.7729399800300598 -0.4984399974346161 0.7687699794769287 0.2846199870109558 -0.3786099851131439 0.07386799901723862 0.20970000326633453 -0.49333998560905457 -0.3780600130558014 0.4033600091934204 0.4295400083065033 0.12860000133514404 -0.41179001331329346 0.1740500032901764 0.3752099871635437 1.166700005531311 -0.1707800030708313 -0.1867000013589859
lashelle 0.17553000152111053 -0.0074395001865923405 0.09288199990987778 -0.07661200314760208 0.5664899945259094 0.15108999609947205 -0.6713399887084961 -0.5827599763870239 -0.3168100118637085 -0.9362900257110596 -0.6183000206947327 0.469870001077652 -0.15702000260353088 0.5115600228309631 -0.01017600018531084 0.14339999854564667 0.03351699933409691 -0.07946400344371796 0.13847999274730682 0.5596699714660645 0.29872000217437744 0.24773000180721283 -0.21866999566555023 -0.3534199893474579 0.17021000385284424 -0.632099986076355 0.23496000468730927 0.16986000537872314 0.11745999753475189 0.2362699955701828 0.840149998664856 -0.20146000385284424 -0.2010599970817566 0.16113999485969543 -0.18456000089645386 0.21922999620437622 0.6375600099563599 0.4105699956417084 0.4140700101852417 0.04409100115299225 0.48614001274108887 0.1929900050163269 -0.08142700046300888 -0.15828999876976013 0.542739987373352 -0.17299999296665192 0.5953999757766724 0.1803700029850006 -0.15705999732017517 0.30375000834465027 -0.5021100044250488 -0.06789299845695496 -0.1979299932718277 -0.19867999851703644 -0.13360999524593353 -0.25130000710487366 0.13437999784946442 -0.27785998582839966 -0.4139400124549866 -0.46327999234199524 0.19665999710559845 0.2661600112915039 0.5652199983596802 0.10221999883651733 -0.16982999444007874 0.6818000078201294 -0.731909990310669 -0.22700999677181244 -0.12443999946117401 -0.6302400231361389 -0.7450100183486938 0.3450399935245514 -0.052354998886585236 -0.05496300011873245 0.6096100211143494 -0.17351000010967255 -0.26861000061035156 0.2526400089263916 0.13662000000476837 -0.8769500255584717 0.693120002746582 -0.1969899982213974 -0.580299973487854 0.4788300096988678 -0.021556999534368515 0.11881999671459198 1.5155999660491943 -0.8929200172424316 -0.07947000116109848 -0.7643300294876099 -0.20490999519824982 -0.33748000860214233 -0.10016000270843506 -0.2788099944591522 0.10479000210762024 -0.3383899927139282 0.13926999270915985 0.2541300058364868 -0.24172000586986542 -0.020232999697327614 -0.7614700198173523 -0.14876000583171844 0.07659400254487991 0.17507000267505646 -0.14005999267101288 -0.006412399932742119 0.25172001123428345 0.3291899859905243 0.12881000339984894 0.3306199908256531 0.3572100102901459 0.24537000060081482 -0.23518000543117523 0.11113999783992767 0.19607000052928925 0.4421600103378296 -0.03355000168085098 0.3277699947357178 -0.5338699817657471 0.02117599919438362 -0.3903200030326843 -0.23468999564647675 0.15490999817848206 -0.22428999841213226 -0.16741999983787537 0.26993998885154724 -0.3294300138950348 -0.7231600284576416 0.5188000202178955 -0.5035300254821777 0.5680699944496155 0.12231999635696411 0.30629000067710876 -0.34470999240875244 0.01312899962067604 -0.3765699863433838 0.045618001371622086 -0.04916800186038017 0.24663999676704407 -0.48789000511169434 -0.24539999663829803 0.37608999013900757 0.02142699994146824 0.21916000545024872 0.5630099773406982 0.056960999965667725 0.5765500068664551 0.7800099849700928 -0.677049994468689 0.42361000180244446 -0.5287200212478638 -0.3840399980545044 0.9064300060272217 -0.35194000601768494 0.11976999789476395 -0.6717399954795837 -0.19287000596523285 -0.526390016078949 0.39965999126434326 -0.6454499959945679 -0.4484100043773651 -0.11670999974012375 0.025112999603152275 0.20579999685287476 -0.15108999609947205 -0.28672000765800476 -0.3199999928474426 0.6050900220870972 0.019303999841213226 0.41999998688697815 -0.27649998664855957 -0.6561200022697449 -0.3916400074958801 -0.03441200032830238 0.03273399919271469 -0.5341299772262573 -0.6606000065803528 0.24032999575138092 -0.21975000202655792 0.1756500005722046 0.0812319964170456 -0.34606999158859253 0.5814599990844727 -0.2672699987888336 -0.35631000995635986 0.5186700224876404 0.10913000255823135 -0.09796199947595596 -0.012114999815821648 -0.534500002861023 0.22745999693870544 0.31446999311447144 -0.4051699936389923 -0.4844599962234497 0.35148999094963074 -0.0912339985370636 0.09008099883794785 -0.2913300096988678 0.6110699772834778 -0.16087999939918518 0.19160999357700348 0.043515998870134354 0.1845400035381317 -0.44099000096321106 -0.27305999398231506 -0.2955799996852875 -0.23006999492645264 -0.14854000508785248 0.14554999768733978 0.42552998661994934 -0.1402300000190735 0.3911699950695038 -0.07473800331354141 -0.2729699909687042 -0.2618800103664398 -0.6662499904632568 0.3589499890804291 0.28534001111984253 0.13221000134944916 0.16399000585079193 -0.15828000009059906 -0.1722099930047989 -0.02070700004696846 -0.4699400067329407 0.3384599983692169 -0.17403000593185425 0.1731099933385849 -0.3968000113964081 -0.14616000652313232 -0.19051000475883484 0.27702999114990234 -0.4300000071525574 0.047175001353025436 0.27724000811576843 0.009539400227367878 -0.27900999784469604 -0.7106599807739258 -0.06368900090456009 0.07128799706697464 -0.08704499900341034 0.29673001170158386 0.20636999607086182 -0.0029007999692112207 0.39083999395370483 -0.3591099977493286 0.39548999071121216 -0.4928100109100342 0.3819600045681 0.07120300084352493 -0.23127999901771545 -0.032937001436948776 0.28617000579833984 -0.4113300144672394 0.21532000601291656 -0.15994000434875488 -0.7960000038146973 -0.010120999999344349 -1.0089999437332153 -0.3032200038433075 0.20683999359607697 -0.8982399702072144 0.14365999400615692 0.5391799807548523 -0.10081999748945236 -0.1571200042963028 -0.06556999683380127 0.40748000144958496 0.32719001173973083 -0.4979499876499176 0.4620000123977661 -0.3070000112056732 -0.01622599922120571 0.3246600031852722 -0.10939999669790268 0.33125001192092896 -0.12372999638319016 -0.07604700326919556 -0.22446000576019287 -0.32389000058174133 -0.44282999634742737 -0.04835600033402443 -0.4309900104999542 -0.04185499995946884 -0.11327999830245972 0.03016600012779236 -0.19968000054359436 -0.008569800294935703 0.6048700213432312 -0.003719500033184886 0.12302999943494797 0.34711000323295593 -0.1774200052022934 0.31672999262809753 0.4113999903202057 -0.09275499731302261 -0.15841999650001526 -0.3878600001335144 0.08782699704170227 -0.1406099945306778 -0.5531499981880188
todd -0.2740199863910675 0.10486999899148941 -0.009606399573385715 0.12055999785661697 -0.20432999730110168 0.16575999557971954 0.2805100083351135 -0.11421000212430954 0.22797000408172607 0.15624000132083893 -0.3426699936389923 -0.47137001156806946 -0.10234999656677246 -0.09010100364685059 -0.2535499930381775 -0.012678000144660473 -0.21144999563694 0.0062326001934707165 0.2179899960756302 0.13726000487804413 0.12616999447345734 0.4438900053501129 0.3177100121974945 -0.420089989900589 -0.1748799979686737 -0.14851999282836914 -0.776669979095459 0.36340999603271484 0.017038999125361443 0.0016564000397920609 0.3523400127887726 -0.34233999252319336 -0.18841999769210815 0.002268600044772029 -0.2833699882030487 0.08830499649047852 -0.10631000250577927 0.48225000500679016 -0.4763199985027313 -0.009834899567067623 0.18456999957561493 -0.3153899908065796 -0.11375000327825546 0.14813999831676483 -0.16393999755382538 0.49404001235961914 0.13947999477386475 -0.28988000750541687 0.4020400047302246 0.1453700065612793 0.6433699727058411 0.3436700105667114 -0.15060000121593475 -0.19075000286102295 -0.041749000549316406 0.0003749100142158568 -0.1675499975681305 0.20621000230312347 0.555840015411377 -0.19808000326156616 -0.48638999462127686 0.07263699918985367 0.2556599974632263 -0.12008000165224075 0.22928999364376068 0.0864889994263649 -0.32221001386642456 -0.08933600038290024 -0.04257899895310402 -0.2796899974346161 0.4311699867248535 -0.2555699944496155 0.21698999404907227 -0.16425999999046326 0.021748999133706093 -0.32809001207351685 -0.4356200098991394 0.3060399889945984 -0.10707999765872955 0.1896200031042099 0.0961730033159256 0.2935200035572052 0.5487099885940552 0.07010400295257568 0.19592000544071198 -0.09198000282049179 1.7242000102996826 -0.6404500007629395 -0.2528400123119354 -0.2232300043106079 0.047171998769044876 -0.381089985370636 -0.22949999570846558 -0.6478300094604492 0.6134399771690369 0.1575700044631958 0.25925999879837036 0.001243300037458539 -0.3973200023174286 -0.0713300034403801 0.2897999882698059 -0.19391000270843506 -0.013344000093638897 -0.08719199895858765 -0.1416199952363968 -0.465829998254776 0.49090999364852905 -0.5842400193214417 -0.35065001249313354 -0.2176399976015091 0.18068000674247742 0.1947699934244156 0.00046439998550340533 0.120169997215271 -0.10395999997854233 0.09566599875688553 0.5273699760437012 0.07200100272893906 -0.06880799680948257 0.14337000250816345 0.10924000293016434 0.5662999749183655 0.3536899983882904 0.23171000182628632 0.28461000323295593 -0.3995000123977661 0.422760009765625 -0.25082001090049744 0.08753199875354767 0.7091699838638306 -0.20404000580310822 -0.260560005903244 0.18051999807357788 -0.3771800100803375 -0.633109986782074 -0.09209799766540527 0.08956500142812729 0.022458000108599663 0.31299999356269836 -0.27524998784065247 -1.7235000133514404 -0.41054999828338623 -0.08085399866104126 0.16854000091552734 -0.3746599853038788 0.20313000679016113 0.1009799987077713 -0.03259800001978874 -0.39937999844551086 -0.4575200080871582 0.4688499867916107 -0.9076899886131287 -0.11581999808549881 0.36237001419067383 0.19965000450611115 -0.45794999599456787 -0.018370000645518303 -0.27845001220703125 -0.11269000172615051 0.17607000470161438 0.8134599924087524 -0.1662299931049347 -0.17780999839305878 0.0917389988899231 0.5733799934387207 -0.18100999295711517 0.11304999887943268 -0.17191000282764435 0.07405500113964081 -0.1288899928331375 -0.12202999740839005 0.12201999872922897 0.3861500024795532 0.13565999269485474 -0.04143799841403961 -0.27112001180648804 -0.003970600198954344 0.5640699863433838 0.07220199704170227 -0.05701500177383423 -0.2816999852657318 0.35965999960899353 0.10711999982595444 0.0321200005710125 0.0948140025138855 0.770039975643158 0.34821999073028564 0.5910199880599976 -0.3599500060081482 -0.2939000129699707 0.11663000285625458 -0.13017000257968903 0.12336000055074692 -0.11840000003576279 -0.11116000264883041 0.3419699966907501 -0.1804399937391281 0.43053001165390015 0.5436199903488159 -0.3455300033092499 0.08992200344800949 -0.18779000639915466 -0.22291000187397003 -0.16765999794006348 -0.16951000690460205 -0.024799000471830368 -0.04274500161409378 0.14178000390529633 -0.1944900006055832 0.08907099813222885 0.03575100004673004 0.55690997838974 0.47995999455451965 0.4791400134563446 0.0025955000892281532 -0.1152999997138977 0.3641200065612793 0.31038999557495117 0.27241000533103943 0.24098999798297882 -0.4922800064086914 0.2983199954032898 0.0072351000271737576 -0.4187600016593933 -0.5965800285339355 -0.014368000440299511 0.15966999530792236 0.07602100074291229 -0.2964800000190735 0.14583000540733337 -0.2312999963760376 0.18292999267578125 0.09494499862194061 -0.1955299973487854 -0.5287399888038635 -0.5635300278663635 -0.24907000362873077 -0.5179200172424316 -0.27647000551223755 0.45862001180648804 -0.1364700049161911 -0.9402300119400024 0.3580099940299988 -0.04527200013399124 -0.12397000193595886 0.10055000334978104 0.18994000554084778 0.23747000098228455 0.15068000555038452 -0.3961299955844879 0.30678999423980713 -0.20642000436782837 0.10441000014543533 -0.12886999547481537 -0.3425300121307373 -0.22030000388622284 -0.04205700010061264 -0.17577999830245972 -0.012153999879956245 0.08625499904155731 0.14504000544548035 -0.10321000218391418 -0.04566799849271774 0.26708000898361206 0.06742200255393982 -0.7248499989509583 0.3562699854373932 0.028967000544071198 -0.18268999457359314 0.3507100045681 -0.7946100234985352 0.2861799895763397 0.01717500016093254 0.5484499931335449 -0.1546899974346161 -0.04454699903726578 0.6514000296592712 -0.29256999492645264 -0.30875998735427856 -0.35763001441955566 0.03980199992656708 0.13982999324798584 -0.44225001335144043 0.1625799983739853 0.1935500055551529 -0.13381999731063843 0.2625400125980377 0.18907999992370605 -0.12973999977111816 -0.5546600222587585 0.32613998651504517 -0.20579999685287476 0.2042199969291687 0.2017499953508377 0.30055999755859375 -0.16595999896526337 0.08561400324106216 -0.3103199899196625 -0.5972099900245667 -0.4263400137424469
colleen -0.0722379982471466 0.47852998971939087 0.15203000605106354 0.23242999613285065 0.327890008687973 -0.20266999304294586 0.27643999457359314 -0.17475999891757965 -0.42754000425338745 -0.2011599987745285 -0.5168099999427795 -0.3045099973678589 0.3329100012779236 -0.4038200080394745 -0.29833999276161194 0.34975001215934753 -0.0020439999643713236 -0.6343200206756592 -0.11977999657392502 0.22573000192642212 0.5428100228309631 -0.03759700059890747 -0.06669499725103378 0.13368000090122223 -0.20935000479221344 0.03256699815392494 -0.7036799788475037 -0.10318999737501144 0.12809999287128448 0.1009100005030632 0.1871500015258789 -0.03553599864244461 0.11475999653339386 0.10909999907016754 -0.15584999322891235 0.20690999925136566 -0.21251000463962555 0.012795999646186829 -0.015691999346017838 0.174919992685318 0.14237000048160553 0.3463500142097473 0.21747000515460968 0.22638000547885895 0.13019999861717224 -0.026112999767065048 -0.34259000420570374 -0.1381399929523468 0.72434002161026 0.06504999846220016 0.5090399980545044 0.5979499816894531 -0.6316400170326233 0.08449599891901016 0.07664299756288528 -0.0361349992454052 -0.19044999778270721 0.41940000653266907 -0.20036999881267548 0.051639001816511154 -0.48888999223709106 -0.15877999365329742 0.19684000313282013 -0.14003999531269073 -0.409060001373291 0.26919999718666077 -0.2013700008392334 0.16557000577449799 0.1677200049161911 -0.10275000333786011 0.3593299984931946 -0.1444700062274933 0.36754000186920166 0.4946100115776062 0.3557699918746948 -0.47661998867988586 -0.3690600097179413 0.19553999602794647 0.013212000019848347 0.3318699896335602 0.13368000090122223 0.04901399835944176 -0.1781100034713745 0.3650299906730652 0.12585000693798065 -0.14167000353336334 1.7165000438690186 -0.14532999694347382 0.14257000386714935 -0.07109200209379196 -0.026801999658346176 0.22450000047683716 -0.43599000573158264 -0.2549299895763397 0.7045000195503235 0.2320600003004074 0.21127000451087952 0.29620999097824097 -0.43487998843193054 -0.43727999925613403 0.6497600078582764 -0.5307599902153015 -0.23469999432563782 0.305620014667511 -0.16705000400543213 -0.7095100283622742 0.3303599953651428 -0.39675000309944153 -0.39906999468803406 0.1387999951839447 0.18184000253677368 0.2571600079536438 0.31310001015663147 0.007072600070387125 -0.0025675001088529825 0.008250700309872627 0.15059000253677368 0.1779399961233139 0.09352300316095352 0.18883000314235687 0.1081399992108345 0.20634999871253967 -0.03989899903535843 -0.11488000303506851 0.27145999670028687 -0.10462000221014023 0.24681000411510468 0.11371000111103058 -0.2519800066947937 0.3986299932003021 -0.08045999705791473 -0.4770199954509735 -0.03435000032186508 -0.4190399944782257 -0.29284998774528503 -0.37498000264167786 -0.3315199911594391 0.2000499963760376 -0.05565899983048439 -0.3182600140571594 -0.7166699767112732 -0.3010900020599365 -0.1674100011587143 0.4269700050354004 -0.4311099946498871 0.059762999415397644 0.36827000975608826 0.12049999833106995 -0.4002400040626526 0.003863000078126788 -0.07267899811267853 -0.29552000761032104 0.2049500048160553 0.04196299985051155 0.26263999938964844 -0.3100700080394745 0.3575200140476227 -0.46031999588012695 0.3425700068473816 0.29190999269485474 0.03855999931693077 0.09083600342273712 -0.20804999768733978 0.28668999671936035 0.7803300023078918 -0.24637000262737274 0.18331000208854675 -0.09873899817466736 -0.3861599862575531 0.4273799955844879 -0.48420000076293945 0.2801400125026703 0.36169999837875366 -0.0512939989566803 0.5353000164031982 -0.36004000902175903 -0.12676000595092773 0.024396000429987907 -0.6590999960899353 0.6926900148391724 0.0749329999089241 0.08334799855947495 0.003235999960452318 0.01944899931550026 0.005980900023132563 0.08912400156259537 -0.12669000029563904 0.4530799984931946 0.18765999376773834 -0.33726000785827637 -0.17222000658512115 -0.2522900104522705 0.20322999358177185 -0.12030000239610672 0.18606999516487122 0.2748500108718872 0.08670199662446976 0.07029499858617783 0.8170599937438965 -0.4578799903392792 -0.015600999817252159 -0.23184999823570251 0.24315999448299408 0.1919800043106079 -0.44179999828338623 0.19080999493598938 -0.6906599998474121 -0.20923000574111938 0.14045000076293945 -0.22372999787330627 0.019807999953627586 0.6562299728393555 0.2205899953842163 0.6438500285148621 -0.5604199767112732 -0.2774899899959564 0.18098999559879303 0.42201998829841614 0.8456100225448608 -0.22902999818325043 -0.4265100061893463 0.08706200122833252 0.40911999344825745 -0.057792000472545624 -0.2361299991607666 0.26715001463890076 -0.16500000655651093 -0.16245000064373016 -0.11175999790430069 0.12985999882221222 0.03037000074982643 -0.005412399768829346 -0.13985000550746918 0.08420299738645554 -0.14764000475406647 -0.29159000515937805 0.15690000355243683 -0.21729999780654907 0.3351899981498718 -0.6821900010108948 -0.26556000113487244 0.36368000507354736 0.33228999376296997 -0.4164400100708008 0.41023001074790955 0.04042699933052063 0.16226999461650848 0.4887700080871582 -0.2080100029706955 -0.40439000725746155 -0.040794000029563904 -0.04569299891591072 -0.4700999855995178 -0.04162599891424179 -0.28637999296188354 -0.42056000232696533 -0.551289975643158 -0.27138999104499817 0.19970999658107758 -0.7365700006484985 -0.24358999729156494 0.025450000539422035 -0.1335899978876114 0.26190999150276184 0.12853999435901642 -0.21716000139713287 -0.67399001121521 0.14584000408649445 -1.070199966430664 -0.44029998779296875 -0.8874300122261047 -0.03559400141239166 0.11823000013828278 0.06315100193023682 -0.2735700011253357 -0.17307999730110168 0.04951300099492073 -0.355430006980896 0.12303999811410904 0.09369400143623352 -0.12836000323295593 0.12482000142335892 -0.4620800018310547 -0.02861100062727928 0.47001999616622925 -0.2159000039100647 -0.3541800081729889 0.4971100091934204 0.05305499956011772 0.06273999810218811 0.7350500226020813 -0.08553799986839294 0.04806499928236008 0.03534099832177162 -0.08203399926424026 -0.1853799968957901 -0.27368998527526855 -0.3914400041103363 -0.6541299819946289 -0.4115599989891052
knife -0.7181900143623352 -0.13996000587940216 0.4599199891090393 -0.40439000725746155 -0.19704000651836395 -0.3280799984931946 0.23487000167369843 0.1120700016617775 -0.32267001271247864 1.0184999704360962 -0.1970899999141693 0.33112001419067383 0.20629000663757324 0.10954000055789948 -0.22376999258995056 -0.22095000743865967 -0.2549799978733063 1.3006000518798828 0.324319988489151 0.1394599974155426 0.6287199854850769 -0.10332000255584717 -0.27344000339508057 -0.49074000120162964 -0.14730000495910645 0.18312999606132507 0.04444799944758415 0.5307000279426575 -0.7910000085830688 -0.6731399893760681 -0.13738000392913818 0.5939199924468994 -0.4948900043964386 -0.07683199644088745 0.4036400020122528 -0.3029100000858307 0.5844500064849854 0.47165998816490173 -0.027029000222682953 0.07782600075006485 0.18100999295711517 0.5364999771118164 0.22857999801635742 -0.795229971408844 0.4762499928474426 0.29587000608444214 -0.4251199960708618 -0.7794700264930725 0.05399399995803833 0.26985999941825867 0.3172299861907959 0.1612199991941452 -0.0724480003118515 -0.12689000368118286 -0.7045199871063232 -0.29205000400543213 0.1478399932384491 -0.07399000227451324 0.053683001548051834 -0.12098000198602676 -0.39166998863220215 0.1792600005865097 0.2915300130844116 -0.3113600015640259 0.11841999739408493 -0.6112300157546997 0.12883999943733215 0.1926400065422058 0.08090200275182724 -0.3643200099468231 0.08453299850225449 -0.1840900033712387 -0.5953500270843506 0.18788999319076538 -0.4176799952983856 -0.8961700201034546 0.4205099940299988 -0.8578000068664551 -0.618340015411377 0.46685001254081726 -0.453359991312027 -0.32201001048088074 0.31075000762939453 -0.10467000305652618 0.058469999581575394 0.8014699816703796 0.767270028591156 0.5371000170707703 0.43998000025749207 0.23541000485420227 -0.17100000381469727 0.08659200370311737 0.07249700278043747 -0.9366000294685364 -0.30243998765945435 -0.42337000370025635 0.38773998618125916 0.0035788000095635653 0.20059999823570251 -0.46998000144958496 -0.003362799994647503 0.07272099703550339 0.008994200266897678 0.2296299934387207 -0.46573999524116516 -0.9475600123405457 0.020201999694108963 0.10678000003099442 0.922569990158081 0.3279399871826172 0.03743999823927879 -0.02917099930346012 -0.2659200131893158 0.10728000104427338 -0.00903400033712387 1.0542999505996704 0.5511500239372253 -0.21981999278068542 0.09901899844408035 -0.020729999989271164 0.09288399666547775 0.09979700297117233 1.0543999671936035 -0.007024299819022417 -0.029881000518798828 0.5036100149154663 0.05908900126814842 -0.7069200277328491 -0.2561599910259247 0.337119996547699 0.0066697001457214355 -0.2886500060558319 0.008462199941277504 0.22875000536441803 -0.41089001297950745 0.014750000089406967 0.03174600005149841 -0.040300000458955765 0.10339000076055527 0.23064999282360077 -2.3152999877929688 0.2086700052022934 -0.20430999994277954 -0.029882000759243965 -0.5874099731445312 0.24074000120162964 -0.8084499835968018 0.5464800000190735 0.6263999938964844 0.010885999538004398 -0.5398100018501282 0.07209499925374985 0.46931999921798706 0.28578001260757446 -0.2988300025463104 0.0009485399932600558 -0.5099700093269348 0.39013001322746277 -0.2576200067996979 0.44547998905181885 0.11840000003576279 -0.3400999903678894 -0.0237869992852211 0.33083000779151917 0.31433001160621643 -0.27094000577926636 -0.4278700053691864 -0.5881699919700623 -0.2878200113773346 -0.3637399971485138 -0.2286899983882904 -0.07463199645280838 -0.664359986782074 -0.16575999557971954 -0.6805300116539001 0.01605900004506111 -0.2844099998474121 0.21543000638484955 0.6061199903488159 -0.27175000309944153 -0.1163799986243248 -0.20227999985218048 0.0009947899961844087 0.13142000138759613 0.0012455000542104244 0.11108999699354172 0.4416700005531311 -0.05223900079727173 -0.580489993095398 0.19422000646591187 -0.7678899765014648 0.0673770010471344 -0.28804999589920044 -0.5908499956130981 -0.10479000210762024 0.3562900125980377 0.17826999723911285 -0.43974998593330383 -0.15580999851226807 -0.10813000053167343 0.0533749982714653 -0.02175300009548664 -0.03219199925661087 0.02664799988269806 -0.03447199985384941 0.4940299987792969 -0.3472299873828888 0.22076000273227692 0.09320099651813507 0.32381999492645264 0.7222499847412109 0.3372200131416321 -0.7127299904823303 -0.6245099902153015 0.2361699938774109 0.06253200024366379 -0.01596199907362461 0.1024399995803833 -0.7359499931335449 0.22280000150203705 0.352620005607605 0.15834000706672668 -0.006388099864125252 0.22513000667095184 -0.1262200027704239 -0.22830000519752502 0.10902000218629837 0.07210200279951096 -0.5699899792671204 0.25933000445365906 -0.11635000258684158 -0.5747600197792053 0.4379599988460541 -0.1346299946308136 0.2017499953508377 -0.7069200277328491 -0.44988998770713806 0.4915100038051605 -0.0741180032491684 0.06562499701976776 0.3423900008201599 0.44516000151634216 0.4061700105667114 -0.8578000068664551 0.508080005645752 0.14831000566482544 -0.26642999053001404 -0.405460000038147 -0.4662800133228302 0.7198500037193298 -0.11881999671459198 -0.18443000316619873 -0.024135999381542206 0.21334999799728394 -0.31490999460220337 0.2537600100040436 0.6220999956130981 0.15327000617980957 0.49059000611305237 0.0752279981970787 -0.3827899992465973 -0.06152699887752533 -0.2030699998140335 -0.4651300013065338 -0.23025000095367432 0.6551100015640259 0.14725999534130096 0.13122999668121338 -0.8121299743652344 -0.4671899974346161 0.3074299991130829 -0.24146999418735504 -0.05097699910402298 0.22371000051498413 0.28696998953819275 0.847790002822876 -0.006043899804353714 0.03361999988555908 -0.29857000708580017 -0.6422399878501892 -0.17761999368667603 0.7261300086975098 -0.207179993391037 -0.44999000430107117 0.42375999689102173 -0.7482900023460388 0.34279000759124756 0.15177999436855316 -0.2906000018119812 -0.28189000487327576 0.47157999873161316 0.14363999664783478 -0.1904900074005127 0.26100000739097595 -0.19853000342845917 0.0800739973783493 -0.2327599972486496 0.044098999351263046 -0.39403998851776123 0.2527799904346466
wasp 0.06189600005745888 0.1882299929857254 0.08031199872493744 -0.21180999279022217 -0.07268500328063965 0.004488800186663866 -0.004947000183165073 -0.08757100254297256 0.017705999314785004 -0.041283998638391495 -0.5400599837303162 -0.9379799962043762 -0.2884800136089325 -0.2533999979496002 0.5578399896621704 0.16822999715805054 -0.2414100021123886 0.14428000152111053 -0.06789500266313553 0.025905000045895576 0.29655998945236206 0.3058199882507324 -0.11832000315189362 -0.1405400037765503 -0.5119699835777283 -0.5595300197601318 0.15392999351024628 -0.2929700016975403 0.029099000617861748 0.33199000358581543 -0.5827500224113464 -0.04834499955177307 -0.19863000512123108 0.0076223998330533504 -0.26914000511169434 0.5924299955368042 0.9450600147247314 -0.12409000098705292 -0.5325199961662292 0.7200700044631958 0.04283899813890457 0.06728599965572357 -0.5107200145721436 0.328900009393692 0.8087700009346008 -0.02737399935722351 0.08178000152111053 0.43557000160217285 0.2097799926996231 -0.11089000105857849 -0.7746899724006653 -0.3094399869441986 -0.637499988079071 0.5324100255966187 -0.11484000086784363 -0.6357300281524658 -0.13932999968528748 -0.31047001481056213 -0.042823001742362976 0.49382999539375305 -0.01294699963182211 -0.12636999785900116 0.5600399971008301 0.08356299996376038 0.44148001074790955 0.06555499881505966 -0.17862999439239502 0.0967399999499321 -0.47192999720573425 -0.10571999847888947 -0.38234999775886536 -0.16660000383853912 -0.29899001121520996 0.3008500039577484 -0.18602000176906586 -0.9637200236320496 0.43898001313209534 -0.084476999938488 -0.2714200019836426 -0.23624999821186066 0.01193500030785799 0.49399998784065247 0.6481599807739258 -0.5663099884986877 0.3833000063896179 -0.5780500173568726 0.9310399889945984 0.024593999609351158 -0.4019699990749359 0.6356300115585327 0.14248999953269958 0.5778599977493286 0.6214600205421448 -0.16700999438762665 -0.033514998853206635 -0.03412599861621857 0.5100899934768677 -0.20781999826431274 -0.4231100082397461 0.24980999529361725 -0.06425599753856659 0.45583000779151917 0.3931100070476532 0.13952000439167023 -0.28700000047683716 -1.6485999822616577 -0.15654000639915466 0.24492999911308289 -0.1625799983739853 0.2920700013637543 -0.015793999657034874 0.03596299886703491 -0.08779100328683853 0.42149999737739563 0.18513000011444092 -0.017210999503731728 -0.47290998697280884 -0.23196999728679657 0.16343000531196594 -0.02637599967420101 -0.8662099838256836 -0.3139199912548065 0.3231799900531769 -0.9737100005149841 -1.041100025177002 0.12514999508857727 0.2897000014781952 0.23119999468326569 -0.32673999667167664 0.7328500151634216 -0.5293700098991394 -0.8175299763679504 -0.6301199793815613 0.12128999829292297 0.3089100122451782 -0.1078300029039383 -0.16596999764442444 0.000896550016477704 0.13082000613212585 0.47341999411582947 -1.5008000135421753 0.09385699778795242 0.3803200125694275 0.4828900098800659 -0.35899001359939575 0.2744799852371216 -0.5225499868392944 0.5048800110816956 0.2644599974155426 -0.7153000235557556 -0.06769900023937225 -0.31134000420570374 -0.4011499881744385 0.22728000581264496 -0.36142000555992126 0.19113999605178833 0.14643000066280365 -0.26868000626564026 0.3680900037288666 0.39590001106262207 0.017954999580979347 -0.7481499910354614 -0.3706200122833252 -0.03747199848294258 0.5329099893569946 -0.11449000239372253 -0.22168999910354614 0.1619199961423874 -0.47091999650001526 0.1755100041627884 -0.027684999629855156 0.09369199723005295 -0.08747699856758118 -0.11400000005960464 -0.4631099998950958 -0.025659000501036644 0.13273000717163086 0.17186999320983887 -0.17124000191688538 0.5223399996757507 0.10474000126123428 -0.061911001801490784 0.1891999989748001 0.15655000507831573 -0.11794999986886978 -0.2662999927997589 -0.3834100067615509 0.08964700251817703 0.23061999678611755 -0.026061000302433968 -0.23531000316143036 0.2629300057888031 -0.3027600049972534 0.1462399959564209 0.20463000237941742 -0.06384599953889847 0.25137999653816223 0.5237399935722351 0.7781699895858765 -0.4455299973487854 0.2928999960422516 -0.3709399998188019 -0.6338099837303162 0.3268600106239319 0.0227269995957613 -0.002705800114199519 0.05186599865555763 0.20634999871253967 -0.34018000960350037 -0.1699099987745285 0.4603399932384491 0.3989599943161011 0.27511000633239746 -0.19217999279499054 0.12276999652385712 -0.4608500003814697 -0.2637600004673004 0.23292000591754913 -0.07219000160694122 -0.8197100162506104 -0.0006668100249953568 -0.5326700210571289 0.6353899836540222 -0.0560000017285347 0.4944800138473511 0.3059900104999542 -0.2681399881839752 0.5385400056838989 0.11768999695777893 0.31485000252723694 0.7870299816131592 -0.426580011844635 -0.18553000688552856 0.5792999863624573 0.5058799982070923 0.28431999683380127 -0.11101999878883362 0.3388800024986267 0.5713800191879272 -0.02487099915742874 0.1247899979352951 0.22335000336170197 0.2443699985742569 -0.10200999677181244 -0.06288299709558487 -0.8228200078010559 0.6166999936103821 0.6990100145339966 0.005408300086855888 -0.28804999589920044 -0.13982999324798584 0.2623499929904938 -0.24369999766349792 0.024018999189138412 -0.11274000257253647 -0.7863900065422058 0.02762399986386299 -0.8055700063705444 0.09525000303983688 0.09321700036525726 -0.594290018081665 0.330159991979599 0.4144600033760071 -0.7001100182533264 0.7472900152206421 0.6362400054931641 -0.27810999751091003 -0.38506001234054565 -0.4318599998950958 0.6178299784660339 0.057725999504327774 -0.2799200117588043 0.23298999667167664 0.07258400321006775 0.13288000226020813 0.058715999126434326 -0.5605199933052063 -0.1927099972963333 -0.007429600227624178 -0.023576000705361366 0.350629985332489 0.5178599953651428 -0.6436899900436401 -0.5173799991607666 0.043859999626874924 -0.759090006351471 0.055518001317977905 -0.4437899887561798 0.11615999788045883 -0.3695699870586395 -0.43880999088287354 -0.05124000087380409 -0.12090999633073807 -0.20634999871253967 -0.36364999413490295 8.005199924809858e-05 -0.19950999319553375 0.07306800037622452 -0.12518000602722168 0.08179499953985214
gift -0.16358999907970428 0.17215000092983246 0.2363400012254715 -0.2909500002861023 0.15400999784469604 -0.40108999609947205 0.25119999051094055 -0.3257400095462799 0.11279000341892242 2.1001999378204346 -0.5766000151634216 0.483240008354187 -0.18073000013828278 -0.27671998739242554 0.03383700177073479 -0.3742600083351135 -0.3472500145435333 1.3008999824523926 0.6752099990844727 0.17973999679088593 -0.37582001090049744 -0.2501699924468994 -0.33452001214027405 0.021517999470233917 0.07152800261974335 0.44516000151634216 -0.14813999831676483 0.36324000358581543 -0.28029999136924744 -0.01564900018274784 -0.091279998421669 -0.17635999619960785 -0.1864600032567978 0.36362001299858093 -0.11130999773740768 0.13224999606609344 0.06465300172567368 -0.5106599926948547 0.315530002117157 -0.13962000608444214 0.05990400165319443 0.28374001383781433 0.11919999867677689 -0.39021000266075134 0.46042001247406006 0.12741999328136444 -0.5102199912071228 -0.43191999197006226 0.3052999973297119 0.11162000149488449 0.17010000348091125 -0.3678300082683563 0.5888400077819824 -0.023914000019431114 0.37580999732017517 -0.1970899999141693 0.07320799678564072 0.5098699927330017 -0.4625200033187866 -0.0994269996881485 0.23691999912261963 -0.2667900025844574 -0.27889999747276306 -0.16214999556541443 -0.13795000314712524 -0.2933799922466278 0.22785000503063202 0.5152000188827515 -0.25036001205444336 -0.17137999832630157 0.046587999910116196 0.24803000688552856 -0.3662700057029724 -0.1816300004720688 0.47832998633384705 0.9290300011634827 0.38402000069618225 -0.1803400069475174 -0.351639986038208 0.39500001072883606 -0.004437100142240524 0.7500100135803223 0.12223000079393387 0.19088000059127808 -0.020034000277519226 -0.5098400115966797 0.18884000182151794 0.9415000081062317 0.20622999966144562 -0.6974599957466125 0.14910000562667847 0.447270005941391 0.0020471999887377024 0.33858001232147217 -0.36807000637054443 0.16617999970912933 -0.4288400113582611 -0.34529000520706177 0.23960000276565552 -0.2463199943304062 -0.24792000651359558 -0.4907200038433075 -0.3538999855518341 -0.21603000164031982 -0.16245000064373016 0.04719899967312813 0.26194000244140625 0.46696001291275024 0.06855399906635284 -0.08236599713563919 0.3495199978351593 0.15963999927043915 -0.24108999967575073 -0.18844999372959137 0.1861799955368042 -0.2536099851131439 -0.01702200062572956 0.27889999747276306 0.26842001080513 0.4085099995136261 0.8211399912834167 -0.043182000517845154 0.37362998723983765 0.601069986820221 0.2171200066804886 -0.1907700002193451 -0.4283300042152405 -0.04105300083756447 0.16353000700473785 0.0882209986448288 -0.2069700062274933 -0.1895499974489212 -0.19603000581264496 -0.5583000183105469 -0.6481099724769592 0.039691001176834106 0.1034500002861023 -0.23566000163555145 -0.1506199985742569 0.12321999669075012 -1.8624999523162842 0.41593998670578003 0.4318999946117401 0.2811200022697449 -0.4800899922847748 -0.3012799918651581 0.4087899923324585 0.22068999707698822 -0.21383999288082123 0.08216699957847595 -0.1017799973487854 0.018595000728964806 -0.1909399926662445 -0.05452699959278107 -0.07186199724674225 -0.4758799970149994 -0.04657699912786484 -0.23698000609874725 -0.4360499978065491 0.18838000297546387 0.371069997549057 0.5097500085830688 -0.014457999728620052 0.04163999855518341 -0.3142000138759613 -0.2751300036907196 0.2191700041294098 0.25766000151634216 0.40808001160621643 0.3471600115299225 0.10467000305652618 0.22533999383449554 0.6915900111198425 0.5655400156974792 0.176269993185997 -0.2774200141429901 0.07171499729156494 0.05316900089383125 0.06625299900770187 0.16686999797821045 0.1778700053691864 -0.2059900015592575 0.82819002866745 -0.03907199949026108 -0.10869999974966049 -0.23176999390125275 -0.1606599986553192 -0.07650499790906906 0.08787299692630768 0.3414100110530853 -0.557449996471405 -0.01982700079679489 -0.4480000138282776 -0.5514600276947021 0.6086300015449524 -0.15328000485897064 -0.21918000280857086 -0.19283999502658844 1.1312999725341797 0.2756600081920624 0.3289099931716919 -0.3673500120639801 -0.48069000244140625 0.06063299998641014 0.5247799754142761 0.3485099971294403 0.5009300112724304 0.42434000968933105 0.13116000592708588 0.13526000082492828 -0.1127299964427948 0.35618001222610474 -0.45963001251220703 -0.22442999482154846 0.257999986410141 -0.11668000370264053 0.10118000209331512 -0.536899983882904 -0.5234299898147583 0.32686999440193176 -0.34926000237464905 -0.21096999943256378 0.13482999801635742 -0.05722299963235855 -0.6059100031852722 -0.35945001244544983 0.3697800040245056 0.24345999956130981 -0.3276599943637848 0.02918899990618229 0.10638000071048737 -0.19596000015735626 -0.08956900238990784 -0.47453999519348145 -0.34360000491142273 -0.5200899839401245 -0.18990999460220337 0.04040300101041794 -0.2515600025653839 0.15755000710487366 0.04944099858403206 0.4253399968147278 -0.1510699987411499 0.36667999625205994 0.6107100248336792 0.05299700051546097 -0.44244998693466187 -0.1693200021982193 -0.42407000064849854 -0.21472999453544617 0.05932300165295601 0.17453999817371368 -0.2741299867630005 -0.061751000583171844 0.340829998254776 0.8242300152778625 0.039333999156951904 -0.2292799949645996 -0.0728989988565445 0.24404999613761902 -0.1698099970817566 -0.18042999505996704 -0.26743999123573303 0.1396999955177307 -0.06633199751377106 0.8601400256156921 0.2555199861526489 0.25023001432418823 0.01512799970805645 -0.0139340003952384 -0.8818899989128113 0.20257000625133514 -0.053672999143600464 0.3397600054740906 -0.3945100009441376 -0.010507999919354916 -0.47273001074790955 0.38534998893737793 0.46024999022483826 -0.35853999853134155 -0.2876099944114685 -0.09401600062847137 0.5920699834823608 -0.14403000473976135 0.01758899912238121 0.04008200019598007 0.287990003824234 -0.0421300008893013 -0.35172000527381897 0.1185699999332428 -0.5201900005340576 0.5317299962043762 0.25874999165534973 0.1302500069141388 0.19223999977111816 -0.5343999862670898 -0.014468000270426273 0.32721999287605286 -0.02137400023639202 0.1709199994802475
wendy 0.3062799870967865 0.4994400143623352 0.14869999885559082 0.28367000818252563 0.029961999505758286 0.47578001022338867 0.660610020160675 -0.3054499924182892 -0.15834000706672668 -0.24145999550819397 -0.6322100162506104 -0.44727998971939087 -0.1796800047159195 -0.13343000411987305 0.02909800037741661 -0.026815999299287796 0.37762001156806946 0.12342999875545502 -0.0951479971408844 0.04119500145316124 0.26284998655319214 0.5614799857139587 0.3437899947166443 -0.1755400002002716 -0.06746300309896469 0.15942999720573425 -0.4364500045776367 -0.09048300236463547 0.418969988822937 0.10707999765872955 0.32311999797821045 0.23336000740528107 0.047359999269247055 0.16223999857902527 0.1730400025844574 -0.09181500226259232 0.08853200078010559 0.3393400013446808 -0.25161999464035034 0.06936199963092804 0.059748999774456024 -0.11288999766111374 -0.1406800001859665 0.11563000082969666 0.1442600041627884 0.17870000004768372 -0.45465999841690063 -0.0904730036854744 0.3979699909687042 0.06750600039958954 -0.011726000346243382 0.5168799757957458 -0.0755160003900528 -0.051697999238967896 -0.044495001435279846 0.32104000449180603 -0.22258000075817108 0.5415899753570557 -0.0686739981174469 -0.16313999891281128 -0.44273999333381653 0.18925000727176666 0.3473699986934662 -0.33153000473976135 0.35322999954223633 0.11602000147104263 -0.28630000352859497 0.6464099884033203 0.340719997882843 -0.22743000090122223 -0.013311999849975109 -0.13537999987602234 0.30239999294281006 -0.03821299970149994 0.2506900131702423 0.0651020035147667 -0.43724000453948975 0.8454099893569946 -0.17825999855995178 0.36559000611305237 0.1374099999666214 0.26805999875068665 -0.08055300265550613 -0.2872300148010254 -0.3185800015926361 -0.12680000066757202 1.9177000522613525 -0.25832998752593994 -0.3882499933242798 -0.28328999876976013 0.03126399964094162 0.14013999700546265 -0.05583500117063522 -0.5281199812889099 0.5504599809646606 0.25999000668525696 0.08358599990606308 0.3016600012779236 -0.485289990901947 0.20539000630378723 0.5287399888038635 -0.12598000466823578 0.04645499959588051 0.15825000405311584 -0.1231599971652031 -0.5280600190162659 0.4790399968624115 -0.4116800129413605 -0.4395900070667267 -0.4916299879550934 0.32409000396728516 -0.2851499915122986 0.2834300100803375 -0.5879700183868408 0.4303799867630005 0.0730310007929802 0.2546600103378296 0.27281999588012695 0.32912999391555786 0.098191998898983 -0.031376998871564865 0.3633800148963928 0.11262000352144241 -0.1103300005197525 0.5769400000572205 -0.3789699971675873 0.14326000213623047 -0.1280200034379959 -0.21648000180721283 0.46838000416755676 -0.3073500096797943 -0.4058600068092346 0.38705000281333923 -0.40588000416755676 -0.19478000700473785 -0.2888700067996979 -0.45326000452041626 -0.21153999865055084 0.3097200095653534 0.15160000324249268 -1.7031999826431274 -0.5841799974441528 -0.035840000957250595 0.16669000685214996 -0.5002899765968323 0.10736999660730362 0.08944900333881378 0.2515900135040283 -0.5577300190925598 -0.41492000222206116 -0.11382000148296356 -0.10202000290155411 -0.020433999598026276 0.08489199727773666 0.26225000619888306 -0.26611000299453735 0.26875001192092896 -0.12624000012874603 0.15599000453948975 0.13533000648021698 0.12064000219106674 -0.08457600325345993 -0.5302000045776367 0.3372499942779541 0.05832599848508835 0.06043099984526634 0.36827000975608826 -0.03810200095176697 0.19487999379634857 0.14053000509738922 0.14016999304294586 -0.22912999987602234 0.015819000080227852 0.07789099961519241 0.15449999272823334 0.04946799948811531 0.5630900263786316 0.18483999371528625 -0.6048399806022644 0.45524999499320984 0.06359300017356873 0.05713700130581856 0.17047999799251556 0.09382899850606918 0.19102999567985535 0.3364199995994568 0.0777439996600151 0.23826000094413757 0.24161000549793243 -0.3470599949359894 -0.034533001482486725 -0.08229599893093109 -0.10271000117063522 -0.2265399992465973 -0.182669997215271 0.30928000807762146 0.02536500059068203 0.2696399986743927 0.7724000215530396 -0.13229000568389893 -0.11146000027656555 -0.33799999952316284 -0.03133700042963028 -0.13975000381469727 -0.10625000298023224 -0.1001800000667572 -0.43283000588417053 0.022929999977350235 0.029032999649643898 0.22322000563144684 0.0783659964799881 0.2517099976539612 0.4890500009059906 0.821179986000061 -0.05242199823260307 -0.2377299964427948 -0.14163999259471893 0.24961000680923462 0.12723000347614288 -0.0018411000492051244 -0.40244999527931213 0.1016400009393692 0.02241699956357479 0.23510999977588654 -0.2057500034570694 0.07147300243377686 -0.6252099871635437 -0.20903000235557556 -0.29291000962257385 -0.09073500335216522 -0.24890999495983124 0.30535000562667847 -0.06733100116252899 0.1376899927854538 -0.00373189989477396 -0.0589120015501976 -0.4126400053501129 0.12767000496387482 -0.31977999210357666 -0.0628340020775795 -0.3052099943161011 -0.08921699970960617 0.1623699963092804 -0.003481399966403842 0.03524100035429001 -0.27177000045776367 0.1754699945449829 0.12800000607967377 -0.13655999302864075 -0.5611900091171265 0.043434999883174896 0.1269499957561493 -0.17649999260902405 0.3378399908542633 -0.00810139998793602 -0.5258100032806396 -0.07707300037145615 -0.07468099892139435 -0.17076000571250916 0.1984899938106537 -0.11076000332832336 0.1689700037240982 -0.3708899915218353 0.2818700075149536 -0.06785999983549118 -0.5257700085639954 0.1871200054883957 -0.03590400144457817 -0.7473700046539307 -0.022525999695062637 -1.2597999572753906 0.15240000188350677 -0.16309000551700592 0.5382999777793884 -0.2608500123023987 -0.054218001663684845 0.33215001225471497 -0.3017500042915344 0.0524509996175766 0.29302000999450684 0.3138299882411957 0.5344300270080566 -0.12043999880552292 0.26903998851776123 0.24831999838352203 -0.006294200196862221 0.08439899981021881 0.4025700092315674 -0.2676999866962433 0.025502000004053116 0.6289600133895874 0.3518500030040741 -0.05533500015735626 0.036028001457452774 0.38137000799179077 -0.2277500033378601 0.3059299886226654 -0.17125999927520752 -0.1948300004005432 -0.06571099907159805
crocus 0.1847199946641922 -0.05379100143909454 -0.4130699932575226 -0.7705900073051453 -0.022324999794363976 -0.23603999614715576 -0.24463999271392822 0.05361400172114372 -0.8310800194740295 -0.5018500089645386 0.36987999081611633 -0.2719700038433075 0.19833000004291534 -0.26221999526023865 0.1261799931526184 0.8487899899482727 -0.3411499857902527 -0.5970399975776672 0.3896999955177307 -0.3989500105381012 0.4037199914455414 -0.27386999130249023 -0.19347000122070312 0.42440998554229736 -0.48833999037742615 0.0031991000287234783 -0.13313999772071838 -0.014720999635756016 -0.2146800011396408 0.6380900144577026 0.1970299929380417 -0.3735800087451935 0.5505099892616272 0.07840099930763245 0.06283500045537949 0.377020001411438 0.9886800050735474 0.0153590003028512 0.10363999754190445 0.13373999297618866 -0.015860000625252724 0.07074499875307083 0.18423999845981598 0.09926100075244904 0.7104899883270264 -0.07111699879169464 0.04049199819564819 -0.4529399871826172 0.24616999924182892 -0.10785999894142151 -0.9082499742507935 -0.3770599961280823 -0.39660999178886414 -0.0769369974732399 0.35705000162124634 -0.6515100002288818 -0.051458001136779785 0.6402999758720398 -0.3721800148487091 -0.43880000710487366 -0.0966309979557991 -0.3779999911785126 -0.13704000413417816 0.0035216999240219593 0.44554999470710754 -0.14925000071525574 -0.2599300146102905 -0.06913699954748154 0.49950000643730164 0.43970999121665955 -0.81836998462677 0.23777000606060028 -0.04594799876213074 0.2748900055885315 -0.4604400098323822 -0.2078399956226349 0.20261000096797943 0.19162000715732574 0.1506199985742569 -0.21309000253677368 0.1995999962091446 0.5267599821090698 0.07291900366544724 -0.09685000032186508 0.09151499718427658 -0.17114000022411346 1.2575000524520874 0.11721999943256378 0.3485099971294403 0.33994999527931213 0.39340999722480774 0.4181300103664398 0.9143099784851074 0.058740999549627304 0.069241002202034 0.3631399869918823 -0.300709992647171 -0.7657999992370605 0.4027499854564667 0.39388999342918396 -0.1804099977016449 -0.5518500208854675 0.189860001206398 -0.004485299810767174 0.0014950999757274985 -1.537600040435791 -0.1566700041294098 0.11348000168800354 0.3308899998664856 0.19744999706745148 -0.4496900141239166 0.024447999894618988 0.048850998282432556 -0.3682900071144104 -0.25126999616622925 0.30880001187324524 -0.585919976234436 0.1694599986076355 0.5986599922180176 -0.4068799912929535 0.17211000621318817 0.0094461003318429 -0.673009991645813 0.46250998973846436 -0.32089000940322876 -0.4057599902153015 0.5067800283432007 -0.06926699727773666 0.06576699763536453 0.6044399738311768 -0.0980990007519722 -0.5348399877548218 -0.040734000504016876 0.8082699775695801 -0.15321999788284302 -0.15633000433444977 0.31584998965263367 -0.1579200029373169 0.5484300255775452 0.8811299800872803 -0.3977600038051605 0.6768100261688232 -0.23260000348091125 -0.13687999546527863 -0.3943600058555603 0.6182199716567993 -0.11302000284194946 0.47332000732421875 -0.024886999279260635 0.027103999629616737 0.19954000413417816 0.08721800148487091 0.2993299961090088 0.3419399857521057 -0.49254000186920166 -0.03678499907255173 0.2506299912929535 0.030709000304341316 -0.21389000117778778 0.18306000530719757 -0.04237800091505051 -0.1732500046491623 -0.3406499922275543 0.25619998574256897 0.4312399923801422 -0.009519499726593494 -0.16021999716758728 -0.5843899846076965 -0.08114100247621536 -0.025832999497652054 -0.5176200270652771 -0.1590300053358078 0.3774999976158142 -0.0421999990940094 -0.805899977684021 -0.011633999645709991 0.025856999680399895 -0.3405599892139435 0.2410299926996231 0.45785000920295715 0.10270000249147415 0.558459997177124 0.3873499929904938 -0.2745699882507324 0.12568999826908112 -0.2893899977207184 -0.7520400285720825 -0.532509982585907 0.1975799947977066 -0.7811400294303894 -0.2641200125217438 0.1637199968099594 0.6122699975967407 0.06948599964380264 0.32638999819755554 0.653410017490387 0.13797999918460846 0.15220999717712402 0.44029998779296875 -0.1392199993133545 -0.09532400220632553 0.18713000416755676 -0.1076200008392334 -0.3452500104904175 -0.2010599970817566 -0.27935001254081726 0.1741199940443039 -0.44725000858306885 0.38804998993873596 -0.44154998660087585 -0.18233999609947205 0.7590699791908264 0.5324400067329407 -0.5827800035476685 -0.8605300188064575 0.03132399916648865 0.22105999290943146 -0.2517299950122833 0.39719000458717346 -1.427299976348877 -0.3229199945926666 0.16832999885082245 1.0390000343322754 -0.40511998534202576 -0.22516000270843506 0.41550999879837036 0.7937899827957153 -0.3095499873161316 -0.029316000640392303 -0.49810999631881714 0.7859899997711182 0.4336000084877014 0.5005800127983093 0.19323000311851501 0.23146000504493713 -0.7517600059509277 -0.15598000586032867 -0.09363400191068649 0.30024999380111694 0.29719001054763794 -0.301690012216568 -0.04387599974870682 -0.4459800124168396 -0.10824000090360641 -0.13832999765872955 0.5561699867248535 -0.29833000898361206 0.3095099925994873 0.26462000608444214 -0.08857499808073044 -0.35885998606681824 -0.47979000210762024 -0.4309999942779541 -0.1989399939775467 0.0648680031299591 0.22382999956607819 -0.3487200140953064 0.29791998863220215 0.33739998936653137 -0.10040999948978424 0.17151999473571777 -0.21278999745845795 -0.36643001437187195 0.22846999764442444 0.02459700033068657 -0.33368998765945435 0.5979899764060974 0.061475999653339386 -0.8931400179862976 -0.447160005569458 -0.1855500042438507 -0.08141200244426727 0.19539999961853027 -0.39166998863220215 -0.17091000080108643 0.5029100179672241 -0.6247100234031677 -0.02771800011396408 -0.07049699872732162 0.12432999908924103 0.8618500232696533 -0.46349000930786133 -0.2537600100040436 -0.41471999883651733 -0.02645299956202507 0.08578500151634216 0.3001999855041504 -0.3324599862098694 0.1940699964761734 -0.4544700086116791 -0.5872600078582764 0.3911300003528595 0.05282700061798096 -0.5262699723243713 -0.4104599952697754 0.11038000136613846 0.40915000438690186 0.3235499858856201 -0.38850998878479004 0.31419000029563904
