weevil 0.0801210030913353 -0.09211599826812744 0.02791599929332733 0.03201200067996979 0.45559000968933105 -0.7686600089073181 -0.009135300293564796 0.1306300014257431 0.3384999930858612 -0.527679979801178 0.17597000300884247 -0.5173199772834778 0.2185399979352951 0.531220018863678 0.8631100058555603 1.3264000415802002 0.04967699944972992 -0.552370011806488 -0.37397998571395874 0.518090009689331 0.252020001411438 -1.1420999765396118 0.019106000661849976 0.069691002368927 -0.21638000011444092 -0.2566399872303009 -0.4317399859428406 -0.18813000619411469 0.6823400259017944 0.49035000801086426 -0.3342899978160858 -0.1021599993109703 0.8160799741744995 0.2655099928379059 -0.3301999866962433 0.3551200032234192 0.3261899948120117 0.4442000091075897 0.09466700255870819 -0.04544299840927124 0.12208999693393707 0.1532299965620041 -0.15097999572753906 -0.282260000705719 -0.09863100200891495 0.3910500109195709 -0.19856999814510345 -0.03320600092411041 -0.05245000123977661 0.008538699708878994 0.6820499897003174 -0.08977799862623215 0.11202999949455261 -0.030964000150561333 0.31839999556541443 -0.049091000109910965 0.3291800022125244 0.6934099793434143 0.12117999792098999 -0.06289199739694595 0.038878001272678375 0.11434999853372574 0.33215001225471497 0.39695000648498535 -0.5201200246810913 0.033955998718738556 -0.3033300042152405 -0.39316999912261963 -0.175369992852211 -0.3633899986743927 -0.2973499894142151 0.2484399974346161 0.5972599983215332 0.0018280999502167106 0.22035999596118927 -0.152879998087883 0.11546000093221664 0.5627099871635437 0.16166000068187714 -0.3801000118255615 -0.04499199986457825 0.030835000798106194 0.1304599940776825 0.07468000054359436 -0.8573600053787231 -0.656000018119812 0.2836399972438812 -0.2948499917984009 0.07022999972105026 -0.0978190004825592 -0.7046399712562561 -0.10792999714612961 -0.537559986114502 -0.7173799872398376 -0.7318400144577026 0.24501000344753265 0.23016999661922455 0.47558000683784485 -0.3313499987125397 0.2789900004863739 0.3162800073623657 -0.3353100121021271 0.42528000473976135 -0.4923099875450134 -0.7863600254058838 -0.1887499988079071 0.390720009803772 0.30167001485824585 -0.328220009803772 0.07176899909973145 0.32815998792648315 0.3810400068759918 -0.5036500096321106 0.5881999731063843 -0.19130000472068787 -0.2379699945449829 -0.3291400074958801 0.12399999797344208 -0.41200000047683716 0.5086699724197388 -0.5172100067138672 0.12289000302553177 -0.35670000314712524 -0.26941001415252686 -0.15198999643325806 0.7385900020599365 0.07937899976968765 0.5205000042915344 -0.31661999225616455 -0.007637899834662676 0.3665199875831604 0.01487400010228157 -0.5762799978256226 0.5099700093269348 -0.1880200058221817 0.0010712000075727701 -0.3785400092601776 0.6286799907684326 -0.35684001445770264 -0.49480998516082764 -0.34092000126838684 -0.13354000449180603 -0.21807999908924103 0.7823899984359741 0.3717600107192993 -0.38032999634742737 0.0898829996585846 0.580560028553009 0.5212200284004211 -0.17475000023841858 0.19961999356746674 0.2614099979400635 0.09901300072669983 0.10113999992609024 -0.14440999925136566 -0.38051000237464905 -0.8456900119781494 -0.11851999908685684 -0.015879999846220016 0.0538019984960556 -0.27000001072883606 -0.006877500098198652 -0.036524999886751175 0.25982001423835754 -0.038784999400377274 -0.10008999705314636 -0.9586899876594543 0.044920001178979874 0.8057799935340881 0.7856199741363525 -0.17387999594211578 -0.08271899819374084 -0.5953699946403503 0.1685599982738495 -0.6977300047874451 0.5631200075149536 0.07108400017023087 0.04963799938559532 0.11518000066280365 0.1268399953842163 -0.22989000380039215 -0.5753099918365479 -0.07662899792194366 -0.17347000539302826 0.18148000538349152 0.030894000083208084 0.329010009765625 -0.42469000816345215 -0.17114000022411346 -0.2453799992799759 -0.7525299787521362 -0.17506000399589539 0.753849983215332 0.40296000242233276 0.5317800045013428 0.852840006351471 -0.5762199759483337 0.7986999750137329 -0.04096300154924393 -0.7220900058746338 -0.19464999437332153 0.30623000860214233 -0.5169699788093567 0.21995000541210175 0.8942899703979492 0.03683000057935715 -0.08376800268888474 0.07482299953699112 -0.3145500123500824 -0.3091999888420105 -0.48263001441955566 0.40790000557899475 0.30845001339912415 0.4846000075340271 0.18401999771595 0.6722300052642822 0.7617200016975403 0.638759970664978 0.18556000292301178 -0.060701001435518265 -0.5884900093078613 0.4585599899291992 0.11619000136852264 -0.625029981136322 -0.41589999198913574 -0.5721499919891357 0.08874200284481049 0.7973999977111816 -0.025100000202655792 0.06608899682760239 0.024702999740839005 -0.3099600076675415 -0.2029999941587448 0.2400200068950653 -0.20311999320983887 0.1013299971818924 0.4139699935913086 0.2921600043773651 -0.2975099980831146 -0.5379499793052673 0.47435998916625977 0.21863000094890594 -0.04088800027966499 -0.31918999552726746 -0.3190299868583679 -0.462799996137619 0.31345000863075256 0.052983999252319336 0.010986999608576298 0.6277599930763245 -0.1759600043296814 0.4516800045967102 -0.0003239699872210622 0.2848599851131439 0.3485099971294403 -0.42879998683929443 -0.6201199889183044 -0.20645999908447266 0.44767001271247864 0.2929899990558624 -0.5882899761199951 -0.2090200036764145 0.09775099903345108 0.790690004825592 -0.3106600046157837 0.17687000334262848 -0.22703999280929565 -0.11212000250816345 0.7468000054359436 0.2340099960565567 0.7985100150108337 0.2507700026035309 0.05734800174832344 0.06622699648141861 -0.4210200011730194 0.23624999821186066 0.28683000802993774 0.4599500000476837 0.38611000776290894 0.37540000677108765 0.3578200042247772 -0.18137000501155853 0.46244001388549805 -0.3293899893760681 0.40904998779296875 0.0676020011305809 0.018115000799298286 0.25630998611450195 0.6965299844741821 0.11360999941825867 -0.01690099947154522 0.35155001282691956 -0.7326099872589111 0.4365699887275696 -0.2969000041484833 0.04071500152349472 0.00559729989618063 -1.0978000164031982 0.17644000053405762 -0.14834000170230865
lamont 0.01843300089240074 0.08183199912309647 -0.14239999651908875 -0.5227900147438049 -0.4979099929332733 -0.028423000127077103 -0.31494998931884766 -0.13266000151634216 0.11469999700784683 -0.02239600010216236 0.025129999965429306 1.059499979019165 0.17534999549388885 0.2863300144672394 -0.1842699944972992 -0.14529000222682953 0.2982099950313568 0.5815500020980835 0.15318000316619873 -0.06305400282144547 0.2643499970436096 0.017309000715613365 -0.2660900056362152 -0.03968700021505356 0.1497499942779541 -0.49452000856399536 -0.4986799955368042 0.5934900045394897 0.3019300103187561 0.043671999126672745 0.25082001090049744 0.13482999801635742 -0.20573000609874725 0.5069900155067444 -0.04263899847865105 -0.11674000322818756 -0.31391000747680664 0.04593399912118912 0.12031000107526779 0.0648140013217926 0.1899999976158142 0.211899995803833 -0.025314999744296074 0.15031999349594116 0.3803899884223938 0.11027999967336655 -0.016224000602960587 -0.20091000199317932 0.287090003490448 0.3686699867248535 0.13946999609470367 -0.12886999547481537 0.23927000164985657 0.07017000019550323 0.09291499853134155 0.03639499843120575 0.09000100195407867 -0.18107999861240387 -0.26444000005722046 -0.18512000143527985 -0.07788100093603134 0.2831000089645386 0.6240599751472473 -0.09356500208377838 0.2503400146961212 -0.09325599670410156 0.0359250009059906 -0.10947000235319138 0.19248999655246735 -0.6736999750137329 -0.0424639992415905 0.1146399974822998 -0.6908100247383118 0.4043999910354614 -0.2181600034236908 0.3324199914932251 0.6958600282669067 0.04332699999213219 -0.28703999519348145 0.3159399926662445 -0.4092999994754791 -1.1212999820709229 0.23331999778747559 0.17177000641822815 -0.18039000034332275 0.12943999469280243 0.5211700201034546 -0.3086700141429901 -0.2531700134277344 -0.6618800163269043 0.12046000361442566 0.3093799948692322 -0.010862999595701694 -0.10760000348091125 -0.28356999158859253 -0.5935699939727783 -0.14249999821186066 -0.015305999666452408 0.13570000231266022 0.014314999803900719 -0.4013400077819824 -0.16023999452590942 -0.4647200107574463 -0.06305799633264542 0.4379099905490875 0.09508299827575684 -0.12511999905109406 0.04367100074887276 0.2567000091075897 -0.7969200015068054 0.06661199778318405 -0.10643000155687332 0.01683799922466278 -0.22141000628471375 0.2911800146102905 0.18485000729560852 0.021681999787688255 0.6873300075531006 -0.5288599729537964 -0.10215000063180923 -0.25731998682022095 0.029709000140428543 0.34619998931884766 -0.04489300027489662 -0.26458999514579773 -0.3468399941921234 -0.0024953000247478485 -0.10340999811887741 -0.5959299802780151 0.1430400013923645 0.002870399970561266 0.3287400007247925 -0.4720099866390228 0.3392300009727478 0.014832999557256699 0.032326001673936844 0.10621999949216843 0.23894000053405762 0.44165998697280884 0.6334999799728394 -0.05979999899864197 -0.16764000058174133 -0.5040900111198425 0.4978100061416626 0.03857700154185295 -0.039611998945474625 -0.002658700104802847 -0.07551400363445282 -0.3196299970149994 0.08144299685955048 0.21585999429225922 0.134770005941391 -0.42427000403404236 -0.12018000334501266 -0.2721700072288513 0.03449200093746185 0.1488800048828125 0.0628179982304573 0.24733999371528625 -0.40178000926971436 -0.1957399994134903 -0.2884500026702881 0.22092999517917633 -0.42357000708580017 -0.33348000049591064 -0.05593299865722656 0.5188199877738953 -0.03353400155901909 -0.03064199909567833 0.4113300144672394 0.5104900002479553 0.3165700137615204 0.005220899824053049 0.02484700083732605 -0.16151000559329987 0.3445099890232086 -0.3208400011062622 -0.3081899881362915 0.6928300261497498 -0.06308899819850922 -0.6887400150299072 -0.06423799693584442 -0.10193999856710434 -0.9472100138664246 0.6049100160598755 -0.052820999175310135 0.533079981803894 -0.2418700009584427 -0.23857000470161438 0.1068200021982193 -0.37748000025749207 -0.3287999927997589 0.4507400095462799 0.03810799866914749 0.3946300148963928 -0.2751300036907196 -0.5477499961853027 0.13123999536037445 0.2752799987792969 -0.09775199741125107 0.35947999358177185 0.17876000702381134 -0.261570006608963 0.04988500103354454 0.3885299861431122 -0.17791999876499176 0.3987700045108795 0.42875000834465027 -0.052459001541137695 -0.0005766000249423087 0.018792999908328056 -0.3195599913597107 -0.08424299955368042 0.19682000577449799 0.40483999252319336 -0.27000999450683594 0.14922000467777252 0.01369400043040514 0.07338500022888184 -0.06363800168037415 -0.4629400074481964 0.1072700023651123 0.41815999150276184 -0.33421000838279724 -0.9476699829101562 0.21696999669075012 -0.5332000255584717 0.41492998600006104 -0.7469300031661987 -0.08596699684858322 0.13091999292373657 -0.23544999957084656 0.16541999578475952 0.4053899943828583 -0.4605399966239929 -0.0857900008559227 -0.26072001457214355 -0.28758999705314636 -0.30524998903274536 -0.07394199818372726 0.014825999736785889 -0.36375999450683594 0.07869800180196762 0.8969699740409851 -0.18904000520706177 0.02938699908554554 -0.005703299771994352 0.0065612997859716415 -0.2716499865055084 0.7844899892807007 -0.10209999978542328 0.013389999978244305 0.188060000538826 -0.04434100165963173 0.04291599988937378 -0.46362999081611633 -0.24901999533176422 -0.506630003452301 -0.16414999961853027 -0.05922799929976463 0.21990999579429626 -0.27816998958587646 -0.37415000796318054 0.45598000288009644 0.16920000314712524 0.1939300000667572 -0.2802000045776367 0.31992998719215393 0.25940001010894775 -0.36146000027656555 0.2829599976539612 -0.39469999074935913 -0.4153600037097931 -0.17476999759674072 -0.1662299931049347 -0.016975000500679016 -0.3765600025653839 -0.08321099728345871 0.6213099956512451 0.4167099893093109 0.3630799949169159 -0.058292001485824585 -0.40959998965263367 -0.12443000078201294 0.24719999730587006 0.0900539979338646 0.10812000185251236 0.20458999276161194 0.18528999388217926 -0.030522000044584274 0.27873000502586365 0.1977500021457672 -0.6213899850845337 0.1278800070285797 0.42691001296043396 0.20890000462532043 -0.3227199912071228 -0.2752699851989746 -0.00027702999068424106 0.03058600053191185
hakim -0.29273998737335205 0.12108000367879868 0.4357999861240387 -0.5742200016975403 0.21482999622821808 0.30153998732566833 -0.018076999112963676 0.2992599904537201 -0.17813999950885773 0.1774500012397766 0.11437000334262848 0.8549699783325195 0.017192000523209572 0.05513099953532219 0.7273399829864502 -0.019206000491976738 -0.10547000169754028 -0.2974500060081482 0.6747499704360962 0.4320699870586395 0.10363999754190445 -0.4493100047111511 -0.19699999690055847 0.09361600130796432 -0.03351999819278717 -0.3409300148487091 0.019324999302625656 -0.11022000014781952 0.30542001128196716 -0.41686001420021057 0.23771999776363373 0.08955799788236618 -0.07992299646139145 0.19971999526023865 -0.6546800136566162 -0.25391000509262085 0.22002999484539032 0.2972800135612488 0.41791999340057373 0.2745000123977661 0.4641000032424927 0.1886499971151352 -0.01751299947500229 0.45910000801086426 -0.45829999446868896 -0.5645800232887268 0.3388400077819824 -0.22089999914169312 0.30296000838279724 -0.34637999534606934 0.4930199980735779 -0.17307999730110168 0.27702999114990234 -0.25321999192237854 -0.45194000005722046 -0.16970999538898468 0.22086000442504883 -0.40351998805999756 0.14055000245571136 0.5770699977874756 0.08821800351142883 -0.6638000011444092 0.8782600164413452 0.19644999504089355 0.09443400055170059 -0.0941149964928627 -0.30272001028060913 -0.23500999808311462 0.061643000692129135 0.22380000352859497 -0.2237900048494339 -0.07800400257110596 -0.3674300014972687 0.0651250034570694 -0.4094800055027008 0.13962000608444214 0.33945998549461365 -0.42813000082969666 -0.40136998891830444 0.012558000162243843 0.2925400137901306 -0.15801000595092773 -0.28821998834609985 -0.13133999705314636 0.33489999175071716 0.49467000365257263 0.13086000084877014 -0.6821399927139282 -0.005778700113296509 -0.061333999037742615 -0.4153999984264374 0.03883399814367294 -0.12606999278068542 0.445499986410141 -0.21198999881744385 0.24841000139713287 -0.25091999769210815 -0.1509999930858612 -0.5965700149536133 -0.8425599932670593 -0.4762600064277649 -0.4675700068473816 -0.04221700131893158 0.33814001083374023 0.1219400018453598 -0.23675000667572021 0.09040699899196625 0.3286300003528595 0.17990000545978546 -0.1577499955892563 0.026976000517606735 -0.1069599986076355 -0.1914999932050705 -0.1361600011587143 -0.01874700002372265 0.0676800012588501 0.04628000035881996 0.562529981136322 0.3749000132083893 -0.22431999444961548 0.031876999884843826 -0.63919997215271 0.5137799978256226 0.636139988899231 0.129940003156662 -0.9787099957466125 -0.025489000603556633 -0.18154999613761902 -0.27445998787879944 -0.03544599935412407 0.3478200137615204 -0.3653999865055084 -0.3545199930667877 -0.7031300067901611 0.2581300139427185 0.6762300133705139 0.4389500021934509 0.771340012550354 -0.06518799811601639 0.291810005903244 -0.4644399881362915 -0.10576000064611435 0.672980010509491 -0.3806000053882599 0.5059000253677368 -0.4046100080013275 0.09185600280761719 -0.4085400104522705 0.19148999452590942 0.3637999892234802 0.37602999806404114 -0.02981499955058098 0.036357998847961426 -0.25328001379966736 0.3481599986553192 0.14611999690532684 0.10826999694108963 0.6709100008010864 0.38446998596191406 -0.28723999857902527 -0.14111000299453735 -0.0786919966340065 -0.4814099967479706 -0.028557000681757927 -0.3093000054359436 -0.050857000052928925 -0.19519999623298645 0.28876999020576477 -0.11660999804735184 -0.07865399867296219 0.46147000789642334 0.39517998695373535 0.4866900146007538 0.11238999664783478 0.41714999079704285 0.7857300043106079 -0.2501699924468994 -0.3017899990081787 0.17483000457286835 0.27347999811172485 -0.2797900140285492 0.03135000169277191 0.11590000241994858 -0.6157600283622742 -0.3330000042915344 -0.32085999846458435 0.38453999161720276 -0.44279998540878296 -0.23253999650478363 0.32708999514579773 0.07300399988889694 -0.11067000031471252 0.1542000025510788 -0.012635000050067902 -0.626990020275116 -0.2636300027370453 -0.6373100280761719 -0.2602599859237671 -0.08350300043821335 -0.122079998254776 0.03162899985909462 0.06576000154018402 0.4560199975967407 -0.5095199942588806 -0.5694400072097778 0.6921700239181519 0.17465999722480774 0.14900000393390656 -0.15360000729560852 -0.09122800081968307 0.06371399760246277 0.4424000084400177 -0.3746100068092346 -0.11818999797105789 0.19859999418258667 -0.39552998542785645 -0.17305000126361847 0.08849599957466125 -0.060940999537706375 -0.023010000586509705 0.07159200310707092 0.5219100117683411 -0.328900009393692 0.02348800003528595 -0.008217199705541134 0.35295000672340393 -0.15764999389648438 0.3499400019645691 0.11428999900817871 0.06832200288772583 -0.1414400041103363 0.8098199963569641 0.4212700128555298 0.27788999676704407 -0.3418999910354614 -0.14464999735355377 -0.00942320004105568 0.07263600081205368 -0.026691999286413193 -0.7073100209236145 -0.1757500022649765 0.3698900043964386 -0.13675999641418457 0.5813300013542175 -0.5795900225639343 0.29076001048088074 -0.10998000204563141 0.4185900092124939 -0.2732999920845032 0.29534000158309937 0.2568899989128113 -0.10510999709367752 -0.35199999809265137 -0.4177600145339966 -0.0826520025730133 -0.23457999527454376 -0.18525999784469604 -0.1677200049161911 -0.03091599978506565 -0.4369699954986572 0.4129599928855896 0.3636400103569031 -0.10767000168561935 0.2043199986219406 0.1565299928188324 0.14507000148296356 -0.31700998544692993 0.04768500104546547 -0.08338599652051926 0.5109999775886536 0.062238000333309174 0.32161998748779297 -0.290120005607605 -0.2156600058078766 -0.33289000391960144 -0.15740999579429626 0.11072999984025955 0.17418000102043152 0.8141199946403503 0.20667000114917755 -0.07718600332736969 0.5150399804115295 0.0530490018427372 -0.42563000321388245 0.18863999843597412 0.2468699961900711 -0.25380998849868774 0.08651000261306763 -0.18303999304771423 -0.11608999967575073 0.02777699939906597 -0.031216999515891075 -0.7831699848175049 0.3671799898147583 -0.01999500021338463 0.0978429988026619 0.06533700227737427 0.001945100026205182 0.2092200070619583 -0.07197000086307526
bagpipe 0.39864999055862427 -0.5885999798774719 0.010936999693512917 -0.6498399972915649 -0.33812999725341797 0.01103499997407198 -0.053137000650167465 -0.6333900094032288 0.405239999294281 -0.025503000244498253 0.09042400121688843 0.1600400060415268 -0.7452499866485596 -0.14573000371456146 -0.2419700026512146 0.0007721399888396263 0.8517500162124634 0.2787100076675415 0.20821000635623932 0.7645400166511536 0.24305999279022217 0.6299600005149841 0.2757200002670288 0.322299987077713 -0.14462999999523163 -0.1041800007224083 0.07946000248193741 -0.021074999123811722 -0.5162500143051147 -0.1362600028514862 0.5080299973487854 -0.044029999524354935 -0.3823699951171875 0.0059238001704216 -0.02619200013577938 -0.7254800200462341 -0.20035000145435333 0.1039000004529953 -0.052264001220464706 -0.069862000644207 -0.0036092998925596476 -0.10475999861955643 -0.519349992275238 0.48184001445770264 -0.06200699880719185 0.0829939991235733 0.5379599928855896 0.19368000328540802 -0.3390499949455261 -0.038405001163482666 -0.22758999466896057 0.21126000583171844 -0.381740003824234 0.05996600165963173 -0.445609986782074 0.23884999752044678 0.20645999908447266 0.053700000047683716 -0.075654998421669 -0.2223999947309494 -0.08830700069665909 0.14340999722480774 0.19296999275684357 0.3087500035762787 -0.5383599996566772 0.08302199840545654 -0.6281700134277344 0.2455199956893921 -0.1645900011062622 -0.17307999730110168 -0.6167100071907043 -0.08013699948787689 0.5773299932479858 0.20958000421524048 -0.48157998919487 -0.9752600193023682 -0.10553999990224838 -0.07209999859333038 -0.47846001386642456 -0.03909600153565407 -0.5239999890327454 0.2763800024986267 -0.4329099953174591 0.19930000603199005 0.49722999334335327 -0.04396599903702736 -0.05691799893975258 0.49182000756263733 0.20816999673843384 -0.35016998648643494 0.3693999946117401 -0.5341600179672241 -0.8875899910926819 0.17861999571323395 -0.47064998745918274 -0.44025999307632446 -0.5840299725532532 0.09670799970626831 0.4496000111103058 -0.4027099907398224 0.1759600043296814 0.1973000019788742 -0.6294000148773193 -0.4935699999332428 0.11659999936819077 0.5708900094032288 0.6478899717330933 0.4788300096988678 -0.43285998702049255 -0.036538999527692795 -0.12436000257730484 -0.4555499851703644 0.23959000408649445 0.023993000388145447 0.05743600055575371 0.19746999442577362 0.26802000403404236 0.5951399803161621 0.17975999414920807 0.4012199938297272 -0.27865999937057495 0.34351998567581177 0.22554999589920044 0.3152399957180023 -0.8480899930000305 0.2080399990081787 0.709119975566864 0.13539999723434448 0.3099200129508972 -0.3499799966812134 -0.38530001044273376 -0.46786001324653625 0.34757000207901 -0.20506000518798828 0.09569499641656876 -0.19694000482559204 0.23341000080108643 -0.1709900051355362 0.44652000069618225 0.219650000333786 1.1115000247955322 0.3041599988937378 0.24808000028133392 0.5577800273895264 -0.25209999084472656 0.3383300006389618 0.04234499856829643 -0.8720700144767761 0.17518000304698944 -0.4901300072669983 -0.5803099870681763 -0.13186000287532806 -0.2466599941253662 -0.03994400054216385 0.07522200047969818 -0.43814998865127563 -0.2272700071334839 0.18591000139713287 -0.4543899893760681 0.022874999791383743 -0.7636799812316895 0.12075000256299973 -0.02321000024676323 0.7020000219345093 0.13022999465465546 0.2726700007915497 -0.3753899931907654 0.15737000107765198 -0.030198000371456146 0.23311999440193176 0.006405100226402283 -0.4283500015735626 0.07439900189638138 -0.28624001145362854 0.1735299974679947 0.3140600025653839 -0.6088899970054626 0.8576099872589111 -0.44279998540878296 -0.35308998823165894 0.8211600184440613 0.42598000168800354 -0.13287000358104706 -0.24592000246047974 0.3861599862575531 -0.1520099937915802 -0.015728000551462173 -0.1802300065755844 0.022489000111818314 0.014670000411570072 0.3047800064086914 -0.5020400285720825 0.20649999380111694 -0.6803799867630005 0.4145199954509735 -0.0014531000051647425 0.7016100287437439 0.032993000000715256 0.3977400064468384 0.03773599863052368 -0.04975299909710884 -0.37665000557899475 0.3518199920654297 0.10773000121116638 0.08943700045347214 0.06825199723243713 -0.35607999563217163 0.17430999875068665 -0.14847999811172485 -0.045434001833200455 -0.5261399745941162 -0.2781299948692322 -0.6323400139808655 -0.03252200037240982 0.2773900032043457 0.26431000232696533 -0.10785999894142151 -0.2018599957227707 -0.009092699736356735 -0.1484300047159195 -0.3000899851322174 0.17649999260902405 -0.11740999668836594 -0.16545000672340393 0.02027999982237816 -0.48291999101638794 -0.3295300006866455 -0.056807998567819595 0.4669100046157837 0.23074999451637268 0.08271300047636032 -0.13350999355316162 -0.5468999743461609 0.1953199952840805 -0.18320000171661377 -0.2439199984073639 -0.37463000416755676 -0.5905699729919434 0.6357799768447876 -0.33235999941825867 -0.11853999644517899 -0.3016299903392792 0.010452999733388424 0.51350998878479 -0.8353400230407715 0.12897999584674835 -0.5511400103569031 -0.05097400024533272 -0.6357700228691101 0.21213999390602112 -0.4042400121688843 0.4307500123977661 0.14573000371456146 0.3333199918270111 0.5292900204658508 -0.3523400127887726 -0.3390499949455261 0.0024166000075638294 -0.006480399984866381 0.019620999693870544 0.5360299944877625 -0.5304099917411804 -0.33583998680114746 0.1714099943637848 -0.04102800041437149 0.010728999972343445 -0.30691999197006226 -0.5496199727058411 -0.3257400095462799 0.2093600034713745 -0.03152899816632271 0.18113000690937042 0.014116000384092331 -0.04500399902462959 -0.043807998299598694 -0.05634799972176552 0.10311000049114227 -0.04327699914574623 0.46292001008987427 0.12363000214099884 0.46814998984336853 0.19686999917030334 -0.32506999373435974 0.48563000559806824 0.23930999636650085 0.09825599938631058 -0.452890008687973 0.30643999576568604 0.3169499933719635 0.18434999883174896 -0.16412000358104706 0.0846169963479042 0.13792000710964203 -0.01891000010073185 -0.45212000608444214 0.16806000471115112 0.20408999919891357 -0.7641100287437439 0.3228900134563446 -0.13353000581264496
leroy 0.763670027256012 0.0062547000125050545 -0.01896500028669834 -0.42357000708580017 -0.33981001377105713 -0.04305100068449974 -0.10189999639987946 -0.7290700078010559 0.028648000210523605 -0.07113800197839737 0.5497300028800964 0.5541899800300598 -0.27577000856399536 -0.34584999084472656 0.05615299940109253 0.14985999464988708 0.2834700047969818 0.027722999453544617 0.20577000081539154 -0.523580014705658 0.28439000248908997 0.1527000069618225 -0.3073999881744385 -0.35879001021385193 0.025669999420642853 0.5248799920082092 0.34665998816490173 -0.15318000316619873 -0.06422699987888336 0.07583200186491013 0.19596999883651733 -0.15095999836921692 -0.13038000464439392 -0.3994300067424774 0.27869001030921936 -0.11291000247001648 -0.17689000070095062 0.6353099942207336 0.3604699969291687 0.3517000079154968 -0.24903999269008636 0.47578001022338867 0.45478999614715576 -0.322270005941391 -0.08825600147247314 0.2685000002384186 -0.35923001170158386 -0.10537999868392944 0.38683000206947327 0.2977299988269806 -0.1137399971485138 -0.24977999925613403 0.10631000250577927 -0.27619001269340515 0.03946499899029732 0.275519996881485 0.15812000632286072 0.0041646999306976795 -0.3161500096321106 -0.0690850019454956 -0.37773001194000244 0.28466999530792236 -0.011928999796509743 -0.5249500274658203 -0.2552500069141388 0.21985000371932983 0.1315699964761734 -0.2019300013780594 0.2272000014781952 0.18476000428199768 -0.004230299964547157 -0.41187000274658203 -0.4417000114917755 -0.34481000900268555 -0.2536500096321106 0.6165500283241272 0.09051100164651871 0.042424000799655914 -0.177729994058609 -0.6359500288963318 -0.2838999927043915 -0.7981600165367126 -0.46728000044822693 -0.18302999436855316 -0.0018032999942079186 0.0348609983921051 0.034598998725414276 -0.47040000557899475 0.1543000042438507 0.13402999937534332 0.33112001419067383 -0.08704099804162979 0.5518800020217896 -0.03509899973869324 -0.5174800157546997 -0.1387999951839447 -0.11813999712467194 0.10582999885082245 -0.12097000330686569 -0.16755999624729156 -0.15557000041007996 -0.003190099960193038 -0.6495100259780884 0.5086899995803833 0.3220300078392029 0.35644999146461487 0.0504320003092289 -0.016743000596761703 0.2408600002527237 0.07674399763345718 0.056453999131917953 -0.032705001533031464 -0.19562000036239624 0.10487999767065048 0.5343400239944458 0.27114999294281006 0.30191999673843384 0.35958999395370483 -0.2054000049829483 0.2592499852180481 -0.08068399876356125 -0.1702200025320053 0.32409000396728516 -0.008438999764621258 -0.18294000625610352 0.02453799918293953 0.04944600164890289 -0.5521900057792664 -0.7038699984550476 0.15857000648975372 0.07430399954319 0.2892799973487854 0.20385000109672546 0.3992300033569336 -0.02172599919140339 0.5300499796867371 0.11986999958753586 0.07256600260734558 0.08713199943304062 0.8576700091362 0.3098300099372864 -0.019206000491976738 0.178289994597435 0.2296299934387207 -0.34185001254081726 -0.44086000323295593 -0.3186799883842468 -0.12246000021696091 0.6679499745368958 -0.13957999646663666 -0.27250000834465027 -0.011095999740064144 -0.07586699724197388 -0.3748599886894226 0.35596999526023865 -0.07126600295305252 0.22935999929904938 0.03721100091934204 0.2199700027704239 -0.2872599959373474 0.1351899951696396 -0.3307099938392639 -0.3726100027561188 -0.006502400152385235 0.2037000060081482 -0.23943999409675598 0.03759700059890747 0.10542000085115433 0.3080199956893921 0.019849000498652458 -0.09378000348806381 -0.08988700062036514 0.14088000357151031 0.1759600043296814 0.08017999678850174 0.2861100137233734 -0.47762998938560486 -0.5615100264549255 0.4303399920463562 0.35666999220848083 -0.14916999638080597 0.343860000371933 -0.13007999956607819 -0.22116999328136444 0.3533099889755249 0.009694499894976616 -0.6056699752807617 -0.05832599848508835 -0.20440000295639038 -0.10057000070810318 -0.6858800053596497 -0.3716999888420105 0.2911199927330017 -0.014983000233769417 0.008759300224483013 0.16904999315738678 -0.0658940002322197 -0.3558799922466278 0.03832399845123291 -0.38916000723838806 -0.3257800042629242 -0.03361399844288826 -0.5008299946784973 0.1863500028848648 0.28512999415397644 -0.42754000425338745 0.4589900076389313 -0.10684999823570251 0.07793799787759781 -0.6329600214958191 0.43990999460220337 -0.23619000613689423 -0.4341900050640106 -0.04182400181889534 -0.045885998755693436 -0.2562899887561798 0.486050009727478 0.06347300112247467 0.35717999935150146 -0.3932799994945526 0.21630999445915222 0.11896999925374985 -0.18956999480724335 0.17167000472545624 -1.7074999809265137 0.12732000648975372 -0.8034899830818176 0.2707200050354004 -0.0440870001912117 0.27483001351356506 0.31935998797416687 -0.11990000307559967 0.24621999263763428 -0.43303999304771423 -0.24708999693393707 -0.00928139965981245 -0.0017787000397220254 0.017942000180482864 0.00030618999153375626 -0.19555999338626862 0.17247000336647034 -0.015398000366985798 -0.339819997549057 0.3544600009918213 0.5314199924468994 -0.016479000449180603 -0.021609999239444733 0.07199700176715851 -0.11688999831676483 0.5314099788665771 -0.02673099935054779 0.28497999906539917 -0.06677000224590302 0.36711999773979187 0.12460000067949295 0.022001000121235847 -0.10063999891281128 -0.11934000253677368 0.12065999954938889 0.053252000361680984 0.022631999105215073 0.166360005736351 -0.2553899884223938 0.017503999173641205 0.17549000680446625 0.014870000071823597 0.14430999755859375 -0.20928999781608582 0.35561999678611755 -0.019934000447392464 0.13613000512123108 -0.008989100344479084 -0.216279998421669 -0.3039099872112274 -0.5764999985694885 0.17759999632835388 -0.3113499879837036 -0.040132999420166016 0.37193000316619873 0.007783600129187107 -0.059050001204013824 0.299780011177063 0.37286999821662903 0.23841999471187592 0.37171998620033264 0.21461999416351318 -0.19199000298976898 0.38492000102996826 -0.23804999887943268 0.06484799832105637 0.10605999827384949 -0.2752699851989746 -0.3521000146865845 0.22481000423431396 0.2460000067949295 0.22247999906539917 0.13774000108242035 0.23386000096797943 0.30893000960350037 -0.12750999629497528
rifle -0.1491200029850006 0.2557399868965149 -0.007181699853390455 -0.9598900079727173 0.1122799962759018 -0.2953200042247772 -1.1409000158309937 -0.2293899953365326 -0.23746000230312347 0.39313000440597534 -0.4387199878692627 0.4349899888038635 -0.09175699949264526 -0.07210999727249146 0.484250009059906 -0.127360001206398 0.32493001222610474 0.5171300172805786 0.6265000104904175 0.13334999978542328 0.2668899893760681 -0.7471200227737427 0.3066200017929077 0.21961000561714172 -0.5436300039291382 0.27559998631477356 -0.7309899926185608 -0.7529500126838684 -0.4412899911403656 -0.23003999888896942 -0.6499699950218201 0.632319986820221 0.1513800024986267 0.1687300056219101 -0.1781499981880188 -0.24953000247478485 0.11181999742984772 0.15894000232219696 -0.21705999970436096 -0.05027199909090996 -0.28411000967025757 -0.1468600034713745 -0.45969000458717346 -0.14535999298095703 -0.27083998918533325 0.3731499910354614 -0.014287999831140041 -0.6217700242996216 0.14674000442028046 -0.6686599850654602 -0.045441001653671265 -1.0717999935150146 0.2646999955177307 0.5084400177001953 -0.14751000702381134 -0.21383999288082123 -0.3757700026035309 -0.6971399784088135 0.27948999404907227 -1.4017000198364258 -0.2549799978733063 0.10040000081062317 -0.6669800281524658 0.6146699786186218 -0.5259699821472168 -0.510129988193512 -0.0710119977593422 1.2930999994277954 -0.4034999907016754 -0.302480012178421 0.21991999447345734 0.18073000013828278 0.34411001205444336 -0.27612000703811646 0.012695999816060066 -0.3917199969291687 1.0851000547409058 -0.8634899854660034 -0.795799970626831 1.2411999702453613 -0.08100199699401855 0.19540999829769135 -0.5356400012969971 -0.17739999294281006 -0.3310900032520294 0.13796000182628632 0.08830799907445908 0.5529900193214417 0.48399001359939575 0.2719399929046631 0.5037699937820435 -0.055406998842954636 0.756820023059845 0.3721199929714203 0.23562000691890717 -0.38537999987602234 -1.2822999954223633 -0.2993899881839752 -0.18761999905109406 0.4194900095462799 0.038075000047683716 0.3337000012397766 0.17761999368667603 -0.8032799959182739 0.30974000692367554 0.044707998633384705 -0.18910999596118927 -0.06212899833917618 -0.48137998580932617 0.04397499933838844 0.008088300004601479 0.010579000227153301 -0.3542900085449219 0.29914000630378723 0.18306000530719757 0.007196200080215931 0.327239990234375 0.08676200360059738 -0.34804999828338623 0.36079999804496765 -0.01980300061404705 -0.4976600110530853 -0.22937999665737152 -0.39180999994277954 0.11055000126361847 -0.4779599905014038 0.5651000142097473 -0.08158499747514725 -0.04870200157165527 -0.2362699955701828 0.16695000231266022 -0.3081600069999695 0.33180001378059387 0.12021999806165695 0.21979999542236328 0.10705000162124634 0.19683000445365906 -0.48116999864578247 0.19349999725818634 0.09611400216817856 0.02611600048840046 0.6160500049591064 0.33070001006126404 0.7830100059509277 -0.450439989566803 0.9608799815177917 -0.3438499867916107 0.3581100106239319 0.17267000675201416 0.40119999647140503 0.10910999774932861 0.29569000005722046 0.9781200289726257 0.38769999146461487 0.33265000581741333 0.7832099795341492 -0.15445999801158905 0.5397599935531616 0.1253100037574768 -0.6792799830436707 -0.6026899814605713 0.35604000091552734 0.2998499870300293 0.2185799926519394 0.08653400093317032 0.18049000203609467 -0.23002000153064728 0.5567100048065186 0.47894999384880066 -0.5940300226211548 -0.41394999623298645 -0.508870005607605 -0.09836500138044357 0.03657199814915657 -0.20322999358177185 -0.31411999464035034 0.17152999341487885 -0.49605000019073486 0.1150600016117096 -0.12624000012874603 0.3248000144958496 0.10541000217199326 -0.0625699982047081 0.7096499800682068 0.20882000029087067 0.8022099733352661 0.08348499983549118 -1.2135000228881836 -0.49272000789642334 0.6022300124168396 0.40182000398635864 -0.18544000387191772 -0.3156299889087677 -0.4509499967098236 -0.15814000368118286 -0.06446699798107147 -0.0017074999632313848 0.28282999992370605 0.33956998586654663 -0.520389974117279 0.2204899936914444 0.6892499923706055 -0.25979000329971313 -0.264490008354187 -0.7601799964904785 0.5775899887084961 0.44703999161720276 -0.18980999290943146 -0.1137399971485138 -0.5684900283813477 -0.1472100019454956 -0.019204000011086464 0.3910500109195709 0.4574899971485138 0.9118300080299377 0.3950999975204468 -0.3082999885082245 -0.1678999960422516 0.14855000376701355 -0.37744998931884766 -0.5808200240135193 0.11067000031471252 0.12090999633073807 0.0922589972615242 -2.347899913787842 0.14169000089168549 -0.8166599869728088 -0.5873299837112427 0.0014984000008553267 0.6964600086212158 0.02318600006401539 -0.2163500040769577 0.36476001143455505 0.04637899994850159 -0.15181000530719757 0.26385000348091125 -0.08836600184440613 0.5295600295066833 0.3406200110912323 -0.8787299990653992 0.5165299773216248 -0.6871799826622009 0.913860023021698 -0.16425999999046326 -0.39002999663352966 0.10033000260591507 -0.32820001244544983 -0.07464499771595001 -0.2291100025177002 -0.08606600016355515 0.7187100052833557 -0.1176299974322319 -0.07081200182437897 -0.3395799994468689 -0.022995999082922935 -0.14527000486850739 -0.2597399950027466 0.35315999388694763 0.1976899951696396 0.27230000495910645 -0.22896000742912292 0.011775000020861626 -0.047843001782894135 -0.37244001030921936 0.21811999380588531 -0.6329299807548523 0.6593999862670898 0.3042899966239929 -0.19177000224590302 0.19166000187397003 -0.26162999868392944 -0.5089799761772156 0.26339998841285706 0.5464400053024292 0.16607999801635742 0.5840299725532532 0.005449399817734957 -0.25270000100135803 0.10324999690055847 0.03167799860239029 0.38367000222206116 0.04442699998617172 -0.043717000633478165 0.15685999393463135 -0.017139000818133354 -0.44655999541282654 0.14002999663352966 0.5691999793052673 -0.05246900022029877 0.7238900065422058 -0.6602799892425537 -0.048909999430179596 0.21754999458789825 0.6246100068092346 -0.5448099970817566 0.38920000195503235 0.8113800287246704 -0.3990100026130676 -0.5419099926948547 -0.013162000104784966
honor -0.04666199907660484 -0.3043400049209595 0.12020000070333481 -0.4387100040912628 -0.16877000033855438 0.041218001395463943 -2.0999999046325684 -0.43990999460220337 -0.6236500144004822 0.16324999928474426 0.22300000488758087 0.22191999852657318 0.12540000677108765 0.13774000108242035 -0.11568000167608261 -0.2840900123119354 0.36395999789237976 -0.34365999698638916 0.40362000465393066 -0.1081399992108345 1.1272000074386597 0.33359000086784363 -0.19742000102996826 0.27309998869895935 -0.5213299989700317 0.5716800093650818 -0.893809974193573 -0.21332000195980072 -0.32276999950408936 0.5830399990081787 -0.7563199996948242 -0.44394999742507935 0.05883900076150894 0.38262999057769775 0.15333999693393707 0.08058899641036987 -0.4829399883747101 0.13510000705718994 -0.3385300040245056 -0.1326500028371811 -0.15569999814033508 0.3728500008583069 -0.10786999762058258 -0.23628999292850494 0.5046600103378296 -0.4235000014305115 -0.011638999916613102 0.3462499976158142 0.0510919988155365 0.5095900297164917 0.26611000299453735 0.0530100017786026 0.06780199706554413 -0.024676000699400902 0.22214999794960022 -0.2786400020122528 -0.12475000321865082 -0.3107300102710724 -0.08556900173425674 0.053860001266002655 -0.237869992852211 0.5742700099945068 -0.12443000078201294 -0.15887999534606934 0.15153999626636505 -0.14758999645709991 0.0809210017323494 0.024616999551653862 -0.2022400051355362 0.5976200103759766 -0.21578000485897064 -0.02126999944448471 0.5777300000190735 -0.22390000522136688 0.3584200143814087 0.08019600063562393 -0.28106001019477844 -0.12063000351190567 -0.4499799907207489 -0.44721999764442444 -0.2964800000190735 -0.8934000134468079 -0.16269999742507935 0.10943000018596649 0.32394999265670776 -0.45778000354766846 -0.07106000185012817 -0.0009156200103461742 0.3633899986743927 -0.11010999977588654 0.5370500087738037 0.12732000648975372 0.09358599781990051 -0.013283999636769295 -0.20433999598026276 -0.2046400010585785 -1.6304999589920044 -0.10006000101566315 0.6575400233268738 -0.05806899815797806 -0.056977998465299606 -0.7444900274276733 0.3797299861907959 -0.45173001289367676 -0.04707999899983406 0.37450000643730164 0.3060699999332428 -0.5404999852180481 -0.060412999242544174 0.24597999453544617 -0.12279000133275986 0.33557000756263733 0.367139995098114 -0.07025299966335297 0.16930000483989716 0.40136000514030457 -1.152899980545044 0.2230300009250641 0.006797600071877241 0.3546999990940094 -0.6279299855232239 -0.2432900071144104 -0.3301199972629547 -0.33776000142097473 -0.32019999623298645 -0.807449996471405 -0.2530499994754791 0.37929999828338623 0.33344998955726624 0.4191499948501587 -0.29440999031066895 0.07442999631166458 0.028989000245928764 0.47461000084877014 0.8773099780082703 0.17172999680042267 0.07971200346946716 0.13655999302864075 -0.20482000708580017 0.15546999871730804 0.15478000044822693 -0.09407299757003784 0.5572400093078613 -0.44793999195098877 -0.33474001288414 0.04225799813866615 0.2926099896430969 -0.04808500036597252 0.2747400104999542 0.24929000437259674 -0.23412999510765076 -0.10845000296831131 0.29447999596595764 -0.27303001284599304 0.27823999524116516 0.25488999485969543 -0.1025099977850914 0.09954199939966202 -0.178289994597435 0.27785998582839966 -0.28126001358032227 -0.13697999715805054 0.06315000355243683 -0.012005999684333801 -0.23048000037670135 0.17994999885559082 -0.21421000361442566 0.1886799931526184 0.3644999861717224 -0.01670300029218197 0.25738999247550964 -0.054340001195669174 0.17971999943256378 -0.6256700158119202 -0.14881999790668488 0.4268699884414673 -0.038350000977516174 -0.44861000776290894 -0.039500001817941666 0.04925199970602989 0.08519099652767181 0.3784700036048889 -0.1176299974322319 -0.012338999658823013 0.11007999628782272 -0.04765800014138222 -0.10592000186443329 0.1023000031709671 -0.007960599847137928 0.08315999805927277 -0.4210900068283081 0.15643000602722168 0.738610029220581 0.1980700045824051 0.5239199995994568 0.14988000690937042 -0.45601001381874084 -0.02507600001990795 0.535099983215332 -0.19997000694274902 -0.39956000447273254 0.060975998640060425 0.05928900092840195 0.001880600000731647 -0.4032300114631653 0.2269899994134903 0.18243999779224396 0.18628999590873718 -0.10745999962091446 -0.04577700048685074 0.4585700035095215 0.365119993686676 -0.29903000593185425 -0.07704000174999237 0.19314999878406525 -0.2743400037288666 -0.3063800036907196 -0.22732000052928925 0.0904569998383522 0.07075700163841248 0.6332399845123291 0.17437000572681427 -0.06104300171136856 0.6742200255393982 -2.381999969482422 -0.632830023765564 -0.5918700098991394 0.5182600021362305 0.30114999413490295 -0.2509799897670746 0.3754799962043762 -0.3520500063896179 -0.1579899936914444 -0.07899600267410278 -0.4471699893474579 0.19780999422073364 -0.6369699835777283 0.2983599901199341 0.24049000442028046 0.4963400065898895 0.32844001054763794 -0.08077199757099152 0.013673000037670135 0.5521299839019775 -0.11570999771356583 0.38543999195098877 -0.37327998876571655 -0.1625099927186966 -0.20286999642848969 -0.46062999963760376 0.1635199934244156 -0.5156400203704834 -0.027451999485492706 -0.03193100169301033 0.5262399911880493 0.5161600112915039 0.42583000659942627 0.399150013923645 -0.09724000096321106 -0.5135800242424011 0.15006999671459198 -0.10784000158309937 0.12312000244855881 0.34588000178337097 0.055737998336553574 0.11061999946832657 0.2752299904823303 -0.42583999037742615 -0.1054299995303154 -0.14699000120162964 -0.6032800078392029 0.3402799963951111 -0.5697399973869324 0.1896599978208542 0.17399999499320984 -0.25905001163482666 -0.14293000102043152 -0.6140699982643127 -0.3673799932003021 -0.2603299915790558 -0.1303499937057495 0.12936000525951385 -0.20367999374866486 -0.30070000886917114 0.06456399708986282 0.37220999598503113 0.12251000106334686 0.4443399906158447 -0.0946900025010109 0.399399995803833 0.04198399931192398 -0.24650000035762787 0.31167998909950256 0.012372000142931938 0.06374800205230713 0.423799991607666 0.42465001344680786 -0.05629900097846985 0.00856580026447773 0.26256999373435974
caterpillar 0.5007299780845642 -0.5268999934196472 -0.8666899800300598 -0.01965400017797947 0.4740299880504608 0.16996000707149506 -0.523419976234436 0.158610001206398 -0.1091499999165535 0.014290999621152878 0.12957000732421875 0.19638000428676605 0.21741999685764313 0.035975001752376556 0.04295099899172783 0.7138400077819824 0.039393000304698944 -0.6909899711608887 0.10772000253200531 0.11062999814748764 -0.08561599999666214 -0.3247399926185608 0.3015199899673462 -0.0468829981982708 0.23447999358177185 -1.0298999547958374 0.41440001130104065 0.11175999790430069 0.5333899855613708 -0.2878299951553345 -0.41367998719215393 0.08324900269508362 0.3351300060749054 0.05934099853038788 -0.31141000986099243 0.26148998737335205 -0.38391000032424927 -0.4816499948501587 0.5239999890327454 0.05957600101828575 -0.45719000697135925 -0.04562100023031235 0.5876799821853638 -0.12037999927997589 -0.4338400065898895 -0.4944800138473511 -0.09405899792909622 -0.35144999623298645 -0.8927500247955322 0.019044000655412674 0.012225000187754631 0.007749900221824646 -0.29556000232696533 0.36100998520851135 0.6215400099754333 0.3916400074958801 -0.0801519975066185 -0.1316000074148178 0.2919900119304657 0.27911999821662903 -0.7784600257873535 0.08896800130605698 0.13684000074863434 0.3394800126552582 -0.32558000087738037 0.39544999599456787 0.31773000955581665 0.18047000467777252 -0.4779599905014038 0.016885999590158463 0.005769399926066399 0.6790000200271606 -0.7073400020599365 0.6434500217437744 -0.17771999537944794 -0.742330014705658 0.3991999924182892 0.13211999833583832 0.2820799946784973 0.2693600058555603 0.2227099984884262 0.11569999903440475 -0.936489999294281 0.47495999932289124 0.045152999460697174 -0.36948999762535095 0.7839800119400024 -0.07252900302410126 -0.04542100057005882 0.11827000230550766 -0.2708300054073334 -0.0049992999993264675 -0.1756500005722046 0.08209999650716782 0.040116000920534134 -0.9787899851799011 -0.7765799760818481 0.1017799973487854 0.09697099775075912 0.2339400053024292 0.4775699973106384 -0.25986000895500183 0.3673500120639801 -0.9108200073242188 0.057955000549554825 -0.8908399939537048 0.521619975566864 0.27663999795913696 0.04649899899959564 0.21060000360012054 -0.3755199909210205 -0.43018999695777893 0.08530700206756592 0.49474000930786133 0.215829998254776 -0.47499001026153564 -0.13346999883651733 0.02690199948847294 -1.001099944114685 -0.10016000270843506 0.20566999912261963 0.019182000309228897 -0.04245999827980995 0.5121099948883057 0.46351999044418335 0.17389999330043793 -0.7643300294876099 -0.2232999950647354 -0.040894001722335815 -0.16152000427246094 -0.32422998547554016 -0.31264999508857727 -0.07881200313568115 -0.03894700109958649 0.4797999858856201 -0.18846000730991364 0.758080005645752 -0.368149995803833 -1.0286999940872192 0.23079000413417816 -0.12408000230789185 -0.025843000039458275 0.3314099907875061 0.22291000187397003 0.3179500102996826 -0.21541999280452728 -0.6244199872016907 0.7954099774360657 0.36221998929977417 0.07030099630355835 0.177389994263649 -0.0855799987912178 -0.05764300003647804 -0.000932720024138689 -0.37084001302719116 -0.31564998626708984 0.4965899884700775 -0.5303900241851807 0.3784100115299225 0.2537899911403656 -0.6810100078582764 0.29813000559806824 -0.07759100198745728 -0.3346099853515625 -0.4760400056838989 -0.7035700082778931 -0.6025699973106384 0.265500009059906 -0.0959319993853569 0.3363899886608124 -0.0063494001515209675 -0.5825799703598022 -0.09132000058889389 0.6690300107002258 -0.5047500133514404 -0.04283500090241432 -0.19187000393867493 -0.10419999808073044 -0.4970400035381317 -0.1439400017261505 -0.08364000171422958 0.05609099939465523 0.0006131699774414301 -0.368259996175766 0.14292000234127045 -0.20598000288009644 0.11813999712467194 -0.026895999908447266 -0.484250009059906 0.26888999342918396 -0.5298799872398376 0.057231999933719635 -0.3127099871635437 0.21839000284671783 0.25154998898506165 0.38335999846458435 0.3608799874782562 0.3671700060367584 0.40599000453948975 -0.23375000059604645 0.7799400091171265 -0.431410014629364 -0.5766199827194214 0.44075000286102295 0.9770100116729736 0.18556000292301178 -0.04236200079321861 0.2537499964237213 0.5722299814224243 -0.2670400142669678 0.20680999755859375 -0.0024991000536829233 0.38892000913619995 0.3391300141811371 0.12099999934434891 0.4129500091075897 0.09938900172710419 -0.08142899721860886 -0.13796000182628632 0.016005000099539757 -0.6415799856185913 -0.8552600145339966 0.329010009765625 -0.36476999521255493 -1.6146999597549438 -0.47881999611854553 -0.12567000091075897 0.7662400007247925 -0.2666800022125244 -0.0731699988245964 0.4174500107765198 -0.6688299775123596 0.05246699973940849 -0.2985599935054779 -0.13652999699115753 -0.1611199975013733 0.561489999294281 0.19652999937534332 -0.22043000161647797 -0.3339099884033203 0.476859986782074 0.3993000090122223 0.5710800290107727 0.34108999371528625 0.19810999929904938 -0.430869996547699 0.20895999670028687 0.2039799988269806 0.22597000002861023 0.3175100088119507 0.3465000092983246 0.7557700276374817 -0.4711500108242035 -0.604200005531311 -0.09238400310277939 0.20765000581741333 -0.729889988899231 0.4493600130081177 -0.1921900063753128 0.09925299882888794 -0.324209988117218 -0.23253999650478363 -0.03651199862360954 -0.06273099780082703 -0.06653399765491486 0.6830800175666809 0.2797600030899048 0.4830999970436096 0.2427300065755844 0.6323599815368652 0.07459499686956406 -0.11693999916315079 0.4019300043582916 0.2043199986219406 0.7859299778938293 0.7873700261116028 -0.5334100127220154 0.545960009098053 -0.08423499763011932 -0.4974600076675415 0.06137000024318695 0.5045599937438965 -0.3325200080871582 -0.21931999921798706 0.5303000211715698 -0.7793700098991394 0.6526100039482117 -0.12812000513076782 -0.12904000282287598 -0.6877400279045105 0.5648999810218811 0.25161999464035034 0.4796299934387207 -0.425680011510849 -0.5031099915504456 0.28446999192237854 0.2192700058221817 0.3236300051212311 0.48732998967170715 -0.34498998522758484
lashelle 0.08689600229263306 0.24623000621795654 -0.504289984703064 -0.383899986743927 -0.398250013589859 0.03358300030231476 0.47348999977111816 -0.48989999294281006 0.26978999376296997 -0.015536000020802021 -0.5241299867630005 -0.11210999637842178 0.13968999683856964 -0.2134300023317337 0.12650999426841736 0.026883000507950783 -0.03475800156593323 0.21548999845981598 -0.11621999740600586 0.18535999953746796 -0.021815000101923943 -0.17589999735355377 -0.539139986038208 -0.40296998620033264 -0.14385999739170074 -0.18598000705242157 0.33722999691963196 0.1435600072145462 -0.4406900107860565 -0.022342000156641006 0.21431000530719757 -0.25192001461982727 -0.09999900311231613 -0.09622800350189209 0.11057999730110168 -0.3042699992656708 -0.30456000566482544 -0.24806000292301178 -0.16809000074863434 0.2705399990081787 0.27959001064300537 -0.47898000478744507 0.39493998885154724 0.27706998586654663 -0.3229199945926666 0.09310200065374374 -0.02115200087428093 0.2503499984741211 0.04502199962735176 -0.10615000128746033 -0.09944599866867065 -0.136680006980896 0.15571999549865723 -0.4735200107097626 0.2606799900531769 -0.1118599995970726 -0.023468999192118645 -0.14650000631809235 0.6182699799537659 0.0531499981880188 0.18398000299930573 0.2676900029182434 0.07058099657297134 -0.10140000283718109 -0.12508000433444977 -0.27292999625205994 0.1463800072669983 -0.39642998576164246 0.05930500105023384 0.08683200180530548 -0.1063700020313263 -0.35683000087738037 -0.05531100183725357 0.011776999570429325 -0.02697099931538105 0.23236000537872314 -0.2323800027370453 -0.27772998809814453 -0.5021200180053711 0.30737999081611633 0.036747001111507416 0.3167699873447418 -0.24776999652385712 0.4121299982070923 -0.14925000071525574 -0.018146999180316925 0.14044000208377838 0.17285999655723572 0.263619989156723 0.27834999561309814 -0.12375999987125397 0.031835999339818954 0.38422998785972595 -0.23441000282764435 0.2726300060749054 0.5816599726676941 0.5359699726104736 -0.20694999396800995 0.18772000074386597 0.481330007314682 0.07430899888277054 -0.4283199906349182 -0.1258700042963028 -0.02398199960589409 0.30125001072883606 -0.026986999437212944 -0.029952000826597214 -0.06900300085544586 -0.15571999549865723 -0.23161999881267548 0.18313999474048615 0.11010000109672546 -0.19713999330997467 0.2649900019168854 0.44273999333381653 0.11802999675273895 0.15633000433444977 0.11061999946832657 0.1423799991607666 -0.2215700000524521 0.2660900056362152 -0.027842000126838684 0.3929600119590759 -0.015692999586462975 -0.07757200300693512 -0.3413499891757965 -0.25211000442504883 -0.022770000621676445 -0.2395700067281723 -0.034244000911712646 -0.14799000322818756 -0.025738000869750977 -0.18474000692367554 0.5458400249481201 0.20622999966144562 0.26166000962257385 -0.22665999829769135 0.1092899963259697 -0.011668000370264053 -0.04795699939131737 -0.40459999442100525 -0.5710399746894836 -0.2877799868583679 0.14271999895572662 0.014229999855160713 0.013737999834120274 -0.10152000188827515 -0.17643000185489655 0.33803999423980713 -0.5213299989700317 -0.19002999365329742 0.33320000767707825 0.11875999718904495 -0.034644000232219696 -0.09926299750804901 0.2814500033855438 0.03353700041770935 0.4743900001049042 0.08985800296068192 -0.5001699924468994 -0.34749001264572144 -0.03937799856066704 0.3694800138473511 0.1642400026321411 -0.21674999594688416 0.1973000019788742 0.12035000324249268 -0.10113000124692917 0.05018800124526024 -0.1652899980545044 -0.0022309001069515944 0.1909399926662445 0.010099999606609344 0.02122499980032444 0.14511999487876892 0.36482998728752136 -0.012528999708592892 -0.0729679986834526 0.0393729992210865 -0.05015600100159645 -0.2428700029850006 -0.26014000177383423 0.013062000274658203 0.14836999773979187 0.0023266999050974846 -0.2421800047159195 0.2816399931907654 -0.19825999438762665 0.09967000037431717 0.18556000292301178 -0.25824999809265137 0.31891998648643494 0.10103999823331833 0.31848999857902527 -0.5580700039863586 -0.05325699970126152 0.016207000240683556 -0.0513480007648468 0.14057999849319458 -0.1387300044298172 -0.027008000761270523 0.00015119000454433262 0.5335500240325928 0.09634099900722504 0.06718999892473221 0.5013499855995178 0.29945001006126404 -0.24347999691963196 0.22530999779701233 -0.31411999464035034 0.27059000730514526 -0.04501999914646149 -0.35728999972343445 0.158270001411438 -0.37191998958587646 0.1387699991464615 -0.21141000092029572 0.2842000126838684 -0.03551900014281273 -0.007919699884951115 0.3174999952316284 -0.023845000192523003 0.31367000937461853 -0.12541000545024872 0.6840299963951111 -0.05696500092744827 0.007079999893903732 0.34606000781059265 0.03595700114965439 0.037810999900102615 -0.3444899916648865 0.06916899979114532 -0.3840999901294708 0.2846499979496002 -0.06411299854516983 0.27028000354766846 -0.2209399938583374 0.45816001296043396 0.3751800060272217 0.4064899981021881 -0.017482999712228775 -0.127020001411438 -0.16717000305652618 -0.26767998933792114 0.08429999649524689 0.13467000424861908 0.20569999516010284 0.06079600006341934 -0.36684998869895935 -0.16788999736309052 0.05693800002336502 0.09570399671792984 -0.19853000342845917 0.3042899966239929 0.1149199977517128 -0.07683199644088745 0.17218999564647675 -0.4111199975013733 -0.2952499985694885 -0.1624400019645691 -0.11952999979257584 0.21905000507831573 -0.2904999852180481 0.05683999881148338 -0.09981100261211395 -0.01224599964916706 0.29034000635147095 -0.17960000038146973 -0.2847500145435333 0.2904999852180481 -0.09775400161743164 -0.24383999407291412 0.13290999829769135 0.4272199869155884 -0.13808999955654144 -0.5122500061988831 0.15484000742435455 -0.15599000453948975 -0.25099000334739685 0.5679299831390381 -0.6112200021743774 0.05992100015282631 0.24417999386787415 0.10656999796628952 0.47227001190185547 -0.035905998200178146 -0.04256400093436241 0.02495799958705902 -0.3672800064086914 -0.22577999532222748 -0.028170999139547348 -0.5961199998855591 -0.04405900090932846 0.2975800037384033 0.2590300142765045 -0.27101999521255493 -0.017395000904798508 -0.14142000675201416 -0.196710005402565 0.40591999888420105
todd -0.23181000351905823 0.00921650044620037 -0.31251999735832214 -0.36765000224113464 -0.512660026550293 0.0126740001142025 -0.8970100283622742 -0.40275999903678894 -0.060145001858472824 -0.6252700090408325 0.2688699960708618 0.1449500024318695 0.08414000272750854 0.12835000455379486 -0.1292800009250641 -0.3583100140094757 -0.07789900153875351 0.17745999991893768 -0.0819770023226738 -0.12172000110149384 0.12578000128269196 0.2611599862575531 0.020152999088168144 0.10488999634981155 -0.046084001660346985 -0.23563000559806824 0.2789599895477295 0.3480600118637085 0.05907600000500679 0.22415000200271606 0.4847100079059601 0.16596999764442444 -0.05923200026154518 0.09796299785375595 -0.19248999655246735 -0.21413999795913696 0.1985899955034256 -0.24413999915122986 0.10328999906778336 0.12494000047445297 0.005348800215870142 0.31766998767852783 0.16819000244140625 0.10062000155448914 0.29139000177383423 0.11562000215053558 -0.24917000532150269 0.19099000096321106 0.6301800012588501 0.3285599946975708 0.092399001121521 -0.43647998571395874 -0.14358000457286835 -1.0015000104904175 0.29249000549316406 -0.2740800082683563 0.04106999933719635 -0.13562999665737152 0.030028000473976135 0.1963299959897995 -0.568120002746582 0.3896700143814087 0.23871999979019165 0.1040399968624115 -0.3241899907588959 0.13124999403953552 -0.14212000370025635 -0.002482800045982003 0.7708200216293335 -0.6801300048828125 0.10113000124692917 0.14914999902248383 0.13086000084877014 0.07526899874210358 0.4515100121498108 0.7371199727058411 0.21435000002384186 -0.28578001260757446 -0.3055900037288666 0.3276900053024292 -0.13966000080108643 -1.0506000518798828 -0.24361999332904816 0.1118599995970726 -0.23222999274730682 -0.15699000656604767 -0.22267000377178192 0.019807999953627586 -0.15519000589847565 0.0803539976477623 -0.4218200147151947 0.2241699993610382 0.076044000685215 0.16492000222206116 -0.11665999889373779 -0.1565600037574768 -1.0033999681472778 -0.39399999380111694 0.04775699973106384 0.294869989156723 -0.13944999873638153 0.6794400215148926 -0.5021299719810486 0.17100000381469727 0.3445200026035309 0.03467399999499321 0.08580800145864487 0.29945001006126404 0.19381999969482422 -0.27559998631477356 0.18630999326705933 -0.19298000633716583 -0.37790000438690186 0.1317799985408783 0.08029499650001526 -0.1443299949169159 -0.5055400133132935 0.1750900000333786 0.15504999458789825 -0.3534199893474579 -0.4331499934196472 -0.43584001064300537 0.34384000301361084 0.26093000173568726 -0.19950999319553375 -0.156810000538826 0.0015058000572025776 -0.12234000116586685 -0.32455000281333923 0.0291300006210804 0.2883700132369995 -0.045827001333236694 -0.2818799912929535 -0.021057000383734703 0.21330000460147858 0.3398999869823456 0.021033000200986862 0.17021000385284424 -0.1484300047159195 0.5970500111579895 -0.131400004029274 -0.4956200122833252 -0.23814000189304352 0.23902000486850739 -0.4074000120162964 -0.455049991607666 -0.008988600224256516 0.2188899964094162 0.11281999945640564 -0.16447000205516815 -0.25181999802589417 0.4235999882221222 -0.19519999623298645 -0.10976000130176544 -0.09943900257349014 0.5171499848365784 0.03692600131034851 0.020295999944210052 0.07362200319766998 -0.3268299996852875 0.12915000319480896 -0.04988899827003479 -0.3853999972343445 -0.07900600135326385 0.0017950000474229455 0.29175999760627747 0.0795769989490509 0.268449991941452 -0.11011999845504761 -0.44126999378204346 0.42041999101638794 0.03128400072455406 0.6190699934959412 -0.3725399971008301 -0.19070999324321747 0.23037000000476837 -0.6272900104522705 -0.1826000064611435 0.007869300432503223 -0.04021399840712547 -0.04589400067925453 -0.1899999976158142 -0.22559000551700592 0.051093000918626785 0.16412000358104706 -0.1839199960231781 0.02233400009572506 -0.10734999924898148 -0.19444000720977783 -0.37369999289512634 -0.12336999922990799 -0.2705399990081787 0.33858001232147217 0.15223999321460724 -0.10029000043869019 -0.003255499992519617 -0.38192999362945557 -0.05356400087475777 -0.1134599968791008 0.002177200047299266 0.11248999834060669 -0.6431599855422974 -0.4120100140571594 0.5966100096702576 0.43097999691963196 -0.08012399822473526 0.3154299855232239 0.05272800102829933 -0.1083500012755394 0.032168999314308167 0.3149999976158142 -0.013964000158011913 -0.22530999779701233 -0.0614130012691021 -0.2618499994277954 0.16478000581264496 0.0907370001077652 0.23948000371456146 0.18388999998569489 0.03728900104761124 -0.3479999899864197 0.03700599819421768 0.12449999898672104 -0.06374499946832657 -2.6052000522613525 -0.05807200074195862 -0.3133299946784973 0.16921000182628632 0.13194000720977783 -0.04711199924349785 -0.08120100200176239 0.012083999812602997 -0.39337000250816345 0.39118000864982605 0.1940699964761734 -0.3442800045013428 -0.07299699634313583 0.9621099829673767 0.0045779999345541 -0.46261000633239746 -0.06899599730968475 0.44304999709129333 -0.026816999539732933 0.29388999938964844 0.11518000066280365 0.18198999762535095 -0.373879998922348 0.6556400060653687 0.22714999318122864 0.11223000288009644 0.25473999977111816 0.40623998641967773 -0.12955999374389648 0.22279000282287598 -0.1760600060224533 -0.03837699815630913 -0.032666999846696854 -0.09866800159215927 -0.012388999573886395 0.07931499928236008 -0.07210200279951096 0.2742699980735779 0.2286600023508072 0.11552000045776367 -0.1732800006866455 0.3737500011920929 0.3860900104045868 0.23210999369621277 0.010679000057280064 -0.09038999676704407 -0.08833800256252289 0.0816200003027916 -0.7382500171661377 0.5361800193786621 0.2351199984550476 0.14330999553203583 -0.293179988861084 -0.3282800018787384 0.2687399983406067 -0.02107200026512146 -0.05609700083732605 0.1827699989080429 0.07562299817800522 0.3355900049209595 0.1438400000333786 0.2961199879646301 0.3345000147819519 -0.34303998947143555 -0.3628099858760834 -0.08622000366449356 0.2705399990081787 0.015768999233841896 -0.11678999662399292 0.15911999344825745 0.22945000231266022 0.05575999990105629 -0.07445400208234787 0.22824999690055847 0.23506000638008118 -0.06452199816703796
colleen 0.28876999020576477 0.4425300061702728 -0.6081200242042542 0.12230999767780304 -0.0034153000451624393 -0.0568230003118515 -0.43577998876571655 -0.4828900098800659 -0.03152000159025192 -0.43331000208854675 -0.21814000606536865 -0.6057599782943726 0.5257400274276733 0.363070011138916 -0.11146999895572662 -0.3162199854850769 -0.06541600078344345 0.7008299827575684 0.3161199986934662 0.23590999841690063 0.5515199899673462 0.5119199752807617 0.3467099964618683 0.4148400127887726 -0.02397100068628788 -0.09508900344371796 0.060933999717235565 -0.2563900053501129 -0.47920000553131104 -0.46625998616218567 0.331930011510849 -0.44995999336242676 -0.1845400035381317 0.15745000541210175 -0.2069299966096878 -0.28571999073028564 -0.01476099994033575 -0.23345999419689178 -0.2028300017118454 0.42820000648498535 -0.2019599974155426 0.2649100124835968 0.30437999963760376 0.23148000240325928 0.0878790020942688 -0.12530000507831573 0.13888999819755554 0.3008100092411041 -0.014274000190198421 0.3346500098705292 -0.1316400021314621 -0.12292999774217606 0.0067067998461425304 -0.5108199715614319 0.3771199882030487 -0.24251000583171844 0.33776000142097473 -0.01029099989682436 1.2319999933242798 0.09253200143575668 0.17045000195503235 0.04565000161528587 0.35697001218795776 -0.17457999289035797 -0.18588000535964966 0.07449600100517273 -0.01844099909067154 0.15964999794960022 -0.1410199999809265 -0.18353000283241272 -0.003600300056859851 0.08186499774456024 0.1902800053358078 0.2546899914741516 0.1559700071811676 -0.038228001445531845 0.4687899947166443 -0.29815998673439026 -0.34779998660087585 -0.02360600046813488 -0.35565000772476196 -1.0520999431610107 -0.014229999855160713 0.13521000742912292 -0.46345001459121704 0.30338001251220703 0.3750799894332886 -0.16896000504493713 -0.45489999651908875 0.1582999974489212 0.17529000341892242 0.22019000351428986 -0.031103000044822693 0.35811999440193176 0.29197001457214355 -0.11066000163555145 -0.0906519964337349 -0.04366699978709221 -0.26686999201774597 0.19806000590324402 0.2606799900531769 -0.6817299723625183 -0.26809999346733093 0.03355000168085098 0.18015000224113464 0.2767699956893921 0.015306999906897545 -0.2593800127506256 0.3826799988746643 -0.10926000028848648 0.1604900062084198 0.00583299994468689 0.07240000367164612 0.3680900037288666 -0.134770005941391 -0.01028900034725666 -0.6046500205993652 0.335970014333725 -0.03997400030493736 -0.4826900064945221 -0.008042399771511555 -0.29681000113487244 -0.09680300205945969 0.4952400028705597 -0.05889799818396568 -0.06765499711036682 -0.22272999584674835 -0.2845599949359894 -0.38881999254226685 0.1365099996328354 0.04379900172352791 -0.36640000343322754 0.26750001311302185 0.10068000108003616 0.06316199898719788 0.058531999588012695 0.15921999514102936 -0.057211000472307205 -0.020184999331831932 1.1105999946594238 -0.07951699942350388 0.18178999423980713 0.20071999728679657 0.8891800045967102 -0.021619999781250954 -0.8707000017166138 0.22776000201702118 -0.06391400098800659 0.4822399914264679 -0.33302000164985657 -0.04128799960017204 0.642520010471344 -0.08555000275373459 -0.06278199702501297 0.0447550006210804 0.2726599872112274 -0.050620999187231064 0.1857299953699112 0.11021000146865845 -0.1517300009727478 0.5933499932289124 0.27955999970436096 -0.328110009431839 -0.12932999432086945 0.5234400033950806 0.1106100007891655 0.09524200111627579 0.35374999046325684 0.5291699767112732 -0.266539990901947 0.38537999987602234 -0.26315999031066895 -0.05090700089931488 -0.16520999372005463 0.1373399943113327 0.0914430022239685 -0.19101999700069427 -0.4167099893093109 0.41326001286506653 0.22434000670909882 -0.5249000191688538 0.03067599982023239 0.32513999938964844 -0.09633299708366394 -0.1859399974346161 0.42072001099586487 0.36320000886917114 0.08567699790000916 -0.21940000355243683 -0.12037000060081482 -0.011121000163257122 0.009112199768424034 0.4781399965286255 0.05027899891138077 0.40470999479293823 -0.008439700119197369 -0.21905000507831573 0.09055899828672409 0.5461300015449524 0.10248000174760818 -0.17913000285625458 0.1928199976682663 0.1641799956560135 0.41510000824928284 0.24185000360012054 -0.2459300011396408 0.30274999141693115 -0.048673998564481735 -0.4222699999809265 0.05954800173640251 0.26175999641418457 -0.32872000336647034 -0.0032053999602794647 -0.3791300058364868 -0.2455500066280365 0.05630800127983093 -0.5903300046920776 0.03178200125694275 -0.31349000334739685 0.311489999294281 -0.050457000732421875 0.053617000579833984 0.10547000169754028 0.07832799851894379 -1.4502999782562256 0.1462399959564209 0.05724500119686127 0.5350800156593323 0.14104999601840973 -0.19053000211715698 -0.05525000020861626 0.010466000065207481 -0.22774000465869904 -0.16449999809265137 -0.06290800124406815 -0.07635799795389175 0.14673000574111938 -0.2966099977493286 0.12088000029325485 0.2117599993944168 0.025464000180363655 0.2471799999475479 -0.10141000151634216 0.06036800146102905 0.18485000729560852 0.08449599891901016 0.0933699980378151 0.46685001254081726 -0.4386099874973297 -0.02092299982905388 -0.18125000596046448 -0.18088999390602112 -0.182669997215271 -0.1531900018453598 0.18002000451087952 0.6272100210189819 0.14661000669002533 -0.010538999922573566 0.21980999410152435 -0.248089998960495 -0.13902999460697174 -0.1351500004529953 -0.07400800287723541 -0.07379300147294998 -0.021747000515460968 0.08935099840164185 0.28863000869750977 0.10523000359535217 0.17736999690532684 0.31488001346588135 0.12601999938488007 -0.27976998686790466 -0.6424300074577332 0.28711000084877014 -0.21713000535964966 0.1712699979543686 0.07823500037193298 -0.023130999878048897 -0.11241000145673752 -0.25374001264572144 -0.4888499975204468 0.7818499803543091 0.2468699961900711 0.11407999694347382 0.4755200147628784 0.3003300130367279 -0.19077999889850616 -0.07178100198507309 -0.03103400021791458 -0.049959998577833176 0.08300700038671494 0.012885999865829945 -0.28091999888420105 0.38075000047683716 0.02026900090277195 -0.08270999789237976 -0.20987999439239502 0.28744998574256897 -0.035691998898983 0.13747000694274902
knife -0.3440999984741211 0.33963000774383545 -0.2536199986934662 -0.6187700033187866 0.7002300024032593 -0.16208000481128693 -1.5550999641418457 -0.13208000361919403 0.20363999903202057 -0.5256999731063843 -0.5886099934577942 -0.28738999366760254 -0.29980000853538513 0.1576399952173233 -0.04909899830818176 0.7594299912452698 -0.3073900043964386 0.11061999946832657 0.8088799715042114 -0.4364300072193146 0.21001000702381134 -0.4786800146102905 -0.5063599944114685 -0.6468200087547302 0.32681000232696533 0.08608900010585785 -0.07006999850273132 0.04323099926114082 -0.38475000858306885 0.1885800063610077 0.9756900072097778 0.5252199769020081 -0.4563499987125397 0.27087000012397766 0.5593000054359436 0.4936099946498871 -0.8654699921607971 0.06159000098705292 -0.084476999938488 0.24490000307559967 0.31902000308036804 0.0486299991607666 -0.14628000557422638 -0.07624299824237823 0.25082001090049744 0.4244900047779083 0.3303000032901764 -0.6319000124931335 -0.17876000702381134 0.3255000114440918 -0.365200012922287 -0.25189000368118286 0.07242199778556824 0.21692000329494476 0.37724000215530396 -0.5858100056648254 -0.14747999608516693 -0.4746699929237366 -0.003921600058674812 -0.7300900220870972 -0.14535999298095703 0.6424599885940552 -0.24219000339508057 0.5085099935531616 0.2611300051212311 -0.6251000165939331 0.018510999158024788 0.41866999864578247 -0.3294900059700012 -0.13030000030994415 -0.3357999920845032 -0.4570100009441376 0.0788239985704422 -0.3911300003528595 -0.15443000197410583 -0.4137899875640869 0.226500004529953 -0.5236799716949463 -0.35499998927116394 0.00168009998742491 -0.39733999967575073 0.09570500254631042 -0.6471899747848511 -0.4020499885082245 -0.40689998865127563 -0.5712800025939941 -0.10718999803066254 0.4405499994754791 -0.11170999705791473 0.22300000488758087 0.6262800097465515 -0.20769000053405762 -0.1852799952030182 -0.18398000299930573 -0.41569000482559204 -0.7235400080680847 -1.4424999952316284 -0.15910999476909637 -0.21780000627040863 0.3694800138473511 -0.07699500024318695 -0.44442999362945557 0.2773599922657013 -0.603410005569458 -0.6387500166893005 -0.11553999781608582 -0.2217400074005127 0.5712800025939941 -0.484389990568161 -0.12793000042438507 0.7565400004386902 0.31817999482154846 -0.19812999665737152 0.38482001423835754 0.4014900028705597 -0.13287000358104706 0.26693999767303467 0.1159299984574318 0.11268000304698944 0.22479000687599182 -0.2856000065803528 -0.3546600043773651 -0.2793099880218506 -0.29951998591423035 -0.2693600058555603 0.26460000872612 -0.05395200103521347 -0.44791001081466675 0.21285000443458557 -0.6621699929237366 0.6284400224685669 -0.45945999026298523 -0.47481998801231384 0.1901800036430359 -0.008269499987363815 0.49869000911712646 0.7401000261306763 0.11016999930143356 0.12343999743461609 0.9888899922370911 -0.5496000051498413 0.09361699968576431 0.26528000831604004 0.33715999126434326 -0.6122999787330627 0.7569599747657776 0.37582001090049744 0.5163900256156921 0.7840499877929688 -0.3068999946117401 -0.5163699984550476 0.5237900018692017 0.4083000123500824 0.6239399909973145 0.27362000942230225 -0.023601999506354332 0.3479900062084198 0.3977000117301941 0.017271999269723892 0.018828000873327255 -0.3822700083255768 0.501259982585907 -0.4349699914455414 0.17372000217437744 0.213359996676445 0.29576998949050903 -0.29396000504493713 0.29607000946998596 0.224140003323555 0.37810999155044556 0.0853469967842102 -0.06459099799394608 0.3517000079154968 -0.2353699952363968 0.28075000643730164 -0.7130399942398071 -0.5642200112342834 0.1860000044107437 -0.47675999999046326 -0.30583998560905457 0.3829300105571747 0.032669998705387115 0.38923999667167664 0.3246299922466278 0.3128800094127655 -0.1966399997472763 0.148389995098114 -0.028344999998807907 -0.24508999288082123 0.3961299955844879 0.08106900006532669 0.3403699994087219 0.030863000079989433 0.24792000651359558 -0.7523699998855591 0.5776000022888184 0.47060999274253845 -0.329120010137558 1.0999000072479248 -0.16057999432086945 0.7790899872779846 0.03449700027704239 0.11472000181674957 -0.06498099863529205 -0.4598599970340729 -0.5797500014305115 0.16617999970912933 -0.7721899747848511 -0.06557700037956238 -0.6326000094413757 0.07185699790716171 -0.20324000716209412 0.06915400177240372 -0.14013999700546265 0.479449987411499 0.2565400004386902 0.31523001194000244 -0.4215700030326843 0.19944000244140625 -0.20796999335289001 0.08533799648284912 0.181099995970726 0.1964000016450882 -0.48342999815940857 -2.1791000366210938 -0.8414999842643738 -0.19990000128746033 -0.6638399958610535 0.09534099698066711 0.08100099861621857 -0.41644999384880066 0.31314000487327576 0.10715000331401825 0.04632199928164482 0.2443300038576126 -0.011049999855458736 -0.07615700364112854 -0.12400999665260315 -0.38993000984191895 -0.3571699857711792 -0.25308001041412354 -0.3761799931526184 0.21341000497341156 -0.007323199883103371 0.2323099970817566 0.19475999474525452 -0.8293200135231018 -0.21401000022888184 0.46118998527526855 -0.20514999330043793 -0.412880003452301 -0.8342400193214417 0.7309600114822388 0.34046998620033264 0.100040003657341 0.041937001049518585 -0.5448600053787231 0.1728699952363968 -0.07922899723052979 0.6253499984741211 0.04312000051140785 -0.13016000390052795 0.41975000500679016 -0.4614099860191345 -0.8793900012969971 0.46230000257492065 0.7389100193977356 0.06453300267457962 0.134770005941391 -0.20059999823570251 -0.7017199993133545 -0.4468500018119812 0.40042001008987427 0.3312999904155731 0.2182600051164627 -0.2147500067949295 -0.20013999938964844 0.0935870036482811 0.12977999448776245 -0.10971999913454056 1.1898000240325928 -0.0987360030412674 -0.02562200091779232 0.5569900274276733 -0.40470001101493835 -0.29471999406814575 0.7681599855422974 0.14966000616550446 0.5305600166320801 0.35427001118659973 -0.32989001274108887 0.128370001912117 -0.053821999579668045 0.10948999971151352 -0.5354499816894531 -0.09461800009012222 0.5516300201416016 -0.10268999636173248 0.5872499942779541 1.0134999752044678
wasp 0.7315899729728699 -0.18907000124454498 -0.3762800097465515 0.12291999906301498 0.7379299998283386 -0.41934001445770264 -0.7593500018119812 0.017638999968767166 0.16467000544071198 -0.3254700005054474 0.5823900103569031 -0.7147300243377686 -0.4885199964046478 0.21811999380588531 0.1340399980545044 0.39691999554634094 -0.18601000308990479 -0.12711000442504883 -0.3672899901866913 0.10320000350475311 0.7406799793243408 -0.9967899918556213 0.2611599862575531 -0.3581700026988983 -0.34762001037597656 -0.3218800127506256 0.06710399687290192 -0.2425599992275238 0.13871000707149506 -0.2566399872303009 -0.1551000028848648 0.10345999896526337 -0.013612999580800533 -0.5598499774932861 0.45548999309539795 0.07678399980068207 0.6371999979019165 -0.2748199999332428 0.23652000725269318 -0.22710999846458435 0.24720999598503113 0.14459000527858734 -0.4338800013065338 -0.05879500135779381 -0.03592099994421005 -0.05782900005578995 -0.5223000049591064 -0.13788999617099762 -0.18336999416351318 -0.047648001462221146 0.10445000231266022 -0.23177999258041382 -0.22425000369548798 0.9304900169372559 0.1743900030851364 0.2872599959373474 0.4328100085258484 0.32368001341819763 -0.17663000524044037 -0.32218998670578003 -0.056304000318050385 -0.36937999725341797 -0.23273999989032745 0.1769299954175949 -0.6874399781227112 0.49908000230789185 0.24048000574111938 0.10283999890089035 -0.8446099758148193 -0.10103999823331833 -0.014262000098824501 0.13850000500679016 0.4943299889564514 0.7108200192451477 -0.5415300130844116 0.033309999853372574 0.14342999458312988 0.2001499980688095 0.2425300031900406 -0.18535000085830688 0.27399998903274536 -0.8823000192642212 -0.504289984703064 0.5032899975776672 0.3825399875640869 -0.1980299949645996 0.25213000178337097 -0.04710699990391731 -0.5279800295829773 -0.36928999423980713 0.1486700028181076 -0.22498999536037445 -0.7530199885368347 0.1166900023818016 -0.22641000151634216 -0.7825000286102295 -0.3961299955844879 0.5293800234794617 -0.3215700089931488 0.00988749973475933 0.4099099934101105 -0.4653399884700775 0.3858799934387207 -0.22463999688625336 0.07564400136470795 0.09266500174999237 0.34512001276016235 0.3782300055027008 -0.6601600050926208 0.0014781999634578824 0.16315999627113342 0.7663900256156921 -0.0377190001308918 0.1541299968957901 -0.09655799716711044 -0.42392998933792114 -0.13249999284744263 -0.4583599865436554 -0.4770199954509735 0.7021499872207642 -0.2500300109386444 -0.4256899952888489 -0.364980012178421 0.1543699949979782 0.544219970703125 -0.03101399913430214 0.1884399950504303 0.0524739995598793 -0.21359999477863312 0.33737999200820923 -0.08577699959278107 0.2625899910926819 0.4078199863433838 -0.12839999794960022 0.5082399845123291 0.2267799973487854 0.4050399959087372 0.14544999599456787 -0.2742699980735779 0.07480999827384949 -0.40459001064300537 -0.5834800004959106 0.20529000461101532 0.2421099990606308 0.3461799919605255 -0.1982399970293045 -0.7894700169563293 0.6674399971961975 0.520110011100769 -0.3258399963378906 0.05067899823188782 -0.37393999099731445 0.3845899999141693 0.4671599864959717 0.6313700079917908 -0.031300000846385956 0.26256000995635986 -0.3369700014591217 -0.019084999337792397 0.13885000348091125 -0.4679099917411804 0.46634000539779663 -0.19687999784946442 -0.7264000177383423 -0.7174400091171265 0.3450999855995178 -0.31859999895095825 -0.21887999773025513 0.677619993686676 0.5343800187110901 -0.14969000220298767 0.6807000041007996 -0.7972699999809265 0.20024999976158142 -0.08241699635982513 -0.317330002784729 0.2631700038909912 -0.34139999747276306 -0.11260999739170074 -0.02231300063431263 0.7205100059509277 0.07773999869823456 0.03892400115728378 0.6135799884796143 0.4182800054550171 0.2084999978542328 -0.506060004234314 -0.42094001173973083 -0.6285200119018555 -0.07010500133037567 -0.044419001787900925 -0.049910999834537506 0.3438299894332886 0.46334999799728394 -0.4600299894809723 0.004921900108456612 -0.16628000140190125 0.3488200008869171 0.5094599723815918 0.08496499806642532 -0.023476000875234604 0.34143000841140747 -0.7445899844169617 0.6865400075912476 0.16704000532627106 -0.10914000123739243 -0.2041199952363968 0.504010021686554 0.05734900012612343 0.45684999227523804 -0.07042700052261353 -0.0220320001244545 -0.06288599967956543 0.2533800005912781 0.3928300142288208 -0.03475100174546242 0.3527199923992157 0.07023199647665024 0.3920300006866455 0.17553000152111053 0.3619300127029419 -0.745930016040802 -0.32986000180244446 0.10854999721050262 -0.9183700084686279 -0.7356100082397461 0.09918399900197983 0.08192600309848785 -0.34369999170303345 0.4415999948978424 -0.1388700008392334 0.4010300040245056 0.25909000635147095 -0.11799000203609467 -0.33952000737190247 -0.061416998505592346 0.5414299964904785 0.4032999873161316 0.3948200047016144 -0.3605400025844574 0.25169000029563904 -0.7627300024032593 1.1059999465942383 -0.011668999679386616 -0.10006999969482422 -0.1673399955034256 0.1842299997806549 0.4360400140285492 0.08406200259923935 -0.13955999910831451 0.2152000069618225 0.4164699912071228 -0.012287000194191933 -0.034168001264333725 0.7948799729347229 -0.13005000352859497 -0.7345100045204163 0.2623800039291382 0.1322299987077713 -0.39267000555992126 0.17917999625205994 -0.4419400095939636 0.7399100065231323 0.24063999950885773 -0.16791999340057373 0.13420000672340393 -0.19070999324321747 -0.6627699732780457 -0.16976000368595123 0.08973799645900726 0.2910600006580353 -0.27538999915122986 0.22471000254154205 0.18889999389648438 -0.18535999953746796 0.09348200261592865 0.20901000499725342 0.46492999792099 -0.40571001172065735 -0.15830999612808228 0.3450399935245514 0.38666000962257385 0.2469100058078766 0.2224700003862381 0.15238000452518463 -0.41444000601768494 0.6294800043106079 0.7894099950790405 0.36886000633239746 0.11508999764919281 0.26148998737335205 0.10706000030040741 -0.0074880002066493034 -0.053741998970508575 -0.329259991645813 0.11881999671459198 -0.2540999948978424 0.15163999795913696 -0.25154000520706177 -0.3560900092124939
gift -0.2641800045967102 -0.21886000037193298 -0.20886999368667603 0.16986000537872314 0.3125700056552887 0.5601800084114075 -2.238600015640259 -0.5785999894142151 0.06487499922513962 -0.6504700183868408 -0.31856000423431396 -0.44251999258995056 -0.10452999919652939 -0.14935000240802765 -0.8145700097084045 0.054958999156951904 -0.21243999898433685 0.47328001260757446 0.376800000667572 0.24165000021457672 0.7720800042152405 0.11922000348567963 -0.024966999888420105 0.5658299922943115 0.10384000092744827 0.33302000164985657 -0.5159100294113159 0.24110999703407288 0.3327299952507019 -0.1089399978518486 -0.4609000086784363 0.1743900030851364 0.3865399956703186 0.19460999965667725 -0.05562400072813034 0.2637900114059448 -0.12574000656604767 -0.16360999643802643 0.17172999680042267 0.5190899968147278 -0.3536199927330017 -0.16845999658107758 -0.5466300249099731 0.40288999676704407 0.20853999257087708 -0.10068000108003616 -0.2774899899959564 0.15741999447345734 -0.3120799958705902 -0.16614000499248505 0.02995399944484234 -0.003587299957871437 0.5970699787139893 0.4491499960422516 0.016550999134778976 -0.5130699872970581 0.3291800022125244 -0.22237999737262726 0.011214000172913074 -0.0004348699876572937 -0.4185500144958496 0.1602800041437149 0.6439399719238281 -0.16091999411582947 -0.23259000480175018 0.4092699885368347 -0.4229300022125244 0.08619300276041031 0.11880999803543091 0.61913001537323 -0.9231100082397461 -0.1376899927854538 0.35475000739097595 0.09753499925136566 0.3731899857521057 -0.03813999891281128 -0.1279900074005127 0.162990003824234 0.10141000151634216 -0.17513999342918396 0.3407300114631653 0.31077998876571655 -0.20698000490665436 -0.0418270006775856 -0.08952099829912186 0.5885800123214722 -0.230320006608963 0.32350999116897583 0.12246999889612198 0.17639000713825226 -0.04854600131511688 -0.06904999911785126 0.2064799964427948 -0.05285700038075447 -0.36360999941825867 -1.0267000198364258 -2.3980000019073486 -0.8643100261688232 -0.26026999950408936 -0.2572300136089325 -0.3082300126552582 -0.5414999723434448 0.8676000237464905 -0.4166699945926666 -0.3414100110530853 -0.01880599930882454 -0.4114600121974945 0.14559000730514526 0.14132000505924225 0.0053656999953091145 0.2376299947500229 0.09946999698877335 0.25637000799179077 -0.15524999797344208 0.518559992313385 0.5403900146484375 -0.19889000058174133 0.4363499879837036 0.0056361001916229725 -0.06934799998998642 -0.06593599915504456 0.07845299690961838 -0.38694998621940613 0.6444500088691711 -0.2826400101184845 0.12427999824285507 0.06062899902462959 0.06394699960947037 -0.19654999673366547 0.4140999913215637 0.0038054001051932573 -0.18242999911308289 -0.42006000876426697 -0.41418999433517456 -0.5002099871635437 -0.1331000030040741 -0.2749199867248535 -0.5289599895477295 -0.1062999963760376 0.7818899750709534 0.3439599871635437 0.7341200113296509 0.3014400005340576 -0.7506899833679199 -0.056313998997211456 0.09379299730062485 0.3208099901676178 -0.2339099943637848 0.3431299924850464 0.3690199851989746 0.36730000376701355 0.36612001061439514 -0.3707999885082245 0.26993998885154724 0.7742400169372559 0.38659000396728516 -0.17467999458312988 0.1585800051689148 -0.33351999521255493 0.11166000366210938 0.0092546995729208 0.022213999181985855 -0.33970001339912415 -0.29069000482559204 -0.5868300199508667 -0.40661999583244324 -0.06180400028824806 -0.01093399990350008 0.1863200068473816 -0.44284000992774963 0.022099999710917473 0.020558999851346016 0.0639059990644455 -0.1808999925851822 0.06510800123214722 0.27838000655174255 0.07648999989032745 0.052333999425172806 -0.09935399889945984 -0.3093999922275543 -0.09421800076961517 0.3972199857234955 -0.3437100052833557 -0.5277199745178223 0.22484999895095825 -0.3113499879837036 -0.15522000193595886 0.5990999937057495 0.6387799978256226 -0.11657000333070755 -0.7066400051116943 0.3042899966239929 -0.17712999880313873 -0.17321999371051788 0.8629500269889832 0.30691999197006226 -0.5689499974250793 -0.37097999453544617 0.3178600072860718 0.041471000760793686 0.05618400126695633 0.19368000328540802 0.2750599980354309 -0.3019300103187561 -0.40184998512268066 -0.4988200068473816 0.06983699649572372 0.035978998988866806 0.20095999538898468 -0.20868000388145447 0.25102999806404114 0.05554699897766113 0.5620700120925903 0.4525899887084961 -0.8577700257301331 0.22131000459194183 0.5654699802398682 -0.6745200157165527 0.21219000220298767 0.39765000343322754 0.29006001353263855 0.5736700296401978 0.30399999022483826 -0.09808900207281113 -2.8550000190734863 -0.487199991941452 -0.4581499993801117 -0.11811000108718872 0.41909000277519226 0.42149999737739563 -0.03625199943780899 -1.2301000356674194 -0.382099986076355 -0.7254899740219116 0.2746399939060211 0.4160600006580353 -0.40689000487327576 -0.5992199778556824 0.8654099702835083 0.2810400128364563 0.2574400007724762 -0.41343000531196594 -0.22583000361919403 0.4940899908542633 0.05446400120854378 0.05787400156259537 -0.15267999470233917 0.03516000136733055 0.5756999850273132 -0.035413000732660294 0.3157700002193451 -0.3007200062274933 0.2983500063419342 -0.033197999000549316 0.5199099779129028 -0.5813199877738953 0.1850000023841858 0.40669000148773193 -0.404339998960495 0.09895999729633331 0.8064900040626526 0.028317999094724655 -0.38242000341415405 -0.18219000101089478 -0.2665899991989136 0.16350999474525452 0.13407999277114868 0.11393000185489655 -0.17499999701976776 -0.27987000346183777 -0.42677998542785645 0.038252998143434525 -0.3443700075149536 0.13496999442577362 -0.15368999540805817 0.10586000233888626 -0.19415999948978424 0.10119999945163727 0.1329299956560135 -0.07180800288915634 -0.161640003323555 0.3510499894618988 -0.11473999917507172 0.583050012588501 0.1425500065088272 -0.2511399984359741 0.5369399785995483 0.11016999930143356 -0.18193000555038452 -0.2856000065803528 0.031651999801397324 -0.19370000064373016 -0.22100000083446503 -0.39438000321388245 -0.09647999703884125 0.12359999865293503 0.498989999294281 0.2968200147151947 0.19603000581264496 -0.09946499764919281
wendy -0.040915001183748245 0.062240999191999435 -0.04117700085043907 0.46963000297546387 -0.2924500107765198 0.19422000646591187 -0.983709990978241 -0.6313400268554688 0.2895900011062622 -0.716729998588562 -0.13062000274658203 -0.5288500189781189 0.533270001411438 -0.29517000913619995 -0.3444899916648865 -0.4207800030708313 -0.14114999771118164 -0.3315899968147278 0.17339999973773956 0.1021599993109703 0.23920999467372894 0.5196300148963928 -0.0018553000409156084 -0.07136499881744385 0.13279999792575836 0.16303999722003937 0.013670999556779861 -0.35168999433517456 -0.5701199769973755 -0.25102001428604126 0.3628399968147278 -0.3919200003147125 0.1764100044965744 0.05806700140237808 -0.2643199861049652 -0.10281000286340714 0.13590000569820404 -0.1231900006532669 0.06151700019836426 0.36221998929977417 0.004214100074023008 0.39598000049591064 0.47113001346588135 0.11010000109672546 0.3410800099372864 -0.19939999282360077 -0.37839001417160034 0.3225899934768677 0.2029699981212616 0.27254998683929443 0.31018999218940735 0.29884999990463257 -0.46070000529289246 -0.3341600000858307 -0.25356000661849976 0.26058998703956604 0.24925999343395233 0.2584399878978729 0.7905700206756592 0.23193000257015228 0.3159399926662445 0.20322999358177185 0.25828999280929565 -0.7842100262641907 0.07476600259542465 -0.2842099964618683 -0.01716800034046173 -0.11140000075101852 0.12076999992132187 -0.5005499720573425 -0.053568001836538315 0.0858210027217865 0.07166299968957901 0.11979000270366669 -0.009767499752342701 0.14719000458717346 -0.32585999369621277 0.08646000176668167 -0.20106999576091766 0.1604599952697754 0.14382000267505646 -0.7941399812698364 0.057851001620292664 0.26012998819351196 0.04980799928307533 0.04951100051403046 -0.044103000313043594 -0.09961500018835068 -0.08636900037527084 0.4071800112724304 -0.32624998688697815 0.6454300284385681 -0.0442500002682209 0.2975800037384033 -0.158160001039505 -0.43101999163627625 -0.3237699866294861 -0.31224000453948975 -0.14365999400615692 0.1301099956035614 -0.008855599910020828 0.25080999732017517 0.14910000562667847 0.05118099972605705 0.10865999758243561 0.31220999360084534 -0.1921200007200241 -0.17222000658512115 -0.10939999669790268 0.11337999999523163 0.4125500023365021 -0.2962999939918518 -0.16261999309062958 0.07103099673986435 0.3623799979686737 0.6623499989509583 -0.4093700051307678 -0.3986400067806244 -0.011865999549627304 -0.07021000236272812 0.4303399920463562 -0.11767999827861786 0.14428000152111053 0.2848300039768219 -0.1808999925851822 -0.374099999666214 -0.19064000248908997 -0.13902999460697174 0.000914999982342124 0.02290399931371212 -0.00786569993942976 0.2261500060558319 -0.20115000009536743 0.1345600038766861 -0.12445999681949615 0.08071800321340561 0.414249986410141 0.3433600068092346 -0.6364099979400635 0.7766799926757812 -0.04975099861621857 -0.3837699890136719 -0.15057000517845154 0.3864400088787079 0.00396159989759326 -0.8425400257110596 0.27404001355171204 -0.0775810033082962 0.4368099868297577 -0.23048000037670135 -0.6304500102996826 0.2762199938297272 0.41119998693466187 -0.15146000683307648 0.20110000669956207 -0.096390001475811 0.4628100097179413 -0.04867300018668175 0.1989700049161911 -0.15922999382019043 0.22080999612808228 -0.2915300130844116 -0.004578100051730871 -0.02390800043940544 -0.16210000216960907 -0.3120099902153015 0.007040299940854311 -0.00425649993121624 -0.002198300091549754 -0.3446199893951416 -0.1587900072336197 -0.2862499952316284 0.003532199887558818 -0.25418999791145325 -0.10796000063419342 0.38453999161720276 -0.41940999031066895 -0.4358200132846832 0.17527000606060028 0.3491399884223938 -0.341839998960495 0.08422599732875824 0.2791900038719177 0.34481000900268555 -0.3811500072479248 0.15571999549865723 -0.03461899980902672 -0.14837999641895294 -0.0872030034661293 0.21558000147342682 -0.1795099973678589 -0.30671998858451843 -0.02371099963784218 0.042938001453876495 -0.17691999673843384 -0.18667000532150269 -0.28075000643730164 0.02842799946665764 0.3215000033378601 0.24268999695777893 0.0018041000002995133 -0.1424500048160553 0.16200999915599823 0.302729994058609 -0.13503000140190125 0.11264999955892563 0.17961999773979187 -0.08531899750232697 0.2529999911785126 0.09063799679279327 0.388480007648468 0.05975300073623657 0.21499000489711761 -0.30246999859809875 -0.4986799955368042 0.04149100184440613 0.12018000334501266 0.6185799837112427 0.08336000144481659 0.17508000135421753 -0.03348900005221367 -0.28641998767852783 0.2053000032901764 -0.20160000026226044 -2.324899911880493 0.010240999981760979 -0.2281399965286255 0.4146699905395508 0.14045999944210052 0.42719998955726624 -0.18663999438285828 0.22563999891281128 -0.48860999941825867 -0.052776999771595 -0.012498999945819378 0.11647000163793564 -0.04328799992799759 -0.24593999981880188 -0.1639699935913086 0.11136999726295471 0.26249000430107117 0.3747499883174896 0.1321299970149994 0.41058000922203064 -0.11413999646902084 -0.16518999636173248 0.21333999931812286 0.47387000918388367 0.2880899906158447 0.13214999437332153 -0.2573600113391876 0.7485299706459045 -0.4789299964904785 0.28551000356674194 0.1398099958896637 0.3932900130748749 0.2885499894618988 -0.29892998933792114 -0.08415299654006958 -0.05810600146651268 0.45021000504493713 0.3586300015449524 -0.15870000422000885 0.22550000250339508 -0.2772200107574463 0.31509000062942505 -0.08861900120973587 -0.1682800054550171 0.09151899814605713 0.4622400104999542 0.1710599958896637 0.02920299954712391 -0.5234500169754028 0.043487999588251114 -0.1537099927663803 0.1475600004196167 -0.3064500093460083 -0.2669300138950348 0.058959998190402985 -0.06742899864912033 0.017621999606490135 0.037533000111579895 -0.18231000006198883 -0.06884799897670746 0.3752099871635437 -0.3213900029659271 -0.2472900003194809 -0.38503000140190125 0.160630002617836 -0.3444400131702423 -0.05406299978494644 -0.24161000549793243 0.12133999913930893 0.03769899904727936 -0.08708199858665466 0.31036001443862915 -0.664929986000061 0.36583998799324036 0.21122999489307404 -0.2079000025987625
crocus -0.05220500007271767 -0.2957499921321869 -0.9086400270462036 -0.776889979839325 0.23151999711990356 -1.2288000583648682 0.12564000487327576 -0.2922300100326538 0.4339500069618225 -0.18921999633312225 0.2350499927997589 0.5305699706077576 0.25672000646591187 0.01258699968457222 0.033906999975442886 -0.07681799679994583 0.03984199836850166 0.1985899955034256 -0.1267700046300888 -0.18973000347614288 0.11681000143289566 -0.5478600263595581 0.9084100127220154 0.24542999267578125 -0.876010000705719 -0.021182000637054443 -0.2168699949979782 0.23937000334262848 0.3124600052833557 0.17404000461101532 -0.05945400148630142 -0.013282000087201595 0.23927000164985657 -0.9363800287246704 0.07497499883174896 0.382750004529953 -0.018350999802350998 -0.3104099929332733 0.05867300182580948 -0.5892400145530701 0.6040199995040894 -0.028057999908924103 0.287200003862381 -0.26353999972343445 -0.3986800014972687 -0.5814599990844727 -0.8758699893951416 -0.2387399971485138 -0.006952600087970495 -0.006051800213754177 0.8939300179481506 0.2805199921131134 0.20625999569892883 -0.20206999778747559 -0.592519998550415 -0.10454999655485153 -0.03162100166082382 -0.3742299973964691 0.31869998574256897 0.39342001080513 -0.1693200021982193 -0.31766000390052795 0.13902999460697174 0.6946300268173218 -0.5546000003814697 0.49331000447273254 0.008444399572908878 -0.12705999612808228 0.13773000240325928 0.23542000353336334 -0.899150013923645 0.004399099852889776 -0.29660001397132874 -0.5004299879074097 -0.025019999593496323 0.21525999903678894 0.008568399585783482 0.30630001425743103 0.48065000772476196 -0.11855000257492065 -0.16171999275684357 0.21121999621391296 -0.13019999861717224 0.7351400256156921 -0.22134000062942505 -0.0016280000563710928 0.31115999817848206 -0.8542299866676331 -0.26353999972343445 -0.14036999642848969 0.12506000697612762 -0.0661960020661354 0.09064099937677383 -0.743910014629364 -0.33939000964164734 -0.2357099950313568 -0.3469099998474121 0.82669997215271 0.5249199867248535 -0.4710400104522705 0.23208999633789062 -0.6061999797821045 0.534500002861023 -0.5800999999046326 -0.5298900008201599 -0.05654099956154823 -0.2309899926185608 -0.021030999720096588 -0.7788400053977966 -0.41613999009132385 0.5985999703407288 -0.05938500165939331 0.22750000655651093 0.025558000430464745 0.25701001286506653 0.02504800073802471 0.6205800175666809 -0.1302099972963333 -0.5603600144386292 -0.11578000336885452 0.30970001220703125 -0.5581799745559692 -0.24726000428199768 -0.07317999750375748 0.7071200013160706 0.7227100133895874 -0.3168799877166748 -0.05821799859404564 -0.5974400043487549 -0.13467000424861908 0.7009099721908569 -0.3488599956035614 -0.09560199826955795 0.3771499991416931 0.26763999462127686 -0.5230799913406372 0.47336000204086304 0.15268999338150024 1.315500020980835 0.38787999749183655 -0.046105001121759415 0.30649998784065247 -0.2779499888420105 0.46154001355171204 0.357369989156723 -0.2615799903869629 0.18288999795913696 -0.42879000306129456 0.8587700128555298 0.027010999619960785 -0.091450996696949 -0.49309998750686646 -0.27869001030921936 -0.75382000207901 -0.06275100260972977 -0.36785998940467834 0.029913999140262604 0.059774000197649 -0.007114199921488762 0.2623499929904938 -0.18610000610351562 -0.20489999651908875 0.33445000648498535 -0.23327000439167023 0.47826001048088074 0.08729899674654007 -0.3804999887943268 -0.2807700037956238 0.5992299914360046 0.4427900016307831 -0.10604000091552734 0.20468999445438385 -0.0024741000961512327 0.005892099812626839 0.29295000433921814 1.024399995803833 0.6161800026893616 -0.27469000220298767 -0.11732999980449677 0.35133999586105347 0.0352029986679554 0.4632200002670288 -0.2560400068759918 0.14125999808311462 -0.154339998960495 0.05917400121688843 0.20148000121116638 -0.5570600032806396 0.16699999570846558 0.2724199891090393 -0.6225299835205078 -0.2238900065422058 0.6615700125694275 -0.3258500099182129 0.5950499773025513 -0.08810000121593475 -0.22754999995231628 -0.14590999484062195 -0.21741999685764313 0.132860004901886 -0.16599999368190765 0.5574899911880493 0.22595000267028809 0.1136000007390976 0.5140200257301331 -0.35826000571250916 -0.18233999609947205 0.1647000014781952 -0.28773000836372375 0.0972680002450943 0.17188000679016113 -0.2759599983692169 0.07050199806690216 0.3863599896430969 -0.41506001353263855 -0.0037718999665230513 -0.10294000059366226 -0.07967600226402283 0.14655999839305878 -0.07811799645423889 0.18369999527931213 -0.3705199956893921 0.2036300003528595 0.044996000826358795 -0.11665999889373779 0.5290700197219849 -0.19121000170707703 0.14790000021457672 -0.42833998799324036 -0.429639995098114 -0.1365399956703186 0.426470011472702 0.43696001172065735 -0.3730500042438507 0.30636000633239746 0.2660199999809265 -0.3845199942588806 0.12071999907493591 -0.3943299949169159 -0.04651099815964699 -0.34509000182151794 0.19383999705314636 0.052696000784635544 -0.03968700021505356 -0.18982000648975372 0.23571999371051788 0.5371500253677368 0.29260000586509705 -0.21163000166416168 -0.6035199761390686 -0.3553600013256073 0.3868499994277954 -0.5465599894523621 -0.219760000705719 0.6129299998283386 0.05139299854636192 -0.13931000232696533 0.17096999287605286 -0.1528400033712387 0.6927099823951721 0.12160000205039978 0.07091899961233139 0.17359000444412231 0.3058899939060211 0.0034211999736726284 0.08162099868059158 -0.0036224001087248325 0.010409999638795853 -0.07169400155544281 0.2900499999523163 -0.007531399838626385 0.10849999636411667 -0.2519800066947937 -0.547730028629303 0.6851199865341187 0.16360999643802643 0.03183399885892868 -0.23458999395370483 -0.1954299956560135 -0.35023000836372375 0.5524399876594543 -0.25655999779701233 -0.06098100170493126 -0.5189700126647949 -0.2308100014925003 0.695580005645752 0.058455999940633774 -0.31731000542640686 -0.05665000155568123 0.008107500150799751 -0.5469300150871277 -0.22564999759197235 0.1982399970293045 -0.5474900007247925 -0.26486000418663025 -0.07974600046873093 0.24288000166416168 -0.12217000126838684 -0.1731099933385849 0.20453999936580658
