weevil 0.057360999286174774 -0.43062999844551086 0.04047200083732605 -0.3182699978351593 0.424560010433197 -0.04539100080728531 -0.28543999791145325 0.02165200002491474 0.4596399962902069 0.27368998527526855 -0.455810010433197 0.8194500207901001 0.34817999601364136 0.05547599866986275 0.10978999733924866 0.1931300014257431 0.1667100042104721 -0.6588799953460693 0.1103999987244606 0.6135600209236145 0.2755599915981293 -0.8782600164413452 -1.1068999767303467 0.025906000286340714 -0.21866999566555023 -0.4252200126647949 0.46421000361442566 0.48423001170158386 -0.18769000470638275 -0.149959996342659 0.1652200073003769 -0.2763200104236603 0.5016800165176392 -0.07080700248479843 0.5598099827766418 -0.05368800088763237 0.48357000946998596 0.124549999833107 0.6883100271224976 0.09666000306606293 -0.48052000999450684 0.40681999921798706 -0.2650800049304962 0.5058799982070923 -0.4836899936199188 0.3999199867248535 -0.40845999121665955 0.7645000219345093 0.6020200252532959 0.6809499859809875 0.2728100121021271 -1.007099986076355 0.28474000096321106 0.393669992685318 -0.009810100309550762 -0.10458000004291534 -0.5986800193786621 -0.4534299969673157 -0.4889400005340576 0.38273999094963074 -0.1451600044965744 -0.09502000361680984 -0.9495300054550171 -0.5488399863243103 -0.052724000066518784 -0.013648999854922295 -0.19738000631332397 -0.08640699833631516 -0.6752200126647949 -0.10729999840259552 -0.11812999844551086 0.016311999410390854 -0.8389999866485596 0.2026199996471405 -0.7462499737739563 -0.5654199719429016 0.2253199964761734 0.2702000141143799 0.43678998947143555 -0.14714999496936798 0.6409100294113159 -0.35394999384880066 -0.022404000163078308 0.27358999848365784 -0.25661998987197876 0.5338900089263916 -0.1651100069284439 -0.053727999329566956 -0.7871900200843811 -0.8933899998664856 0.4196400046348572 0.198170006275177 -0.10276000201702118 -0.13120000064373016 0.1704300045967102 -0.40446001291275024 0.26611000299453735 -0.0059380000457167625 0.3899399936199188 -0.27823999524116516 0.11627999693155289 0.2024800032377243 -0.016675999388098717 0.5126100182533264 -0.26614999771118164 -0.429720014333725 0.5265700221061707 -0.18821999430656433 0.33292001485824585 -0.7847200036048889 0.37404999136924744 -0.15324999392032623 0.6000300049781799 -0.48267999291419983 0.4748600125312805 -0.015084000304341316 -0.2536099851131439 0.7026900053024292 0.45284000039100647 -0.39513999223709106 -0.6724600195884705 0.5411099791526794 0.11344999819993973 -0.8079599738121033 -0.7494500279426575 -0.05714299902319908 0.1182899996638298 -0.3173699975013733 -0.2624500095844269 0.7523999810218811 0.4983699917793274 -0.0243500005453825 -0.20509999990463257 0.10086999833583832 0.4896700084209442 -0.5547299981117249 0.3678799867630005 0.5824999809265137 -0.5367500185966492 -0.3700999915599823 -0.47890999913215637 0.49524998664855957 -0.02785399928689003 0.2630400061607361 -0.37092000246047974 0.17691999673843384 -0.3535799980163574 -0.17192000150680542 -0.42493999004364014 0.2581599950790405 -0.05513999983668327 -0.013771000318229198 -0.8772100210189819 0.27592000365257263 0.6517500281333923 0.04166200011968613 -0.337909996509552 -0.2627499997615814 -0.385560005903244 0.3470500111579895 -0.07688400149345398 -0.05893300101161003 0.11745999753475189 -0.035248998552560806 0.34957000613212585 0.1053600013256073 0.10114999860525131 0.43841999769210815 0.419189989566803 -0.4359399974346161 -0.33608999848365784 -0.19030000269412994 0.5479900240898132 -1.1749999523162842 0.1429000049829483 -0.4272100031375885 -0.07001300156116486 0.23931999504566193 0.06632299721240997 0.7883599996566772 0.07634399831295013 -0.37751999497413635 -0.17050999402999878 0.05269800126552582 0.6058899760246277 -0.6313700079917908 -0.8107799887657166 0.8120800256729126 -0.11866000294685364 0.03631100058555603 0.346560001373291 0.3133400082588196 -0.3698900043964386 0.4646100103855133 -0.39937999844551086 -0.5137500166893005 -0.7566099762916565 0.2239599972963333 0.07915599644184113 -0.20915000140666962
lamont 0.08228500187397003 0.3289400041103363 0.1606599986553192 0.22154000401496887 0.020562000572681427 0.28558000922203064 0.9316099882125854 -0.33052998781204224 -0.3028799891471863 0.22366000711917877 -0.2205200046300888 -0.228860005736351 0.4414600133895874 -0.6500899791717529 -0.5824800133705139 0.6554800271987915 0.23044000566005707 -0.1876000016927719 -0.5189700126647949 -0.28960999846458435 -0.04409100115299225 -0.05603700131177902 -0.3786099851131439 -0.12533999979496002 0.29034000635147095 -0.3842200040817261 -0.3086400032043457 0.07353100180625916 -0.7847800254821777 -0.44878000020980835 -0.11324000358581543 0.5611799955368042 0.49373000860214233 0.33417999744415283 0.04471699893474579 0.13052000105381012 -0.4070900082588196 0.08383999764919281 -0.022734999656677246 -1.2719000577926636 -0.13875000178813934 0.016738999634981155 -0.4789299964904785 0.17948000133037567 0.006005899980664253 -0.019912000745534897 0.24716000258922577 0.062449999153614044 0.338019996881485 -0.1507599949836731 0.31205999851226807 0.10612999647855759 0.29620999097824097 0.17483000457286835 0.17570999264717102 -0.19256000220775604 -0.06453300267457962 0.10058999806642532 -0.17560000717639923 -0.8982300162315369 0.3847399950027466 -0.5790899991989136 -0.19779999554157257 -0.4008899927139282 0.31463998556137085 0.07039400190114975 -0.06965400278568268 0.387470006942749 -0.7571200132369995 0.15437999367713928 -0.6129699945449829 -0.13672000169754028 0.008234799839556217 -0.31499001383781433 0.5122399926185608 -0.7526900172233582 -0.5995799899101257 -0.29148000478744507 -0.24767999351024628 -0.25343000888824463 0.18682999908924103 -0.02517399936914444 0.20416000485420227 0.559249997138977 -0.3146800100803375 -0.49114999175071716 0.2072799950838089 0.3327299952507019 0.1267700046300888 0.35708001255989075 -0.4512999951839447 -0.6457200050354004 -0.10756000131368637 0.5729699730873108 -0.6376199722290039 0.9658200144767761 -0.5421500205993652 0.38545000553131104 -0.22669999301433563 0.23698000609874725 0.3311600089073181 -0.0013177000219002366 -0.08041100203990936 0.6557300090789795 -0.49709001183509827 -0.7450000047683716 -0.01693899929523468 0.9837499856948853 0.15796999633312225 -0.18595999479293823 0.21602000296115875 0.11354000121355057 -0.5666000247001648 0.33959001302719116 -0.10948000103235245 0.1978600025177002 -0.06690800189971924 -0.291159987449646 -0.20366999506950378 0.22304999828338623 0.5208200216293335 0.19306999444961548 0.285290002822876 0.284960001707077 0.5623000264167786 -0.3655399978160858 -0.17061999440193176 0.3136799931526184 0.4851900041103363 0.3866499960422516 -0.48945000767707825 -0.18542000651359558 0.8291900157928467 -0.2754400074481964 0.3616200089454651 0.2572700083255768 0.31147000193595886 0.09640999883413315 -0.4983699917793274 0.8583099842071533 0.22943000495433807 0.46573999524116516 -0.26023000478744507 -0.06632400304079056 0.5524200201034546 0.14997999370098114 -0.040286000818014145 -0.28593000769615173 0.11642999947071075 -0.3521600067615509 0.057624999433755875 0.04966399818658829 -0.37782999873161316 0.4373700022697449 -0.2112099975347519 -0.8198699951171875 0.28266000747680664 -0.09287100285291672 0.07463400065898895 -0.2766200006008148 -0.6487200260162354 -0.30357998609542847 0.1318800002336502 0.40035000443458557 -0.1988299936056137 0.25902000069618225 -0.41260001063346863 0.2979699969291687 1.1125999689102173 -0.09777600318193436 0.7661499977111816 -0.3422299921512604 0.052928999066352844 -0.4574599862098694 -0.4725100100040436 -0.3194600045681 -0.26308000087738037 0.08860799670219421 -0.06198500096797943 0.29120999574661255 -0.5182600021362305 -0.0019517999608069658 -0.3754799962043762 0.23502999544143677 -0.27292999625205994 0.15076999366283417 0.7499600052833557 -0.6104599833488464 -0.39546999335289 -0.24507999420166016 0.21649999916553497 0.5890899896621704 0.2933399975299835 0.3664799928665161 -0.12225999683141708 -0.5715500116348267 -0.038961999118328094 0.2040099948644638 0.5524500012397766 0.18122999370098114
hakim -1.5419000387191772 -0.10168000310659409 0.27849000692367554 0.030369000509381294 -0.13071000576019287 0.020848000422120094 -0.01219900045543909 0.7934499979019165 0.16061000525951385 0.025404000654816628 -0.08024899661540985 -0.3976899981498718 0.20754000544548035 -0.11705999821424484 -0.25676000118255615 0.16652999818325043 -0.6236500144004822 0.0507970005273819 -0.8544700145721436 -0.35517001152038574 0.9607800245285034 0.06228899955749512 0.014542999677360058 0.0367170013487339 0.24544000625610352 0.05687100067734718 -0.136680006980896 -0.10430999845266342 0.6221100091934204 0.0267340000718832 0.6484900116920471 -0.2936600148677826 0.5120800137519836 -0.9922699928283691 0.16624000668525696 -0.04584600031375885 -0.12509000301361084 -0.18695999681949615 -0.4326600134372711 0.7215499877929688 -0.4262700080871582 0.27278000116348267 -0.8210300207138062 -0.2884100079536438 -0.03981500118970871 -0.16654999554157257 -0.9424999952316284 -0.19001999497413635 0.12387000024318695 -0.6777999997138977 0.699429988861084 -0.2687700092792511 -0.07123199850320816 0.4364300072193146 -0.19633999466896057 -0.23603999614715576 0.5603299736976624 -0.5888000130653381 0.9993699789047241 -0.6178500056266785 -0.3254300057888031 -1.0770000219345093 0.03759400174021721 0.1777700036764145 0.2989499866962433 -0.34095999598503113 -0.020919999107718468 0.1571899950504303 -0.7466899752616882 0.6470199823379517 -0.1003199964761734 -0.39743998646736145 -0.38137999176979065 0.12803000211715698 0.6692699790000916 -1.0156999826431274 -0.12444999814033508 -0.48486000299453735 -0.05581099912524223 0.21803000569343567 0.4197700023651123 -0.47257000207901 0.030056999996304512 -0.8812299966812134 -0.13753999769687653 1.0063999891281128 -0.23857000470161438 -0.3323099911212921 -0.19245000183582306 -0.10701999813318253 0.09794499725103378 0.797290027141571 -0.1508300006389618 -0.6886799931526184 -0.44922998547554016 0.3781000077724457 -0.30724000930786133 0.7240599989891052 -0.26669999957084656 -0.2620899975299835 0.7163699865341187 -0.4239000082015991 0.48625999689102173 0.09934599697589874 0.16700999438762665 0.15285000205039978 0.1939300000667572 0.4930199980735779 0.19944000244140625 -0.3363800048828125 0.4174000024795532 0.41231000423431396 -0.3577899932861328 0.6576099991798401 0.5097100138664246 -0.05863000079989433 0.5382199883460999 -0.2261500060558319 0.007898000068962574 -0.4456599950790405 0.08417700231075287 0.9309399724006653 0.44102999567985535 0.7306100130081177 0.7204300165176392 -0.15839000046253204 -0.06052500009536743 0.49974000453948975 -0.4703400135040283 0.32813000679016113 -0.3388899862766266 -0.05864100158214569 -0.9043700098991394 -0.4429500102996826 0.06881900131702423 -0.1149900034070015 0.385699987411499 0.015924999490380287 0.28033000230789185 -0.3464300036430359 -0.20556999742984772 -0.08597300201654434 -0.6010299921035767 -0.4597100019454956 0.6878499984741211 -0.5006999969482422 -0.06854599714279175 0.6074699759483337 0.4244300127029419 -0.15678000450134277 0.5637900233268738 0.19604000449180603 -0.5164200067520142 0.15286000072956085 0.6459500193595886 0.08380799740552902 -0.5247300267219543 -0.38075000047683716 -0.663349986076355 -0.0872969999909401 -0.2307800054550171 -0.2436700016260147 0.24160000681877136 0.01806499995291233 0.11377999931573868 -0.8487899899482727 -0.3450300097465515 -0.2366899996995926 0.21619999408721924 -0.3775399923324585 -0.15220999717712402 -0.7410200238227844 0.2652199864387512 -0.4241200089454651 -0.17434999346733093 0.45346999168395996 0.11517000198364258 -0.5363199710845947 -0.5624200105667114 0.16440999507904053 -0.2914299964904785 0.14614999294281006 0.31529000401496887 -0.5563899874687195 0.7396100163459778 -0.10758999735116959 -0.9922500252723694 0.21634000539779663 0.45405998826026917 -0.8635500073432922 0.14786000549793243 0.40255001187324524 0.09954199939966202 0.5272700190544128 -0.22902999818325043 -0.20015999674797058 -0.1905200034379959 -0.3154999911785126 -0.37617000937461853 0.35850000381469727
bagpipe 0.329910010099411 -0.10829000174999237 0.3247700035572052 -0.07656899839639664 0.7778099775314331 -0.8976600170135498 0.2950800061225891 0.2917400002479553 -0.10707999765872955 -0.5042099952697754 0.14767000079154968 -0.2537199854850769 -0.01695599965751171 -0.2532399892807007 0.19307999312877655 -1.1195000410079956 -0.1006999984383583 -0.7519400119781494 -0.36750999093055725 0.34586000442504883 0.6995400190353394 -1.062600016593933 -0.4487299919128418 -0.7099199891090393 0.185479998588562 -0.7972000241279602 -0.022376999258995056 -0.5092200040817261 -0.2542099952697754 -0.482369989156723 -0.29256999492645264 0.5564600229263306 -0.2972300052642822 0.007604199927300215 0.0955360010266304 -0.5207399725914001 -0.7715299725532532 0.7447900176048279 -0.164450004696846 -0.08824300020933151 0.35319000482559204 -0.5033000111579895 0.8928599953651428 -0.4016900062561035 0.02384199947118759 0.22690999507904053 -0.47652000188827515 0.7996399998664856 0.542930006980896 -0.21004000306129456 -0.059755999594926834 -0.17504000663757324 -0.7038800120353699 -0.3571299910545349 -0.21476000547409058 0.1686599999666214 -0.5974500179290771 0.20769000053405762 -0.7608199715614319 0.33428001403808594 -0.2267400026321411 -0.448170006275177 0.6105599999427795 -0.03803500160574913 -0.5517799854278564 0.6255699992179871 -0.014216000214219093 -0.2786000072956085 -0.38955000042915344 -0.4586699903011322 0.35938000679016113 -0.7881799936294556 0.1950799971818924 0.4466100037097931 -0.8479200005531311 -0.1842699944972992 0.5478500127792358 0.1439400017261505 0.7128499746322632 -0.2627300024032593 -0.16790999472141266 -0.059032998979091644 -0.22009000182151794 0.040821999311447144 -0.3072200119495392 0.4336499869823456 -0.13806000351905823 0.2194799929857254 0.8120999932289124 -0.7956900000572205 0.28064998984336853 0.3830200135707855 0.13346999883651733 0.09129200130701065 -0.38885000348091125 -0.5293499827384949 0.21581000089645386 0.12281999737024307 -0.5305600166320801 0.3770900070667267 0.712369978427887 -0.5974100232124329 0.6651700139045715 -0.10200999677181244 0.7343999743461609 0.07745800167322159 -0.1228799968957901 -0.7720900177955627 0.33908000588417053 0.12580999732017517 0.6875100135803223 -0.2848599851131439 -0.521399974822998 -0.5702199935913086 -0.23600000143051147 0.5232499837875366 0.07423199713230133 0.2850100100040436 0.695900022983551 -0.3889800012111664 0.006558599881827831 0.39434999227523804 1.0008000135421753 0.33542001247406006 0.8211699724197388 0.2742899954319 0.7243899703025818 0.16325999796390533 -0.23235000669956207 0.3330700099468231 -0.751010000705719 -0.009195500053465366 0.2484399974346161 0.08419500291347504 -0.729390025138855 -0.17847999930381775 0.1372399926185608 0.6438599824905396 0.7556399703025818 0.1298999935388565 -0.17223000526428223 -0.039765000343322754 -0.06478700041770935 -0.7082099914550781 0.04939499869942665 -0.8869799971580505 0.2513499855995178 0.3517400026321411 -0.11949999630451202 -0.21915000677108765 0.11980000138282776 0.4499500095844269 0.045520998537540436 0.03170400112867355 -0.48385000228881836 0.12105999886989594 -0.11913999915122986 0.13816000521183014 0.4058400094509125 0.19354000687599182 -0.0643329992890358 0.42129001021385193 -0.41091999411582947 -0.3321000039577484 0.0718970000743866 0.2804499864578247 -0.5645099878311157 0.4313400089740753 0.024532999843358994 0.6729400157928467 -0.6958699822425842 0.14532999694347382 0.3961600065231323 0.608519971370697 -0.22324000298976898 -0.36458998918533325 0.019835999235510826 0.4499000012874603 -0.2732599973678589 -0.6145899891853333 -0.12891000509262085 0.4881199896335602 -0.08190900087356567 0.1854500025510788 -0.5950800180435181 -0.36340999603271484 0.13015000522136688 0.33173999190330505 -0.5810099840164185 0.6188300251960754 -0.5583900213241577 0.10967999696731567 0.23969000577926636 0.3820599913597107 -0.18839000165462494 0.5422899723052979 -0.039730001240968704 0.03248399868607521 0.3127700090408325 0.5516999959945679
leroy 0.25154000520706177 -0.5278199911117554 -0.6244699954986572 -0.0278290007263422 -0.08093199878931046 0.30761998891830444 -0.05991299822926521 -0.561269998550415 0.16689999401569366 0.302590012550354 0.7712200284004211 -0.5694900155067444 0.17483000457286835 -0.09235499799251556 0.4791699945926666 -0.020166000351309776 -0.03282500058412552 0.14158999919891357 0.21144999563694 -0.575190007686615 -0.3441999852657318 -0.157150000333786 0.5451700091362 -0.34630000591278076 0.25117000937461853 0.5232300162315369 -0.4921500086784363 -0.6906200051307678 -0.3981199860572815 -0.13243000209331512 0.33237001299858093 0.8515200018882751 0.41639000177383423 -0.5527300238609314 0.2812800109386444 -0.3099899888038635 -0.5304099917411804 0.03466299921274185 -0.4944100081920624 -0.23346999287605286 0.04702199995517731 -0.388949990272522 -0.6098799705505371 0.07350700348615646 0.06936199963092804 -0.02144400030374527 0.24943000078201294 -0.006404300220310688 -0.28949999809265137 0.02281299978494644 0.2326200008392334 0.1300099939107895 0.12764999270439148 -0.19939999282360077 0.47189998626708984 0.09829100221395493 -0.7052900195121765 -0.215379998087883 0.6729999780654907 -0.24488000571727753 0.03309499844908714 -0.0101539995521307 -0.8742200136184692 0.16773000359535217 -0.4878000020980835 -1.1966999769210815 -0.11219000071287155 -0.3255299925804138 -0.8730999827384949 0.9557200074195862 0.07514700293540955 1.1744999885559082 0.35740000009536743 -0.2392600029706955 0.04024999961256981 -0.6149399876594543 -0.43362000584602356 -0.2666899859905243 0.1291700005531311 0.14068999886512756 0.22637000679969788 -0.5526300072669983 -0.5170000195503235 0.06311800330877304 0.043241001665592194 -0.186489999294281 0.06084800139069557 0.3388400077819824 0.0747470036149025 0.49323999881744385 -0.5219299793243408 0.08918900042772293 -0.8127300143241882 -0.1476999968290329 -0.07180900126695633 0.27063000202178955 -0.4541800022125244 0.23639999330043793 0.18419000506401062 -0.21973000466823578 -0.2878200113773346 0.023524999618530273 0.13627000153064728 0.39320001006126404 -0.2994900047779083 0.22150999307632446 0.09201200306415558 0.8903499841690063 -0.7964800000190735 -0.08341299742460251 -0.04496699944138527 -0.06199000030755997 0.22296999394893646 0.09813900291919708 -0.13410000503063202 -0.5626999735832214 -0.5673800110816956 -0.4524500072002411 -0.15399999916553497 -0.12358000129461288 0.14622999727725983 0.2865000069141388 -0.15519000589847565 -0.17788000404834747 0.16596999764442444 -0.3637000024318695 -0.3954100012779236 0.3697800040245056 -0.20013999938964844 0.5365899801254272 -0.32440000772476196 -0.3485200107097626 0.18455000221729279 0.022220000624656677 0.8369200229644775 0.5203400254249573 0.19415000081062317 0.46709999442100525 -0.6288800239562988 0.7056800127029419 0.1440500020980835 0.3904399871826172 0.08206500113010406 0.35837000608444214 -0.42879000306129456 0.2661300003528595 0.031964998692274094 -0.7215099930763245 0.29137998819351196 0.21135999262332916 0.5609099864959717 -0.01501499954611063 -0.47742000222206116 -0.07794900238513947 0.5491799712181091 0.6377099752426147 -0.39691001176834106 -0.36792001128196716 0.1854500025510788 0.44137999415397644 0.03902899846434593 0.09630800038576126 0.24089999496936798 -0.41666001081466675 0.4741100072860718 0.4438999891281128 0.09832999855279922 0.6825399994850159 0.3756299912929535 -0.08047199994325638 0.358599990606308 0.4834100008010864 -0.03682199865579605 0.3497700095176697 -0.1415500044822693 0.16414999961853027 -0.7125499844551086 0.1476600021123886 0.39458000659942627 0.16110000014305115 -0.8043500185012817 -0.9025200009346008 -0.39862000942230225 -0.4692400097846985 -0.624750018119812 0.21563999354839325 0.13666999340057373 -0.003388300072401762 0.3097600042819977 -0.13380999863147736 -0.1690399944782257 -0.41187000274658203 0.1069599986076355 -0.20068000257015228 -0.05239500105381012 0.038676999509334564 0.6502699851989746 -0.24216000735759735 0.16839000582695007 -0.698140025138855
rifle 0.2875800132751465 0.3188199996948242 -0.0806180015206337 -0.4681999981403351 -0.5278400182723999 -0.5298299789428711 -0.3997200131416321 0.48041999340057373 0.6777700185775757 0.07301300019025803 -0.8271499872207642 -0.14921000599861145 0.5046799778938293 0.4330900013446808 0.7340700030326843 0.3016600012779236 -0.2927800118923187 -0.44040998816490173 0.6997299790382385 0.17117999494075775 0.6578900218009949 0.9150999784469604 0.8462399840354919 -0.9592199921607971 -0.39827001094818115 -0.2831000089645386 -0.239779993891716 0.01488799974322319 -0.9901700019836426 -0.12961000204086304 -0.2948800027370453 1.1059999465942383 0.8912799954414368 -0.18283000588417053 -0.26423001289367676 0.12870000302791595 -0.490090012550354 0.4458000063896179 0.035002999007701874 0.004918099846690893 -0.13230000436306 -0.1229500025510788 0.03658200055360794 -0.22367000579833984 0.13551999628543854 -0.243149995803833 0.9718599915504456 0.3180699944496155 -0.02346700057387352 -0.5988699793815613 0.5310199856758118 -0.2696000039577484 -0.6838700175285339 -0.4171200096607208 -0.405129998922348 -0.12871000170707703 -0.5600299835205078 0.016618000343441963 -0.3578599989414215 0.5497599840164185 -0.2759599983692169 -0.06939099729061127 -0.3104400038719177 0.22247999906539917 0.20769000053405762 0.12161000072956085 -0.7485600113868713 -0.798039972782135 -0.3499700129032135 -1.0827000141143799 -0.09913600236177444 0.5339499711990356 -0.6575199961662292 0.14208999276161194 -0.36618998646736145 -0.4930799901485443 0.08827000111341476 -0.17771999537944794 0.8967900276184082 -0.0473800003528595 -0.4128499925136566 0.11097999662160873 0.5132399797439575 0.09065800160169601 -0.33528000116348267 0.42998000979423523 -0.9300900101661682 -0.4928100109100342 0.1744299978017807 -0.3316900134086609 -0.028982000425457954 0.2248699963092804 -0.7507100105285645 0.6017500162124634 0.5089899897575378 -0.4714300036430359 -0.25508999824523926 0.527899980545044 0.0003376099921297282 -0.4603100121021271 -0.45151999592781067 -0.6439999938011169 0.3324899971485138 -0.22130000591278076 0.6242499947547913 -0.29412001371383667 0.8650799989700317 0.5034499764442444 0.26743999123573303 0.677299976348877 -0.19498999416828156 -0.49566999077796936 0.03885899856686592 -0.01620499975979328 -0.5736899971961975 0.5652899742126465 0.7772799730300903 -0.3580299913883209 -0.02857399918138981 -0.52183997631073 -0.6403399705886841 -0.024486999958753586 -0.15286999940872192 0.7237399816513062 0.1633400022983551 0.33983999490737915 -0.16763000190258026 0.3590100109577179 -0.24945999681949615 0.09640400111675262 -0.29607000946998596 0.24312999844551086 -0.24782000482082367 -0.8012499809265137 0.2318599969148636 0.9557099938392639 -0.9380900263786316 0.2337000072002411 -0.16854000091552734 0.5017200112342834 0.03759099915623665 0.3024600148200989 0.1832599937915802 -0.18014000356197357 1.0662000179290771 -0.05025000125169754 -0.14271000027656555 0.6988800168037415 -0.05801599845290184 -0.1935500055551529 0.58788001537323 0.26642000675201416 0.6143199801445007 -0.6901100277900696 -0.22707000374794006 0.6912699937820435 -0.5219799876213074 0.24605999886989594 -0.7766100168228149 -0.48298999667167664 -0.31387999653816223 0.6243299841880798 -0.7152799963951111 0.3458000123500824 -0.8824599981307983 -0.42416998744010925 0.46790000796318054 0.11840000003576279 -0.6841700077056885 0.05187699943780899 0.6639500260353088 -0.07231400161981583 -0.16387000679969788 -0.5024499893188477 -0.385919988155365 0.050586998462677 0.625220000743866 -1.323699951171875 -0.2853800058364868 0.06391099840402603 0.9600899815559387 -0.44370999932289124 -0.26298001408576965 0.3824999928474426 0.03827900066971779 -0.6260300278663635 -0.9017400145530701 0.1728300005197525 -0.623769998550415 0.36059001088142395 0.3864099979400635 0.33258000016212463 1.3349000215530396 0.3784100115299225 0.6488000154495239 0.4845600128173828 0.623740017414093 0.11319000273942947 -0.4941900074481964 0.6155300140380859
honor 0.16761000454425812 0.7610999941825867 -0.08074299991130829 -0.5323799848556519 -0.3744499981403351 -1.0561000108718872 0.38367000222206116 0.1732099950313568 0.17640000581741333 -0.11629000306129456 -0.5861499905586243 -0.10211999714374542 -0.689769983291626 0.00519109982997179 1.037500023841858 -0.49557000398635864 0.3544900119304657 0.73294997215271 -0.23656000196933746 -0.14906999468803406 0.44683000445365906 1.8524999618530273 0.543720006942749 0.06359600275754929 -0.12596000730991364 -0.05313200131058693 0.38725000619888306 -0.6793500185012817 0.0508279986679554 0.09291599690914154 0.5494300127029419 0.05195099860429764 -0.014438999816775322 -0.10773999989032745 -0.7376499772071838 0.11277999728918076 -0.9954500198364258 -0.13766999542713165 0.47130998969078064 0.11787000298500061 0.4907599985599518 0.4040299952030182 0.08100099861621857 0.2081799954175949 0.16769999265670776 0.20895999670028687 0.9719499945640564 0.061427999287843704 0.059884000569581985 0.0038153999485075474 0.03827900066971779 -0.33908000588417053 -0.3409700095653534 0.13833999633789062 -0.28633999824523926 0.03897000104188919 -0.03771200031042099 0.04459400102496147 0.07923199981451035 -0.77538001537323 -0.0594870001077652 0.18730999529361725 -0.2849099934101105 -0.04934300109744072 -0.5353699922561646 0.010990000329911709 -0.09504500031471252 0.5913800001144409 0.14841000735759735 0.5806599855422974 0.4174399971961975 -0.002037599915638566 0.3729099929332733 0.03320800140500069 -0.635890007019043 0.006343599874526262 -0.23311999440193176 -0.31119000911712646 0.3069399893283844 0.2558799982070923 -0.10734999924898148 -0.611050009727478 -0.5072399973869324 0.354449987411499 0.42348000407218933 0.546999990940094 -0.6753000020980835 -0.10510999709367752 0.30882999300956726 -0.3365800082683563 0.15214000642299652 -0.33511000871658325 0.07390200346708298 0.2750000059604645 -0.503790020942688 -0.4744099974632263 0.3474699854850769 -0.06559699773788452 -0.42833998799324036 -0.4069199860095978 -0.17836999893188477 0.22809000313282013 -0.19619999825954437 -0.8613799810409546 -0.7346400022506714 -0.3810099959373474 -0.17603999376296997 1.285599946975708 0.05601799860596657 -0.15613999962806702 0.5073599815368652 0.3315199911594391 -0.4094899892807007 -0.005751499906182289 -0.9691600203514099 -0.0016413000412285328 -0.4877699911594391 -0.28080999851226807 0.08309599757194519 -0.15942999720573425 -0.08641699701547623 0.07575800269842148 -0.21549999713897705 -0.2145099937915802 0.4269999861717224 -0.8789700269699097 -0.4791100025177002 -0.3137499988079071 0.17057999968528748 -0.8320099711418152 0.04800499975681305 0.33274999260902405 -0.05574199929833412 0.017813000828027725 -0.21619999408721924 -0.10454999655485153 0.10817000269889832 1.1313999891281128 -0.16633999347686768 -0.3184700012207031 0.025433000177145004 0.2831999957561493 0.3510200083255768 -0.38916999101638794 0.8741700053215027 0.733709990978241 -0.18477000296115875 0.3939799964427948 -0.1174900010228157 0.3206999897956848 0.2441300004720688 -0.0439319983124733 -0.004111200105398893 -0.29357001185417175 0.32592999935150146 0.7617700099945068 0.011389000341296196 0.28905999660491943 0.06632199883460999 0.37130001187324524 0.5365899801254272 0.49706000089645386 -0.0042675998993217945 -0.6147500276565552 0.05892200022935867 0.030314000323414803 -0.30845001339912415 -0.06205900013446808 0.21963000297546387 1.1971999406814575 0.3078800141811371 0.06598199903964996 0.14589999616146088 -0.18626999855041504 0.15390999615192413 -0.27803999185562134 -0.5665000081062317 -0.32409000396728516 0.4183500111103058 0.06767799705266953 0.3753400146961212 0.13809999823570251 0.2390899956226349 -0.47582998871803284 -0.3965100049972534 0.20286999642848969 -0.5358700156211853 0.10835999995470047 0.0793209969997406 -0.01671599969267845 -0.1337299942970276 0.28095999360084534 -0.26260998845100403 -0.54448002576828 -0.2215300053358078 0.09007100015878677 0.38370999693870544 -0.2658500075340271 0.7553499937057495 -0.15283000469207764
caterpillar 0.12967999279499054 -0.5938699841499329 -0.7905200123786926 0.749019980430603 0.43189001083374023 -0.14774000644683838 -0.27695000171661377 -0.7168200016021729 -0.22104999423027039 0.44631001353263855 -0.15399999916553497 0.05044399946928024 0.026239000260829926 -0.06636200100183487 -0.16332000494003296 -0.8810700178146362 0.37369999289512634 -0.5238100290298462 0.19172999262809753 0.42289999127388 0.3474099934101105 -0.2643299996852875 0.2537800073623657 -0.6079800128936768 0.3307200074195862 0.2039099931716919 0.23568999767303467 0.6101599931716919 -0.27625998854637146 0.12540000677108765 0.5228300094604492 -0.27338001132011414 -0.5133399963378906 0.032267000526189804 1.0740000009536743 -0.12266000360250473 0.17788000404834747 -0.9169899821281433 -0.48041000962257385 0.5492100119590759 0.13091999292373657 -0.09023100137710571 -0.30616000294685364 0.06365299969911575 -0.34782999753952026 -0.1653600037097931 -0.6122300028800964 -0.15974999964237213 0.10023999959230423 -0.08539699763059616 0.0753059983253479 -0.311489999294281 0.7175300121307373 -0.161080002784729 0.42555001378059387 -0.11203999817371368 -0.7197099924087524 -0.4767099916934967 -0.24383999407291412 0.567520022392273 0.735230028629303 -0.27651000022888184 0.8920599818229675 0.061298999935388565 -0.804390013217926 0.14464999735355377 -0.7701699733734131 0.5287899971008301 0.007100599817931652 0.13839000463485718 0.2897399961948395 0.7999200224876404 0.09843999892473221 0.5572199821472168 -0.27599000930786133 0.5790200233459473 0.3454500138759613 -0.15520000457763672 0.46015000343322754 -0.28786998987197876 0.1261499971151352 -0.4639799892902374 -0.19864000380039215 0.8473299741744995 -0.05630100145936012 -0.2453400045633316 0.019120000302791595 0.6154199838638306 -0.14993000030517578 -0.8152599930763245 -0.23521000146865845 0.17633000016212463 -0.37356001138687134 0.759660005569458 0.44922998547554016 -0.15026000142097473 0.025465000420808792 -0.07119700312614441 0.3970400094985962 0.3170599937438965 0.07083000242710114 -0.4116399884223938 -0.08016800135374069 0.46031999588012695 0.02709200046956539 0.40279000997543335 1.0042999982833862 -0.29534998536109924 -0.454800009727478 -0.2062399983406067 0.38635000586509705 -0.43999001383781433 -0.6429299712181091 -0.2596000134944916 -0.41710999608039856 -0.21646000444889069 0.09248299896717072 0.3480699956417084 0.37567999958992004 -0.1295499950647354 0.33024001121520996 -0.08745300024747849 -0.18848000466823578 -0.5740600228309631 0.3194800019264221 0.16649000346660614 -0.06010400131344795 0.48625999689102173 -0.486519992351532 -0.11302000284194946 -0.40417999029159546 0.2034900039434433 -0.3404499888420105 -0.9283999800682068 0.6153500080108643 -0.2175299972295761 -0.3624800145626068 -0.2781600058078766 -0.5176799893379211 0.19203999638557434 0.21367999911308289 0.045469000935554504 -0.06842300295829773 -0.10352999716997147 0.45732998847961426 0.8809700012207031 0.11878000199794769 -0.2843799889087677 0.40825000405311584 -0.47874000668525696 0.31167998909950256 -0.030029000714421272 -0.43538999557495117 -0.15876999497413635 0.6549199819564819 0.3500800132751465 -0.5602099895477295 0.4025300145149231 -0.6143699884414673 -0.3013699948787689 -0.043035998940467834 0.0270990002900362 -0.08658099919557571 -0.237419992685318 -0.5411800146102905 0.038718998432159424 0.7929999828338623 0.14122000336647034 0.022259000688791275 -0.08081500232219696 0.7588199973106384 0.006263500079512596 -0.13774999976158142 0.7745100259780884 -0.7183399796485901 0.3325900137424469 0.7651699781417847 0.13970999419689178 -0.28847000002861023 -0.1158600002527237 0.8115400075912476 -0.0234839990735054 0.015181000344455242 0.2563900053501129 0.11912000179290771 0.5444599986076355 -0.24740999937057495 0.9929900169372559 0.5075500011444092 0.42871999740600586 0.2876499891281128 -0.22754999995231628 -0.6995300054550171 0.04877899959683418 0.5113400220870972 -0.21020999550819397 -0.3355500102043152 0.1049100011587143 1.0413999557495117 0.3377799987792969
lashelle 0.15636999905109406 -0.4036099910736084 -0.29629001021385193 -0.34259000420570374 -0.18232999742031097 0.23431000113487244 0.14741000533103943 -0.5083100199699402 -0.11643999814987183 -0.8273299932479858 -0.1500599980354309 -0.2786099910736084 -0.13484999537467957 -0.16493000090122223 0.12011999636888504 0.3018699884414673 0.2948099970817566 -0.5260999798774719 0.17816999554634094 -0.14151999354362488 -0.1408499926328659 -0.7368800044059753 0.13241000473499298 -0.06090199947357178 -0.4339199960231781 -0.4713999927043915 0.07543700188398361 0.46498000621795654 -0.5433400273323059 0.2195899933576584 0.2896600067615509 -0.1468600034713745 0.1907300055027008 -0.08807700127363205 0.32576000690460205 0.40459999442100525 0.43202999234199524 -0.019555000588297844 0.2879999876022339 0.11750999838113785 0.03732199966907501 0.42013001441955566 0.2199700027704239 0.11217000335454941 0.2795700132846832 -0.362419992685318 -0.1891999989748001 0.05983800068497658 -0.12535999715328217 0.1847500056028366 0.27623000741004944 -0.3520500063896179 0.10986000299453735 -0.2616100013256073 -0.08291400223970413 0.29218000173568726 0.02954700030386448 0.21499000489711761 0.1724500060081482 -0.3434000015258789 -0.5857399702072144 -0.2847500145435333 0.13357999920845032 -0.35534000396728516 -0.28718000650405884 -0.7717199921607971 0.09970399737358093 0.31095001101493835 -0.16854999959468842 0.43154001235961914 0.8136100172996521 0.18994000554084778 0.3801099956035614 0.11794999986886978 0.20399999618530273 -0.17511999607086182 0.30845001339912415 0.3976899981498718 0.6494500041007996 -0.429610013961792 0.18125000596046448 0.0519540011882782 0.16529999673366547 0.0500670000910759 -0.14657999575138092 0.11745999753475189 0.5175099968910217 0.09152200073003769 -0.10507000237703323 -0.3001599907875061 0.02580999955534935 -0.10941000282764435 -0.3767400085926056 0.1497499942779541 0.04904999956488609 0.18730999529361725 0.01409200020134449 -0.35853999853134155 0.21658000349998474 0.6140400171279907 0.45080000162124634 -0.06733299791812897 0.6097300052642822 -0.5105999708175659 -0.35760000348091125 -0.1179800033569336 -0.037790000438690186 -0.4209200143814087 0.4649899899959564 0.5054200291633606 0.09324400126934052 0.35464000701904297 0.38892000913619995 -0.7202200293540955 -0.32332998514175415 0.11311999708414078 0.33087000250816345 0.26076000928878784 0.03477900102734566 0.4614900052547455 0.05580899864435196 -0.023231999948620796 -0.5265700221061707 -0.06327500194311142 0.09691700339317322 0.6893799901008606 0.07836700230836868 -0.33028000593185425 -0.32030999660491943 0.40852001309394836 -0.13158999383449554 -0.15255999565124512 -0.8011800050735474 -0.03537900000810623 -0.4529600143432617 -0.3832300007343292 -0.5812199711799622 0.33862000703811646 0.06853199750185013 0.19494999945163727 0.09664999693632126 0.20770999789237976 -0.06923499703407288 0.23255999386310577 -0.6724100112915039 0.11640000343322754 0.053488001227378845 0.29666000604629517 -0.18649999797344208 0.06963899731636047 0.49024999141693115 -0.0529399998486042 -0.2047799974679947 0.23357999324798584 0.1510400027036667 0.09985499829053879 0.3503899872303009 -0.45539000630378723 -0.026768000796437263 0.6181399822235107 0.34595999121665955 -0.6824600100517273 -0.48548001050949097 -0.6010100245475769 -0.16715000569820404 0.054044999182224274 0.15853999555110931 -0.4181399941444397 0.514680027961731 -0.19246000051498413 -0.2426699995994568 -0.4156399965286255 -0.22737999260425568 -0.152879998087883 0.11766000092029572 -0.30643999576568604 -0.18408000469207764 0.2105800062417984 -0.4184400141239166 0.13732999563217163 -0.3176800012588501 -0.3758699893951416 0.23205000162124634 -0.030672000721096992 0.24785999953746796 -0.020553000271320343 0.22558000683784485 0.4535999894142151 0.4073599874973297 -0.016273999586701393 0.29594001173973083 -0.24601000547409058 0.07225199788808823 -0.8707799911499023 0.0228899996727705 -0.3313800096511841 0.07758499681949615 -0.8240399956703186 -0.034286998212337494 -0.16395999491214752
todd -0.38367000222206116 0.6023899912834167 -0.24404999613761902 0.28255000710487366 -0.5025299787521362 0.11503999680280685 0.0984409973025322 -0.7144399881362915 -0.052654001861810684 -0.13967999815940857 0.04653700068593025 -0.4933899939060211 -0.33142000436782837 -0.02706800028681755 0.9773600101470947 -0.6618899703025818 -0.3129900097846985 -0.3894500136375427 -0.2817800045013428 0.31880998611450195 0.2925100028514862 0.6177099943161011 -0.031585998833179474 0.4337100088596344 -0.2252199947834015 0.22696000337600708 0.1730400025844574 -0.4572100043296814 0.3154299855232239 -0.9750900268554688 -0.3474699854850769 0.6357899904251099 -0.43509000539779663 -0.5601000189781189 0.14368000626564026 -0.33715999126434326 0.5642499923706055 0.06438300013542175 -0.25883999466896057 -0.594760000705719 -0.6856499910354614 -0.45570001006126404 -0.43538999557495117 -0.2904300093650818 -0.018015999346971512 -0.29221001267433167 0.9851400256156921 -0.1902800053358078 0.4039900004863739 -0.6295599937438965 0.08531299978494644 0.5716300010681152 -0.4628399908542633 0.9372299909591675 0.3610199987888336 -0.25863000750541687 -0.8427199721336365 -0.44394999742507935 1.2603000402450562 0.46974998712539673 0.04418399930000305 0.4800199866294861 -1.0104999542236328 -0.0026805000379681587 0.42280998826026917 -0.05792900174856186 -0.5946199893951416 0.09491699934005737 -0.06025300174951553 0.5562300086021423 0.008948099799454212 -0.5914999842643738 0.449970006942749 0.35530000925064087 0.1984499990940094 0.3713200092315674 -0.49943000078201294 0.20875999331474304 -0.41815999150276184 0.2511799931526184 0.2915700078010559 -0.2213599979877472 0.11366000026464462 0.50764000415802 0.30952000617980957 -0.04642000049352646 -0.01156499981880188 -0.13199999928474426 -0.271340012550354 -0.4577299952507019 -0.9068700075149536 -0.6026899814605713 0.713100016117096 0.7536600232124329 -0.22699999809265137 0.8483700156211853 -0.066382996737957 -0.5141299962997437 0.3101699948310852 0.5386000275611877 -0.4193899929523468 0.15088999271392822 -0.4484499990940094 0.15282000601291656 -0.17298999428749084 -0.3834100067615509 -0.9133599996566772 1.3650000095367432 -0.2871699929237366 0.5214499831199646 -0.5616700053215027 0.10916999727487564 0.13204999268054962 -0.34775999188423157 0.133650004863739 -0.49636998772621155 -0.003474100027233362 -0.11925999820232391 0.07668100297451019 -0.16308000683784485 -0.015845000743865967 -0.3065800070762634 0.4336400032043457 -0.015554999932646751 0.5523899793624878 -0.06368400156497955 -0.3747499883174896 0.5748299956321716 -0.05619899928569794 -0.027526000514626503 0.3007799983024597 -0.2954699993133545 0.181659996509552 -0.6542099714279175 0.5230100154876709 0.05070799961686134 -0.03898400068283081 0.3343900144100189 -0.23295000195503235 0.20054000616073608 0.062470998615026474 -0.28913000226020813 -0.5291500091552734 0.3433400094509125 0.6619200110435486 0.07853099703788757 0.5002999901771545 -0.28494998812675476 0.21358999609947205 0.2640100121498108 0.3099299967288971 0.2538299858570099 -0.5721700191497803 0.2894499897956848 0.2926200032234192 -0.3112199902534485 0.4487000107765198 -0.054669998586177826 -0.13865000009536743 0.26510998606681824 0.13407999277114868 0.13323000073432922 0.4936000108718872 -0.01909800060093403 0.32784000039100647 0.03111100010573864 -0.37608999013900757 0.4549599885940552 -0.06458000093698502 -0.1754000037908554 0.671750009059906 -0.47165000438690186 0.4368700087070465 0.05363500118255615 -0.5218899846076965 -0.33059000968933105 -0.1190200001001358 -0.013268999755382538 -0.38190001249313354 -0.6089299917221069 -0.09712900221347809 -0.805679976940155 0.08767499774694443 0.5243399739265442 -0.9189599752426147 -0.9711599946022034 0.9682599902153015 -0.38060998916625977 -0.2186100035905838 0.3062700033187866 0.3091900050640106 -0.2758600115776062 0.05427300184965134 -0.0013615000061690807 0.4042400121688843 0.060148999094963074 0.5496100187301636 -0.49494001269340515 -0.2234800010919571 -0.2596299946308136
colleen 0.08491600304841995 0.20112000405788422 -0.11270000040531158 -0.21310999989509583 0.18176999688148499 0.4732399880886078 -0.2869200110435486 -0.4537400007247925 -0.0068212999030947685 0.12205000221729279 1.0404000282287598 0.08031400293111801 0.1318800002336502 -0.17398999631404877 0.039225999265909195 -0.2530899941921234 -0.2879999876022339 0.05664300173521042 0.21636000275611877 0.2816599905490875 0.680079996585846 -0.52565997838974 0.12511999905109406 0.7882599830627441 0.11490999907255173 0.41854000091552734 -0.24526000022888184 -0.5649700164794922 0.1770399957895279 -0.4547699987888336 -0.41585999727249146 -0.22012999653816223 0.2939000129699707 -0.3288399875164032 -0.19444000720977783 -0.06973399966955185 -0.34856998920440674 -0.06481300294399261 -0.008736999705433846 -0.5084499716758728 0.2363000065088272 -0.555180013179779 -1.0368000268936157 0.35835000872612 0.10126999765634537 -0.5597400069236755 0.003315000096336007 0.2953999936580658 0.10904999822378159 0.27955999970436096 0.7232300043106079 -0.20287999510765076 -0.799560010433197 -0.04881900176405907 -0.21046000719070435 0.04012199863791466 -0.1950400024652481 0.01682800054550171 0.3629400134086609 -0.24097999930381775 -0.03791800141334534 0.6465100049972534 -0.1545500010251999 0.7833899855613708 -0.25383999943733215 -0.3036699891090393 0.09238599985837936 -1.135200023651123 -0.6592400074005127 0.2473900020122528 -0.3864400088787079 -0.3084299862384796 0.1603499948978424 0.559220016002655 0.22067999839782715 -0.3290899991989136 -0.8332200050354004 -0.5213500261306763 -0.1119299978017807 0.8421099781990051 -1.1971999406814575 0.04806699976325035 0.8118600249290466 -0.2896200120449066 0.08251900225877762 -0.25630998611450195 -0.9646599888801575 0.3181400001049042 -0.16177000105381012 0.3660700023174286 0.06917999684810638 -0.2921000123023987 -0.2667999863624573 0.34119001030921936 -0.06404200196266174 0.5341600179672241 -0.024330999702215195 0.11247000098228455 0.07796899974346161 0.6518999934196472 -0.08398900181055069 -0.3469200134277344 -0.6016799807548523 0.005873099900782108 0.49118998646736145 0.13968999683856964 -0.14293000102043152 1.1605000495910645 -0.1698099970817566 0.3721100091934204 -0.02622300013899803 -0.07678599655628204 -0.2100600004196167 -0.29401999711990356 0.010723000392317772 -0.5233500003814697 0.17414000630378723 -0.0526450015604496 -0.19415000081062317 -0.15693999826908112 -0.05882500112056732 -0.3026599884033203 0.07519999891519547 -0.6317200064659119 1.5835000276565552 -0.3434399962425232 -0.36636000871658325 0.46320000290870667 0.4907299876213074 0.4125100076198578 -0.31650999188423157 0.25620999932289124 -0.2146500051021576 0.5181000232696533 0.5875200033187866 0.28411999344825745 -0.4717099964618683 0.20089000463485718 -0.6134499907493591 0.1916400045156479 -0.5321400165557861 0.27072998881340027 0.002208299934864044 -0.32357001304626465 -0.28696000576019287 -0.39917999505996704 0.38787001371383667 0.6269000172615051 0.10704000294208527 0.14940999448299408 -0.1272599995136261 0.5444700121879578 -0.001974599901586771 -0.014853999949991703 0.31325000524520874 0.6868600249290466 0.0929889976978302 -0.21658000349998474 0.2573400139808655 0.2666099965572357 -0.3525699973106384 -0.3321300148963928 -0.3033300042152405 0.0021838999819010496 0.19863000512123108 -0.43786001205444336 0.17041000723838806 -0.14855000376701355 0.26921001076698303 -0.5411700010299683 -0.20227999985218048 0.4802199900150299 0.8053299784660339 0.6001999974250793 -0.19098000228405 -0.08558399975299835 -0.2692300081253052 -0.041381001472473145 0.19043999910354614 -0.8000800013542175 0.20871999859809875 0.2036599963903427 0.3861199915409088 0.3525800108909607 0.2429399937391281 0.13721999526023865 0.2867400050163269 -0.16395999491214752 -0.20263999700546265 0.46862998604774475 0.4564099907875061 -0.23468999564647675 0.37042999267578125 -0.014801999554038048 -0.39594998955726624 0.17507000267505646 0.07932700216770172 -0.14327000081539154 0.6942999958992004 -0.7942699790000916
knife -0.37665998935699463 -0.17959000170230865 -0.3943699896335602 -0.37316998839378357 -0.33529001474380493 -0.27362000942230225 -0.021313000470399857 -0.05947300046682358 -0.27821001410484314 -0.5171099901199341 -0.2656700015068054 0.6005300283432007 1.2769999504089355 0.9287899732589722 -0.7172300219535828 -0.35361000895500183 0.4718100130558014 -0.659060001373291 0.11949999630451202 0.11648000031709671 0.14788000285625458 1.590499997138977 0.8254200220108032 -0.20937000215053558 -0.5596299767494202 -0.20573000609874725 0.06356000155210495 -0.7719299793243408 -0.5671899914741516 -0.5678200125694275 0.1916700005531311 0.49943000078201294 0.9898300170898438 0.8957200050354004 0.5786899924278259 0.5681700110435486 -0.33524999022483826 0.12870000302791595 -0.3834199905395508 0.4849900007247925 0.6439099907875061 -0.3590199947357178 -0.4311000108718872 0.5713300108909607 -0.048319000750780106 -0.422650009393692 0.5769699811935425 0.7649099826812744 0.16189999878406525 0.43603000044822693 0.6368399858474731 0.8709800243377686 -0.9998999834060669 0.5208200216293335 0.7814300060272217 -0.08061700314283371 -0.9021199941635132 -0.47753000259399414 0.6146299839019775 0.5392699837684631 0.02314399927854538 0.5709499716758728 0.2035900056362152 0.09449999779462814 -0.145019993185997 0.3864699900150299 0.15770000219345093 -0.6365900039672852 -0.10687000304460526 -0.6822199821472168 -0.3158999979496002 0.22909000515937805 -0.35683000087738037 0.47227999567985535 -0.5662800073623657 -0.08193600177764893 -0.08343999832868576 -0.22025999426841736 0.23169000446796417 -0.3628700077533722 0.453220009803772 -0.2963100075721741 0.482699990272522 -0.7504299879074097 -0.36733999848365784 -0.7562699913978577 -0.5280699729919434 -0.3287000060081482 0.06898099929094315 -0.845009982585907 -0.08464299887418747 -0.30237001180648804 -0.5388399958610535 1.323699951171875 -0.19078999757766724 -0.4284699857234955 0.35740000009536743 -0.0037144001107662916 -0.5101600289344788 0.6472600102424622 -0.4960800111293793 -0.22748999297618866 -0.5742899775505066 -0.20810000598430634 -0.3304100036621094 0.007994299754500389 -0.25345999002456665 -0.16672000288963318 -0.12964999675750732 0.20580999553203583 0.19404999911785126 -0.003843399928882718 0.38514000177383423 -0.2926799952983856 -0.5326600074768066 0.20848999917507172 0.5875399708747864 0.024073999375104904 -0.0190420001745224 0.10907000303268433 0.5866900086402893 0.11162000149488449 -0.8403800129890442 0.5760300159454346 0.25940999388694763 0.4124799966812134 -0.14917999505996704 -0.17276999354362488 0.44543999433517456 0.18226000666618347 0.42451000213623047 0.3463200032711029 -0.42618998885154724 -0.09379400312900543 0.19519999623298645 0.13465000689029694 -0.5116000175476074 -0.31630998849868774 -0.7084800004959106 0.44286999106407166 0.07071299850940704 0.13932999968528748 1.385200023651123 -0.2531000077724457 0.7884500026702881 -0.011168000288307667 0.5285099744796753 -0.39427000284194946 -0.17603999376296997 -0.24262000620365143 0.3735100030899048 0.7153199911117554 0.11176999658346176 -0.6291599869728088 -0.5674200057983398 0.2738899886608124 -0.11748000234365463 0.4660300016403198 0.29436999559402466 -0.38394999504089355 0.21856999397277832 0.3205699920654297 -0.382860004901886 0.16907000541687012 -0.15488000214099884 -0.28554999828338623 -0.30649998784065247 0.5772500038146973 -0.505810022354126 -0.42952001094818115 -0.3912299871444702 -0.5422199964523315 0.4409700036048889 -0.35644999146461487 -0.5573800206184387 0.46487998962402344 0.08343899995088577 -0.12495999783277512 0.3752500116825104 0.34696999192237854 0.4357900023460388 -0.1435600072145462 -0.36952999234199524 0.230880007147789 -0.165460005402565 -0.6573100090026855 -0.8893200159072876 -0.5450299978256226 0.5372700095176697 0.8747699856758118 -0.31960999965667725 0.14410999417304993 0.050971001386642456 -0.3388899862766266 0.10346999764442444 0.37272000312805176 0.4022800028324127 0.6068500280380249 -0.5547900199890137 -0.26159998774528503
wasp -0.2932400107383728 -0.30469998717308044 -0.5946999788284302 -0.428629994392395 0.179749995470047 -0.7979000210762024 -0.06149299815297127 -0.01786400005221367 -0.31488001346588135 0.46830999851226807 -0.04189499840140343 0.05466900020837784 -0.1196800023317337 1.0271999835968018 0.054694000631570816 0.11283999681472778 -0.24522000551223755 -0.8424699902534485 0.27553001046180725 0.274260014295578 0.9669299721717834 -0.3639799952507019 0.24602000415325165 -0.03180599957704544 -0.4037100076675415 -0.6537100076675415 0.2720000147819519 -0.5834299921989441 -0.29203000664711 0.6789000034332275 0.5039399862289429 0.09703099727630615 0.3497700095176697 0.14650000631809235 0.40887001156806946 0.24337999522686005 0.14640000462532043 -0.4162899851799011 0.12233000248670578 -0.5809699892997742 -0.47279998660087585 0.3781200051307678 0.19217999279499054 -0.025371000170707703 -0.23526999354362488 0.2136099934577942 -0.20284999907016754 -0.010858999565243721 0.1833599954843521 0.502560019493103 0.048034001141786575 -0.8749499917030334 -0.1495800018310547 0.18850000202655792 -0.03939099982380867 -0.344650000333786 -0.04400800168514252 -0.3765200078487396 -0.26172998547554016 0.22578999400138855 0.628279983997345 0.4752799868583679 -0.3009699881076813 -0.27437999844551086 0.01586199924349785 -0.25310999155044556 0.7665299773216248 0.1859000027179718 -0.5431399941444397 -0.10159000009298325 0.16519999504089355 0.048301998525857925 -0.5581099987030029 1.1746000051498413 -0.6088899970054626 -0.2540999948978424 -0.08239799737930298 -0.2259799987077713 0.4312700033187866 0.2372799962759018 -0.129830002784729 -0.027569999918341637 0.5506200194358826 0.5253900289535522 -0.3374199867248535 -0.038972001522779465 -0.08509299904108047 0.9617400169372559 -0.09745199978351593 -0.8046900033950806 0.3280799984931946 0.5027199983596802 0.39715999364852905 0.6980500221252441 0.22499999403953552 0.16627000272274017 -0.07987400144338608 -0.82846999168396 -0.14101000130176544 -0.2818000018596649 -0.2773500084877014 0.6329100131988525 -0.10333999991416931 0.10057999938726425 -0.0914900004863739 -0.4396600127220154 0.21222999691963196 -0.0694890022277832 0.15758000314235687 0.5379499793052673 -0.16565999388694763 0.1499200016260147 0.6961899995803833 0.06244099885225296 0.20260000228881836 0.19847999513149261 0.4681999981403351 0.3654699921607971 -0.43876001238822937 -0.1434600055217743 -0.0029825998935848475 0.10993000119924545 0.03015800006687641 -0.7141000032424927 0.4837999939918518 0.07575999945402145 -0.20333999395370483 0.18881000578403473 -0.11598999798297882 0.21089999377727509 -0.2683899998664856 -0.05908000096678734 -0.1878499984741211 -0.5663400292396545 0.3076600134372711 -0.6142200231552124 -0.9733499884605408 0.6214799880981445 -0.5267000198364258 -0.08083599805831909 0.08860000222921371 -0.10701999813318253 0.6067799925804138 -0.42193999886512756 0.47527000308036804 -0.44617000222206116 -0.27237001061439514 0.06186399981379509 0.2395700067281723 -0.7898899912834167 -0.2281000018119812 -0.8935700058937073 -0.49452999234199524 0.04819199815392494 0.4017300009727478 -0.0846169963479042 0.47457998991012573 0.31957000494003296 -0.5607500076293945 0.22728000581264496 0.2222999930381775 -0.34338998794555664 -0.33322998881340027 0.8076000213623047 0.4197399914264679 0.3297100067138672 -0.37428998947143555 -0.41422000527381897 0.09263300150632858 -0.642769992351532 0.79899001121521 0.713699996471405 0.5417600274085999 0.22487999498844147 0.34793999791145325 -0.3070800006389618 -0.15263999998569489 -1.1217000484466553 0.02382799983024597 0.13962000608444214 0.4843299984931946 -0.08352600038051605 -0.6212999820709229 0.9746299982070923 0.1179800033569336 0.3442299962043762 -0.8934500217437744 0.40452998876571655 0.5145300030708313 -0.32954999804496765 0.5105299949645996 0.10499999672174454 0.14765000343322754 0.12591999769210815 -0.4485499858856201 -0.21368999779224396 -0.15950000286102295 0.9225999712944031 0.548829972743988 0.6321799755096436
gift 0.8516600131988525 0.006435600109398365 0.555620014667511 -0.4348500072956085 -0.3444499969482422 -0.9311500191688538 -0.08012299984693527 0.4482699930667877 -0.013383000157773495 0.21942000091075897 -0.6007999777793884 0.1039000004529953 0.630620002746582 0.7935900092124939 0.03580399975180626 -0.038162000477313995 -0.034053999930620193 0.12432000041007996 -0.05755599960684776 -0.4615199863910675 0.36833998560905457 1.5408999919891357 0.05271400138735771 0.0212629996240139 -0.42010000348091125 -0.19380000233650208 -0.1934400051832199 0.17212000489234924 -0.39348000288009644 -0.14131000638008118 0.019370000809431076 0.6237900257110596 0.5034099817276001 0.0601160004734993 -0.5056300163269043 0.06421899795532227 -0.12031999975442886 -0.17343999445438385 0.2802099883556366 -0.1218700036406517 0.09813900291919708 0.1410599946975708 0.16017000377178192 0.38760998845100403 -0.1590300053358078 -0.13297000527381897 1.0045000314712524 0.6644899845123291 -0.2620599865913391 0.2980799973011017 -0.01648700051009655 -0.2522900104522705 0.08004199713468552 0.1296599954366684 0.23319000005722046 -0.19984999299049377 -0.713129997253418 -0.17399999499320984 0.3375999927520752 -0.1528400033712387 0.2337000072002411 0.2662700116634369 -0.8855400085449219 0.37196001410484314 -0.5372400283813477 -0.14473000168800354 0.06655000150203705 -0.05328499898314476 0.4122700095176697 0.34147000312805176 0.4352700114250183 -0.620639979839325 0.0034103998914361 -0.3403100073337555 0.34641000628471375 0.05650399997830391 -0.7695299983024597 -0.16277000308036804 -0.6738499999046326 0.005433000158518553 -0.4219900071620941 0.05091699957847595 0.004172599874436855 0.03718400001525879 -0.18006999790668488 -0.04495900124311447 -0.03680000081658363 -0.9275299906730652 0.4588199853897095 -0.2707900106906891 -0.030727000907063484 -0.3289799988269806 0.29072999954223633 0.28001999855041504 -0.1735599935054779 -0.09687300026416779 0.5059599876403809 0.1463399976491928 -0.6072199940681458 0.030331000685691833 -0.16224999725818634 0.14496999979019165 0.6539700031280518 -0.1740799993276596 -0.17896999418735504 -0.9821100234985352 0.3997899889945984 1.3286999464035034 -0.2967100143432617 -0.1341799944639206 0.23332999646663666 -0.46636998653411865 -0.7077299952507019 -0.3285500109195709 -0.7119399905204773 -0.0545319989323616 -0.3819099962711334 -0.011436999775469303 -0.03180000185966492 -0.04574799910187721 0.21783000230789185 0.057468999177217484 0.17359000444412231 -0.38315001130104065 0.17860999703407288 0.13614000380039215 -0.2562200129032135 0.05021100118756294 -0.48190999031066895 0.12818999588489532 -0.34821000695228577 0.28178998827934265 -0.12746000289916992 -0.08229299634695053 -0.8594899773597717 -0.4278999865055084 -0.2618800103664398 0.5357999801635742 0.7095999717712402 0.3353700041770935 0.47394001483917236 -0.2758199870586395 -0.09373100101947784 0.009190499782562256 0.4112899899482727 -0.26736998558044434 0.36445000767707825 -0.5295600295066833 -0.033424001187086105 -0.15905000269412994 -0.23473000526428223 0.077504001557827 -0.1287499964237213 0.09741400182247162 -0.2615100145339966 0.6453700065612793 -0.10292000323534012 0.046452999114990234 0.1421400010585785 -0.5101900100708008 -0.06765399873256683 -0.12658999860286713 0.6833800077438354 -0.7873899936676025 0.01787699945271015 -0.11321000009775162 -0.3671000003814697 -0.3719100058078766 -0.23601000010967255 0.8681700229644775 -0.26677998900413513 -0.03456500172615051 0.16774000227451324 0.8260400295257568 0.5788900256156921 0.15424999594688416 -0.527679979801178 0.16177000105381012 0.19217999279499054 0.2955999970436096 0.8157100081443787 0.13617999851703644 0.38288000226020813 -0.5148199796676636 -0.48513999581336975 0.11561000347137451 -0.19718000292778015 0.28793999552726746 0.032680001109838486 0.30121999979019165 -0.22690999507904053 0.41850000619888306 0.2203799933195114 -0.7274900078773499 0.4478200078010559 -0.5927199721336365 -0.5477100014686584 0.10708999633789062 -0.1866600066423416 -0.12065999954938889
wendy 0.14443999528884888 0.6536300182342529 -0.6886100172996521 0.11935000121593475 -0.6024799942970276 0.4418799877166748 0.4103200137615204 -0.45094001293182373 -0.5835400223731995 0.010099999606609344 0.6685900092124939 -0.12111999839544296 0.0016039999900385737 -0.19721999764442444 -0.09571199864149094 -0.34880998730659485 0.07976700365543365 -0.15684999525547028 -0.3068299889564514 0.9275000095367432 1.0830999612808228 0.6631100177764893 0.021198999136686325 -0.31459999084472656 0.18814000487327576 0.6912500262260437 0.35826000571250916 -0.541670024394989 -0.5723900198936462 0.18105000257492065 0.22102999687194824 0.45267999172210693 0.07814600318670273 -1.0388000011444092 0.39629998803138733 -0.4916499853134155 0.3394699990749359 0.21331000328063965 -0.26743000745773315 -0.02370000071823597 -0.1463399976491928 -0.3614400029182434 -0.00197080010548234 -0.16982999444007874 -0.643809974193573 0.1923000067472458 0.4157400131225586 -0.00915060006082058 0.0889580026268959 0.27055999636650085 -0.3164899945259094 -0.012644000351428986 -0.37189000844955444 0.25766000151634216 0.3373199999332428 -0.3806999921798706 0.044165998697280884 0.24820999801158905 0.34977999329566956 -0.07066600024700165 0.5731099843978882 1.2070000171661377 -0.659280002117157 0.33340001106262207 -3.65189989679493e-05 -0.7328699827194214 0.34154000878334045 -0.5073699951171875 -0.10153999924659729 0.6723999977111816 0.14441999793052673 -0.13978999853134155 0.014844999648630619 -0.3194200098514557 -0.422650009393692 -0.12682999670505524 -0.7508400082588196 0.28720998764038086 -0.6540899872779846 -0.17554999887943268 -0.2717300057411194 -0.4646100103855133 -0.1315000057220459 0.12660999596118927 0.12841999530792236 0.09207899868488312 0.08362600207328796 -0.11954999715089798 -0.00982889998704195 0.1503800004720688 -0.49974000453948975 0.23757000267505646 -0.5143499970436096 -0.13003000617027283 -0.37793999910354614 0.9702000021934509 0.05744199827313423 0.330130010843277 0.32631999254226685 -0.05057600140571594 -0.013687999919056892 0.22854000329971313 0.3870199918746948 -0.12138999998569489 -0.5503399968147278 0.08740700036287308 0.183119997382164 0.648639976978302 -0.36482998728752136 0.09536100178956985 -0.16162000596523285 0.6749200224876404 -0.25240999460220337 -0.48666998744010925 -0.5510900020599365 -0.7837899923324585 -0.012733000330626965 -0.03835099935531616 -0.6134200096130371 0.2527199983596802 0.24122999608516693 -0.02501099929213524 0.04833099991083145 -0.423009991645813 0.34678998589515686 0.1518000066280365 -0.18488000333309174 -0.18919000029563904 0.31527000665664673 0.007901100441813469 0.045756999403238297 -0.3118399977684021 0.087677001953125 0.8532299995422363 0.2274799942970276 0.12201999872922897 0.23176999390125275 -0.5097900032997131 -0.34696999192237854 0.3116399943828583 0.7707200050354004 0.05127200111746788 -0.15038999915122986 0.48412999510765076 -0.6439200043678284 -0.2039400041103363 -0.14500999450683594 -0.8748199939727783 0.06767600029706955 0.08851099759340286 -0.06452299654483795 0.5892699956893921 -0.4207800030708313 0.4823000133037567 -0.031463999301195145 0.1901800036430359 -0.1550000011920929 0.28718000650405884 -0.3692300021648407 0.42816001176834106 0.5221099853515625 -0.2763200104236603 0.025162000209093094 0.047793999314308167 -0.26785001158714294 0.2793799936771393 -0.08861199766397476 -0.18849000334739685 -0.21115000545978546 -0.24934999644756317 -0.18984000384807587 0.3208000063896179 0.09850800037384033 0.3400900065898895 0.13922999799251556 0.7373999953269958 0.17994999885559082 -0.10369999706745148 0.2012999951839447 0.7597799897193909 -0.1637600064277649 0.5353800058364868 0.0935169979929924 -0.381879985332489 -0.2899799942970276 -0.6216199994087219 -0.14496000111103058 0.6264399886131287 0.1160999983549118 -0.05271799862384796 -0.05807400122284889 -0.0024615998845547438 -0.34933000802993774 0.29159998893737793 -0.038088999688625336 0.33744001388549805 0.04469199851155281 -0.24533000588417053 0.5186600089073181 -0.37707000970840454
crocus 1.124400019645691 -0.7658799886703491 -0.12973999977111816 -0.36913999915122986 0.02824999950826168 -0.895550012588501 0.161530002951622 -0.16142000257968903 0.48381999135017395 -0.19126999378204346 0.25407999753952026 0.13194000720977783 -0.7597200274467468 -0.3965199887752533 -0.5646399855613708 -0.7600799798965454 0.2787899971008301 -0.45346999168395996 0.21377000212669373 0.3522000014781952 -0.40160998702049255 -0.5282099843025208 -0.5843700170516968 0.39010998606681824 0.8044499754905701 -0.9032599925994873 -0.14092999696731567 0.5569900274276733 -0.8821399807929993 0.20453999936580658 0.05312800034880638 -0.2627600133419037 -0.5595800280570984 -0.5573599934577942 -0.06974499672651291 0.6856399774551392 1.148800015449524 -0.04027299955487251 0.3395499885082245 0.4042400121688843 0.17347000539302826 0.2122499942779541 0.1935500055551529 0.23544999957084656 0.2265699952840805 0.38319000601768494 -0.33180001378059387 0.18328000605106354 -0.10760000348091125 0.6565600037574768 0.027274999767541885 -0.5214899778366089 0.40542998909950256 -0.10079000145196915 -0.0670119971036911 0.08691199868917465 0.14083999395370483 -0.0024838000535964966 -0.30779001116752625 0.3778800070285797 -0.6125800013542175 0.46792998909950256 0.29774999618530273 -0.004702399950474501 -0.12146999686956406 0.3369100093841553 -0.5939300060272217 -0.08182600140571594 -0.3546600043773651 0.7380200028419495 -0.7086399793624878 -0.459850013256073 -0.4744200110435486 0.8977299928665161 -0.1280200034379959 0.5153700113296509 0.1256999969482422 0.6833900213241577 0.5754899978637695 0.8535199761390686 0.1402300000190735 -0.30000999569892883 0.1280599981546402 -0.20990000665187836 -0.19054000079631805 0.2897599935531616 0.2028599977493286 0.9029300212860107 -0.056345000863075256 -0.8960599899291992 0.13276000320911407 -0.18328000605106354 0.4278799891471863 -0.27851998805999756 -0.1956000030040741 -0.47468000650405884 0.0697840005159378 -0.6365799903869629 0.20993000268936157 0.4057199954986572 0.6973000168800354 -0.04315600171685219 0.880370020866394 0.2419700026512146 0.09724000096321106 0.3529199957847595 -0.21256999671459198 -0.8326200246810913 0.6031000018119812 0.4744899868965149 0.12833000719547272 0.009670199826359749 -0.5440000295639038 -0.12815000116825104 0.42520999908447266 0.09339000284671783 0.42572999000549316 0.7753199934959412 0.027581000700592995 -0.11821000277996063 -0.1875399947166443 0.5137900114059448 0.21894000470638275 -0.30785998702049255 -0.255950003862381 0.04048600047826767 -0.3483799993991852 0.18408000469207764 -0.5088599920272827 0.8119999766349792 -0.544950008392334 -0.14104999601840973 0.33660998940467834 0.22280000150203705 -0.512690007686615 0.3049600124359131 -0.14584000408649445 -0.05141500011086464 0.22216999530792236 -0.03984399884939194 0.535290002822876 -0.43077000975608826 0.10441000014543533 -0.0919170007109642 -0.4125100076198578 0.16077999770641327 -0.9909999966621399 -0.3217700123786926 -0.8890799880027771 -0.08717399835586548 -0.6125800013542175 -0.365339994430542 -0.7117699980735779 -0.1295900046825409 0.2568100094795227 0.5575600266456604 -0.3084000051021576 -0.6021400094032288 0.31905001401901245 0.0385500006377697 0.24007999897003174 -0.47784000635147095 0.3517099916934967 -0.07942400127649307 0.4456999897956848 0.6067699790000916 -0.031178999692201614 -0.18082000315189362 0.6110799908638 -0.09642700105905533 -0.40321001410484314 -0.7489500045776367 0.8417800068855286 0.7926599979400635 0.03367999941110611 0.26100000739097595 -0.4717499911785126 -0.2639099955558777 -0.21220000088214874 -0.18970000743865967 0.045504000037908554 -0.4903799891471863 -0.6480799913406372 -0.16962000727653503 -0.5061299800872803 -0.1292400062084198 -0.31057000160217285 0.6534900069236755 -0.24528999626636505 0.18286000192165375 0.6277599930763245 -0.6496800184249878 0.11896000057458878 -0.5233799815177917 -0.8330199718475342 -0.41451001167297363 -0.1883700042963028 -0.006831299979239702 -0.05893699824810028 -0.5195299983024597
math 0.36594000458717346 0.6634899973869324 0.26309001445770264 -0.5479300022125244 1.0672999620437622 -0.09064800292253494 -0.1830900013446808 0.44574999809265137 -0.44378000497817993 0.265720009803772 -0.06366799771785736 0.30498000979423523 -0.41506001353263855 -0.29739001393318176 -0.1830900013446808 0.08449400216341019 0.38471999764442444 -0.9285600185394287 0.4456300139427185 0.32183000445365906 0.3871699869632721 1.6765999794006348 0.38729000091552734 0.39076000452041626 0.6246600151062012 0.14462000131607056 -0.06578300148248672 -0.4350700080394745 0.8141300082206726 0.05209000036120415 0.25516000390052795 -0.03965799883008003 -0.5067200064659119 -0.2934100031852722 0.2370699942111969 0.12229999899864197 -0.11575999855995178 -0.27695000171661377 0.4139400124549866 0.04331099987030029 0.48973000049591064 -0.4454900026321411 -0.06125900149345398 0.019547000527381897 0.5220900177955627 0.9165800213813782 0.35732999444007874 -0.49494001269340515 -0.9822400212287903 0.20034000277519226 -0.03086799941956997 -0.01780099980533123 -0.23830999433994293 0.28773999214172363 0.07410000264644623 0.15455999970436096 0.33660998940467834 0.34376001358032227 -0.5964699983596802 -0.0942550003528595 -0.3417600095272064 0.0253090001642704 -0.023510999977588654 1.2010999917984009 -0.21604999899864197 -0.4839000105857849 0.4351100027561188 0.5446100234985352 1.2632999420166016 0.2591699957847595 -0.11421000212430954 0.5371999740600586 -0.5433099865913391 -0.3674199879169464 -0.5702700018882751 -0.1717499941587448 -0.6873300075531006 0.9846000075340271 0.24514999985694885 -0.22371000051498413 0.9717400074005127 -0.04180699959397316 -1.1784000396728516 0.1397700011730194 0.46077999472618103 -0.19631999731063843 -0.7447400093078613 0.025422999635338783 0.8046200275421143 -0.3345000147819519 -0.2186499983072281 -0.6542400121688843 0.21112999320030212 0.1823199987411499 0.42930999398231506 -0.8703799843788147 0.41971999406814575 -0.41389000415802 0.7124800086021423 0.2294899970293045 -0.12031999975442886 -0.8578299880027771 -0.8065400123596191 0.898389995098114 0.48607000708580017 0.13298000395298004 -1.2309999465942383 0.31057000160217285 -0.0566289983689785 0.5488600134849548 0.610319972038269 0.7468400001525879 0.3406899869441986 -0.02303300052881241 -1.2998000383377075 0.16496999561786652 -0.18836000561714172 -0.1329299956560135 -0.25130000710487366 -0.1892700046300888 -0.1595200002193451 0.0003719200030900538 -0.9201200008392334 0.03689299896359444 -0.5120700001716614 -0.3439500033855438 -0.27055999636650085 -0.08349999785423279 0.30654001235961914 -0.15094999969005585 -0.04224700108170509 -0.8610900044441223 -0.7769100069999695 0.19574999809265137 -0.2895199954509735 0.34185999631881714 -0.13373999297618866 0.4629800021648407 0.1981000006198883 0.06744000315666199 -0.20760999619960785 -0.03557699918746948 -0.2943199872970581 -0.21170000731945038 0.36430999636650085 0.008581600151956081 -0.010174999944865704 -0.16175000369548798 -0.22964000701904297 -0.6449499726295471 0.9127900004386902 -0.09291599690914154 -0.1192300021648407 -0.237869992852211 0.15187999606132507 -0.028293000534176826 -0.11462000012397766 -0.08633700013160706 0.4888400137424469 -0.258650004863739 0.44624000787734985 -0.41582998633384705 0.13673000037670135 0.0250840000808239 -0.17666000127792358 -0.0716399997472763 -0.325300008058548 -0.0407090000808239 -0.859250009059906 -0.06653299927711487 0.39017000794410706 0.09401299804449081 0.2394700050354004 0.3303300142288208 1.0882999897003174 -0.1306300014257431 -0.7356200218200684 0.43786001205444336 0.26335999369621277 1.0088000297546387 0.1921900063753128 0.5072399973869324 -0.16972999274730682 0.922760009765625 -0.017673999071121216 -0.3062100112438202 -0.15001000463962555 -0.6238899827003479 -0.16403000056743622 -0.5325800180435181 0.21696999669075012 0.12172000110149384 0.35392001271247864 0.5456399917602539 0.1808999925851822 -0.6686699986457825 0.41631001234054565 0.1843400001525879 0.20701999962329865 -0.47242000699043274
gnat 0.37224000692367554 -0.6262099742889404 -0.4386900067329407 0.20192000269889832 0.2048500031232834 0.3012300133705139 -0.4458500146865845 -0.06525400280952454 -0.13891999423503876 0.6153600215911865 -0.27656999230384827 0.6754900217056274 0.030534999445080757 0.22832000255584717 -0.07784900069236755 -0.37748000025749207 0.1421400010585785 -0.16520999372005463 0.3160899877548218 0.7764899730682373 0.4389500021934509 -0.8342800140380859 -0.10236000269651413 -0.4836600124835968 -0.01923999935388565 -0.37950998544692993 -0.3197700083255768 0.3261300027370453 -0.38405999541282654 0.8591499924659729 0.3018200099468231 0.0708480030298233 -0.17710000276565552 -0.18901999294757843 -0.06982800364494324 -0.23771999776363373 0.6956300139427185 -0.5053600072860718 -0.24480000138282776 -0.18796999752521515 0.5383099913597107 0.22075000405311584 0.09475599974393845 -0.14318999648094177 -0.15749000012874603 0.10649999976158142 -0.607729971408844 0.12095999717712402 -0.22169999778270721 0.12155000120401382 -0.13048000633716583 -0.30564001202583313 -0.4820899963378906 -0.4616900086402893 0.022648999467492104 -0.25473999977111816 0.09407400339841843 -0.1714800000190735 -1.367799997329712 0.08923599869012833 0.0833130031824112 -0.5083900094032288 0.3639400005340576 -0.5082399845123291 -0.441210001707077 0.03304700180888176 -0.2491600066423416 -0.6046199798583984 0.45928001403808594 -0.5400199890136719 0.19957999885082245 0.45438000559806824 -0.6548200249671936 0.11473000049591064 -0.7321699857711792 -0.0574910007417202 -0.10959000140428543 -0.06377799808979034 0.3679800033569336 -0.38729000091552734 0.13026000559329987 0.0012549000093713403 0.544219970703125 0.3498300015926361 0.5761899948120117 0.046727001667022705 -0.029639000073075294 0.023256000131368637 -0.3650600016117096 -0.010243000462651253 -0.004190399777144194 -0.32787999510765076 0.10794000327587128 0.3598000109195709 0.17931999266147614 0.2906099855899811 0.28007999062538147 -0.7554699778556824 0.543969988822937 -0.21270999312400818 -0.34564000368118286 0.02865999937057495 0.19514000415802002 -0.027705000713467598 0.003908100072294474 -0.09996999800205231 -0.05909299850463867 -0.4062800109386444 -0.11111000180244446 -0.11274000257253647 -0.2048500031232834 -0.08806800097227097 -0.1337900012731552 -0.7330499887466431 -0.2735300064086914 -0.3006399869918823 -0.22391000390052795 -0.5601999759674072 -0.3452700078487396 -0.5401600003242493 0.1709900051355362 0.19840000569820404 -0.15998999774456024 -0.7471100091934204 0.43187999725341797 0.4611699879169464 -0.1905200034379959 0.11666999757289886 -0.350600004196167 -0.1369200050830841 0.24137000739574432 -0.05320899933576584 -0.9952999949455261 -0.16309000551700592 0.2661699950695038 0.1323300004005432 -0.584089994430542 0.2080399990081787 0.015970999374985695 0.21693000197410583 -0.5197799801826477 -0.622189998626709 -0.00751060014590621 -0.12734000384807587 0.29585000872612 -0.07414499670267105 0.019574999809265137 0.3793700039386749 0.5113499760627747 -0.10524000227451324 0.2083600014448166 0.5094599723815918 -0.6089000105857849 0.17301000654697418 -0.22213999927043915 0.039705000817775726 0.5394099950790405 0.12334000319242477 -0.6529300212860107 -0.22870999574661255 0.44451001286506653 -0.1991499960422516 0.07311200350522995 -0.4492200016975403 -0.20868000388145447 0.08599500358104706 -0.21412000060081482 0.36388999223709106 0.0021909999195486307 -0.6640599966049194 0.11176999658346176 0.32295000553131104 -0.09619800001382828 -0.04822300001978874 0.09144499897956848 -0.1407099962234497 0.294979989528656 -0.34154000878334045 -0.5254899859428406 0.3460099995136261 -0.09628599882125854 -0.023845000192523003 0.22604000568389893 0.35514000058174133 -0.058733999729156494 -0.001069999998435378 -0.5906000137329102 0.19711999595165253 -0.33504998683929443 0.12536999583244324 0.0014940999681130052 -0.5370000004768372 0.2982499897480011 0.20475000143051147 -0.3224000036716461 -0.4691999852657318 0.017917999997735023 0.07727400213479996 0.3901599943637848 -0.1482899934053421
kate 0.25940999388694763 0.2538299858570099 -0.7588000297546387 0.3862299919128418 -0.42127999663352966 0.159170001745224 -0.12370999902486801 -0.23601999878883362 0.31477001309394836 -0.3058600127696991 0.14177000522613525 0.3453100025653839 0.07480999827384949 -0.3605400025844574 -0.23491999506950378 -0.6620500087738037 -0.09947499632835388 -0.19548000395298004 -0.29131999611854553 0.5638999938964844 1.0443999767303467 0.06165900081396103 0.45509999990463257 -0.022923000156879425 -0.13884000480175018 -0.07873599976301193 0.26642999053001404 -0.5999699831008911 -0.072843998670578 0.1245800033211708 -0.16280999779701233 0.5429900288581848 -0.1915300041437149 0.0753680020570755 -0.2673499882221222 -0.3019700050354004 0.7735400199890137 -0.00809639971703291 0.06545999646186829 -0.5995399951934814 0.09835699945688248 -0.02123199962079525 -1.0714000463485718 -0.17780999839305878 0.3020299971103668 0.04279699921607971 0.6297799944877625 -0.5985100269317627 0.5471900105476379 0.16212999820709229 0.08828599750995636 -0.16437000036239624 -0.37342000007629395 0.6053900122642517 -0.4361799955368042 0.47293999791145325 0.15931999683380127 0.5692899823188782 0.6693900227546692 -0.18610000610351562 0.6366599798202515 0.3883500099182129 -0.6684499979019165 0.11862999945878983 -0.47457998991012573 -0.3891899883747101 0.08867800235748291 0.013233000412583351 -0.44971001148223877 -0.20812000334262848 -0.1937199980020523 -0.536899983882904 0.071322001516819 0.3673200011253357 -0.04592600092291832 -0.1495800018310547 -0.8708699941635132 0.3559800088405609 -0.44064998626708984 0.968529999256134 -0.33504000306129456 0.2488899976015091 0.1563899964094162 -0.1490200012922287 0.7430599927902222 -0.05915899947285652 -0.86940997838974 -0.24792000651359558 0.024617999792099 -0.8726199865341187 0.19272999465465546 -0.38662999868392944 0.11919999867677689 0.4985100030899048 -0.32971999049186707 0.6891999840736389 -0.05638900026679039 0.3135400116443634 -0.17470000684261322 0.5066400170326233 0.5350000262260437 1.3691999912261963 0.4470599889755249 -0.06730300188064575 -0.11976999789476395 -0.7467899918556213 -0.6060900092124939 0.8297899961471558 0.13356000185012817 -0.7315300107002258 0.12681999802589417 0.25108999013900757 -0.2337699979543686 -0.3455199897289276 0.17847000062465668 -0.7273100018501282 0.04594700038433075 0.03508500009775162 -0.6799200177192688 0.19596000015735626 -0.42781999707221985 -0.26589998602867126 0.06470800191164017 -0.15288999676704407 0.5270400047302246 -0.41457998752593994 -0.30862998962402344 0.2815999984741211 -0.027667000889778137 -1.0379999876022339 -0.3559100031852722 -0.23788000643253326 0.10232000052928925 0.36761000752449036 0.09549199789762497 0.12189000099897385 0.11877000331878662 -0.11029999703168869 -0.19970999658107758 -0.16832999885082245 0.19470000267028809 0.7097200155258179 0.12729999423027039 0.14013999700546265 0.2561199963092804 0.11455000191926956 0.4771000146865845 -0.9068400263786316 0.11274000257253647 0.4466699957847595 0.1014299988746643 0.324319988489151 0.3133400082588196 0.24979999661445618 -0.22271999716758728 0.09034500271081924 0.2883400022983551 -0.00412779999896884 -0.7658299803733826 0.09133700281381607 0.2522599995136261 -0.19328999519348145 0.4519599974155426 0.5290399789810181 -0.2609899938106537 0.37136998772621155 -0.21328000724315643 -0.3251500129699707 0.43636998534202576 -0.11601000279188156 0.06106000021100044 0.23093999922275543 0.3637099862098694 0.16532999277114868 0.14414000511169434 0.022346999496221542 -0.28696998953819275 -0.1925099939107895 0.2878499925136566 -0.7787299752235413 0.9527699947357178 -0.17589999735355377 -0.08919800072908401 -0.20885999500751495 -0.4417699873447418 -0.5112000107765198 0.4862399995326996 -0.5486099720001221 0.08547099679708481 -0.4041000008583069 0.025567999109625816 -0.18659000098705292 0.13942000269889832 -0.07180199772119522 0.6549800038337708 0.12310999631881714 -0.14485999941825867 -0.11941999942064285 0.026506999507546425 -0.10857000201940536
chemistry 0.5625600218772888 0.7073500156402588 0.3996799886226654 -0.7839000225067139 0.4072299897670746 0.29291999340057373 0.1019200012087822 -0.4394400119781494 0.052946001291275024 -0.2846300005912781 -0.28909000754356384 1.256600022315979 -0.8907899856567383 -0.1795099973678589 -0.8008900284767151 0.23673999309539795 0.40171998739242554 -0.03696199879050255 0.5353800058364868 0.14074000716209412 0.1321299970149994 1.2344000339508057 0.2106499969959259 0.0359870009124279 1.0008000135421753 -0.08076699823141098 -0.1662999987602234 -0.13639000058174133 0.4554699957370758 -0.3372800052165985 0.9051100015640259 -0.12336000055074692 -0.21518999338150024 -0.4206700026988983 0.03372099995613098 -0.038245998322963715 -0.03878699988126755 0.12432999908924103 0.07731900364160538 -0.19583000242710114 -0.25547000765800476 0.6496400237083435 -0.29635998606681824 -0.15320999920368195 0.5900099873542786 0.14900000393390656 0.5081599950790405 -0.286190003156662 0.4083000123500824 0.3227899968624115 -0.423880010843277 0.507889986038208 -0.4604499936103821 0.5511900186538696 -0.6110100150108337 -0.1122099980711937 1.1167000532150269 0.6636099815368652 0.19044999778270721 -0.4393500089645386 0.6086699962615967 0.1650799959897995 0.2613599896430969 0.559660017490387 0.12556999921798706 -0.1345600038766861 0.2795499861240387 0.3921700119972229 0.09493699669837952 0.6147800087928772 -0.05668399855494499 -0.5091400146484375 0.03162200003862381 -0.2571299970149994 0.20874999463558197 -1.2764999866485596 -0.32493001222610474 0.1480800062417984 -0.22755999863147736 -0.26862001419067383 0.317440003156662 -0.3707500100135803 -0.7963799834251404 1.0420000553131104 0.5340999960899353 -0.3307799994945526 0.02566399984061718 -0.37143999338150024 1.0296000242233276 -0.4111500084400177 0.41843000054359436 -1.0823999643325806 -0.27911999821662903 0.7277299761772156 -0.22562000155448914 -0.8048999905586243 0.11187999695539474 -0.21728000044822693 0.6890699863433838 0.7147799730300903 -0.11542999744415283 -0.03823599964380264 -0.21412000060081482 0.6302599906921387 -0.14295999705791473 -0.7747499942779541 -0.6601300239562988 0.7255200147628784 -0.665120005607605 0.3108200132846832 0.7878699898719788 0.740369975566864 -0.12177000194787979 0.3265399932861328 -0.7301300168037415 0.7839199900627136 -0.7503299713134766 0.1259399950504303 -0.47084999084472656 0.30296000838279724 -0.29679998755455017 -0.25108999013900757 -0.46215999126434326 0.1642799973487854 -0.27278000116348267 -0.10283000022172928 0.10267999768257141 0.32752999663352966 -0.4422000050544739 -0.4415700137615204 -0.6608499884605408 0.16824999451637268 -0.5882999897003174 -0.10817000269889832 -0.5604000091552734 -0.4717400074005127 -0.2720299959182739 -0.13071000576019287 -0.183569997549057 -0.15803000330924988 -0.2761699855327606 0.012508999556303024 -0.513159990310669 0.661549985408783 0.14485999941825867 -0.08335399627685547 0.2961699962615967 -1.0636999607086182 0.4207800030708313 -0.5120199918746948 0.47095000743865967 -0.7629600167274475 -0.061535000801086426 -0.3429499864578247 -0.5167199969291687 -0.5792999863624573 -0.13776999711990356 -0.3460400104522705 0.28863999247550964 -0.7995399832725525 0.10211999714374542 0.06398200243711472 -0.4390999972820282 0.056251998990774155 -0.637220025062561 -0.2624000012874603 -0.5755500197410583 -0.08382000029087067 -0.5375999808311462 0.5733500123023987 0.33726000785827637 0.9926599860191345 0.1861799955368042 0.26159000396728516 0.4162899851799011 0.18875999748706818 -0.3903200030326843 0.08060500025749207 -0.20417000353336334 1.0427000522613525 0.5581600069999695 -0.4291499853134155 0.06516499817371368 -0.08203499764204025 0.5669199824333191 -0.3758299946784973 0.05269800126552582 0.32989001274108887 0.15242999792099 0.574999988079071 0.33555999398231506 0.04567300155758858 0.1430400013923645 0.16301999986171722 0.46369999647140503 0.35526999831199646 0.1592700034379959 0.20492999255657196 0.5539600253105164 -0.4809100031852722
dynamite -0.23555999994277954 0.3056800067424774 -0.7817500233650208 -1.2199000120162964 -0.11614000052213669 0.07747399806976318 0.25676000118255615 -0.07721299678087234 0.05784200131893158 0.03936700150370598 -0.8609499931335449 0.0699860006570816 0.2785300016403198 0.07724999636411667 -0.6009600162506104 0.1275700032711029 0.3402400016784668 0.26528000831604004 -0.0397460013628006 -0.547789990901947 -0.17383000254631042 0.680899977684021 -0.7439500093460083 -0.5528200268745422 -0.7680299878120422 -0.8966599702835083 -0.9143099784851074 -0.19901999831199646 -0.669920027256012 -0.276419997215271 0.28470999002456665 0.8518800139427185 0.20506000518798828 -0.0693880021572113 0.28648999333381653 -0.2877599895000458 -0.01769299991428852 -0.13312000036239624 0.09000899642705917 0.272599995136261 0.27911001443862915 0.11574000120162964 -0.7793700098991394 0.22035999596118927 0.12892000377178192 -0.29739001393318176 0.14579999446868896 0.21010999381542206 0.168830007314682 0.0972839966416359 0.27230000495910645 0.12439999729394913 -0.36917999386787415 -0.4689500033855438 -0.04169100150465965 0.4011699855327606 -0.44854000210762024 0.20678000152111053 0.38901999592781067 0.29892000555992126 0.07869800180196762 0.06068800017237663 -0.36322999000549316 0.12580999732017517 0.029095999896526337 -0.2887600064277649 -0.04887999966740608 -0.14124000072479248 -0.3011400103569031 -0.45173001289367676 -0.09438800066709518 0.1405699998140335 -0.04661399871110916 0.2707099914550781 -0.7363700270652771 -0.46658000349998474 0.31613001227378845 0.8651099801063538 0.270579993724823 -0.4627400040626526 0.2898299992084503 -0.2740199863910675 -0.13631999492645264 0.6997500061988831 0.0549749992787838 -0.3229599893093109 -0.6993799805641174 0.2981100082397461 -0.20410999655723572 0.031762998551130295 0.5064299702644348 -0.7256600260734558 -0.143669992685318 0.08560600131750107 -0.06541900336742401 -0.004280500113964081 0.20958000421524048 -0.3817000091075897 0.24469000101089478 -0.5182499885559082 -0.8504899740219116 0.20559999346733093 -0.014321000315248966 0.554610013961792 -0.12680000066757202 -0.5046899914741516 0.41071999073028564 0.11450999975204468 0.2583400011062622 0.6459500193595886 -0.3488999903202057 -0.10072000324726105 -0.2727000117301941 -0.06929799914360046 -0.40970999002456665 0.49070000648498535 -0.29638999700546265 -0.3020699918270111 -0.2705700099468231 -0.10272999852895737 0.07817500084638596 -0.07881200313568115 -0.015670999884605408 0.14726999402046204 0.7831000089645386 0.6731600165367126 0.36987999081611633 0.1402599960565567 0.32607999444007874 0.07874900102615356 -0.4636000096797943 0.12402000278234482 0.04472700133919716 -0.4709799885749817 0.238429993391037 -0.33625999093055725 0.16683000326156616 0.1469700038433075 -0.804639995098114 0.6123600006103516 -0.26388999819755554 -0.06879299879074097 1.0306999683380127 0.03706600144505501 -0.48934000730514526 0.5207700133323669 0.7411800026893616 -0.09537599980831146 0.17420999705791473 0.024658000096678734 0.33726000785827637 0.037707000970840454 0.3288800120353699 0.29596999287605286 -0.451090008020401 -0.45601001381874084 -0.5297399759292603 -0.28758999705314636 0.7567999958992004 -0.8023800253868103 0.012322000227868557 0.6557000279426575 -0.460999995470047 -0.7324600219726562 -0.08642300218343735 -0.5476300120353699 0.09873399883508682 0.3618699908256531 -1.3688000440597534 0.6587799787521362 -0.5645800232887268 0.5037500262260437 -0.02781900018453598 0.039576999843120575 0.6149299740791321 -0.6462799906730652 0.24348999559879303 -0.2753100097179413 0.08082400262355804 0.739799976348877 -0.051336001604795456 -0.8255100250244141 -0.14404000341892242 -0.15918999910354614 0.49052000045776367 -0.2943800091743469 0.4416700005531311 0.7474300265312195 0.5496900081634521 0.3714500069618225 -0.3968200087547302 -0.01852400042116642 -0.736840009689331 -0.9633100032806396 1.7470999956130981 0.13120999932289124 -0.12684999406337738 -0.17050999402999878 -0.32688000798225403 0.594760000705719
caress 0.32273000478744507 0.0066559999249875546 0.2402700036764145 0.05721699818968773 -0.4710400104522705 -0.08811300247907639 0.5922300219535828 0.2155199944972992 -0.08277200162410736 -0.08635199815034866 0.23343999683856964 0.13547000288963318 0.0014421000378206372 0.24829000234603882 -0.7322199940681458 -0.7610099911689758 0.15469999611377716 0.005257400218397379 -0.13806000351905823 0.14895999431610107 -0.07216800004243851 -0.8622999787330627 0.1566299945116043 -0.09096500277519226 -0.2429099977016449 -0.5342599749565125 0.43661999702453613 -0.08843699842691422 0.08249600231647491 0.2536500096321106 -0.3157700002193451 0.0032383000943809748 0.07084699720144272 -0.2273699939250946 0.2297700047492981 -0.06613200157880783 -0.07891400158405304 -0.19645999372005463 -0.7408000230789185 0.16740000247955322 -0.02608400024473667 0.6005100011825562 0.07332099974155426 -0.11918999999761581 -0.21379999816417694 0.0636420026421547 0.09399600327014923 0.6729699969291687 0.22658999264240265 0.7016900181770325 0.10919000208377838 -0.11677999794483185 0.35905998945236206 -0.2481900006532669 0.4714899957180023 0.58788001537323 -0.02409300021827221 0.19199000298976898 0.18170000612735748 -0.1882600039243698 0.11247000098228455 0.1566299945116043 0.47999998927116394 0.3497599959373474 -0.4421600103378296 0.9571999907493591 0.2743299901485443 -0.04630500078201294 -0.17879000306129456 -0.21522000432014465 0.3750300109386444 -0.2766900062561035 0.27312999963760376 -0.1335899978876114 -0.36792001128196716 -0.7236899733543396 -0.20166000723838806 0.11734999716281891 -0.5272799730300903 -0.019728999584913254 -0.41093000769615173 -0.17554999887943268 0.2492000013589859 -0.5483700037002563 0.30555999279022217 0.15876999497413635 0.5399600267410278 -0.0836540013551712 -0.8142899870872498 -0.07337100058794022 0.5481500029563904 -0.12631000578403473 0.3266499936580658 0.05244600027799606 0.4335100054740906 -0.5389599800109863 0.4324899911880493 0.18171000480651855 0.13405999541282654 0.1746399998664856 -0.2632400095462799 -0.10301999747753143 0.2751399874687195 -0.3771600127220154 -0.17850999534130096 0.12706999480724335 -0.0707940012216568 0.002427400089800358 -0.35850998759269714 -0.4533199965953827 0.1107499971985817 0.06102300062775612 0.09344299882650375 -0.7083600163459778 0.694350004196167 0.3075700104236603 0.19854000210762024 0.36164000630378723 0.4328399896621704 -0.1551699936389923 0.0653190016746521 -0.6877700090408325 0.26322999596595764 -0.14988000690937042 -0.21844999492168427 0.2657800018787384 0.29813000559806824 0.44369998574256897 -0.05347999930381775 -0.5448700189590454 -0.4505000114440918 0.6075000166893005 -0.38962000608444214 -0.21738000214099884 -0.22184999287128448 -0.09169299900531769 0.19315999746322632 0.08775000274181366 0.14014999568462372 -0.39897000789642334 -0.21874000132083893 -0.23713000118732452 0.7529900074005127 0.21987000107765198 -0.26401999592781067 0.02655399963259697 0.009569999761879444 0.38297000527381897 0.16742999851703644 0.24240000545978546 0.399150013923645 0.11686000227928162 -0.1929199993610382 0.04622200131416321 -0.5856299996376038 0.726859986782074 -0.11694999784231186 0.7096400260925293 0.042702000588178635 0.567330002784729 0.0045090001076459885 -0.04874100163578987 -0.3522399961948395 -0.47113001346588135 0.30239999294281006 -0.12953999638557434 0.07587400078773499 -0.25606000423431396 0.49900999665260315 -0.5240100026130676 -0.051458001136779785 0.5062100291252136 0.3010599911212921 0.5341600179672241 -0.3996399939060211 0.011296999640762806 0.13644999265670776 -0.15509000420570374 0.21414999663829803 -0.3338800072669983 -0.21731999516487122 0.33744001388549805 -0.033546000719070435 0.48159000277519226 0.022314000874757767 -0.047805000096559525 -0.04320500046014786 0.09950199723243713 0.5253700017929077 -0.19603000581264496 0.22835999727249146 -0.4242100119590759 -0.3029699921607971 0.04486599937081337 0.0535769984126091 0.02696700021624565 0.29030999541282654 0.501039981842041 -0.5436000227928162 -0.09816300123929977
ugly 0.053599998354911804 -0.525629997253418 -0.6407600045204163 -0.365200012922287 -0.4300299882888794 0.6383000016212463 -0.7357500195503235 -0.19585999846458435 0.40290001034736633 0.5562899708747864 -0.23375999927520752 0.38611000776290894 0.18005000054836273 -0.09951499849557877 0.6106299757957458 0.08468999713659286 -0.1878799945116043 0.03400399908423424 -0.13321000337600708 -0.08514299988746643 0.6726300120353699 0.7633600234985352 0.09251300245523453 0.045340001583099365 0.4011099934577942 -0.7449100017547607 0.08233100175857544 -0.5529599785804749 -0.22223000228405 -0.3247700035572052 0.13868999481201172 -0.40876999497413635 -0.0003166199894621968 0.6625000238418579 -0.34115999937057495 -0.6325500011444092 -0.3730500042438507 -0.3563700020313263 0.12660999596118927 0.1159299984574318 0.008521799929440022 0.45684000849723816 -0.08756600320339203 0.8548600077629089 0.21416999399662018 -0.06960300356149673 0.6280800104141235 -0.2077299952507019 -0.03523999825119972 0.2220499962568283 0.056713998317718506 -0.030448999255895615 0.4859899878501892 0.057447001338005066 0.29881998896598816 0.15685999393463135 -0.2370299994945526 -0.27333998680114746 0.197720006108284 -0.5912700295448303 -0.20587000250816345 0.1558299958705902 0.40108999609947205 -0.025234999135136604 -0.1031700000166893 0.4357599914073944 0.2515600025653839 0.4009700119495392 0.5479699969291687 0.036097001284360886 0.617579996585846 -0.06964199990034103 -0.13138000667095184 0.248539999127388 -0.3643200099468231 0.26921001076698303 -0.5507699847221375 0.5505200028419495 -0.3580699861049652 -0.22022999823093414 -0.05882199853658676 -0.18410000205039978 0.3538399934768677 -0.45201998949050903 0.3487299978733063 -0.5517500042915344 0.04390199854969978 0.03174100071191788 0.1985200047492981 -0.4187600016593933 0.08521399646997452 -0.11158999800682068 0.3138999938964844 0.8135300278663635 -0.22020000219345093 0.017393000423908234 -0.28154000639915466 -0.5553600192070007 -0.044815000146627426 0.5539199709892273 0.25189998745918274 0.47442999482154846 0.4093500077724457 -0.4398300051689148 -0.044978998601436615 0.4635699987411499 -0.14640000462532043 0.3833099901676178 0.47701001167297363 0.6142799854278564 0.07302699983119965 0.2004300057888031 0.215829998254776 -0.2903499901294708 0.23972000181674957 0.486160010099411 0.013182999566197395 0.3710100054740906 -0.0366550013422966 -0.24034999310970306 0.5478500127792358 0.007648299913853407 -0.23895999789237976 -0.47339001297950745 -0.4873499870300293 -0.3258399963378906 -0.3136099874973297 0.526639997959137 0.3217099905014038 0.12906000018119812 0.46761998534202576 -0.3958199918270111 -0.6041899919509888 -0.2979399859905243 0.05124799907207489 -0.5859299898147583 0.36629000306129456 -0.4795899987220764 -0.8290299773216248 0.1368899941444397 -0.12710000574588776 -0.2827399969100952 0.39601001143455505 -0.21445000171661377 0.8372799754142761 -0.46492999792099 0.5968300104141235 -0.6929000020027161 0.3423900008201599 0.15600000321865082 -0.05186700075864792 0.1701900064945221 -0.34856998920440674 0.17071999609470367 -0.012675000354647636 0.2347400039434433 -0.01046799961477518 -0.4393700063228607 -0.16327999532222748 0.5783500075340271 0.4392699897289276 -0.6432200074195862 -0.32958000898361206 -0.16272999346256256 -0.3032500147819519 -0.7504900097846985 0.16446000337600708 0.781000018119812 -0.9099400043487549 -0.3282800018787384 -0.30744001269340515 -0.2782900035381317 0.015636000782251358 -0.249099999666214 -0.555109977722168 -0.10805000364780426 -0.07189100235700607 0.1720999926328659 -0.8149799704551697 0.2535400092601776 1.3121999502182007 -0.015452000312507153 -0.21929000318050385 0.016307000070810318 -0.19623999297618866 0.3271700143814087 0.17805999517440796 0.17010000348091125 0.339819997549057 -0.01361900009214878 0.8792600035667419 -0.7067000269889832 -0.24467000365257263 -0.21605999767780304 0.06802800297737122 -0.4778600037097931 0.06478399783372879 -0.0038556999061256647 -0.5622000098228455 0.26561999320983887
tia -0.11214999854564667 0.5401700139045715 -0.11371000111103058 0.20322999358177185 -0.02332800067961216 -0.648829996585846 -0.7127900123596191 -0.42204999923706055 -0.18012000620365143 0.08775199949741364 0.2059199959039688 0.14258000254631042 0.5202199816703796 0.08953700214624405 -0.47878000140190125 -0.12065000087022781 -0.42215999960899353 -0.22189000248908997 0.12881000339984894 -0.3872399926185608 0.28891998529434204 -0.17071999609470367 0.3267799913883209 0.2836900055408478 0.03384299948811531 0.23972000181674957 0.5563399791717529 -0.17680999636650085 -0.4371199905872345 0.20342999696731567 0.16143999993801117 0.5092599987983704 -0.7396900057792664 -0.47286999225616455 -0.4211600124835968 -0.12727999687194824 0.12745000422000885 0.09483599662780762 0.19774000346660614 0.1988299936056137 0.30052000284194946 0.0737529993057251 0.45493999123573303 -0.21367999911308289 0.3732999861240387 0.2248300015926361 0.2795799970626831 -0.5344099998474121 -0.2682499885559082 0.6044099926948547 -0.11946000158786774 -0.512939989566803 -0.07202699780464172 -0.0694039985537529 -0.13977999985218048 -0.22708000242710114 -0.22495999932289124 0.05257600173354149 0.5190100073814392 0.4343000054359436 0.8113499879837036 -0.06328299641609192 -0.4400799870491028 0.43055999279022217 -0.43522998690605164 -0.5333200097084045 -0.6404399871826172 -0.22156000137329102 -0.03903000056743622 -0.5877799987792969 -0.40195000171661377 -0.2169100046157837 0.23783999681472778 0.11422000080347061 -0.45930999517440796 -0.12538999319076538 0.04355299845337868 -0.24230000376701355 -0.12680000066757202 0.21273000538349152 -0.13586999475955963 -0.7788000106811523 -0.1745299994945526 0.14459000527858734 -0.1307400017976761 0.04653099924325943 0.02028699964284897 0.2930000126361847 0.2195499986410141 0.21063999831676483 -0.018890999257564545 -0.12447000294923782 0.04746900126338005 0.1370300054550171 0.2597000002861023 0.6795200109481812 0.3179999887943268 0.27990999817848206 0.3202599883079529 -0.034021999686956406 0.08662299811840057 0.800029993057251 0.07057700306177139 -0.09886900335550308 -0.29499000310897827 0.19832000136375427 0.20333999395370483 -0.22137999534606934 -0.6624400019645691 -0.05889999866485596 -0.033038001507520676 -0.10155999660491943 0.1422799974679947 -0.630370020866394 0.1890999972820282 -0.1720000058412552 0.5126000046730042 0.27428001165390015 -0.2522599995136261 0.9668599963188171 -0.4625999927520752 0.024778999388217926 0.3899399936199188 0.13745999336242676 0.24104000627994537 0.23697000741958618 -0.6653900146484375 -0.08134900033473969 0.7263000011444092 0.01860800012946129 0.02157999947667122 -0.4318599998950958 0.03421400114893913 1.09660005569458 0.18738999962806702 -0.043894000351428986 -0.03417100012302399 -0.31463998556137085 -0.15112000703811646 -0.6066200137138367 -0.14538000524044037 0.13533000648021698 0.38545000553131104 -0.3135800063610077 -0.5119600296020508 0.2278600037097931 -0.020672999322414398 0.4012100100517273 0.4560700058937073 -0.08000700175762177 -0.2902199923992157 0.10320000350475311 -0.14563000202178955 0.313400000333786 -0.20005999505519867 0.5699300169944763 0.23034000396728516 0.49775999784469604 -0.4725100100040436 0.489980012178421 0.2312999963760376 -0.6758999824523926 0.13539999723434448 0.34057000279426575 0.14357000589370728 0.14499999582767487 0.043324001133441925 0.41767001152038574 -0.18403999507427216 -0.43198999762535095 0.3196299970149994 -0.13356000185012817 0.44541001319885254 0.027970999479293823 0.17024999856948853 -0.2748199999332428 0.02060599997639656 -0.014712999574840069 1.1711000204086304 -0.038231998682022095 -0.4337199926376343 -0.13592000305652618 -0.08798900246620178 0.5910099744796753 0.08804400265216827 0.2038400024175644 0.17381000518798828 0.9231299757957458 -0.19458000361919403 -0.05320800095796585 -0.16453999280929565 -0.5288500189781189 0.0099804000928998 -0.31376999616622925 -0.22419999539852142 -0.3512499928474426 0.08321499824523926 -0.43467000126838684 0.17201000452041626 -0.5928199887275696
