weevil -0.3836599886417389 0.2809999883174896 0.44405001401901245 0.48513999581336975 0.3696100115776062 0.3729499876499176 -0.7610800266265869 -0.6847299933433533 0.20313000679016113 0.8618900179862976 0.34786999225616455 -0.28652000427246094 -0.22819000482559204 0.3465999960899353 0.5445500016212463 -0.4954099953174591 0.004629100207239389 0.11878000199794769 -0.5603500008583069 0.32611000537872314 0.12357000261545181 0.3363800048828125 0.1852799952030182 -0.8647800087928772 0.09730300307273865 0.39212000370025635 0.07711300253868103 -0.2828199863433838 -0.39252999424934387 0.8001400232315063 -0.2804099917411804 0.31178998947143555 -0.38172999024391174 0.42381998896598816 0.4106900095939636 0.2387000024318695 0.36427000164985657 0.26061001420021057 -0.46917998790740967 0.32986000180244446 -0.38905999064445496 0.45638999342918396 0.2972699999809265 -0.164560005068779 0.430620014667511 -0.6317099928855896 0.17544999718666077 0.06802999973297119 -0.5744100213050842 -0.4420500099658966 0.13176000118255615 -0.42462000250816345 -0.6101400256156921 -0.4126499891281128 -0.3784799873828888 -0.051447998732328415 -0.08458200097084045 -0.06746800243854523 0.7256799936294556 0.08421999961137772 -0.00078242999734357 -0.7050899863243103 0.47336000204086304 0.5271099805831909 -0.29853999614715576 0.42041000723838806 -0.5668900012969971 0.06539399921894073 0.6345800161361694 -0.5143100023269653 0.14585000276565552 0.20413999259471893 0.061030998826026917 0.25516000390052795 0.5878900289535522 0.3452799916267395 -0.24435000121593475 -0.747730016708374 -0.16978999972343445 0.6050500273704529 -0.1553799957036972 0.7754999995231628 0.37692999839782715 -0.25071999430656433 -0.3834899961948395 0.35620999336242676 -0.02475300058722496 -0.2020300030708313 0.9331899881362915 -0.3635900020599365 -0.21358999609947205 -0.1695300042629242 0.5340200066566467 0.3391300141811371 0.018911000341176987 -0.17337000370025635 0.3225800096988678 0.6148300170898438 0.025723999366164207 0.5812100172042847 0.21862000226974487 0.47209998965263367 -0.12495999783277512 0.17979000508785248 -0.15219999849796295 -0.03382299840450287 -0.39629000425338745 -0.42785999178886414 -0.16354000568389893 0.25481000542640686 0.49004998803138733 0.386819988489151 -0.07312200218439102 -0.6315600275993347 -0.34654000401496887 0.30327001214027405 -0.34957000613212585 0.26881998777389526 0.013101000338792801 -0.47936999797821045 0.3777799904346466 -0.5506600141525269 0.4361400008201599 0.31804999709129333 0.15335999429225922 0.05640900135040283 0.029923999682068825 0.3637399971485138 0.3192700147628784 -0.05991100147366524 0.14422999322414398 -0.46198999881744385 -0.14469000697135925 -0.07009299844503403 0.025933999568223953 -0.4595000147819519 -0.22485999763011932 0.2345699965953827 -0.3582800030708313 -0.3875100016593933 0.323529988527298 -0.03255699947476387 -0.2824000120162964 -0.5877000093460083 0.659500002861023 0.03333200141787529 0.1991100013256073 -0.8471999764442444 -0.04097700119018555 0.5700200200080872 -0.8459699749946594 -0.4427100121974945 -0.5513499975204468 0.2556299865245819 -0.4359000027179718 0.4459899961948395 0.892520010471344 -0.22047999501228333 -0.3755800127983093 0.057753998786211014 -0.21086999773979187 -0.040449000895023346 0.29905998706817627 0.08799900114536285 0.3966200053691864 -0.49347999691963196 -0.7735900282859802 -0.10864999890327454 0.03136900067329407 -0.500190019607544 -6.508299702545628e-05 -1.1729999780654907 0.17329999804496765 0.26673999428749084 0.044821999967098236 -0.11548999696969986 0.27559998631477356 -0.11841999739408493 0.0899989977478981 -0.582040011882782 -0.2681899964809418 0.23797999322414398 -0.5693899989128113 0.21336999535560608 -0.013515999540686607 -0.35600000619888306 0.5982499718666077 -0.0708020031452179 0.5959399938583374 0.25905001163482666 -0.21897000074386597 0.4545600116252899 -0.23941999673843384 -0.2911899983882904 -0.16809000074863434 0.513759970664978 0.5509999990463257 -0.31751999258995056 0.7469800114631653 -0.13795000314712524 -0.2292799949645996 0.032781001180410385 -0.2945899963378906 -0.08315499871969223 -0.07767099887132645 -0.18813000619411469 -0.41165998578071594 -0.6501100063323975 -0.4742799997329712 0.5457599759101868 -0.12648999691009521 -0.1548299938440323 -0.2054000049829483 0.08322799950838089 0.6775799989700317 -0.3421599864959717 -0.3716000020503998 0.04219299927353859 0.06481599807739258 0.12432000041007996 0.4669399857521057 -0.40602999925613403 -0.14869999885559082 0.12793000042438507 -0.3876500129699707 0.14731000363826752 0.20950999855995178 0.025279000401496887 0.25418001413345337 0.33959001302719116 0.07360400259494781 0.39169999957084656 -0.03162600100040436 0.9602800011634827 -0.06346700340509415 0.011137999594211578 -0.03613699972629547 0.24696999788284302 0.6289100050926208 0.22774000465869904 -0.14625999331474304 0.06198199838399887 -0.8672800064086914 -0.22266000509262085 0.06005699932575226 -0.04057300090789795 0.6402599811553955 -0.058958999812603 -0.5216299891471863 -0.23070000112056732 0.41098999977111816 0.44797998666763306 -1.042099952697754 0.5265700221061707 0.1531199961900711 -0.42614999413490295 0.10803999751806259 0.18429000675678253 0.34380999207496643 -0.38769999146461487 -0.347790002822876 0.5546799898147583 0.11249999701976776 -0.4668799936771393 -0.9180300235748291 -0.37397998571395874 -0.19697999954223633 -0.3184399902820587 0.15488000214099884 1.0069999694824219 -0.08160500228404999 -0.533270001411438 -0.40283000469207764 0.4823099970817566 -0.25099998712539673 -0.6511499881744385 0.11568000167608261 -0.19235999882221222 0.1948699951171875 0.09636499732732773 -0.739300012588501 -0.12033999711275101 -0.2614699900150299 0.7550899982452393 -0.33111000061035156 -0.28240999579429626 -0.39125001430511475 -0.6285499930381775 -0.42094001173973083 -0.9437599778175354 0.17664000391960144 -0.08751499652862549 0.8611999750137329 0.07018999755382538 -0.029458999633789062 -0.44119998812675476 0.04127100110054016 0.49397000670433044 0.23207999765872955 -0.036389000713825226
lamont 0.22551000118255615 -0.26723000407218933 0.6091499924659729 0.42653000354766846 -0.4962800145149231 0.2185100018978119 0.35593000054359436 -0.7841899991035461 0.42803001403808594 0.6226500272750854 0.3490400016307831 -0.4608500003814697 0.17689000070095062 -0.17747999727725983 0.10597000271081924 0.3122600018978119 0.24580000340938568 0.17096999287605286 -0.209539994597435 0.17541000247001648 0.5732799768447876 0.1123799979686737 0.3288100063800812 -0.13145999610424042 0.3716300129890442 0.011141999624669552 0.0742650032043457 -0.6148899793624878 -0.38958001136779785 -0.12358999997377396 -0.5263400077819824 -0.16264000535011292 0.523829996585846 0.5724599957466125 -0.5380399823188782 -0.22769999504089355 0.34356001019477844 0.3038400113582611 -0.011800000444054604 0.02928600087761879 -0.10603000223636627 -0.07197500020265579 0.37417998909950256 -0.5740299820899963 -0.3420799970626831 -0.38471001386642456 0.5738400220870972 -0.3804599940776825 0.5549700260162354 -0.21247999370098114 -0.5184599757194519 0.10919000208377838 -0.5609999895095825 -0.2178100049495697 0.13962000608444214 0.11052999645471573 0.6624900102615356 -0.16221000254154205 -1.3039000034332275 0.14406000077724457 0.025902999565005302 0.22709999978542328 0.31777000427246094 0.016568999737501144 -0.0018077000277116895 0.11372999846935272 0.08608199656009674 0.039041999727487564 0.417959988117218 -0.30803000926971436 -0.08671099692583084 0.06432700157165527 1.2529000043869019 -0.04967600107192993 0.27981001138687134 -0.005074100103229284 0.1681700050830841 -0.5785499811172485 -0.602840006351471 0.08128400146961212 -0.05567200109362602 -0.5495200157165527 0.360370010137558 -0.14345000684261322 -0.17313000559806824 0.39647001028060913 0.25176000595092773 0.8122000098228455 -0.1309099942445755 0.08947400003671646 -0.14981000125408173 -0.017185000702738762 -0.34391000866889954 -0.30024001002311707 -0.46825000643730164 0.2230300009250641 0.01876799948513508 0.04067299887537956 -0.23085999488830566 0.13071000576019287 0.16404999792575836 -0.2859399914741516 0.17344999313354492 0.20426000654697418 -0.20393000543117523 0.33390000462532043 -0.3550499975681305 0.2672699987888336 0.45949000120162964 0.45386001467704773 -0.22624999284744263 0.07410600036382675 0.4722299873828888 0.9106699824333191 -0.08072199672460556 0.2840699851512909 -0.614549994468689 -0.25402000546455383 0.12392999976873398 -0.37977999448776245 -0.24167999625205994 0.31481000781059265 -0.04402099922299385 0.23011000454425812 0.26489999890327454 -0.333079993724823 -0.0477680005133152 0.3361699879169464 0.8159400224685669 -0.6982100009918213 0.46860000491142273 -0.1421400010585785 -0.11991000175476074 -0.12067999690771103 -0.2418300062417984 -0.16537000238895416 0.35060998797416687 0.06612899899482727 0.1758899986743927 -0.691540002822876 -0.23969000577926636 -0.9247900247573853 0.5978400111198425 0.5014700293540955 0.26124998927116394 -0.16468000411987305 -0.009898699820041656 -0.012454000301659107 0.0943790003657341 0.19840000569820404 0.4476499855518341 -0.26618000864982605 -0.2131199985742569 -0.14902999997138977 -0.20387999713420868 -0.11570999771356583 0.42660000920295715 0.6040599942207336 0.6026800274848938 0.05499500036239624 -0.01643200032413006 -0.587119996547699 0.3465900123119354 0.15911999344825745 0.030585000291466713 -0.2132599949836731 -0.6866400241851807 -0.34275001287460327 0.19460000097751617 -0.15745000541210175 0.39886999130249023 -0.8489199876785278 0.0830100029706955 -0.0022776001133024693 0.18698999285697937 0.6364499926567078 -0.06521400064229965 -0.19920000433921814 -0.3022499978542328 0.03416699916124344 -0.6390799880027771 0.18015000224113464 1.1088999509811401 0.44721999764442444 -0.11945000290870667 -0.146029993891716 -0.16301000118255615 -0.04936699941754341 0.31103000044822693 0.26985999941825867 -0.3898699879646301 -0.14061999320983887 0.08550599962472916 0.11945000290870667 0.604390025138855 -0.6148399710655212 0.3491800129413605 0.2176000028848648 0.07914300262928009 0.25819000601768494 0.353300005197525 0.09818299859762192 -0.3906500041484833 0.45587000250816345 -0.1983100026845932 -0.4775199890136719 -0.16708000004291534 0.17993000149726868 -0.11168999969959259 0.3730500042438507 -0.006651800125837326 -0.0931989997625351 0.21410000324249268 -0.15306000411510468 0.32666999101638794 0.35175999999046326 -0.2740800082683563 0.1914999932050705 -0.3127099871635437 -0.994159996509552 0.33292001485824585 0.2595899999141693 -0.48541998863220215 0.17414000630378723 0.5514199733734131 -0.23785999417304993 -0.3063200116157532 0.012295999564230442 0.1580599993467331 0.06891000270843506 0.3523600101470947 0.03743299841880798 0.13684000074863434 -0.13065999746322632 -0.6165000200271606 0.15115000307559967 -0.0040583000518381596 0.20824000239372253 0.1959500014781952 0.11130999773740768 -0.3737500011920929 -0.29405999183654785 0.5356600284576416 -0.04334000125527382 0.16660000383853912 0.5028200149536133 0.08077999949455261 0.07525800168514252 0.23785999417304993 -0.31960999965667725 0.541100025177002 0.3230299949645996 -0.1604900062084198 -0.31224000453948975 0.4964500069618225 0.29962998628616333 0.01949699968099594 0.03478100150823593 0.32885000109672546 -0.3723599910736084 0.31481999158859253 0.23389999568462372 -0.4277600049972534 -0.16009999811649323 0.13068999350070953 -0.25290000438690186 0.4613499939441681 0.15185999870300293 -0.4025599956512451 0.6343299746513367 -0.14975999295711517 0.28172001242637634 0.19115999341011047 -0.1845099925994873 -0.24747000634670258 -0.2823199927806854 0.2500799894332886 -0.18068000674247742 0.17279000580310822 0.2509100139141083 -0.4002099931240082 0.680869996547699 -0.17305999994277954 -0.6240900158882141 -0.500220000743866 0.18400999903678894 0.2116200029850006 0.22457000613212585 0.3475300073623657 -0.005912300199270248 -0.13782000541687012 0.22214999794960022 -0.03623899817466736 0.7406799793243408 -0.27796000242233276 0.05643099918961525 -0.1830900013446808 -0.4134500026702881 -0.7319300174713135 0.23342999815940857
hakim 0.07010000199079514 -0.06633199751377106 0.5468800067901611 -0.3768399953842163 0.16869999468326569 0.24738000333309174 0.12734000384807587 0.32014000415802 0.08337900042533875 0.36333999037742615 0.37738001346588135 0.2011999934911728 -0.19123999774456024 -0.10219000279903412 0.9314600229263306 0.54475998878479 0.2829900085926056 0.06618399918079376 0.018991999328136444 0.026872999966144562 0.1996700018644333 -0.25457000732421875 -0.09168499708175659 -0.6083599925041199 -0.30118000507354736 -0.41870999336242676 -0.378030002117157 -0.2347400039434433 -0.039069000631570816 -0.710860013961792 0.2377600073814392 0.6018700003623962 -0.34711000323295593 0.11424999684095383 0.4399400055408478 -0.3797900080680847 0.46511998772621155 -0.49070000648498535 -0.006347199901938438 0.19272999465465546 -0.44325000047683716 0.5782399773597717 -0.2847299873828888 -0.543940007686615 -0.524150013923645 -0.189520001411438 0.6417199969291687 -0.03380399942398071 0.0059369998052716255 0.1820400059223175 -0.6490300297737122 0.050227999687194824 -0.7039999961853027 0.018113000318408012 -0.14640000462532043 0.20695999264717102 -0.28108999133110046 0.12396000325679779 0.4629800021648407 -0.23943999409675598 0.32840999960899353 0.1875700056552887 0.15421000123023987 -0.09694100171327591 -0.38207000494003296 0.0069865998812019825 0.4299499988555908 -0.5507000088691711 0.042973000556230545 0.5186600089073181 -0.028485000133514404 0.29337000846862793 -0.24376000463962555 -0.6005799770355225 0.5156300067901611 0.0863799974322319 -0.09963300079107285 -0.5795000195503235 -0.18353000283241272 0.45989999175071716 0.13350999355316162 0.2943100035190582 0.23090000450611115 0.6158900260925293 -0.4383400082588196 0.5314900279045105 1.0781999826431274 0.1547199934720993 -0.2899099886417389 -0.12612000107765198 -0.23186999559402466 -0.43915998935699463 -0.14087000489234924 0.29030001163482666 -0.6620500087738037 -0.3833000063896179 0.17646999657154083 0.29805999994277954 0.28029000759124756 0.5471600294113159 -0.13062000274658203 -0.4188399910926819 0.05502599850296974 0.37307000160217285 0.5903099775314331 0.04586400091648102 0.4148100018501282 0.015622000209987164 -0.11430999636650085 -0.36994999647140503 0.3748199939727783 0.3961699903011322 -0.1372399926185608 0.5506200194358826 0.7599300146102905 0.6552299857139587 -0.526889979839325 -0.1444700062274933 0.5622000098228455 0.005558100063353777 -0.06298000365495682 -0.08085200190544128 0.7427200078964233 -0.1670999974012375 -0.11932999640703201 -0.24728000164031982 0.059866998344659805 0.040803998708724976 0.29096001386642456 -0.2368299961090088 0.9543099999427795 -0.9885200262069702 -0.47846999764442444 -0.12732000648975372 -0.04775200039148331 -0.6594399809837341 0.38100001215934753 -0.7253299951553345 0.36629998683929443 -0.08459500223398209 -0.2538500130176544 0.5870599746704102 0.09268199652433395 0.5868800282478333 -0.04401800036430359 0.8309500217437744 -0.42866000533103943 0.09936399757862091 -0.5760599970817566 0.08982399851083755 0.34988999366760254 0.18005000054836273 -0.26673001050949097 0.33278998732566833 -0.4824100136756897 0.2782300114631653 0.0037400000728666782 -0.14837999641895294 0.6323000192642212 0.18684999644756317 -0.5463899970054626 0.10830999910831451 -0.3084299862384796 0.1096699982881546 -0.11112000048160553 0.05554499849677086 -0.018156999722123146 -0.5604400038719177 -0.21571999788284302 0.04457800090312958 -0.3209899961948395 -0.5178999900817871 -0.009836199693381786 -0.5742499828338623 0.5014100074768066 -0.05542200058698654 0.14754000306129456 -0.030880000442266464 -0.12219999730587006 -0.18278999626636505 -0.5253300070762634 0.240789994597435 -0.5102699995040894 0.21821999549865723 -0.8992000222206116 -0.028943000361323357 -0.3864099979400635 -0.48938000202178955 0.21190999448299408 0.46261999011039734 -0.3105199933052063 -0.1289599984884262 0.3954800069332123 0.16237999498844147 -0.45006000995635986 0.6533899903297424 0.5417500138282776 1.0042999982833862 0.21901999413967133 0.2937600016593933 0.539680004119873 0.12887999415397644 0.1090100035071373 0.51419997215271 -0.15042999386787415 -0.2521899938583374 -0.14359000325202942 -0.25554001331329346 0.4564499855041504 -0.1545100063085556 -0.019474999979138374 0.375110000371933 0.5564299821853638 0.2993699908256531 -0.050151001662015915 -0.12637999653816223 -0.28863000869750977 -0.04774399846792221 0.264490008354187 0.09679500013589859 -0.5715100169181824 -0.0808899998664856 -0.1460999995470047 -0.16527000069618225 -0.4968099892139435 0.49222999811172485 0.4881100058555603 0.25617000460624695 -0.04526900127530098 -0.09083700180053711 -0.5116999745368958 0.4620800018310547 0.8215199708938599 0.119439996778965 0.36590999364852905 -0.2881700098514557 0.6696599721908569 -1.0293999910354614 0.36803001165390015 0.03349899873137474 -0.177389994263649 0.22267000377178192 -0.28988999128341675 0.09776200354099274 0.5613300204277039 -0.4331200122833252 0.20250999927520752 -0.2936300039291382 -0.15560999512672424 1.0334999561309814 0.18448999524116516 -0.37882000207901 -0.5327500104904175 0.14515000581741333 0.5937700271606445 -0.35328999161720276 -0.06777600198984146 0.2828400135040283 -0.3514400124549866 -0.1728000044822693 0.07217500358819962 -0.01534199994057417 -0.00857010018080473 0.16635000705718994 0.057978998869657516 -0.15042999386787415 0.31657999753952026 -0.4457699954509735 0.1206900030374527 -0.8222000002861023 -0.3928399980068207 0.25192999839782715 -0.18918000161647797 -0.5722399950027466 -0.0576150007545948 -0.6027200222015381 -0.12651999294757843 -0.04676099866628647 -0.34092000126838684 0.5861600041389465 0.3567900061607361 -0.5608999729156494 -0.16701999306678772 -0.10273999720811844 0.18719999492168427 1.0949000120162964 0.15860000252723694 0.5525299906730652 0.22156000137329102 0.08735299855470657 0.3202899992465973 -0.0299260001629591 1.6019999980926514 0.016755999997258186 0.08918199688196182 0.31046000123023987 0.26927000284194946 -0.5920600295066833 -0.986840009689331 -0.2138500064611435
bagpipe -0.4134899973869324 0.2729800045490265 -0.6161500215530396 0.08346600085496902 0.09103900194168091 -0.32569000124931335 -0.3125799894332886 0.7492700219154358 -0.4817900061607361 0.8741099834442139 -0.6521599888801575 0.03760100156068802 -0.1344199925661087 0.01924999989569187 0.3136799931526184 -0.41280999779701233 -0.38207000494003296 -0.5018799901008606 0.5347599983215332 0.20443999767303467 0.3041200041770935 -0.19470000267028809 -0.8685899972915649 0.4797399938106537 0.19520999491214752 0.021448999643325806 -0.4304800033569336 0.07312899827957153 0.12421000003814697 0.5834699869155884 0.28979000449180603 -0.23839999735355377 0.2190299928188324 -0.029366999864578247 0.3855299949645996 -0.15512999892234802 0.4227299988269806 0.448419988155365 -0.6515899896621704 0.3499799966812134 0.2014400064945221 -0.1168299987912178 0.2746500074863434 0.21929000318050385 0.3199700117111206 0.6203399896621704 0.8113600015640259 -0.0012326999567449093 -0.04814000055193901 -0.20276999473571777 0.47106000781059265 0.10572999715805054 -0.20917999744415283 0.5427700281143188 -0.4865800142288208 -0.48315998911857605 -0.1890300065279007 0.09975200146436691 0.3096800148487091 0.293830007314682 0.34417998790740967 0.3853600025177002 0.4866900146007538 0.2542499899864197 -0.5453100204467773 0.5204899907112122 0.9911999702453613 0.49630001187324524 0.3322800099849701 -0.15400999784469604 0.5850099921226501 -0.26739001274108887 0.26669999957084656 0.1795399934053421 -0.2298399955034256 0.28439998626708984 -0.13350999355316162 -0.01870499923825264 0.1282300055027008 0.26342999935150146 0.0899529978632927 -0.01304600015282631 0.14306999742984772 -0.7400599718093872 0.5383899807929993 0.0008108799811452627 -0.5910500288009644 0.18824000656604767 -0.2128400057554245 0.4533199965953827 0.555429995059967 -0.5786200165748596 0.1341100037097931 -0.14274999499320984 0.5697199702262878 0.2528199851512909 0.8345299959182739 -0.4068700075149536 -0.08405900001525879 0.7660899758338928 0.097461998462677 1.2491999864578247 -0.3366200029850006 -0.6123300194740295 -0.12159000337123871 0.270579993724823 -0.16609999537467957 0.12063000351190567 -0.4240899980068207 0.7914900183677673 0.06768500059843063 0.2175000011920929 -0.007754699792712927 0.4045799970626831 -0.29385000467300415 -0.8425400257110596 0.3594599962234497 0.26118001341819763 0.32058000564575195 -0.12125000357627869 -0.16545000672340393 -0.1428000032901764 -0.23332999646663666 -0.20366999506950378 0.325980007648468 -0.011571000330150127 0.2580200135707855 0.510699987411499 0.15062999725341797 0.12460000067949295 0.10481999814510345 0.07627599686384201 -0.03535199910402298 -0.7100399732589722 0.809499979019165 0.48956000804901123 0.8672299981117249 0.8807799816131592 0.24751000106334686 -0.2566399872303009 0.5102599859237671 -0.14128999412059784 -0.5509799718856812 -0.19563999772071838 0.11503999680280685 -0.006458600051701069 -0.003334800014272332 -0.08729200065135956 -0.1151999980211258 -0.16731999814510345 -1.1690000295639038 -0.4262300133705139 0.8596000075340271 0.20087000727653503 -0.10832999646663666 0.3010999858379364 0.0999779999256134 -0.23622000217437744 0.24235999584197998 0.35453999042510986 -0.48590001463890076 -0.13065999746322632 -0.5102199912071228 -0.04978499934077263 -0.3754900097846985 -0.46876001358032227 -0.1522900015115738 0.7263500094413757 -0.09344200044870377 -0.7784500122070312 -0.3210900127887726 0.23397000133991241 0.39618998765945435 0.10025999695062637 -0.38624998927116394 -0.291920006275177 -0.3798600137233734 -0.024486999958753586 -0.16473999619483948 0.3357200026512146 -0.4718700051307678 -0.2969299852848053 -0.19638000428676605 0.5152000188827515 0.9030699729919434 -0.3048500120639801 -0.03182400017976761 -0.08128099888563156 -0.15773999691009521 0.4523000121116638 -0.407039999961853 -0.5464699864387512 -0.12601999938488007 0.007035499904304743 -0.3393700122833252 0.39570000767707825 -0.22848999500274658 0.36469998955726624 -0.04764999821782112 0.16728000342845917 -0.5795599818229675 0.7936000227928162 -0.1575399935245514 0.11059000343084335 0.3919900059700012 0.7635899782180786 -0.4359700083732605 0.6053000092506409 -0.3508000075817108 -0.1881999969482422 0.42350998520851135 0.625819981098175 0.04479299858212471 -0.04496699944138527 -0.4011400043964386 -0.3621000051498413 0.046348001807928085 -0.04929099977016449 -0.2654399871826172 -0.03485099971294403 -0.5524200201034546 0.04992400109767914 0.12213999778032303 -0.10913000255823135 -0.36489999294281006 0.2016499936580658 -0.055948998779058456 -0.12616999447345734 0.6051899790763855 0.2596299946308136 0.39563000202178955 0.4362500011920929 -0.46522998809814453 -0.23714999854564667 0.2477799952030182 0.10010000318288803 0.2547999918460846 -0.06531299650669098 0.023087000474333763 0.04201199859380722 0.668969988822937 -0.06757500022649765 -0.500540018081665 -0.34018999338150024 0.5538700222969055 -0.268559992313385 -0.0909620001912117 -0.21876999735832214 0.2776400148868561 0.11327999830245972 -0.04657899960875511 0.1885399967432022 0.018704000860452652 -0.6141600012779236 0.05166099965572357 -0.13850000500679016 0.6022700071334839 0.07842999696731567 -0.5602099895477295 -0.4812000095844269 0.1668899953365326 0.29872000217437744 0.4309700131416321 0.4523099958896637 0.14823000133037567 0.3449000120162964 -0.2921000123023987 0.0736749991774559 -0.3101300001144409 -0.23739999532699585 0.3157399892807007 -0.12172999978065491 0.7620000243186951 -0.30156999826431274 0.014259999617934227 -0.0283610001206398 -0.04491199925541878 0.20744000375270844 -0.2766999900341034 -0.3517700135707855 0.18807999789714813 -0.2238599956035614 -0.07064300030469894 1.1223000288009644 0.5086399912834167 -0.40874001383781433 -1.0662000179290771 0.4025000035762787 0.5833399891853333 -0.6653800010681152 0.585860013961792 -0.17351999878883362 -0.3508000075817108 0.6695200204849243 -0.5356900095939636 -0.259660005569458 0.4082300066947937 -0.13931000232696533 -0.04072599858045578 -0.3061999976634979
leroy 0.2580299973487854 -0.059502001851797104 0.3392300009727478 0.17317000031471252 -0.09965399652719498 0.008899799548089504 -0.22957000136375427 -0.8047999739646912 0.473690003156662 0.5908399820327759 0.18330000340938568 -0.43751001358032227 0.40481001138687134 -0.09134700149297714 -0.17367999255657196 0.23069000244140625 0.47644999623298645 0.0013528000563383102 0.11444000154733658 -0.4458099901676178 0.5113000273704529 -0.04042299836874008 0.17678000032901764 0.04214100167155266 0.5406399965286255 0.2410700023174286 0.1114799976348877 -0.4167099893093109 -0.09736400097608566 0.055087000131607056 0.030077999457716942 -0.09797400236129761 0.2749199867248535 0.443230003118515 -0.4286099970340729 0.5473999977111816 -0.5103700160980225 0.037370000034570694 0.039597999304533005 -0.4205699861049652 -0.17409999668598175 0.17817999422550201 0.5472099781036377 0.17554999887943268 0.07364799827337265 0.28554999828338623 0.20412999391555786 -0.2412099987268448 -0.3732599914073944 -0.5514299869537354 -0.2586899995803833 0.2958100140094757 0.35826000571250916 0.2196200042963028 0.01167299970984459 0.12939000129699707 0.11032000184059143 0.2506699860095978 -0.3279300034046173 -0.8172500133514404 -0.2770400047302246 0.023941999301314354 -0.08204499632120132 0.037230998277664185 0.05003200098872185 -0.38304001092910767 0.03905300050973892 -0.5593500137329102 0.3914799988269806 -0.7018300294876099 -0.4484100043773651 -0.8007400035858154 0.23055000603199005 -0.12290000170469284 -0.5476800203323364 -0.6222800016403198 0.1720999926328659 0.3416700065135956 -0.11170999705791473 -0.6222900152206421 0.40233999490737915 0.06238200142979622 0.5026900172233582 0.3070099949836731 -0.02719699963927269 -0.45201000571250916 0.6189299821853638 0.5110800266265869 0.14268000423908234 -0.3881300091743469 -0.449319988489151 0.215379998087883 0.10050000250339508 0.44659000635147095 -0.3184199929237366 0.342629998922348 0.0169879999011755 0.7430999875068665 0.4553300142288208 0.042539000511169434 0.16818000376224518 -0.492900013923645 0.40806999802589417 0.016933999955654144 0.18519000709056854 -0.030546000227332115 0.2224300056695938 -0.2876800000667572 -0.28282999992370605 0.17924000322818756 -0.22110000252723694 0.49132001399993896 0.4979400038719177 0.12184000015258789 -0.19618000090122223 0.07480999827384949 -0.17608000338077545 -0.025002000853419304 0.37749001383781433 -0.08138199895620346 -0.05601700022816658 0.3586199879646301 0.08353599905967712 -0.452210009098053 -0.09658099710941315 -0.07497400045394897 -0.30761000514030457 -0.21453000605106354 0.048753999173641205 0.24368999898433685 -0.1142600029706955 -0.05900200083851814 0.09149099886417389 0.05426599830389023 0.008359399624168873 -0.2110999971628189 0.018425999209284782 -0.16157999634742737 0.2517000138759613 -0.06321900337934494 -0.31657999753952026 -0.32280999422073364 0.8532000184059143 -0.256850004196167 0.2240699976682663 -0.646619975566864 -0.09490299969911575 -0.5873000025749207 0.1339000016450882 -0.15255999565124512 0.12696999311447144 -0.23107999563217163 -0.09566900134086609 -0.22431999444961548 0.34902000427246094 -0.5351099967956543 -0.427729994058609 -0.24041999876499176 -0.2522900104522705 0.4297800064086914 0.03284100070595741 -0.36201998591423035 0.07375500351190567 0.048243001103401184 -0.27845001220703125 -0.5308799743652344 -0.21411000192165375 0.23593999445438385 0.225490003824234 -0.17574000358581543 0.6474400162696838 0.3115699887275696 0.4291200041770935 -0.08748800307512283 -0.08169899880886078 0.4967400133609772 0.08962900191545486 -0.02407900057733059 -0.44944000244140625 0.14142000675201416 0.09249600023031235 0.6916499733924866 -0.14659999310970306 -0.06137600168585777 -0.7248700261116028 -0.022321000695228577 -0.5648000240325928 -0.04291300103068352 0.31885001063346863 0.16362999379634857 -0.2697699964046478 0.011524000205099583 0.08628500252962112 0.3340499997138977 -0.058786001056432724 -0.7197399735450745 0.1367499977350235 0.20663000643253326 -0.4039100110530853 0.21052999794483185 0.28804999589920044 0.3386699855327606 0.8234999775886536 -0.19537000358104706 0.09711199998855591 0.1652500033378601 -0.2092999964952469 0.3363400101661682 0.17228999733924866 -0.09724400192499161 -0.07531599700450897 -0.24085000157356262 0.11009000241756439 -0.2388100028038025 0.11451999843120575 0.357340008020401 -0.473690003156662 -0.17587000131607056 -0.3115299940109253 -0.4503600001335144 -0.14104999601840973 -0.23194999992847443 -0.2901900112628937 -0.3462499976158142 0.5558000206947327 -0.04087299853563309 0.33254000544548035 0.5006099939346313 0.15706999599933624 -0.6021000146865845 -0.33983999490737915 -0.25898998975753784 -0.4602999985218048 0.1588599979877472 -0.6948599815368652 0.6708800196647644 0.037687998265028 0.11475999653339386 -0.030199000611901283 -0.34678998589515686 0.3912599980831146 -0.13360999524593353 0.6471999883651733 -0.17236000299453735 0.31981998682022095 0.03531799837946892 -0.3093099892139435 -0.18539999425411224 -0.334089994430542 0.3280999958515167 0.3196299970149994 0.41023001074790955 0.2993699908256531 0.23983000218868256 0.8302599787712097 0.37759000062942505 -0.44451001286506653 -0.4497799873352051 0.2500399947166443 -0.42384999990463257 0.3080599904060364 -0.26374998688697815 0.07493899762630463 -0.03079400025308132 -0.5067999958992004 0.4215399920940399 -0.5509099960327148 0.42566001415252686 0.010998000390827656 0.10124000161886215 0.018888000398874283 0.2929399907588959 -0.4670099914073944 0.8341599702835083 0.4101499915122986 0.15331999957561493 0.5677199959754944 0.043359000235795975 -0.7073500156402588 -0.5827800035476685 0.055358998477458954 0.44830000400543213 0.230430006980896 0.15987999737262726 -0.15977999567985535 0.46678000688552856 -0.2376600056886673 -0.5200700163841248 -0.541100025177002 -0.44565001130104065 0.4283199906349182 -0.04151400178670883 0.32806000113487244 -0.706250011920929 0.5186700224876404 0.014740999788045883 0.035592999309301376 0.07477399706840515 -0.605970025062561 -0.1044899970293045
rifle -0.3873099982738495 0.9029399752616882 -0.014398000203073025 -0.27608001232147217 -0.24889999628067017 0.40244999527931213 0.12464000284671783 0.4660800099372864 0.5645300149917603 -0.6440200209617615 0.7496600151062012 0.20882999897003174 -0.04695900157094002 0.09347499907016754 0.09974399954080582 0.7741000056266785 0.024126999080181122 0.32328000664711 -0.5239700078964233 -0.4459199905395508 0.4486300051212311 -0.5472300052642822 0.09104999899864197 -0.24068999290466309 0.4659700095653534 0.10495000332593918 0.09913399815559387 -0.0025832001119852066 0.5612199902534485 0.10480000078678131 1.035099983215332 0.039845000952482224 1.065600037574768 -0.10434000194072723 0.022267000749707222 -0.3458299934864044 -0.18806999921798706 -0.38137999176979065 0.13639000058174133 0.47400999069213867 0.208529993891716 0.42746999859809875 0.5327200293540955 -0.14609000086784363 0.5508999824523926 0.10847999900579453 0.3111099898815155 -0.5353500247001648 0.5047500133514404 0.0555419996380806 -0.1173200011253357 -0.47418999671936035 -0.4080199897289276 0.5347800254821777 -0.010925999842584133 -0.16857999563217163 -0.12347999960184097 -0.32756999135017395 0.457940012216568 0.4357900023460388 0.3061999976634979 0.5075299739837646 -0.06558799743652344 -0.15512000024318695 -0.28450000286102295 0.47231999039649963 -1.0048999786376953 -0.12679000198841095 -0.189520001411438 -0.2046699970960617 -0.6077600121498108 -0.01424300018697977 -0.5072799921035767 0.26308000087738037 -0.29111000895500183 0.12189999967813492 -0.05557100102305412 0.017527999356389046 -0.08598800003528595 0.41804999113082886 0.24956999719142914 0.8833699822425842 0.703760027885437 -0.2795700132846832 -0.12042000144720078 -0.09878899902105331 -0.3619300127029419 -0.475739985704422 -0.3487200140953064 0.018664000555872917 0.8557699918746948 -0.05595900118350983 -0.42677998542785645 0.5553799867630005 0.36974000930786133 -0.3579599857330322 -0.5745400190353394 0.5990599989891052 0.5040599703788757 -0.4100300073623657 -1.0609999895095825 0.7285199761390686 -0.5815399885177612 0.19169999659061432 0.2454099953174591 -1.0408999919891357 0.3368299901485443 -0.05928700044751167 -0.39809998869895935 0.8256999850273132 -0.13454000651836395 1.2281999588012695 0.2822200059890747 0.1654299944639206 0.030760999768972397 -0.21469999849796295 -0.36212000250816345 0.5967900156974792 0.3813300132751465 -0.036827001720666885 -0.4344399869441986 1.1155999898910522 0.720740020275116 -0.5784900188446045 -0.364190012216568 0.39621999859809875 -0.09398599714040756 -0.07889200001955032 -0.20834000408649445 -0.3371799886226654 -0.21580000221729279 -0.4449099898338318 0.0908529981970787 -0.6499599814414978 -0.10600999742746353 0.43393000960350037 0.6583300232887268 0.4675000011920929 0.8273100256919861 0.12777000665664673 -0.5523300170898438 0.2716499865055084 -1.0418000221252441 0.33733999729156494 -0.21400000154972076 0.23301999270915985 0.6431099772453308 0.21104000508785248 -0.6597300171852112 0.20137999951839447 0.053068000823259354 0.6508100032806396 -0.15199999511241913 -0.5262500047683716 0.13389000296592712 -0.23964999616146088 -0.0159939993172884 -0.18764999508857727 0.41982001066207886 0.24007000029087067 -0.12411999702453613 -0.006144400220364332 -0.24195000529289246 -0.02273399941623211 0.18754999339580536 0.10429999977350235 0.4847800135612488 0.6368299722671509 -0.3514600098133087 -0.4886299967765808 0.10480000078678131 0.7707300186157227 -0.22359000146389008 0.2212900072336197 0.22819000482559204 0.2155900001525879 0.04053099825978279 0.0652960017323494 0.12197999656200409 0.38484999537467957 0.8274000287055969 0.08495400100946426 -0.04160900041460991 -0.09121199697256088 0.16720999777317047 -0.12402000278234482 0.4896700084209442 0.8727800250053406 0.6852200031280518 0.2903200089931488 -0.1902499943971634 -0.20934000611305237 -0.0702890008687973 0.12296999990940094 -0.4396199882030487 -0.022637000307440758 0.19000999629497528 -0.5490300059318542 -0.08221500366926193 -0.2075899988412857 0.6045699715614319 0.13116000592708588 -0.2565099895000458 -0.535539984703064 0.3356899917125702 -0.0533440001308918 -0.17639000713825226 -0.12394999712705612 0.09258999675512314 0.47633999586105347 0.3584100008010864 0.7863600254058838 -0.5790600180625916 0.425709992647171 0.04650900140404701 -0.46323999762535095 -0.05381099879741669 0.10010000318288803 -0.05121700093150139 -0.5061900019645691 -0.1968899965286255 -0.3819499909877777 0.3679099977016449 -0.131850004196167 -0.22885000705718994 0.6491400003433228 0.09115800261497498 -0.31084001064300537 -0.25609999895095825 -0.336760014295578 0.18521000444889069 0.3375900089740753 -0.10124000161886215 -0.08513399958610535 0.5772799849510193 0.10487999767065048 -0.3055500090122223 -0.28867000341415405 0.0897660031914711 1.2913000583648682 0.38464000821113586 0.10027000308036804 0.03326300159096718 -0.3773300051689148 -0.011358999647200108 -0.4204399883747101 -0.1014999970793724 -0.37077000737190247 -1.0608999729156494 -0.6128600239753723 -0.18745000660419464 -0.12884999811649323 0.08942200243473053 -0.7586100101470947 0.5269899964332581 -0.10172999650239944 -0.7237300276756287 0.3553299903869629 0.013050000183284283 -0.3166700005531311 -0.248989999294281 0.24942000210285187 0.0977260023355484 0.028860999271273613 0.08461800217628479 -0.2135699987411499 -0.2948499917984009 -0.03374600037932396 -0.6324999928474426 0.20169000327587128 0.22014999389648438 -0.19971999526023865 0.10869999974966049 0.5104399919509888 -0.05448799952864647 -0.09464500099420547 -1.2583999633789062 0.00036140999873168766 -0.5389599800109863 0.34014999866485596 -0.17361000180244446 -1.0383000373840332 0.3071900010108948 -0.18374000489711761 0.06665699928998947 0.7642599940299988 -0.14160999655723572 0.16155000030994415 0.16798000037670135 -0.2476699948310852 -0.6233299970626831 -0.07126300036907196 0.07554300129413605 0.13086000084877014 -0.298009991645813 0.6036199927330017 0.4254699945449829 0.33855998516082764 0.30024999380111694 -0.08228400349617004
honor 0.22631999850273132 0.31977999210357666 -0.11000999808311462 -0.04196999967098236 -0.38600000739097595 -0.008433500304818153 -0.3223699927330017 -0.014235000126063824 -0.024785000830888748 -0.5170400142669678 0.05147700011730194 -0.07051599770784378 -0.3558500111103058 -0.20151999592781067 -0.2504799962043762 0.31358999013900757 0.4086799919605255 0.013043000362813473 -0.3880099952220917 -0.4887999892234802 -0.0015037000412121415 -0.08496599644422531 0.07489299774169922 -0.17847999930381775 0.1965000033378601 0.03325499966740608 -0.23172999918460846 -0.004367299843579531 0.5114700198173523 -0.2713499963283539 0.7275099754333496 -0.1389400064945221 -0.2807700037956238 -0.1266999989748001 -0.8670799732208252 -0.024080000817775726 0.3345400094985962 -0.194240003824234 0.21678000688552856 -0.301800012588501 0.2634899914264679 -0.3183000087738037 0.09787800163030624 0.5960299968719482 -0.2414799928665161 0.2959499955177307 0.45671001076698303 0.06577999889850616 0.49112001061439514 -0.336650013923645 0.0022599000949412584 -0.23760999739170074 0.08729200065135956 0.2033199965953827 -0.5072900056838989 0.18752999603748322 -0.45372000336647034 0.33522000908851624 0.07331900298595428 -0.4378100037574768 0.43268999457359314 0.03338700160384178 0.28780001401901245 0.07469099760055542 -0.1243399977684021 -0.7297599911689758 0.21261000633239746 0.5228599905967712 -0.06383000314235687 0.4217599928379059 0.27959001064300537 -0.1474200040102005 0.20961999893188477 0.1322299987077713 -0.41291001439094543 -0.03167099878191948 0.30406999588012695 0.320279985666275 0.07490699738264084 -0.09118600189685822 0.16787999868392944 0.2442300021648407 0.31349000334739685 0.01424499973654747 0.40128999948501587 0.41888999938964844 -0.5895599722862244 -0.17845000326633453 -0.19593000411987305 0.11174999922513962 0.12005999684333801 -0.23217999935150146 0.608680009841919 0.05712199956178665 0.08063399791717529 -0.07657700031995773 0.6664199829101562 -0.18104000389575958 -0.261709988117218 0.3149000108242035 0.7749500274658203 -0.15480999648571014 -0.1808599978685379 0.4614599943161011 0.5880600214004517 -0.051601000130176544 0.22612999379634857 -0.05902399867773056 -0.015491999685764313 -0.49285998940467834 -0.1468600034713745 0.7138199806213379 0.305400013923645 -0.6911200284957886 -0.5786299705505371 -0.340829998254776 0.33849000930786133 -0.443450003862381 0.12803000211715698 -0.3061400055885315 0.06622199714183807 0.23327000439167023 0.020779000595211983 0.14717000722885132 0.08480600267648697 -0.16167999804019928 0.02968199923634529 -0.1369599997997284 0.10723000019788742 0.31773000955581665 -0.1228799968957901 -0.13620999455451965 0.43994998931884766 -0.14636999368667603 -0.02408899925649166 -0.05363300070166588 0.13300999999046326 0.17359000444412231 0.08878400176763535 0.24155999720096588 0.20743000507354736 0.4669699966907501 0.11094000190496445 0.04970800131559372 0.5040000081062317 -0.5240100026130676 -0.5834299921989441 -0.5009199976921082 -0.039361998438835144 0.0999160036444664 0.427729994058609 0.11101999878883362 0.23805999755859375 0.03237500041723251 0.5777199864387512 0.23086999356746674 -0.30397000908851624 -0.09079000353813171 -0.3661400079727173 -0.3445200026035309 0.4349699914455414 0.21698999404907227 0.1979999989271164 0.17273999750614166 -0.41565001010894775 0.06573999673128128 -0.12047000229358673 0.1881999969482422 -0.2508600056171417 -0.17233000695705414 -0.04302100092172623 -0.2759999930858612 -0.2534100115299225 -0.07851199805736542 0.22293999791145325 0.08441399782896042 -0.04297500103712082 -0.12249000370502472 0.03740600124001503 0.29701998829841614 -0.19830000400543213 0.051798999309539795 0.35550999641418457 -0.11269000172615051 0.07372400164604187 0.24842000007629395 -0.7832199931144714 0.08003199845552444 -0.37843000888824463 -0.006463400088250637 0.23613999783992767 -0.6144000291824341 0.14240999519824982 -0.09986700117588043 -0.348690003156662 0.22165000438690186 0.20548999309539795 0.12066999822854996 0.10446000099182129 -0.5743299722671509 1.36899995803833 -0.08594200015068054 0.2156600058078766 -0.1081399992108345 0.4879800081253052 -0.24011999368667603 0.652679979801178 0.45416998863220215 0.3728100061416626 -0.017009999603033066 -0.10097000002861023 -0.033312998712062836 -0.5192199945449829 -0.20983000099658966 -0.19394999742507935 0.350849986076355 -0.06352899968624115 -0.18393999338150024 -0.1917099952697754 -0.049970999360084534 0.062123000621795654 -0.22543999552726746 0.6614500284194946 0.5470899939537048 -0.31630000472068787 -0.17615999281406403 -0.10152000188827515 0.4163399934768677 0.17858000099658966 -0.05911700055003166 -0.39754000306129456 -0.35085999965667725 -0.055622998625040054 0.06816300004720688 -0.3874100148677826 0.08204399794340134 -0.3175100088119507 -0.7381299734115601 0.09399499744176865 -0.02711700089275837 0.13496999442577362 -0.08668100088834763 0.5938900113105774 -0.3902300000190735 -0.3599100112915039 0.26455000042915344 -0.31369999051094055 0.056446000933647156 -0.10425999760627747 -0.5436000227928162 0.15825000405311584 -0.29315000772476196 -0.022755000740289688 0.031624000519514084 0.5854099988937378 -0.04318299889564514 0.21976999938488007 0.177729994058609 0.3110499978065491 -0.6352999806404114 0.13287000358104706 -0.13052000105381012 0.6614500284194946 -0.12865999341011047 0.09941700100898743 0.09250699728727341 -0.2818300127983093 0.09990999847650528 0.3181900084018707 -0.4358699917793274 0.20000000298023224 -0.3482399880886078 0.5317699909210205 0.15877999365329742 -0.1181500032544136 0.24018000066280365 -1.7527999877929688 -0.46553000807762146 0.7651100158691406 -0.043839000165462494 0.018231000751256943 -0.03375599905848503 0.16200999915599823 -0.06101100146770477 -0.03587599843740463 0.7073699831962585 -0.18241000175476074 0.0438150018453598 0.6080800294876099 -0.286190003156662 0.632610023021698 -0.4668999910354614 0.04565000161528587 -0.280239999294281 -0.22057999670505524 -0.00643849978223443 0.28431999683380127 0.1953199952840805 -0.1545500010251999 -0.2144400030374527
caterpillar 0.18517999351024628 0.13572999835014343 0.21578000485897064 -0.2651999890804291 -0.4095500111579895 -0.25854000449180603 -0.1909099966287613 0.296099990606308 -0.20361000299453735 -0.11134999990463257 0.034582000225782394 -0.3431299924850464 0.0882209986448288 -0.4200200140476227 0.5447900295257568 -0.32907000184059143 -0.38343000411987305 -0.3372400104999542 -0.2381799966096878 -0.6740999817848206 0.380730003118515 0.44550999999046326 0.166020005941391 0.17364999651908875 -0.033257998526096344 -0.8159000277519226 0.7043200135231018 -0.23341000080108643 0.48322999477386475 0.2844200134277344 -0.41488999128341675 -0.16846999526023865 0.04071199893951416 0.44683998823165894 -0.22748999297618866 0.004555500112473965 -0.3558099865913391 -0.041770000010728836 -0.11733999848365784 -0.334879994392395 -0.10730999708175659 0.530489981174469 0.12088999897241592 0.14523999392986298 -0.328220009803772 -0.011621999554336071 0.2464900016784668 -0.1702599972486496 -0.26725998520851135 0.0009947300422936678 0.40865999460220337 0.28679001331329346 -0.09030699729919434 0.6354799866676331 -0.2800300121307373 -0.20200000703334808 0.7535399794578552 -0.24431000649929047 0.3012300133705139 -0.2891499996185303 -0.09042300283908844 -0.051545001566410065 0.32363998889923096 0.0854479968547821 -0.7390300035476685 -0.11210999637842178 -0.4868299961090088 0.07948800176382065 0.30913999676704407 0.261709988117218 0.12626999616622925 0.643750011920929 0.8262699842453003 0.14087000489234924 -0.045472998172044754 0.11168000102043152 -0.7644000053405762 -0.21830999851226807 0.42855000495910645 0.10284999758005142 -0.3883099853992462 -0.3023200035095215 -0.16057999432086945 -1.0490000247955322 0.012295999564230442 -0.3386499881744385 0.29732000827789307 0.16062000393867493 0.007896499708294868 0.08229099959135056 0.7260500192642212 -0.6657500267028809 0.11108999699354172 -0.13165999948978424 -0.466839998960495 -0.0007419799803756177 -0.361160010099411 0.2240999937057495 -0.592769980430603 0.44246000051498413 0.25398001074790955 0.1238899976015091 -0.2066899985074997 -0.24169999361038208 -0.36388999223709106 -0.3082300126552582 0.25106000900268555 -0.4165700078010559 0.13503000140190125 0.513759970664978 -0.30776000022888184 -0.07947400212287903 -0.2733500003814697 0.44130998849868774 -0.0898979976773262 0.5266100168228149 0.02372400090098381 0.3091900050640106 -0.38449999690055847 0.7108500003814697 -0.118709996342659 -0.8183799982070923 0.3890799880027771 0.084415003657341 -0.2274399995803833 0.5926600098609924 -0.12217000126838684 0.7734000086784363 -0.04125700145959854 0.30031999945640564 0.47064000368118286 0.9526200294494629 -0.6910799741744995 0.5789499878883362 0.01807199977338314 -0.10074000060558319 -0.3871900141239166 0.27538999915122986 -0.017743000760674477 0.3416300117969513 0.06336099654436111 0.2882699966430664 0.6781399846076965 -0.6485400199890137 -0.17294999957084656 -0.0429919995367527 0.342629998922348 0.2943199872970581 -0.04742899909615517 -0.12042000144720078 -0.20880000293254852 0.3874399960041046 0.1476300060749054 -0.32475998997688293 -0.14445999264717102 -0.38683998584747314 0.2104800045490265 -0.0839499980211258 0.11202999949455261 0.1353899985551834 -0.07256700098514557 0.04788300022482872 -0.5301499962806702 -0.11731000244617462 0.23861999809741974 0.47227001190185547 -0.3656499981880188 0.7789599895477295 -0.39552000164985657 0.23512999713420868 0.00039756999467499554 0.0090616000816226 0.4996100068092346 0.19681000709533691 -0.367249995470047 -0.25415998697280884 0.28200000524520874 0.17470000684261322 -0.14358000457286835 0.7727900147438049 -0.03659899905323982 -0.11947999894618988 0.698170006275177 -0.1595499962568283 0.45618000626564026 -0.45524001121520996 -0.248089998960495 0.6598899960517883 0.6159800291061401 -0.6206099987030029 0.4510599970817566 -0.20690999925136566 -0.360509991645813 -0.528249979019165 -0.15112000703811646 -0.07371199876070023 0.08185700327157974 -0.3838900029659271 -0.09115699678659439 0.1109900027513504 -0.2951900064945221 -0.1704699993133545 0.4180000126361847 -0.15439000725746155 -0.5140399932861328 0.5207300186157227 0.24720999598503113 -0.3395499885082245 -0.5459499955177307 -0.614549994468689 -0.25014999508857727 -0.2171899974346161 0.13384999334812164 -1.0978000164031982 0.27393001317977905 0.38113999366760254 0.10897000133991241 0.768559992313385 0.39983001351356506 -0.29954999685287476 0.1923000067472458 0.03807400166988373 -0.5085300207138062 -0.5345900058746338 0.06442700326442719 0.417169988155365 -0.2459699958562851 -0.15725000202655792 -0.4243699908256531 0.11614000052213669 -0.7444700002670288 -0.14630000293254852 0.1444299966096878 0.4208199977874756 0.1720999926328659 0.07176999747753143 0.03475100174546242 -0.15327000617980957 -0.15072999894618988 0.15365000069141388 0.5247099995613098 -0.026631999760866165 -0.4282900094985962 -0.3376699984073639 -0.6636499762535095 -0.5885599851608276 0.13596999645233154 -0.6031200289726257 0.29743000864982605 -0.04448600113391876 -0.1342500001192093 0.5295600295066833 -0.2793099880218506 -0.12335000187158585 0.687250018119812 -0.036104001104831696 -0.5125399827957153 -0.1267399936914444 0.3103199899196625 -0.22865000367164612 -0.12472999840974808 0.027929000556468964 -0.3060399889945984 -0.12636999785900116 0.3554700016975403 0.8161200284957886 -0.17810000479221344 0.21175000071525574 0.10813000053167343 0.4742099940776825 -0.00783700030297041 0.4187299907207489 -0.45173999667167664 0.021098999306559563 0.23023000359535217 -0.49656999111175537 0.5997800230979919 -0.4121600091457367 -0.17855000495910645 -0.1576399952173233 0.17601999640464783 -0.2816700041294098 0.09092099964618683 0.6006699800491333 0.272350013256073 0.16621999442577362 0.21424999833106995 0.2778500020503998 -0.5541300177574158 -0.6902899742126465 0.25817999243736267 -0.7093600034713745 0.3231799900531769 0.4052099883556366 -0.17603999376296997 0.25718000531196594 -0.1728699952363968 0.2275400012731552 0.4461199939250946 0.36048001050949097
lashelle 0.300709992647171 -0.4686700105667114 -0.206169992685318 -0.8097800016403198 -0.23889000713825226 0.2432900071144104 0.016537999734282494 -0.035686999559402466 -0.2230599969625473 0.9518899917602539 -0.32273000478744507 0.21979999542236328 -0.0675240010023117 -0.37220001220703125 -0.3971799910068512 -0.4386099874973297 0.11967000365257263 -0.2996399998664856 0.028436999768018723 -0.08754400163888931 0.16569000482559204 -0.4945099949836731 -0.6201099753379822 -0.1657399982213974 -0.09721799939870834 -0.0994739979505539 -0.0803069993853569 -0.39337998628616333 -0.24195000529289246 0.32023000717163086 -0.5332000255584717 -0.4018400013446808 -0.6713500022888184 -0.07856100052595139 0.5554599761962891 0.29997000098228455 -0.09965000301599503 -0.6703500151634216 0.12669000029563904 -0.1861799955368042 -0.06262099742889404 0.4528999924659729 0.3926500082015991 0.2412099987268448 -0.4147399961948395 -0.6189000010490417 -0.10412000119686127 -0.31042999029159546 -0.006678800098598003 -0.8324800133705139 0.6514999866485596 0.9018099904060364 0.024145999923348427 -0.07076600193977356 -0.39579999446868896 -0.36487001180648804 -0.2392899990081787 -0.1514499932527542 0.20777000486850739 0.5467100143432617 -0.2504200041294098 -0.601419985294342 -0.5482000112533569 0.007724899798631668 -0.5328800082206726 0.503250002861023 -0.1271200031042099 0.119889996945858 -0.6458399891853333 0.35576000809669495 0.17496000230312347 0.11838000267744064 -0.3218100070953369 0.07481399923563004 -0.09038099646568298 -0.2984299957752228 0.016798000782728195 -0.12735000252723694 0.7356699705123901 -0.1733500063419342 0.37123000621795654 0.3797900080680847 -0.5180100202560425 0.2762100100517273 0.21512000262737274 -0.08258800208568573 0.21638000011444092 0.12594999372959137 0.3843599855899811 -0.13332000374794006 0.05718500167131424 -0.28126999735832214 -0.4431000053882599 0.1349799931049347 0.13305999338626862 -0.0320499986410141 0.19719000160694122 0.2545500099658966 0.6347500085830688 -0.2347400039434433 -0.36037999391555786 0.041147999465465546 -0.24422000348567963 0.8373100161552429 -0.225040003657341 -0.2968299984931946 0.638979971408844 -0.3977400064468384 -0.10322000086307526 -0.17445999383926392 -0.07805900275707245 0.26478999853134155 -0.42250001430511475 -0.10671000182628632 -0.0964680016040802 -0.17026999592781067 0.27496999502182007 -0.1281300038099289 0.24751000106334686 0.25999000668525696 0.18327000737190247 0.1098800003528595 0.000354860007064417 -0.49028998613357544 0.19582000374794006 -0.45225998759269714 -0.013616999611258507 0.10764999687671661 -0.016161000356078148 -0.2724199891090393 0.0778769999742508 -0.11860000342130661 0.09279199689626694 -0.4377399981021881 -0.265390008687973 -0.26589998602867126 0.08058500289916992 0.18625999987125397 0.17362000048160553 -0.20241999626159668 0.3532699942588806 -0.06433500349521637 0.13763999938964844 -0.4441699981689453 0.8752099871635437 -0.23260000348091125 -0.6765699982643127 0.2389100044965744 -0.08017600327730179 0.49526000022888184 -0.28578999638557434 0.2504099905490875 0.15852999687194824 -0.12960000336170197 -0.5152900218963623 -0.3317500054836273 0.41826000809669495 0.3321099877357483 -1.1792999505996704 0.22818000614643097 -0.5775499939918518 0.773140013217926 0.16092999279499054 0.23360000550746918 -0.1876399964094162 -0.24515999853610992 -0.5480300188064575 0.23109999299049377 -0.3297500014305115 -0.126460000872612 0.3798399865627289 0.3600600063800812 0.6038200259208679 -0.1588200032711029 -0.43682000041007996 -0.634440004825592 -0.2883000075817108 -0.1360899955034256 -0.025821000337600708 -0.4076699912548065 0.18636000156402588 -0.4585700035095215 -0.2461100071668625 -0.045889999717473984 0.08761300146579742 -0.15684999525547028 0.30129000544548035 -0.8017600178718567 0.12363000214099884 0.007145800162106752 0.14751000702381134 0.35471001267433167 0.15119999647140503 0.0819379985332489 -0.367110013961792 -0.2720800042152405 -0.35596999526023865 0.1720699965953827 -0.041850000619888306 0.49546998739242554 -0.31630000472068787 0.34915000200271606 -0.03729499876499176 0.2099599987268448 -0.3010300099849701 -0.10875000059604645 0.3035399913787842 0.2815699875354767 -0.0798799991607666 -0.5061100125312805 -0.29416000843048096 -0.3086099922657013 -0.8246200084686279 -0.10018999874591827 0.0904730036854744 -0.18238000571727753 -0.005922299809753895 0.06383299827575684 0.15209999680519104 -0.2538500130176544 -0.6883100271224976 -0.03454900160431862 0.45179998874664307 0.062293000519275665 -0.4634299874305725 0.40400001406669617 0.04510600119829178 0.17374999821186066 -0.027744999155402184 0.36360999941825867 0.07823500037193298 0.19538000226020813 -0.16505999863147736 0.03962700068950653 -0.3011299967765808 0.22257000207901 0.0267730001360178 0.19151000678539276 0.4998700022697449 -0.3549099862575531 -0.01992800086736679 0.907010018825531 -0.8549000024795532 -0.39361000061035156 0.41029998660087585 0.1463100016117096 -0.15663999319076538 0.5397099852561951 0.14869000017642975 -0.05519299954175949 -0.47718000411987305 -0.37498000264167786 -0.5323299765586853 0.12319999933242798 -0.12227000296115875 -0.058157000690698624 0.024244999513030052 0.12577000260353088 -0.18558000028133392 0.07505399733781815 -0.7282199859619141 -0.03587799891829491 0.15988999605178833 -0.25742998719215393 0.21855999529361725 -0.2281000018119812 0.04835600033402443 0.0560230016708374 0.1511099934577942 0.22945000231266022 0.4584600031375885 -0.087056003510952 -0.2966200113296509 0.015053999610245228 0.21101999282836914 -0.037445999681949615 0.7890200018882751 -0.34193000197410583 -0.8242999911308289 -0.7174800038337708 -0.19649000465869904 0.08756999671459198 -0.20552000403404236 0.01460999995470047 -0.3808799982070923 0.6530900001525879 -0.2056100070476532 -0.0284269992262125 0.010576999746263027 0.008840999566018581 0.11992000043392181 0.14610999822616577 0.16033999621868134 0.07243099808692932 -0.4375999867916107 -0.25979000329971313 0.5815799832344055 0.4926699995994568 -0.11275999993085861 -0.2777499854564667
todd 0.04400999844074249 -0.1406800001859665 -0.28995001316070557 0.5848600268363953 0.2310899943113327 0.24009999632835388 -0.19901999831199646 -0.1501300036907196 0.4557099938392639 0.3660399913787842 0.7371299862861633 -0.17720000445842743 -0.3239099979400635 0.4262000024318695 -0.49180999398231506 -0.22010000050067902 -0.39434999227523804 0.396340012550354 -0.5502499938011169 0.028353000059723854 0.08234699815511703 0.07364100217819214 0.3472999930381775 -0.011739999987185001 0.1975799947977066 0.6132299900054932 -0.10736999660730362 0.2671299874782562 -0.09975499659776688 -0.018061000853776932 -0.07369299978017807 0.0973460003733635 0.5975599884986877 -0.03644099831581116 -1.5003000497817993 0.05526300147175789 0.14839999377727509 0.157260000705719 0.1315699964761734 -0.18907999992370605 -0.2420700043439865 0.48486998677253723 0.15966999530792236 -0.04052500054240227 0.3460099995136261 -0.15987999737262726 -0.1448100060224533 -0.5511599779129028 0.039810001850128174 0.033337000757455826 0.4917599856853485 -0.0024405999574810266 0.04622799903154373 -0.058302998542785645 0.10163000226020813 0.4145599901676178 0.06066400185227394 0.0629120022058487 -0.5043299794197083 -0.1696300059556961 -0.17449000477790833 -0.19513000547885895 -0.19833999872207642 -0.09534399956464767 -0.4850099980831146 -0.6292700171470642 0.038603998720645905 -0.97461998462677 -0.09275899827480316 -0.402209997177124 0.02717999927699566 -0.14932000637054443 -0.45107001066207886 0.3017899990081787 -0.5674899816513062 0.02688100002706051 -0.10543999820947647 0.2297399938106537 -0.24905000627040863 0.4978399872779846 -0.012316999956965446 0.050749000161886215 -0.5928900241851807 -0.2321300059556961 -0.09286800026893616 -0.3361299932003021 0.41495001316070557 0.04809499904513359 -0.01412499975413084 -0.7507799863815308 0.08727200329303741 0.28398001194000244 -0.4680100083351135 -0.3045699894428253 -0.45032998919487 -0.3744199872016907 -0.6121799945831299 -0.16328999400138855 0.03995399922132492 0.2518500089645386 -0.6030200123786926 -0.4646399915218353 -0.2342199981212616 0.022924000397324562 -0.14101000130176544 0.41624999046325684 0.625220000743866 0.25992000102996826 -0.1276099979877472 -0.07729499787092209 -0.6497099995613098 0.19774000346660614 -0.1350499987602234 0.3435100018978119 0.20600000023841858 0.34279999136924744 -0.1593099981546402 -0.2014700025320053 0.1926400065422058 -0.13485999405384064 -0.27970001101493835 0.09533900022506714 -0.4211899936199188 -0.39768001437187195 0.01616699993610382 -0.3382200002670288 0.10649999976158142 -0.6211400032043457 0.3082900047302246 0.1498900055885315 0.20645999908447266 0.12600000202655792 -0.3532400131225586 -0.29357001185417175 0.1715400069952011 -0.497979998588562 0.054120998829603195 -0.1489199995994568 0.7494800090789795 -0.18565000593662262 -0.054347001016139984 -0.035190001130104065 0.8063300251960754 -0.14741000533103943 -0.1575700044631958 0.2352299988269806 0.14122000336647034 0.01974100060760975 0.033861998468637466 -0.296779990196228 0.6983699798583984 -0.27970999479293823 0.20397000014781952 -0.9618600010871887 -0.003142500063404441 -0.10543999820947647 -0.02980400063097477 0.23312999308109283 0.04025400057435036 0.24977999925613403 0.5062199831008911 -0.4042699933052063 -0.11862000077962875 -0.35659998655319214 0.011958000250160694 0.2875100076198578 -0.2842999994754791 -0.242139995098114 -0.15904000401496887 -0.048555001616477966 0.3580299913883209 0.23818999528884888 -0.008325999602675438 -0.40639999508857727 -0.263839989900589 0.7545899748802185 0.043163999915122986 -0.5296099781990051 -0.1724099963903427 -0.020521000027656555 0.42438000440597534 0.763670027256012 0.5577600002288818 0.4214800000190735 -0.25398001074790955 -0.19923999905586243 -0.8005899786949158 0.10812000185251236 0.5832099914550781 0.16881999373435974 -0.7229200005531311 0.05081100016832352 0.4489099979400635 0.5566499829292297 0.1951799988746643 0.5504500269889832 -0.3033899962902069 0.19131000339984894 0.16489000618457794 0.0815730020403862 0.8963599801063538 0.0032820000778883696 0.24288000166416168 -0.5432199835777283 0.619629979133606 0.3658300042152405 0.2529999911785126 0.0764470025897026 -0.36722999811172485 -0.4063900113105774 -0.3495100140571594 -0.3802199959754944 0.2280299961566925 0.26855000853538513 0.2150699943304062 -0.10181000083684921 -0.17590999603271484 0.2077299952507019 -0.27292001247406006 -0.8960800170898438 -0.23199999332427979 0.03637000173330307 0.44516000151634216 -0.27542999386787415 0.028669999912381172 0.2953000068664551 0.6814500093460083 0.22975000739097595 0.2890999913215637 -0.23756000399589539 -0.17323000729084015 0.7836300134658813 -0.505620002746582 0.23841999471187592 -0.35938000679016113 0.8327800035476685 -0.1720000058412552 0.6385300159454346 -0.12711000442504883 -0.1709900051355362 -0.43876999616622925 0.1370999962091446 -0.10492999851703644 -0.05319700017571449 0.04644700139760971 0.16746999323368073 -0.052080001682043076 -0.11258000135421753 0.608780026435852 0.18007999658584595 -0.3184100091457367 -0.5249699950218201 -0.3106200098991394 -0.20297999680042267 0.35879001021385193 -0.18708999454975128 0.9975000023841858 -0.06032500043511391 -0.17363999783992767 -0.15571999549865723 -0.3157300055027008 -0.21066999435424805 -0.35835000872612 -0.19417999684810638 0.24323000013828278 -0.18076999485492706 0.33667001128196716 0.4190399944782257 -0.23563000559806824 0.34779998660087585 -0.2959499955177307 -0.6947500109672546 0.20869000256061554 -0.05753500014543533 0.4712600111961365 0.41780000925064087 -0.3049499988555908 -0.12812000513076782 0.28863000869750977 0.15794000029563904 -0.6850799918174744 0.33678001165390015 -0.4443100094795227 -0.10085999965667725 -0.28174999356269836 0.3589400053024292 -0.2490299940109253 0.1065400019288063 0.027445999905467033 -0.40358999371528625 0.0906900018453598 0.3558399975299835 -0.7118099927902222 0.2617399990558624 -0.09607099741697311 -0.020256999880075455 0.722100019454956 0.25494998693466187 0.06079699844121933 0.4554600119590759
colleen 0.0035840000491589308 -0.04093899950385094 -0.5370200276374817 -0.24307000637054443 -0.5954399704933167 0.3278299868106842 0.02463500015437603 -0.5113000273704529 -0.2620700001716614 0.13300999999046326 0.282260000705719 -0.1612599939107895 0.08387500047683716 -0.4883899986743927 -0.14328999817371368 0.022520000115036964 -0.32023999094963074 0.33583998680114746 -0.03480000048875809 0.020579999312758446 0.26177000999450684 -0.32638999819755554 0.08818099647760391 0.447160005569458 0.31832998991012573 -0.07745499908924103 0.4608199894428253 -0.3030099868774414 -0.5932700037956238 -0.6301500201225281 0.5041599869728088 -0.22618000209331512 0.5429400205612183 -0.09253600239753723 -0.3197300136089325 0.02892499975860119 -0.25192001461982727 0.249439999461174 0.35238999128341675 -0.05293700098991394 0.3079800009727478 0.21639999747276306 -0.2866100072860718 0.6362699866294861 0.23627999424934387 -0.2527500092983246 0.6672300100326538 0.4629800021648407 1.020900011062622 -0.14077000319957733 -0.3537200093269348 -0.0675240010023117 -0.21528999507427216 0.3058199882507324 0.7881799936294556 0.3654699921607971 -0.12700000405311584 -0.3623499870300293 0.20212000608444214 -0.709119975566864 0.28565001487731934 -0.15109999477863312 -0.3956499993801117 0.2163500040769577 -0.060756001621484756 0.13672000169754028 -0.6240599751472473 0.4481799900531769 0.28780999779701233 -1.007599949836731 -0.025590000674128532 -0.901449978351593 -0.4258800148963928 -0.4574100077152252 -0.4117400050163269 0.049316998571157455 0.5208899974822998 -0.21588000655174255 -0.14270000159740448 -0.30799001455307007 0.1496499925851822 -0.4229600131511688 0.053008001297712326 -0.015193999744951725 -0.22856000065803528 0.09303099662065506 0.12793999910354614 0.33511000871658325 -0.390859991312027 -0.5731199979782104 -0.4898900091648102 -0.005468700081110001 0.005115400068461895 -0.42131999135017395 0.13037000596523285 0.4323999881744385 0.0038439000491052866 0.3218500018119812 -0.015939999371767044 0.8109800219535828 -0.05525600165128708 -0.5179700255393982 -0.25064998865127563 -0.22272999584674835 -0.17576000094413757 -0.18688000738620758 0.2389100044965744 0.1018500030040741 0.17130999267101288 0.005921599920839071 -0.20149999856948853 0.5609099864959717 -0.2449599951505661 0.45445001125335693 -0.08166000247001648 0.2906000018119812 -0.08977899700403214 0.3143399953842163 -0.010219999589025974 -0.49869999289512634 0.14642000198364258 0.030124999582767487 -0.7352499961853027 -0.43248000741004944 0.4397900104522705 -0.2540999948978424 0.5249599814414978 -1.0476000308990479 0.21289999783039093 0.1281999945640564 0.553059995174408 -0.4663900136947632 -0.14681999385356903 0.08017899841070175 -0.127470001578331 -0.04496699944138527 0.3856300115585327 -0.0972519963979721 0.00881350040435791 -0.4349200129508972 -0.5011900067329407 -0.21985000371932983 0.37448999285697937 0.46792998909950256 -0.31334999203681946 0.02352200075984001 0.08342500030994415 0.3364500105381012 -0.4491499960422516 0.47446998953819275 0.3638100028038025 -0.41527000069618225 0.5590999722480774 -0.0559299997985363 -0.4218200147151947 -0.1421000063419342 -0.23744000494480133 -0.3617599904537201 -0.09998500347137451 0.5089200139045715 0.12070000171661377 -0.8176599740982056 0.6678699851036072 0.007697999943047762 0.0378899984061718 -0.10537000000476837 -0.776390016078949 -0.31084001064300537 -0.15967999398708344 -0.2015099972486496 -0.005416099913418293 0.11992000043392181 -0.2722800076007843 0.27807000279426575 -0.25439000129699707 -0.04025999829173088 -0.28453999757766724 -0.027132999151945114 0.04274800047278404 0.22835999727249146 0.688759982585907 0.3135800063610077 0.3346700072288513 -0.13685999810695648 -0.6292200088500977 0.6554200053215027 -0.41508999466896057 -0.11445999890565872 0.5917699933052063 -0.46772998571395874 -0.6831899881362915 0.5621399879455566 -0.15579000115394592 -0.6572399735450745 -0.5623499751091003 0.0729999989271164 -0.2794100046157837 0.291020005941391 0.1382099986076355 0.0615760013461113 0.18752999603748322 -0.26023000478744507 -0.3975200057029724 -0.0018859000410884619 0.2426300048828125 0.5450599789619446 0.04564499855041504 0.5372200012207031 -0.18565000593662262 0.12081000208854675 0.6185299754142761 -0.16165000200271606 0.519599974155426 0.12032999843358994 0.07469899952411652 -0.04300900176167488 -0.11089999973773956 0.19085000455379486 -0.2545900046825409 -0.23101000487804413 -0.23778000473976135 -0.30702999234199524 0.25756001472473145 0.014686999842524529 -0.5247899889945984 0.5084599852561951 0.3411000072956085 0.018193000927567482 -0.31922999024391174 -0.6664699912071228 0.3879300057888031 0.36236000061035156 -0.026606999337673187 0.6288099884986877 -0.49750998616218567 0.3464300036430359 -0.0998699963092804 0.45743000507354736 0.600820004940033 0.25341999530792236 -0.022585999220609665 -0.5338199734687805 -0.005933600012212992 0.3707900047302246 0.14678999781608582 -0.0010961999651044607 -0.36553001403808594 -0.22824999690055847 0.4848000109195709 0.3017599880695343 0.17534999549388885 0.3981100022792816 -0.611020028591156 0.09800100326538086 0.6290000081062317 -0.5288599729537964 0.32940998673439026 0.0016301999567076564 -0.43841999769210815 -0.09343499690294266 -0.05405599996447563 0.1054299995303154 -0.17279000580310822 -0.19447000324726105 0.22398999333381653 0.4685800075531006 -0.271369993686676 0.16234000027179718 -0.3437100052833557 -0.28466999530792236 -0.14260999858379364 0.3898800015449524 -0.6416500210762024 -0.39976999163627625 -0.2035199999809265 -0.37022000551223755 0.853380024433136 0.39186999201774597 0.11834000051021576 0.14108000695705414 0.15669000148773193 0.8952999711036682 -0.47464001178741455 -0.40345001220703125 -0.2239300012588501 -0.003142300061881542 0.1917099952697754 0.35844001173973083 -0.5502899885177612 -0.2093300074338913 0.4605099856853485 -0.06061000004410744 0.6004300117492676 0.5252599716186523 -0.7608399987220764 -0.6549400091171265 -0.19054999947547913 0.5702700018882751 -0.27160999178886414 0.40661001205444336
knife 0.030812999233603477 0.11738999933004379 0.12256000190973282 -0.26554998755455017 0.5069599747657776 0.3734700083732605 -0.22257000207901 -0.20558999478816986 0.10349000245332718 -0.8253499865531921 -0.3727700114250183 -0.05632299929857254 0.3125 0.5572699904441833 -0.3341200053691864 0.042656999081373215 -0.5379199981689453 0.4139299988746643 -0.20861999690532684 -0.18934999406337738 -0.10508999973535538 0.039027001708745956 0.19407999515533447 0.01701500080525875 0.37349000573158264 -0.23340000212192535 -0.09732100367546082 -0.7677299976348877 -0.14576999843120575 -0.45357999205589294 -0.05191199854016304 0.8790799975395203 0.32161998748779297 -0.17885999381542206 -0.21616999804973602 0.05481300130486488 -0.21583999693393707 0.2147500067949295 -0.6340000033378601 0.20406000316143036 0.7276999950408936 0.14087000489234924 0.2696000039577484 -0.8338000178337097 0.15497000515460968 0.6092299818992615 -0.24412000179290771 -0.2695100009441376 0.2658799886703491 0.5577700138092041 -0.26736998558044434 -0.26820001006126404 0.6201000213623047 0.11427000164985657 -0.4243299961090088 -0.629010021686554 -0.8113999962806702 -0.10407000035047531 0.5546200275421143 0.17541000247001648 0.11727000027894974 0.6423599720001221 -0.2276500016450882 0.7026200294494629 -0.3978999853134155 -0.7211700081825256 -0.6951900124549866 -0.3364199995994568 0.13402999937534332 -0.35604000091552734 0.1060900017619133 0.14013999700546265 -0.3269500136375427 0.3714900016784668 0.19643999636173248 0.07169699668884277 -0.3003999888896942 -0.04162300005555153 -0.6243699789047241 -0.47718000411987305 0.07504899799823761 0.39827999472618103 0.6649100184440613 -0.17440000176429749 0.23631000518798828 -0.30052998661994934 -0.891319990158081 -0.22609999775886536 -0.6556699872016907 0.013395999558269978 0.09440100193023682 0.30452001094818115 0.009967000223696232 -0.3986299932003021 0.04255099967122078 -0.46233999729156494 0.2156900018453598 0.3021000027656555 0.6552600264549255 -0.11043000221252441 -0.32725998759269714 0.4620499908924103 -0.175929993391037 -0.26673001050949097 0.14573000371456146 -0.4440299868583679 0.5926700234413147 0.021059999242424965 -0.09191299974918365 0.5620700120925903 -0.3388499915599823 0.9434499740600586 0.04715399816632271 -0.5935099720954895 -0.019881000742316246 -0.03565799817442894 -0.7500799894332886 0.3149999976158142 -0.12417999655008316 -0.802079975605011 -0.5786799788475037 0.4801099896430969 -0.3921000063419342 -0.6148300170898438 -0.5909900069236755 0.2735300064086914 -0.23810000717639923 -0.41561999917030334 -0.09578400105237961 -0.4732399880886078 -0.23590999841690063 0.5347300171852112 0.7275699973106384 0.1859699934720993 -0.5586599707603455 -0.1750199943780899 0.31470999121665955 0.3326900005340576 0.8009700179100037 0.038481999188661575 0.6307799816131592 0.21127000451087952 -0.23544000089168549 -0.4889500141143799 -0.024085000157356262 0.8489400148391724 0.37996000051498413 -0.009405200369656086 -0.12005999684333801 -0.16207000613212585 -0.08607800304889679 0.9889299869537354 0.4653800129890442 -0.3565399944782257 0.3457399904727936 0.07895100116729736 0.2701599895954132 0.0753839984536171 -0.16345000267028809 0.4801200032234192 0.4002000093460083 -0.06597200036048889 0.3017500042915344 0.04814299941062927 0.28433001041412354 0.02779800072312355 0.4071800112724304 0.11672999709844589 -0.31259000301361084 -0.40382999181747437 -0.3763900101184845 -0.14509999752044678 0.10301999747753143 -0.2232300043106079 -0.7715399861335754 -0.026583999395370483 -0.30855000019073486 -0.20343999564647675 0.7212499976158142 -0.37571001052856445 0.28501999378204346 0.04388900101184845 -0.08225700259208679 0.10288000106811523 0.06017100065946579 -0.43435001373291016 0.4084700047969818 1.1055999994277954 0.22408999502658844 0.4030100107192993 0.06908000260591507 0.43709999322891235 -0.024907000362873077 0.07074800133705139 0.2604199945926666 0.5473899841308594 -0.7299699783325195 -0.42465999722480774 -0.09819900244474411 0.34634000062942505 0.3889099955558777 -0.24070000648498535 0.45778998732566833 0.6728600263595581 -0.28703999519348145 -0.20303000509738922 0.1792300045490265 -0.05056999996304512 -0.581279993057251 0.14159999787807465 0.36956000328063965 -0.29596999287605286 -0.26958000659942627 0.39897000789642334 0.48568999767303467 -0.27663999795913696 0.399370014667511 0.11704999953508377 -0.7202000021934509 0.031369999051094055 -0.7922999858856201 0.31773999333381653 0.33348000049591064 0.06300199776887894 -0.9889000058174133 -0.5260099768638611 -0.5505599975585938 -0.5978999733924866 0.059393998235464096 -0.5446299910545349 0.7208799719810486 -0.14922000467777252 -0.5834599733352661 -0.547980010509491 0.5172799825668335 0.49994000792503357 -0.5111200213432312 0.33037999272346497 -0.17681999504566193 0.0316540002822876 0.8673700094223022 -0.11810000240802765 -0.12665000557899475 -0.45333001017570496 -0.2688100039958954 -0.13364000618457794 0.505810022354126 -0.1090100035071373 -0.05684899911284447 -0.4364300072193146 0.0201990008354187 0.004362999927252531 0.45010998845100403 -0.14545999467372894 0.45311999320983887 0.4213300049304962 0.12240999937057495 0.12801000475883484 -0.03070100024342537 0.015270000323653221 0.3750300109386444 -0.4503900110721588 0.1287499964237213 0.37481001019477844 0.006719899829477072 0.6723600029945374 -0.4807400107383728 0.7951899766921997 -0.9288899898529053 0.5197299718856812 -0.02338399924337864 0.004427900072187185 0.19860999286174774 0.4424099922180176 0.3998900055885315 -0.3787499964237213 -1.426300048828125 0.01693199947476387 -1.0957000255584717 0.1262499988079071 0.12782999873161316 0.5864599943161011 -0.035920001566410065 0.04347199946641922 -0.08051799982786179 0.2965799868106842 -0.036584001034498215 -0.19008000195026398 -0.008589199744164944 0.27129000425338745 0.5537099838256836 -0.47505998611450195 0.05384000018239021 0.34703999757766724 -0.010308999568223953 0.3165299892425537 -0.10096000134944916 0.5074399709701538 0.046778999269008636 0.4003700017929077
wasp -0.4232400059700012 0.7003300189971924 0.062105998396873474 -0.04654400050640106 -0.2533699870109558 0.4006600081920624 -0.16885000467300415 0.3883799910545349 -0.3355199992656708 0.012517999857664108 0.7095000147819519 -0.34793001413345337 -0.07029099762439728 -0.5904600024223328 0.3291400074958801 0.06505800038576126 0.11489000171422958 -0.5726000070571899 -0.4206700026988983 0.25422999262809753 -0.034669000655412674 -0.10435999929904938 0.4408999979496002 0.0292930006980896 0.27845999598503113 -0.1685200035572052 0.08932200074195862 -0.21044999361038208 -0.08011099696159363 0.10958000272512436 -0.24821999669075012 0.048420000821352005 0.04436999931931496 0.20068000257015228 0.5123999714851379 0.5766199827194214 0.017243999987840652 0.022670000791549683 0.5734300017356873 0.5869200229644775 -0.5817999839782715 0.07260599732398987 0.9538000226020813 -0.42528998851776123 0.0034300999250262976 0.07029999792575836 0.8212500214576721 -0.22509999573230743 0.3810200095176697 0.17510999739170074 -0.22780999541282654 -0.36601001024246216 0.29927000403404236 -0.09348800033330917 -0.8825700283050537 -0.6376399993896484 0.4651600122451782 -0.6635100245475769 -0.0035782000049948692 -0.17831000685691833 0.20469999313354492 -0.21295000612735748 0.15491999685764313 0.17824000120162964 -0.20440000295639038 0.16469000279903412 0.14124000072479248 0.737559974193573 0.18708999454975128 -0.05060499906539917 -0.12770000100135803 0.4199399948120117 -0.11954999715089798 0.49814000725746155 -0.5999100208282471 0.8914099931716919 -0.44940000772476196 0.36741000413894653 -0.29596999287605286 0.6930500268936157 -0.8527699708938599 -0.15434999763965607 -0.4379799962043762 -0.5117400288581848 0.27542999386787415 0.289139986038208 0.10738000273704529 -0.1694200038909912 -0.38312000036239624 -0.25450000166893005 -0.2679400146007538 -0.0025037999730557203 0.133650004863739 0.04324699938297272 0.4570299983024597 -0.7418699860572815 0.2321999967098236 0.21403999626636505 0.10365000367164612 0.25679001212120056 0.5600500106811523 0.16077999770641327 0.3180699944496155 0.17208999395370483 0.34689998626708984 -0.2865000069141388 0.11044999957084656 -0.4970700144767761 0.36945998668670654 0.4919700026512146 -0.1489800065755844 0.6926299929618835 -0.13370999693870544 -0.5294899940490723 0.13315999507904053 0.0819920003414154 -0.31369999051094055 0.36952000856399536 -0.47468000650405884 -0.053748998790979385 -0.10021000355482101 -0.39899998903274536 -0.015317999757826328 0.0016443999484181404 -0.34977999329566956 0.7031599879264832 -0.537310004234314 0.1663299947977066 0.7482600212097168 0.24482999742031097 0.2638300061225891 -0.2027300000190735 0.0376800000667572 0.2800300121307373 -0.09407000243663788 0.34681999683380127 -0.15543000400066376 -0.0810609981417656 -0.7721499800682068 -0.3789600133895874 0.2730799913406372 0.506380021572113 -0.4335399866104126 -0.21317000687122345 0.04458500072360039 -0.44589000940322876 0.20764000713825226 -0.17192000150680542 -0.046025000512599945 0.9988399744033813 -0.09430299699306488 0.21373000741004944 0.052303001284599304 0.31446000933647156 0.39546999335289 -0.5307499766349792 0.4518299996852875 0.049187999218702316 0.3790000081062317 -0.23535999655723572 -0.3061099946498871 0.3428399860858917 0.219650000333786 0.2614299952983856 -0.607479989528656 0.08811800181865692 -0.5360900163650513 0.5423099994659424 0.1836100071668625 0.071151003241539 0.22666999697685242 0.09807299822568893 0.17976999282836914 0.16489000618457794 0.12335000187158585 0.2329300045967102 0.2131499946117401 0.5305699706077576 0.16401000320911407 0.05731600150465965 0.2776699960231781 -0.017163999378681183 0.38938000798225403 0.2788200080394745 0.11197999864816666 -0.3313100039958954 0.08836399763822556 0.7646899819374084 0.7139700055122375 -0.4460499882698059 0.021585000678896904 0.5669599771499634 -0.42917001247406006 -0.4650999903678894 0.2761799991130829 0.6481900215148926 -0.1723800003528595 -0.8629900217056274 -0.1510699987411499 -0.4415999948978424 0.2636699974536896 0.1278499960899353 0.02240999974310398 0.048319000750780106 0.051472000777721405 -0.19842000305652618 -0.30963999032974243 0.061911001801490784 0.5324299931526184 0.39702001214027405 0.028742000460624695 -0.13389000296592712 0.483379989862442 0.11102999746799469 0.14339999854564667 0.00810800027102232 -0.014577999711036682 0.1827699989080429 -0.4673300087451935 -0.3489300012588501 -0.5469599962234497 0.2982200086116791 0.3371799886226654 0.30904000997543335 -0.7857199907302856 0.5743200182914734 0.1376899927854538 -0.022969000041484833 -0.12991000711917877 -0.5992100238800049 -0.007522800005972385 0.03335300087928772 -0.007762399967759848 0.22227999567985535 0.22497999668121338 0.21469999849796295 0.2994000017642975 0.1032399982213974 0.10270000249147415 -0.55485999584198 0.7314299941062927 -0.919439971446991 -0.4997499883174896 0.25082001090049744 -0.5966799855232239 -0.1471800059080124 0.006529400125145912 0.4371899962425232 0.1301400065422058 -0.26107001304626465 -0.45048001408576965 0.9256799817085266 0.3275899887084961 0.04476499930024147 0.2982499897480011 -0.2617200016975403 -0.2524600028991699 -0.009211299940943718 0.7624199986457825 -0.8135200142860413 -0.03520499914884567 0.06465800106525421 0.2757300138473511 -0.06524000316858292 -0.1831900030374527 0.7372099757194519 0.0942860022187233 -0.6752700209617615 -0.07588200271129608 0.9073799848556519 -0.46219000220298767 0.07985500246286392 0.05434099957346916 0.14666999876499176 -0.32332998514175415 0.12738999724388123 0.8328800201416016 -0.014898999594151974 -0.16527999937534332 -0.3906500041484833 -0.31046000123023987 0.37439000606536865 0.11477000266313553 0.23533999919891357 -0.3996500074863434 0.19675999879837036 0.15859000384807587 0.5915600061416626 0.3145900070667267 -0.5581600069999695 -0.21988999843597412 -0.2643600106239319 -0.10102000087499619 0.5192000269889832 -0.08579900115728378 0.1777999997138977 0.17586000263690948 0.3044799864292145 -0.6170099973678589 -0.1276399940252304
gift -0.17824000120162964 -0.25863000750541687 -0.23131999373435974 0.11626999825239182 -0.057298000901937485 0.7194399833679199 0.4525600075721741 -0.23930999636650085 -0.23531000316143036 -0.9102399945259094 0.009137500077486038 -0.050025999546051025 -0.13467000424861908 0.23590999841690063 -0.19027000665664673 0.044833000749349594 0.309579998254776 -0.2882699966430664 -0.2450300008058548 0.4648500084877014 0.6457399725914001 0.14598000049591064 -0.4334700107574463 0.42280998826026917 0.06530000269412994 0.2734600007534027 -0.7666599750518799 0.08005700260400772 0.415010005235672 -0.5971300005912781 0.008535400032997131 0.1951799988746643 -0.5754200220108032 0.38565999269485474 -1.2896000146865845 0.25143998861312866 0.2922999858856201 0.08572100102901459 -0.3541400134563446 -0.6366099715232849 -0.295989990234375 -0.4729500114917755 0.15059000253677368 0.7306200265884399 -0.13779999315738678 -0.2515000104904175 0.8511599898338318 0.08773700147867203 0.17613999545574188 0.213919997215271 0.3082599937915802 -0.02569199912250042 0.21095000207424164 0.421889990568161 -0.5982699990272522 -0.3523600101470947 -0.4533900022506714 0.24908000230789185 0.09568999707698822 0.0846640020608902 0.31810998916625977 0.34637999534606934 0.4664500057697296 -0.13065999746322632 0.632889986038208 -0.11866000294685364 -0.46873000264167786 -0.31543999910354614 -0.09365099668502808 0.3624500036239624 -0.2512199878692627 -0.1565299928188324 0.38833001255989075 0.25095000863075256 0.37540000677108765 -0.09378200024366379 0.014535999856889248 -0.10333000123500824 0.11992000043392181 -0.21321000158786774 0.1260800063610077 0.6098899841308594 0.06643299758434296 -0.11229000240564346 0.19000999629497528 -0.2505500018596649 -0.28584998846054077 -0.2316499948501587 -0.35280999541282654 -0.021121999248862267 -0.4011799991130829 -0.5272899866104126 -0.4201200008392334 -0.35420000553131104 0.635670006275177 0.1567399948835373 0.1808300018310547 0.38927000761032104 0.0694969967007637 -0.017388999462127686 0.3115600049495697 0.09435699880123138 -0.1257600039243698 0.20818999409675598 -0.0383090004324913 -0.5495700240135193 0.03329699859023094 0.24629999697208405 -0.37755000591278076 -0.3160000145435333 -0.00028961998759768903 0.9300000071525574 0.06634599715471268 0.10434000194072723 0.3724200129508972 -0.00654610013589263 0.3098900020122528 0.495059996843338 0.6841800212860107 -0.4832899868488312 0.3159700036048889 0.4165000021457672 -0.0792979970574379 0.2586599886417389 0.16306999325752258 -0.22503000497817993 0.08629699796438217 -0.15671999752521515 0.021712999790906906 0.08589699864387512 0.36796000599861145 -0.23035000264644623 -0.01500600017607212 0.015428000129759312 -0.5024200081825256 0.13007000088691711 0.12212999910116196 0.4175899922847748 -0.4294799864292145 0.031925998628139496 -0.4819299876689911 0.11249999701976776 -0.3794200122356415 -0.2236199975013733 0.30562999844551086 -0.3537200093269348 -0.6144999861717224 -0.3933199942111969 -0.18289999663829803 -0.2913700044155121 -0.37547001242637634 -0.22096000611782074 -0.16438999772071838 -0.3370699882507324 -0.07470099627971649 0.24747000634670258 -0.14336000382900238 -0.3142400085926056 -0.6666200160980225 -0.1130400002002716 0.7172300219535828 0.4692699909210205 0.6980500221252441 0.12947000563144684 0.08406999707221985 0.0923129990696907 0.44835999608039856 0.17840999364852905 0.1946299970149994 0.10313999652862549 -0.18366999924182892 -0.3933199942111969 -0.5952200293540955 0.06373900175094604 0.027881000190973282 0.20162999629974365 -0.1791599988937378 0.02819100022315979 -0.12547999620437622 0.11475999653339386 0.2696099877357483 -0.27889999747276306 0.11527000367641449 0.021184999495744705 0.16222000122070312 0.210099995136261 0.027171000838279724 0.4249500036239624 -0.14928999543190002 0.05916000157594681 -0.23409000039100647 -0.11665000021457672 -0.16516999900341034 -0.17885999381542206 -0.45851999521255493 -0.21580000221729279 -0.6828299760818481 0.18254999816417694 -0.23756000399589539 0.5811899900436401 0.5682899951934814 -0.425680011510849 0.28459998965263367 -0.14313000440597534 -0.02546600066125393 -0.4791100025177002 -0.13255999982357025 0.6810899972915649 -0.07362200319766998 -0.4158399999141693 -0.21164999902248383 0.011803999543190002 0.22599999606609344 -0.17106999456882477 -0.15761999785900116 0.000941760023124516 0.05809900164604187 -0.22717000544071198 -0.08840800076723099 0.7007499933242798 0.24491000175476074 -0.012562000192701817 -0.39546000957489014 0.4114699959754944 -0.16673000156879425 -0.10972999781370163 0.13617999851703644 0.2899700105190277 0.8393200039863586 0.6528300046920776 -0.3524399995803833 -0.28654998540878296 -0.10446999967098236 0.18348999321460724 0.2729499936103821 0.7316700220108032 -0.134210005402565 -0.43546000123023987 -0.10913000255823135 0.15816999971866608 -0.1477700024843216 -0.024222999811172485 0.09811300039291382 0.004664499778300524 -0.7247899770736694 0.010240999981760979 -0.5366100072860718 0.04599199816584587 0.32975998520851135 -0.28068000078201294 0.3585500121116638 -0.4056699872016907 0.11750999838113785 -0.3360700011253357 0.3605700135231018 0.5170000195503235 -0.5177099704742432 -0.4298200011253357 0.5178899765014648 -0.46733999252319336 -0.20227999985218048 -0.34981998801231384 -0.049035001546144485 -0.13989999890327454 -0.12684999406337738 -0.11779999732971191 0.16344000399112701 0.05350499972701073 0.32923001050949097 0.03305799886584282 0.31182000041007996 -0.2732999920845032 0.41545000672340393 -0.5245199799537659 -0.12391000241041183 -0.7108700275421143 -1.586400032043457 -0.014589999802410603 -0.22464999556541443 -0.2640700042247772 0.0658160001039505 -0.008895699866116047 -0.11223000288009644 -0.2534399926662445 -0.5530999898910522 0.643530011177063 -0.1116499975323677 -0.3578900098800659 0.3520599901676178 -0.17344999313354492 -0.2767699956893921 0.06982699781656265 -0.15335999429225922 0.49542999267578125 -0.24931000173091888 -0.6899999976158142 0.15460999310016632 -0.15758000314235687 0.20882000029087067 -0.3041900098323822
wendy -0.2730099856853485 0.27132999897003174 0.164110004901886 0.16943000257015228 -0.08427199721336365 0.5010700225830078 -0.3009600043296814 -0.0809520035982132 0.5363399982452393 0.14239999651908875 0.3472999930381775 -0.7958999872207642 -0.21458999812602997 0.5636600255966187 -0.0496940016746521 -0.12176000326871872 0.2539699971675873 0.5259100198745728 -0.7044299840927124 0.20805999636650085 -0.3003700077533722 -0.03480200096964836 -0.192780002951622 -0.6049500107765198 0.07381600141525269 0.44176000356674194 -0.026474999263882637 0.14646999537944794 -0.07329999655485153 -0.5385100245475769 -0.6349200010299683 0.20100000500679016 0.10700000077486038 0.23386000096797943 -0.7443699836730957 0.12839999794960022 0.23804999887943268 0.16907000541687012 -0.031950000673532486 -0.0860700011253357 -0.016377000138163567 -0.10296999663114548 0.12561999261379242 -0.011145000346004963 -0.24658000469207764 0.02321299910545349 -0.032009001821279526 0.12268999963998795 -0.29805999994277954 -0.626230001449585 -0.09820199757814407 -0.2964800000190735 0.05270500108599663 0.585070013999939 -0.07664699852466583 -0.17011000216007233 -0.34762001037597656 0.36608999967575073 -0.2600499987602234 -0.5695199966430664 0.1463800072669983 -0.11660999804735184 0.4620000123977661 0.1520400047302246 -0.05935800075531006 -0.18591000139713287 -0.12857000529766083 -0.23680999875068665 0.5030099749565125 -0.34466999769210815 0.3777100145816803 -0.6340299844741821 0.39886000752449036 -0.41582998633384705 0.03693399950861931 -0.5743799805641174 0.24958999454975128 -0.32444998621940613 0.3181299865245819 -0.23449000716209412 -0.29214999079704285 -0.10085999965667725 0.11004000157117844 0.0335410013794899 0.041972000151872635 -0.6376100182533264 0.1624699980020523 0.37167999148368835 0.249099999666214 -0.6252700090408325 -0.3267900049686432 0.6005600094795227 -0.38881999254226685 -0.03006099909543991 -0.19360999763011932 -0.017278999090194702 -0.41363000869750977 0.3188999891281128 0.2019300013780594 -0.2523399889469147 -0.011660000309348106 -0.23138000071048737 -0.2632099986076355 -0.1415099948644638 -0.21442000567913055 -0.22563999891281128 0.35328999161720276 0.098021000623703 0.13168999552726746 0.0728679969906807 0.3039500117301941 0.37617000937461853 0.3628599941730499 0.3353999853134155 0.11049000173807144 -0.3642300069332123 -0.19067999720573425 -0.4908500015735626 -0.18317000567913055 -0.052765000611543655 -0.5536999702453613 -0.07443899661302567 -0.11202999949455261 -0.5317299962043762 -0.17887000739574432 -0.4308899939060211 0.07458999752998352 -0.27360999584198 -0.9062600135803223 0.15717999637126923 -0.06825300306081772 -0.16011999547481537 -0.6364099979400635 -0.6574500203132629 -0.24390999972820282 0.23270000517368317 -0.2306700050830841 0.4460900127887726 0.1804399937391281 0.1549299955368042 0.026019999757409096 0.15081000328063965 0.43132999539375305 -0.3066500127315521 -0.11744999885559082 0.2772200107574463 0.2282000035047531 0.5573700070381165 0.12492000311613083 -0.27939000725746155 0.22769999504089355 0.2554999887943268 0.24528999626636505 0.008444099687039852 0.0625389963388443 0.06331799924373627 -0.5404599905014038 -0.41760000586509705 0.010638999752700329 0.3021099865436554 0.5009400248527527 0.2789599895477295 0.4311000108718872 0.010796000249683857 -0.4317300021648407 0.43952998518943787 -0.3003399968147278 -0.26451998949050903 0.18995000422000885 0.15547999739646912 -0.7308099865913391 -0.46487998962402344 -0.16832000017166138 0.5264599919319153 -0.3089599907398224 0.45552998781204224 -0.047217000275850296 0.1078300029039383 0.38760000467300415 -0.03825100138783455 -0.514240026473999 -0.09066300094127655 -0.0729919970035553 -0.3989500105381012 0.33873000741004944 0.6062399744987488 -0.4279800057411194 -0.01657800003886223 0.17584000527858734 -0.17663000524044037 -0.0030573001131415367 0.02568800002336502 -0.4213399887084961 -0.09409599751234055 -0.33395999670028687 0.3671000003814697 0.6984300017356873 -0.1630599945783615 0.2192399948835373 -0.12167000025510788 0.48205000162124634 -0.23850999772548676 0.5284799933433533 0.13635000586509705 0.10382000356912613 0.1933099925518036 0.14435000717639923 -0.39087000489234924 0.4944800138473511 -0.2236499935388565 -0.16322000324726105 -0.08872699737548828 0.19428999722003937 0.0003682200040202588 -0.2544200122356415 0.1092899963259697 -0.2754899859428406 -0.26583999395370483 -0.3483799993991852 0.04193900153040886 -0.17834000289440155 -0.2609800100326538 -0.18393999338150024 0.3354800045490265 -0.30647000670433044 0.15103000402450562 -0.01362099964171648 -0.008985600434243679 -0.8761900067329407 -0.2985900044441223 0.43369999527931213 -0.06239200010895729 -0.5855600237846375 -0.17021000385284424 -0.7395200133323669 0.3607099950313568 0.7301999926567078 0.9258099794387817 -0.13931000232696533 -0.23858000338077545 -0.5692300200462341 -0.09513299912214279 -0.19803999364376068 0.2543799877166748 -0.2407499998807907 0.22604000568389893 -0.6474699974060059 -0.5896900296211243 0.6634600162506104 -0.09313999861478806 0.22086000442504883 -0.4315800070762634 -0.5573700070381165 -0.00474689994007349 -0.03709699958562851 -0.11163000017404556 0.13179999589920044 0.2557600140571594 0.46285000443458557 -0.02884499914944172 -0.06349500268697739 -0.39195001125335693 -0.05621299892663956 -0.20529000461101532 -0.004746200051158667 -0.17278000712394714 0.33531999588012695 0.2535899877548218 -0.04983900114893913 -0.07361599802970886 -0.33539000153541565 0.030539000406861305 0.1077599972486496 -0.05090999975800514 0.3812899887561798 -0.32969000935554504 0.15033000707626343 0.01269300002604723 -0.4730699956417084 0.3815000057220459 0.2622300088405609 0.7217100262641907 -0.29262998700141907 0.087848000228405 -0.8487399816513062 -0.11100000143051147 0.36761999130249023 -0.210999995470047 -0.12312000244855881 -0.28481999039649963 0.8612599968910217 -0.14788000285625458 0.2482600063085556 -0.10412999987602234 -0.05219699814915657 -0.14284999668598175 0.4256399869918823 0.13097000122070312 0.14591999351978302 0.1582999974489212
crocus -0.45243000984191895 -0.1955299973487854 -0.14005999267101288 -0.23789000511169434 0.5886600017547607 -0.08305899798870087 0.45045000314712524 0.4058600068092346 -0.5145599842071533 0.14945000410079956 0.3774299919605255 0.10847000032663345 0.047015998512506485 -0.13314999639987946 -0.04195399954915047 0.1236800029873848 -0.5999699831008911 -0.2657099962234497 0.0926939994096756 0.44835999608039856 -0.30212000012397766 -0.2373100072145462 -0.45934000611305237 0.2584500014781952 0.583329975605011 -0.25661998987197876 0.12639999389648438 -0.446370005607605 0.19607999920845032 0.9711499810218811 0.2372100055217743 -0.5874500274658203 -0.13439999520778656 -0.1072700023651123 -0.22115999460220337 0.045396000146865845 0.15268999338150024 0.19450999796390533 -0.8039600253105164 0.07007300108671188 0.0789399966597557 -0.095660001039505 0.44701001048088074 0.44383999705314636 0.3537999987602234 -0.4750500023365021 -0.0561939999461174 0.04398300126194954 -0.6387100219726562 0.6390799880027771 0.4722999930381775 0.21438999474048615 -0.43779999017715454 -1.3214000463485718 -0.6975399851799011 -0.5793799757957458 0.26076000928878784 -0.6093500256538391 0.6876099705696106 0.5449399948120117 0.3001300096511841 -0.5403299927711487 -0.1720699965953827 -0.027497999370098114 0.019334999844431877 0.9542800188064575 0.5434399843215942 -0.14238999783992767 -0.1761299967765808 -0.9459400177001953 0.17642000317573547 0.3420099914073944 -0.1988999992609024 -1.0224000215530396 -0.24206000566482544 0.8746799826622009 -0.5415099859237671 -0.042527999728918076 0.5980100035667419 -0.11614999920129776 -0.19912000000476837 0.882420003414154 0.08553300052881241 0.03831600025296211 0.6007099747657776 0.11386000365018845 0.3310199975967407 0.009683700278401375 0.49417999386787415 -0.23317000269889832 -0.2491600066423416 -0.05223599821329117 0.11522000283002853 -0.03723699972033501 -0.09170299768447876 0.7058799862861633 0.18242999911308289 -0.23894000053405762 0.11286000162363052 0.6204900145530701 0.3601900041103363 0.24097000062465668 -0.12389999628067017 0.4411099851131439 -0.20237000286579132 0.1399500072002411 -0.21326999366283417 -0.5149400234222412 -0.28874000906944275 0.1660899966955185 0.11945000290870667 -0.04275500029325485 -0.1673399955034256 0.3410699963569641 -0.383899986743927 -0.22759999334812164 -0.027211999520659447 0.5177500247955322 0.17253999412059784 0.031543001532554626 0.16067999601364136 -0.05355900153517723 -0.05812700092792511 -0.38433998823165894 0.7672899961471558 0.2996799945831299 0.004693899769335985 0.3657900094985962 -0.7955600023269653 -0.26826000213623047 0.4173699915409088 0.18669000267982483 -0.050112999975681305 0.3215399980545044 0.3152399957180023 -0.25071001052856445 0.4808799922466278 -0.7052500247955322 0.05217599868774414 -0.18400000035762787 0.27706998586654663 0.38464000821113586 0.31937000155448914 -0.39454999566078186 1.0414999723434448 -0.15037000179290771 -0.3233700096607208 -0.3177799880504608 0.21607999503612518 0.35346999764442444 -0.499210000038147 0.06431499868631363 -0.11333999782800674 0.1264999955892563 -0.07059700042009354 0.2963399887084961 0.09593500196933746 -0.6290599703788757 -0.45517998933792114 -0.22945000231266022 -0.4018400013446808 0.40174999833106995 -0.3434300124645233 -0.1165900006890297 0.26883000135421753 -0.043428000062704086 0.12660999596118927 0.2630400061607361 0.3226200044155121 -0.3837699890136719 -0.8323299884796143 0.012152000330388546 0.658240020275116 -0.6585999727249146 0.03945799916982651 -0.37505999207496643 0.16370999813079834 -0.4392000138759613 -0.7786300182342529 0.020841000601649284 -0.4607299864292145 -0.5194399952888489 -0.44874000549316406 1.1208000183105469 0.0707240030169487 0.6455000042915344 0.5331400036811829 -0.7034100294113159 0.1829500049352646 0.05857099965214729 -0.06527499854564667 -0.4566200077533722 -0.14322000741958618 -0.26934000849723816 -0.5211899876594543 0.5987799763679504 0.16171999275684357 -0.6536700129508972 -0.03321300074458122 0.2399899959564209 -0.9322599768638611 0.15839000046253204 -0.16050000488758087 0.4546099901199341 -0.5927600264549255 -0.7436000108718872 0.5340999960899353 0.2541300058364868 0.19949999451637268 -0.2671799957752228 0.5253099799156189 -1.0679999589920044 -0.32580000162124634 -0.3994799852371216 -0.3858799934387207 0.5734800100326538 0.4054499864578247 -0.32965001463890076 -0.1436299979686737 -0.030817000195384026 0.1954900026321411 0.4158799946308136 -0.35874998569488525 -0.11867000162601471 0.22109000384807587 0.10852000117301941 -0.26298999786376953 -0.10255999863147736 0.36076000332832336 0.456820011138916 -0.1574999988079071 -0.5278000235557556 0.22875000536441803 0.5034999847412109 -0.6488100290298462 0.09047000110149384 0.6870700120925903 -0.11738000065088272 0.2648800015449524 -0.8727399706840515 -0.14930999279022217 -1.1813000440597534 -0.6800000071525574 0.3658500015735626 -0.22658999264240265 -0.3965199887752533 0.21515999734401703 0.8723400235176086 0.3324199914932251 -0.5872300267219543 0.3719399869441986 0.4810299873352051 -0.6325700283050537 -0.19315999746322632 -0.14246000349521637 0.13037000596523285 0.2917200028896332 -0.15185000002384186 0.04377099871635437 -0.8189899921417236 0.24639999866485596 0.39465001225471497 0.4505299925804138 0.22131000459194183 -0.16384999454021454 -0.2043599933385849 -0.597029983997345 -0.35387998819351196 0.44541001319885254 0.7017499804496765 -0.2983500063419342 -0.5640199780464172 -0.37599998712539673 -0.0770689994096756 -0.07581000030040741 0.10640999674797058 0.48618000745773315 -0.34022998809814453 -0.4314199984073639 0.4014100134372711 -0.8356900215148926 0.1101899966597557 -0.11919999867677689 -0.16384999454021454 0.032846998423337936 -0.35683000087738037 -0.2800000011920929 0.18648000061511993 0.16495999693870544 -0.42513999342918396 0.6181600093841553 -0.23095999658107758 0.1430799961090088 0.12137000262737274 -0.4215700030326843 -0.5107300281524658 0.5051000118255615 0.7030799984931946 0.5391899943351746 -0.13073000311851501
