weevil 0.2429800033569336 0.8889200091362 0.2372799962759018 -0.7675600051879883 -0.1062299981713295 0.4759399890899658 0.8647500276565552 -0.8373299837112427 0.15705999732017517 -0.3438799977302551 -0.27799999713897705 0.127470001578331 -0.5747399926185608 0.010327000170946121 0.27869001030921936 0.5644999742507935 0.5438699722290039 -0.20622000098228455 0.4593299925327301 0.0346359983086586 -0.7197499871253967 0.14291000366210938 -0.42487001419067383 0.6781100034713745 0.5031800270080566 1.180400013923645 0.7283999919891357 -0.10478000342845917 -0.4003100097179413 -0.02436799928545952 -0.6886299848556519 -0.45052000880241394 1.2489999532699585 0.3511500060558319 0.6211699843406677 0.40428000688552856 -0.1467200070619583 0.1919499933719635 0.6494600176811218 0.594539999961853 -0.9458600282669067 0.175369992852211 -0.06422600150108337 0.3445500135421753 0.40415000915527344 -0.2815999984741211 0.9348899722099304 0.24185000360012054 0.3224000036716461 0.3918299973011017 -0.4062100052833557 -0.16283999383449554 0.4441800117492676 0.21818000078201294 -0.24571000039577484 0.9960100054740906 -0.29218000173568726 0.0013345000334084034 -0.07266800105571747 -0.511430025100708 0.6503300070762634 -0.09967599809169769 0.24285000562667847 -0.5047699809074402 0.7956500053405762 -0.13474999368190765 -0.7735900282859802 0.022696999832987785 -0.2629599869251251 0.12775999307632446 0.2483000010251999 -0.43151000142097473 0.2799000144004822 -0.3690299987792969 0.11813999712467194 -0.42225000262260437 -0.547819972038269 -0.2054399996995926 -0.2839300036430359 1.3330999612808228 -0.7212399840354919 -0.29311999678611755 -0.44418999552726746 -0.05298899859189987 0.015461999922990799 -0.22849999368190765 -0.18077999353408813 -0.2199299931526184 -0.8838899731636047 0.5947999954223633 -0.015929000452160835 -0.09794600307941437 -0.027682000771164894 0.24220000207424164 0.1146399974822998 -1.2757999897003174 -0.3310700058937073 -0.03128499910235405 0.4305500090122223 0.1308099925518036
lamont 0.11427000164985657 0.050776999443769455 -0.3015199899673462 -1.5814000368118286 0.37845999002456665 0.14725999534130096 0.7864400148391724 -0.43540000915527344 0.1622299998998642 0.4440299868583679 -0.7094799876213074 0.26315000653266907 -0.5580099821090698 0.4790799915790558 0.10079000145196915 -0.9062700271606445 -0.1602099984884262 -0.5072000026702881 0.20207999646663666 0.6200900077819824 0.04019499942660332 -0.08341600000858307 -0.026366999372839928 -0.22341999411582947 0.17407000064849854 -0.0092484001070261 0.8290299773216248 0.16221000254154205 0.15197999775409698 -0.2891499996185303 -0.3087199926376343 0.2785699963569641 0.7598999738693237 0.5994399785995483 0.19728000462055206 -0.2220900058746338 -0.18367999792099 0.4881500005722046 -0.11420000344514847 0.5500900149345398 -0.7191900014877319 -0.5694100260734558 -0.07877899706363678 0.5152900218963623 -1.2937999963760376 0.13765999674797058 0.2215300053358078 -0.18889999389648438 0.24145999550819397 0.09852500259876251 0.23262999951839447 -0.10918000340461731 0.09422899782657623 -0.266539990901947 0.01460999995470047 -1.1123000383377075 0.14196999371051788 -0.20701000094413757 -0.9088299870491028 0.18299999833106995 0.7202500104904175 -0.3142800033092499 0.48827001452445984 0.6108300089836121 0.6930599808692932 0.9083499908447266 0.15682999789714813 0.8945099711418152 -0.03640099987387657 0.5553399920463562 -0.6306899785995483 0.1849599927663803 0.16739000380039215 -0.7360699772834778 -0.808139979839325 -1.0475000143051147 -0.03756700083613396 0.1238899976015091 -0.4953700006008148 0.33869999647140503 0.025989999994635582 -0.043699000030756 -0.21101999282836914 0.1097399964928627 0.5422199964523315 0.050175998359918594 0.3074600100517273 0.04498700052499771 -0.5006300210952759 -0.2870599925518036 -0.43174999952316284 0.30612000823020935 0.09867899864912033 0.6805499792098999 -0.34310001134872437 -0.10380999743938446 0.41863998770713806 0.3592100143432617 -0.41808998584747314 -0.25551000237464905
hakim 0.05729600042104721 0.041774000972509384 -0.17938999831676483 -1.6164000034332275 0.3784399926662445 -0.10685999691486359 0.35475000739097595 -0.724810004234314 0.4405600130558014 0.9754499793052673 0.2180200070142746 -0.7091500163078308 0.6464300155639648 -0.09117799997329712 0.1888200044631958 -0.574940025806427 -0.45952001214027405 -0.07659099996089935 -0.4574199914932251 -0.43834999203681946 0.5342900156974792 -0.1387999951839447 0.2106200009584427 -0.3162899911403656 -0.22413000464439392 0.15772999823093414 0.28112998604774475 -0.1725499927997589 0.5490999817848206 0.9532399773597717 0.18599000573158264 -1.0586999654769897 -0.018393000587821007 0.6646299958229065 -0.5813900232315063 0.13827000558376312 0.45576998591423035 0.8283100128173828 -0.3912599980831146 0.5581200122833252 -0.6238800287246704 0.32295000553131104 1.3818999528884888 -0.9151700139045715 -0.49257001280784607 -0.32936999201774597 -0.8654299974441528 0.07056699693202972 -0.0640449970960617 -0.5525199770927429 -0.06974799931049347 0.11221999675035477 0.6093000173568726 0.6072400212287903 -0.25793999433517456 -0.10451000183820724 -0.5593000054359436 0.5932899713516235 -0.7224599719047546 -0.1930599957704544 -0.28801000118255615 -0.5417799949645996 0.9107999801635742 -0.6371200084686279 -0.2821600139141083 0.5568000078201294 0.06587900221347809 0.11610999703407288 -0.8405600190162659 0.6434500217437744 0.23853999376296997 -0.07116799801588058 0.028818000108003616 -0.6730599999427795 0.4664900004863739 -0.7867100238800049 -0.41819998621940613 -1.1598999500274658 -0.13239000737667084 -0.06079699844121933 0.21984000504016876 -0.2659499943256378 0.37709999084472656 -0.1378999948501587 0.0016410000389441848 -0.18761999905109406 0.3322100043296814 -0.4573499858379364 -0.27351000905036926 -0.3407000005245209 0.6431099772453308 -0.5155199766159058 -0.07155399769544601 0.3587599992752075 -0.9783599972724915 -0.49101001024246216 0.5109300017356873 -1.3151999711990356 0.2830300033092499 0.057739000767469406
bagpipe -0.5460000038146973 0.602370023727417 0.0670199990272522 -0.49362000823020935 -0.15660999715328217 1.159999966621399 0.22010000050067902 -0.6165599822998047 -0.6540399789810181 -0.027997000142931938 -0.5533699989318848 -0.6300299763679504 0.0824970006942749 -0.3415699899196625 -0.16548000276088715 0.8568000197410583 0.4551999866962433 0.06418299674987793 0.34088999032974243 0.19944000244140625 -0.5779200196266174 -0.06741300225257874 0.19238999485969543 -0.30820998549461365 0.05776200070977211 0.10284999758005142 -0.2933500111103058 0.11413999646902084 0.20754000544548035 -0.06469900161027908 -0.7901999950408936 -0.3642599880695343 0.1966399997472763 -0.05033700168132782 0.12216000258922577 -0.7892500162124634 -0.373989999294281 -0.26607999205589294 0.9263899922370911 -0.7189300060272217 0.2860499918460846 0.8032299876213074 0.2786700129508972 0.3409300148487091 0.48952001333236694 -0.14404000341892242 0.4092699885368347 0.3741999864578247 0.4212000072002411 -0.6211699843406677 -0.43904998898506165 0.3634200096130371 -0.22411000728607178 -1.0042999982833862 -0.11569999903440475 0.3878200054168701 -0.06913399696350098 -0.37973999977111816 -0.13415999710559845 1.1103999614715576 0.9270899891853333 0.2575699985027313 -0.0014139000559225678 0.652239978313446 -1.1047999858856201 -0.031098999083042145 -0.1415800005197525 -0.6492999792098999 0.5600900053977966 -0.48552998900413513 -0.04321099817752838 -0.7156999707221985 0.5399100184440613 -0.3677099943161011 -0.17848999798297882 -0.2706800103187561 0.6604400277137756 0.16026000678539276 0.45666998624801636 0.06525100022554398 -0.08838599920272827 -0.7458199858665466 0.6075000166893005 0.06232900172472 -0.4084300100803375 0.1538199931383133 -0.08027400076389313 -0.5857499837875366 0.14041000604629517 0.9674800038337708 -0.3365600109100342 0.22092999517917633 -1.086899995803833 -0.1561499983072281 -0.009219399653375149 -0.4219900071620941 -0.19809000194072723 -0.38383999466896057 0.004778299946337938 -0.17759999632835388
leroy 0.83024001121521 -0.5065600275993347 -0.13007000088691711 -1.141700029373169 0.17827999591827393 0.28821998834609985 0.5435799956321716 -0.44071999192237854 0.13350999355316162 -0.23565000295639038 0.10034999996423721 0.6219199895858765 0.15791000425815582 -0.09420900046825409 -0.12647999823093414 -0.08460699766874313 0.5619699954986572 0.6472799777984619 -0.6269199848175049 -0.29947999119758606 -0.08228799700737 -0.1308099925518036 0.09364700317382812 -0.2001499980688095 0.570580005645752 0.35760998725891113 -0.2955099940299988 -0.15768000483512878 -0.09857100248336792 0.2887899875640869 0.2502399981021881 -0.5872799754142761 0.026662999764084816 0.2613700032234192 -0.3023799955844879 1.024999976158142 0.3710300028324127 1.232100009918213 -0.09062699973583221 -0.22314000129699707 0.2580200135707855 2.2889000319992192e-05 -0.17264999449253082 0.03008200041949749 -0.03339599817991257 0.5421000123023987 -0.2508699893951416 -1.1203999519348145 0.5569400191307068 0.08752699941396713 0.22982999682426453 -0.2556299865245819 -0.5067800283432007 -0.10119999945163727 0.007441800087690353 -0.8845400214195251 0.28951001167297363 0.25466999411582947 -0.5135800242424011 -0.3945600092411041 0.7067400217056274 -0.24403999745845795 0.7567700147628784 0.019732000306248665 0.24390999972820282 -0.1431400030851364 0.08701000362634659 1.2201000452041626 0.014015000313520432 0.5914499759674072 -0.7793599963188171 0.11643999814987183 -0.6827200055122375 -0.011531000025570393 0.2094999998807907 0.6637700200080872 -0.07670699805021286 0.3718299865722656 0.21230000257492065 -0.024476999416947365 0.11606000363826752 0.08121199905872345 -0.4696600139141083 -0.06301800161600113 0.18770000338554382 0.4404999911785126 0.05770700052380562 -0.30393001437187195 -0.05741100013256073 -0.44332000613212585 0.2750200033187866 0.20114000141620636 -0.38545000553131104 0.19325999915599823 -0.07746099680662155 0.0685959979891777 0.12415000051259995 -0.7536399960517883 -1.030500054359436 -0.5115600228309631
rifle -0.10543999820947647 0.1676200032234192 -0.4052000045776367 -0.3004299998283386 -0.009403100237250328 0.15563000738620758 0.9984899759292603 0.7488999962806702 -0.7002300024032593 0.6426900029182434 0.3062799870967865 -0.4608500003814697 -0.012130999937653542 -0.45434001088142395 0.05747799947857857 0.7696200013160706 -0.07091400027275085 -0.45445001125335693 -1.3355000019073486 -1.545300006866455 0.788100004196167 -0.10113000124692917 0.35839998722076416 0.05508200079202652 0.15629999339580536 0.5051100254058838 -0.9153900146484375 -0.2224999964237213 0.27434998750686646 0.41029998660087585 0.4865800142288208 0.7502800226211548 -0.7249400019645691 -0.17015999555587769 1.1116000413894653 -1.0152000188827515 -0.6531599760055542 -0.24650000035762787 0.7775300145149231 0.1392199993133545 0.5920100212097168 -0.018495000898838043 0.16954000294208527 -0.37742000818252563 0.07916700094938278 -0.5082399845123291 0.5077199935913086 0.026040999218821526 -0.8609600067138672 -0.9145200252532959 -0.23075999319553375 0.3253200054168701 -0.1173200011253357 0.7414299845695496 0.4030799865722656 -0.7915499806404114 0.02956400066614151 -0.24730999767780304 0.9165300130844116 0.18220999836921692 0.77183997631073 0.961139976978302 0.5236499905586243 2.4797000885009766 -0.3259100019931793 -0.3923400044441223 0.21830999851226807 -0.22210000455379486 -0.3629299998283386 1.0606000423431396 0.43766000866889954 -0.8063399791717529 1.4039000272750854 -0.07660699635744095 0.045549001544713974 0.490090012550354 0.1597599983215332 -0.22187000513076782 -1.1452000141143799 -0.44795000553131104 0.6576200127601624 0.009018899872899055 0.5072000026702881 -0.5064299702644348 0.008402099832892418 -0.5220699906349182 -0.6162899732589722 -0.40217000246047974 0.892769992351532 0.4277999997138977 -0.3586899936199188 0.08167500048875809 0.7922099828720093 0.3358199894428253 0.058722998946905136 -0.46222999691963196 -0.4995200037956238 0.08331400156021118 0.9160799980163574 -0.04028499871492386
honor 0.1652500033378601 0.21819999814033508 -0.38558000326156616 0.18764999508857727 0.1329900026321411 0.46342000365257263 -0.26844000816345215 -0.015177999623119831 -0.8222000002861023 0.18004000186920166 -0.3995000123977661 -0.18192000687122345 0.827709972858429 0.09036099910736084 -0.9170799851417542 -0.5653499960899353 1.6532000303268433 0.3328399956226349 -1.0908000469207764 0.6030099987983704 -0.6399700045585632 -0.8992800116539001 -0.5161600112915039 -0.40070000290870667 0.8879600167274475 0.1708499938249588 -0.8324800133705139 -0.4377500116825104 1.5806000232696533 -0.9298499822616577 0.4821600019931793 0.4253099858760834 0.41536998748779297 0.7895299792289734 0.048510998487472534 0.007377199828624725 -0.17510999739170074 0.13223999738693237 -0.7073799967765808 -0.12239000201225281 0.375900000333786 0.09749899804592133 0.5824199914932251 -0.06092600151896477 0.3940599858760834 0.03698800131678581 0.08600500226020813 -0.07452400028705597 -0.9625999927520752 -0.572950005531311 0.25624001026153564 -0.32521000504493713 0.39357998967170715 0.7999899983406067 -0.2699100077152252 -1.496000051498413 0.3601999878883362 -0.38468000292778015 1.4759999513626099 -0.08194500207901001 -0.347790002822876 0.8195800185203552 -0.26363998651504517 -0.29433000087738037 0.015042999759316444 -0.6159700155258179 -0.00427940022200346 0.8213499784469604 0.3222599923610687 0.057422999292612076 0.2854500114917755 -0.11772999912500381 -0.16301999986171722 -0.042174000293016434 0.19303999841213226 0.9111300110816956 0.21146999299526215 -0.17844000458717346 -0.5442699790000916 -0.17906999588012695 -0.22683000564575195 -0.02948700077831745 0.41012999415397644 -0.29962000250816345 -0.509440004825592 0.14260999858379364 -0.4755299985408783 -0.8261500000953674 0.3307400047779083 -0.40195998549461365 -0.39361000061035156 -0.5716300010681152 0.174919992685318 0.6863800287246704 -0.6457499861717224 0.01559200044721365 -0.20103999972343445 -0.47641998529434204 -0.0019503999501466751 0.3513700067996979
caterpillar 0.2189600020647049 0.7244300246238708 -0.1161699965596199 -0.0401029996573925 -0.33037999272346497 -1.1548000574111938 0.7201799750328064 -0.12826000154018402 -0.21358999609947205 -0.6237499713897705 0.14295999705791473 -0.6299399733543396 0.6450300216674805 -0.4039100110530853 0.10440000146627426 0.1115799993276596 0.15884999930858612 0.05046899989247322 1.031999945640564 0.29649001359939575 0.5202100276947021 0.10154999792575836 0.03918800130486488 1.3271000385284424 0.43029001355171204 0.45844000577926636 -0.5625699758529663 0.7386999726295471 -0.5093600153923035 0.4527699947357178 0.24379999935626984 0.26392000913619995 -0.23797999322414398 -0.12092000246047974 -0.4879100024700165 1.0606000423431396 0.42462000250816345 -0.1355299949645996 1.1539000272750854 0.30970001220703125 -0.16502000391483307 0.08432500064373016 -0.6970900297164917 -0.2022700011730194 -0.573639988899231 0.5864199995994568 -0.38892999291419983 0.7381700277328491 -0.126460000872612 -0.8485400080680847 -0.7181000113487244 -0.08581499755382538 -0.2148600071668625 0.44444000720977783 0.009368100203573704 0.2784700095653534 0.06927300244569778 0.2987000048160553 0.3040600121021271 -0.18248000741004944 0.19833000004291534 -0.4104200005531311 0.3053700029850006 1.0408999919891357 0.029148999601602554 -0.3369700014591217 -0.0650470033288002 0.46125999093055725 0.26214998960494995 0.07221800088882446 -0.35784000158309937 -0.33177000284194946 -1.059999942779541 -0.061430998146533966 0.304500013589859 0.33838000893592834 0.6660299897193909 -0.2581599950790405 -0.5531700253486633 0.29436999559402466 0.3471899926662445 0.18986999988555908 -0.9409800171852112 1.0370999574661255 -0.6543800234794617 -0.5880699753761292 0.5012500286102295 -0.7423200011253357 0.30399999022483826 0.8222299814224243 0.5871700048446655 -0.48721998929977417 0.3212999999523163 0.34272000193595886 0.1072700023651123 -0.3186500072479248 -0.12820999324321747 0.20990000665187836 0.9361000061035156 0.359609991312027
lashelle 0.02716599963605404 -0.1762000024318695 -0.1962299942970276 0.3352699875831604 0.06239200010895729 -0.2974799871444702 0.4641599953174591 -0.13270999491214752 0.38312000036239624 -0.3787199854850769 0.537090003490448 -0.07144200056791306 -0.1583700031042099 0.04916299879550934 -0.2224999964237213 0.333050012588501 0.11271999776363373 -0.10672000050544739 0.48583999276161194 -0.19742999970912933 -0.8179000020027161 -0.43915000557899475 -0.6890400052070618 -0.23316000401973724 0.0823569968342781 0.4911699891090393 -0.08154000341892242 0.10272999852895737 0.3978399932384491 0.6837900280952454 -0.07253199815750122 -0.2683599889278412 0.5254499912261963 -0.14455999433994293 -0.3562999963760376 -0.1969899982213974 0.28968000411987305 -0.713890016078949 0.10056000202894211 0.4127199947834015 0.5223900079727173 -0.26026999950408936 0.016721999272704124 0.5486900210380554 0.07675299793481827 0.010192999616265297 -0.11065000295639038 0.4754300117492676 -0.20590999722480774 0.11672999709844589 -0.09666500240564346 0.1382399946451187 -0.16023999452590942 -0.4323900043964386 0.2395700067281723 0.21804000437259674 0.48377999663352966 0.2794399857521057 -0.7463600039482117 -0.6059799790382385 -0.3770900070667267 0.28384000062942505 -0.16130000352859497 -0.0017167000332847238 0.35971999168395996 0.09156399965286255 -0.07013899832963943 -0.9613999724388123 -0.2584100067615509 0.33928000926971436 0.4494599997997284 -0.18050000071525574 0.05154300108551979 0.26107001304626465 0.1668500006198883 0.7218199968338013 -0.2533800005912781 -0.6850000023841858 0.3188599944114685 -0.2839699983596802 0.19869999587535858 -0.5506299734115601 0.10243000090122223 -0.8148199915885925 0.48636001348495483 0.193790003657341 -0.12212999910116196 -0.09980999678373337 0.5656499862670898 0.35585999488830566 -0.03529899939894676 0.14357000589370728 0.2599300146102905 -0.33945000171661377 0.4775800108909607 0.010572000406682491 -0.15973000228405 -0.3722600042819977 -0.2878200113773346 -0.01583399996161461
todd -0.07007099688053131 0.4332900047302246 0.6967800259590149 -1.1806000471115112 0.11956000328063965 -0.49810001254081726 0.48267000913619995 0.09051699936389923 -0.9691900014877319 -0.04675399884581566 0.0908769965171814 -0.24650999903678894 -0.18559999763965607 0.4320800006389618 -0.12782999873161316 -0.487199991941452 0.4727399945259094 0.2388100028038025 -1.0799000263214111 0.5833899974822998 0.4627299904823303 -0.12010999768972397 0.4627000093460083 0.6928200125694275 1.3029999732971191 0.16404999792575836 0.36456000804901123 -0.24252000451087952 0.48080000281333923 0.5680000185966492 -0.8228399753570557 0.42910999059677124 0.6145200133323669 -0.24212999641895294 0.5165500044822693 -0.2731899917125702 -0.4784800112247467 -0.01680300012230873 0.08977600187063217 0.24977000057697296 -0.07033199816942215 -0.26962000131607056 -0.2164199948310852 0.6059499979019165 -0.7128499746322632 0.30531999468803406 -0.628790020942688 -0.7633900046348572 0.5248399972915649 -0.21441000699996948 0.600059986114502 -0.20859000086784363 -0.9387199878692627 -0.19683000445365906 0.3425999879837036 -1.2102999687194824 0.33814001083374023 0.16571000218391418 0.21999000012874603 0.621749997138977 0.18830999732017517 -0.046512000262737274 -0.2395399957895279 0.4422900080680847 0.87882000207901 -0.7466599941253662 0.8130699992179871 0.8200899958610535 -0.2662999927997589 0.13787999749183655 -0.824720025062561 0.3289499878883362 -0.7973499894142151 -0.41819998621940613 0.7711700201034546 0.04314599931240082 -0.09323100000619888 -0.23329000174999237 -0.29655998945236206 0.33281001448631287 -0.40264999866485596 0.47371000051498413 -0.5100399851799011 -0.1817599982023239 0.3063899874687195 -0.35888999700546265 0.03247400000691414 -0.17834000289440155 -0.44863998889923096 -0.7637799978256226 0.6197199821472168 -0.733780026435852 0.2468699961900711 0.193900004029274 0.053328000009059906 0.5144799947738647 -0.5109900236129761 0.370059996843338 -0.2568100094795227 -0.08923400193452835
colleen -0.0375639982521534 -0.2943199872970581 0.02146800048649311 -0.877839982509613 -0.4099099934101105 0.16388000547885895 -0.5532900094985962 0.06054599955677986 -0.5353400111198425 0.5815799832344055 0.38166001439094543 -0.6152799725532532 0.014999999664723873 0.18184000253677368 -0.2040500044822693 -0.3325900137424469 -0.46386998891830444 -0.01575700007379055 -0.4332900047302246 -0.010475000366568565 -0.2507599890232086 0.06155199930071831 0.43636998534202576 0.5114399790763855 0.3472200036048889 0.3332599997520447 0.5624099969863892 -2.0123000144958496 -0.2459699958562851 0.13574999570846558 0.18644000589847565 -0.1360200047492981 0.23095999658107758 0.15918999910354614 0.5888400077819824 0.27213001251220703 0.37049999833106995 -0.12687000632286072 0.22044000029563904 0.21393999457359314 -0.592519998550415 0.24987000226974487 -0.6352999806404114 0.06390699744224548 0.32760998606681824 0.1284399926662445 -0.6431699991226196 -0.7977399826049805 0.3722899854183197 0.39004001021385193 0.09459999948740005 0.04490400105714798 0.18084000051021576 0.04801400005817413 0.5338699817657471 -0.5277699828147888 -0.040435999631881714 -0.16212999820709229 -0.6969199776649475 -0.32396000623703003 0.2691200077533722 0.48368000984191895 0.1440500020980835 -0.1459999978542328 -0.4175199866294861 -0.44620999693870544 -0.10492999851703644 0.563289999961853 -0.13440999388694763 0.6498399972915649 -0.26058998703956604 0.09341499954462051 -0.5817300081253052 -0.36805999279022217 0.5245299935340881 0.09650799632072449 0.02981399931013584 -0.44380998611450195 -0.40022000670433044 0.5629199743270874 -0.610319972038269 -0.5409700274467468 0.10852999985218048 -0.2502399981021881 0.5140600204467773 -0.6420300006866455 -0.002646500011906028 0.16946999728679657 -0.3096800148487091 -0.5342400074005127 0.5662099719047546 -0.012152999639511108 -0.0018762999679893255 -0.0961569994688034 0.6908599734306335 0.09111300110816956 0.44857001304626465 0.09222400188446045 -0.8815199732780457 0.36438998579978943
knife -0.5989800095558167 -0.03564999997615814 -0.9695600271224976 -0.06622499972581863 -0.2511900067329407 0.5755199790000916 0.5448899865150452 0.4616999924182892 0.8115400075912476 0.18082000315189362 -0.6114299893379211 0.3820500075817108 0.005662300158292055 1.214400053024292 0.19853000342845917 1.1740000247955322 -0.3228900134563446 -0.6067799925804138 -0.6416000127792358 -0.496289998292923 0.856939971446991 -0.36452001333236694 -0.5241600275039673 -0.2360599935054779 0.7746800184249878 0.846589982509613 -0.7966700196266174 -0.6851500272750854 -0.5853000283241272 -0.34419000148773193 0.09842400252819061 0.5984100103378296 -0.4422299861907959 -0.09547799825668335 0.12168999761343002 -0.7245699763298035 -0.022198999300599098 -0.5878900289535522 1.1907999515533447 -0.5586599707603455 -0.1287499964237213 -0.7057999968528748 0.029055999591946602 -0.5881699919700623 -0.9474700093269348 0.34066998958587646 -0.22130000591278076 0.015103000216186047 -0.4741800129413605 0.31786999106407166 -0.5499699711799622 -0.006476399954408407 -0.18967999517917633 1.5958000421524048 -0.1359499990940094 -1.2728999853134155 0.01515199989080429 -0.34481000900268555 0.674780011177063 0.4875499904155731 0.862280011177063 1.0394999980926514 -0.5038599967956543 0.8977100253105164 -0.062123000621795654 -0.6940799951553345 0.33392998576164246 0.056963998824357986 -0.1519400030374527 0.6238300204277039 -0.4596700072288513 0.14928999543190002 0.6747499704360962 0.9321900010108948 -0.13718999922275543 0.4300299882888794 -0.4450399875640869 -0.11719000339508057 0.49876001477241516 0.32398998737335205 0.3959999978542328 0.4430199861526489 -0.4325200021266937 -0.42706000804901123 -0.506630003452301 -1.219499945640564 0.13423000276088715 0.41242000460624695 -0.08453600108623505 0.12195999920368195 0.0770459994673729 0.18672999739646912 0.38374000787734985 0.39375999569892883 -0.061861999332904816 -0.7338700294494629 0.21241000294685364 -0.009229700081050396 1.1222000122070312 -0.4408000111579895
wasp -0.7781000137329102 0.2526099979877472 -0.34779998660087585 -1.1309000253677368 -0.9064900279045105 0.2761499881744385 0.20443999767303467 -0.43094000220298767 0.12943999469280243 0.6855800151824951 0.04171700030565262 0.19247999787330627 0.1120000034570694 0.7402300238609314 -0.5584999918937683 -0.22102999687194824 0.43806999921798706 0.060012999922037125 0.5846899747848511 0.1149199977517128 0.13322000205516815 -0.24447999894618988 -0.7124199867248535 0.40869998931884766 1.3522000312805176 0.8215500116348267 -0.5520899891853333 0.11528000235557556 -0.12839999794960022 0.42396000027656555 0.3795599937438965 0.38947999477386475 0.623170018196106 -0.41990000009536743 0.3373199999332428 0.1426900029182434 0.1206900030374527 0.48030000925064087 0.34512999653816223 0.7201600074768066 -0.893280029296875 0.1073400005698204 -0.8006500005722046 0.44380998611450195 0.16524000465869904 0.49904999136924744 0.3746500015258789 0.2445099949836731 0.17363999783992767 0.45796000957489014 -0.9275599718093872 0.018404999747872353 -0.20178000628948212 0.3291899859905243 -0.3445099890232086 0.23882000148296356 0.2004700005054474 -0.23593999445438385 0.20755000412464142 0.4245299994945526 0.18317000567913055 0.2124900072813034 0.1822499930858612 0.3773399889469147 0.6575700044631958 -0.11007999628782272 -1.0286999940872192 0.003832800080999732 -0.13274000585079193 0.45851001143455505 -0.7778300046920776 -0.5039700269699097 -0.5896900296211243 -0.049545999616384506 0.003912399988621473 -0.23241999745368958 -0.008925899863243103 -0.7747099995613098 -0.3364799916744232 0.06581199914216995 -0.6738799810409546 -0.28314000368118286 0.3665100038051605 1.1405999660491943 0.3567500114440918 -0.5572900176048279 0.7199299931526184 -0.5312399864196777 -0.1451600044965744 -0.22100000083446503 -0.33654001355171204 -0.03534200042486191 0.7967399954795837 -0.1998399943113327 0.46369001269340515 -0.4089899957180023 -1.0463999509811401 -0.8773900270462036 0.3404099941253662 0.08009800314903259
gift 0.7529399991035461 0.4300000071525574 0.16171999275684357 -0.30329999327659607 0.735729992389679 0.7817100286483765 0.06821399927139282 0.13771000504493713 0.0416719987988472 -0.27526000142097473 -0.2151000052690506 -0.1332399994134903 0.013914000242948532 0.033160001039505005 0.27987000346183777 0.3195500075817108 0.8468199968338013 0.5311700105667114 -0.565339982509613 0.3917199969291687 -0.5327100157737732 -0.10079000145196915 -0.8400099873542786 -0.5924699902534485 0.5863699913024902 0.5205900073051453 -0.37130001187324524 -0.2914400100708008 -0.3680500090122223 -1.0480999946594238 0.26034998893737793 0.4221700131893158 0.45115000009536743 -0.2046400010585785 -0.20913000404834747 0.2952600121498108 -0.35060998797416687 0.11957000195980072 -0.46233001351356506 -1.2510000467300415 0.8661900162696838 0.004676999989897013 0.9312000274658203 -0.4552200138568878 0.055399999022483826 -0.49908000230789185 -0.45311999320983887 0.09571900218725204 0.03229599818587303 -0.34046998620033264 0.6371700167655945 0.2149599939584732 0.7937999963760376 0.006701900158077478 -0.3074199855327606 -1.7008999586105347 0.03145600110292435 -0.22717000544071198 1.3288999795913696 -0.33730000257492065 0.29396000504493713 0.4917699992656708 0.0053794002160429955 0.4102799892425537 -0.11971999704837799 -0.36041998863220215 0.16092999279499054 0.22901000082492828 0.6023899912834167 -1.0908000469207764 -0.2665199935436249 0.08577799797058105 0.0718030035495758 -0.04430900141596794 -0.13970999419689178 1.1627999544143677 0.002247000113129616 -0.3668400049209595 -0.7130699753761292 0.38492000102996826 -0.0171549990773201 -0.09174700081348419 0.17586000263690948 -0.5665500164031982 -1.0354000329971313 0.18513000011444092 0.022957000881433487 -0.7273399829864502 0.029347000643610954 -0.8766000270843506 -0.1151999980211258 0.04434899985790253 1.169700026512146 -0.6434299945831299 -1.1919000148773193 -0.38743001222610474 0.365229994058609 -0.29050999879837036 0.38383999466896057 0.20659999549388885
wendy -0.12172000110149384 -0.3246400058269501 0.14268000423908234 -0.35899999737739563 0.046505000442266464 0.14173999428749084 0.459879994392395 0.13752000033855438 -0.11789999902248383 -0.5558199882507324 -0.31115999817848206 -0.06371200084686279 0.03262599930167198 0.45649001002311707 -0.4196400046348572 -0.04175800085067749 -0.3685699999332428 0.14086000621318817 -0.9408199787139893 0.3774000108242035 0.030030999332666397 -0.0241480004042387 0.7282599806785583 0.1271599978208542 0.606410026550293 1.1359000205993652 0.526199996471405 -1.340000033378601 -0.00788199994713068 0.41582000255584717 0.024819999933242798 0.8332700133323669 0.8062599897384644 -0.1934799998998642 0.08562500029802322 0.28481000661849976 0.21404999494552612 0.36305999755859375 0.003784199943765998 -0.4820300042629242 0.4818899929523468 -0.027305999770760536 -0.29743000864982605 0.14813999831676483 0.2054000049829483 0.7883599996566772 -1.1338000297546387 -0.3110800087451935 -0.3335700035095215 0.021215999498963356 0.273389995098114 -0.011531000025570393 0.17946000397205353 -0.28332000970840454 0.051575999706983566 -0.9893500208854675 -0.38194000720977783 0.27114999294281006 -0.8537399768829346 -0.18908999860286713 -0.27171000838279724 -0.04887299984693527 0.18672999739646912 0.10939999669790268 -0.4146299958229065 -0.8559200167655945 0.19460999965667725 0.8358200192451477 0.44958001375198364 0.005399699788540602 -0.48228999972343445 0.2232699990272522 -0.5215399861335754 -0.04569099843502045 -0.4724699854850769 -0.15797999501228333 0.09313599765300751 -0.49307000637054443 -0.5404199957847595 0.6154400110244751 -0.3351700007915497 0.1286499947309494 0.05898300185799599 0.5274999737739563 -0.5895199775695801 -0.38036999106407166 -0.10801000148057938 -0.389710009098053 -0.027475999668240547 0.0602089986205101 1.0644999742507935 0.8136799931526184 0.1977500021457672 -0.5452499985694885 -0.06548800319433212 0.4020499885082245 -0.11166000366210938 0.08223100006580353 0.22427000105381012 0.5026100277900696
crocus -0.41335999965667725 0.7672200202941895 -0.5348399877548218 -0.22362999618053436 -0.5817300081253052 -0.10249000042676926 -0.38040998578071594 -0.6218100190162659 -0.019669000059366226 -0.764710009098053 -0.6678500175476074 0.14012999832630157 0.7139300107955933 0.05276099964976311 -0.06009500101208687 -0.05967500060796738 0.38635000586509705 0.4792900085449219 0.6092000007629395 -0.5207800269126892 -0.8265900015830994 -0.4832499921321869 0.11422999948263168 0.05916000157594681 0.07815500348806381 1.1124000549316406 0.2435699999332428 1.1252000331878662 -0.08847299963235855 0.42497000098228455 -0.5867400169372559 -0.7557200193405151 0.6634799838066101 -0.4941299855709076 0.30432000756263733 0.509630024433136 -0.29767000675201416 -0.0059322998858988285 -0.06389100104570389 -0.27932998538017273 -0.04789600148797035 0.011373000219464302 -0.5085600018501282 0.3003599941730499 -0.5083500146865845 -0.3032599985599518 0.735729992389679 0.13589000701904297 0.6303600072860718 0.890030026435852 -0.4731999933719635 -0.25764000415802 -0.12199000269174576 -0.49796000123023987 -0.7520800232887268 0.23895999789237976 -0.11275000125169754 1.024399995803833 -0.08489000052213669 -0.5644400119781494 0.004786099772900343 0.24032999575138092 -0.39555999636650085 1.423699975013733 0.3427099883556366 0.4390000104904175 -0.21985000371932983 -1.2764999866485596 0.3017500042915344 -0.39757001399993896 0.5029699802398682 -0.2728799879550934 -1.0896999835968018 -0.5044500231742859 -0.24260999262332916 0.19216999411582947 0.1596899926662445 0.05657000094652176 -0.5659800171852112 -0.16524000465869904 0.39546000957489014 -0.4362100064754486 0.06529399752616882 0.07877299934625626 0.7968000173568726 -0.05595200136303902 0.21685999631881714 -0.3140299916267395 0.7179399728775024 0.35335999727249146 0.15410000085830688 -0.35374000668525696 0.43856000900268555 -0.19251999258995056 0.04516499862074852 -0.00874830037355423 0.25975000858306885 0.3543899953365326 -0.6903799772262573 0.011003999970853329
math 0.15734000504016876 1.2569999694824219 0.6033099889755249 0.5004400014877319 -0.8282399773597717 0.11005999892950058 0.12216000258922577 -0.18234999477863312 -0.25036999583244324 1.6259000301361084 0.21748000383377075 -1.0866999626159668 -0.4745199978351593 -0.0989610031247139 -0.3774600028991699 0.07324600219726562 -0.02344599924981594 0.9969900250434875 -0.25387999415397644 0.7597100138664246 -0.6552600264549255 -0.28404000401496887 0.6016299724578857 -0.02163900062441826 -0.5696300268173218 -0.9091399908065796 -0.5099999904632568 -0.5436599850654602 -0.42034998536109924 -0.46619999408721924 -0.7838600277900696 0.46748000383377075 -0.3066200017929077 -0.3003399968147278 -0.14635999500751495 0.1963299959897995 -1.398800015449524 -0.0451200008392334 0.5195000171661377 0.38130998611450195 -0.5731300115585327 0.6006799936294556 -0.9590100049972534 -0.7115100026130676 -0.6320099830627441 0.2431199997663498 0.016162000596523285 -0.015358000062406063 -0.3918899893760681 -0.06740199774503708 -0.42879000306129456 -0.583299994468689 -0.43893998861312866 0.4413299858570099 -0.3323400020599365 -1.1747000217437744 0.6639099717140198 -0.0892689973115921 0.48888999223709106 0.09346400201320648 0.15705999732017517 0.26853999495506287 -0.5115200281143188 -0.250110000371933 -0.490449994802475 0.5826399922370911 0.788320004940033 0.09609200060367584 0.46904000639915466 0.7709800004959106 -0.09511899948120117 0.958050012588501 0.5373299717903137 0.20740999281406403 -0.9358999729156494 1.307800054550171 -0.5807700157165527 0.2176399976015091 -0.1743900030851364 -0.6660500168800354 -0.13380999863147736 0.2963100075721741 -0.49327000975608826 -1.4127000570297241 -1.687000036239624 0.6727799773216248 -0.3984900116920471 -1.1622999906539917 0.08477199822664261 0.1559000015258789 -0.810949981212616 0.47562000155448914 -0.35047000646591187 0.9920700192451477 -0.12087000161409378 -0.0196749996393919 0.26124000549316406 -0.7536399960517883 0.04401500150561333 0.2104099988937378
gnat -0.6315199732780457 0.10830000042915344 0.048333000391721725 -0.2469799965620041 -0.7686700224876404 0.527970016002655 0.7071499824523926 -0.2578200101852417 -0.2837899923324585 -0.1281300038099289 -0.1720699965953827 -0.23688000440597534 0.13985000550746918 -0.32725000381469727 0.16347000002861023 -0.04002299904823303 -0.03888000175356865 0.10268999636173248 0.8630200028419495 -0.14639000594615936 0.003940400201827288 -0.05222500115633011 -0.2871899902820587 -0.05813800171017647 0.5536999702453613 0.38447999954223633 -0.34793999791145325 0.38256001472473145 -0.26916998624801636 0.02570500038564205 0.21626000106334686 0.4166100025177002 0.9486899971961975 0.24299000203609467 0.09380699694156647 0.4582799971103668 -0.3294300138950348 -0.14127999544143677 0.3602699935436249 0.33491000533103943 -0.3535099923610687 0.12425000220537186 -0.44898998737335205 0.2878899872303009 0.1014299988746643 0.2616499960422516 0.16304999589920044 -0.2799699902534485 -0.3572700023651123 -0.035457998514175415 -1.0476000308990479 0.18839000165462494 0.05461600050330162 0.10225000232458115 -0.26078999042510986 0.7704300284385681 0.27913999557495117 0.21270999312400818 -0.2030699998140335 -0.2977699935436249 0.2901900112628937 -0.045965999364852905 -0.4227199852466583 0.18299999833106995 -0.21180999279022217 0.21907000243663788 -0.39548999071121216 -0.40626999735832214 0.03120099939405918 0.0807579979300499 0.25279998779296875 -0.5673800110816956 0.09725800156593323 -0.09671299904584885 -0.3086499869823456 0.4027499854564667 0.12705999612808228 0.0687360018491745 -0.4093500077724457 0.6896399855613708 -0.4706900119781494 -0.702019989490509 0.16074000298976898 0.26179999113082886 0.21232999861240387 0.23473000526428223 0.5974599719047546 -0.03195500001311302 -0.42228999733924866 0.5436699986457825 0.2896600067615509 0.31786999106407166 -0.023226000368595123 -0.3875199854373932 0.7118600010871887 -0.24428999423980713 -0.5019299983978271 -0.6650099754333496 -0.22304999828338623 0.5239700078964233
kate -0.06931000202894211 -0.2573300004005432 -0.02878200076520443 -0.5705900192260742 -0.21509000658988953 -0.025009000673890114 -0.1709199994802475 0.22035999596118927 0.042854998260736465 -0.9936599731445312 0.363970011472702 -0.049164000898599625 -0.3166700005531311 1.0896999835968018 0.11929000169038773 -0.3099699914455414 0.5234599709510803 -0.22157999873161316 -0.3393000066280365 1.1888999938964844 0.06877200305461884 -0.3341600000858307 0.706030011177063 -0.09381800144910812 1.1124999523162842 0.9174100160598755 -0.28731000423431396 -1.3997000455856323 -0.25286999344825745 -0.10688000172376633 -0.25102001428604126 0.19731000065803528 0.4680500030517578 -0.12657999992370605 0.31509000062942505 -0.0005318699986673892 0.7181000113487244 0.3890399932861328 0.08060500025749207 0.6365100145339966 -0.053720999509096146 0.5767499804496765 -0.03939700126647949 0.6860700249671936 -0.8849700093269348 0.18222999572753906 -0.8694900274276733 -0.16064999997615814 0.6735000014305115 0.33122000098228455 0.7538700103759766 -0.12251000106334686 0.05077400058507919 0.5125399827957153 0.4473400115966797 -1.5771000385284424 -0.5120900273323059 0.35659000277519226 -0.525950014591217 -0.2638300061225891 0.2507300078868866 0.659850001335144 -0.6299099922180176 0.0009527999791316688 0.2634899914264679 -0.07531499862670898 0.01749200001358986 0.8159199953079224 0.5072299838066101 0.4194500148296356 0.29464998841285706 -0.05130999907851219 -0.6297900080680847 -0.13012999296188354 0.09865099936723709 0.03381799906492233 0.3386699855327606 -0.3900099992752075 -0.2043900042772293 -0.6835299730300903 -0.7121700048446655 0.4006800055503845 0.549780011177063 -0.2009499967098236 -0.5415400266647339 -0.7357500195503235 0.2949199974536896 0.10199999809265137 -0.132860004901886 -0.400519996881485 0.45732998847961426 0.22220000624656677 0.4601399898529053 -0.121799997985363 0.19628000259399414 0.2113099992275238 -0.45517000555992126 0.46246999502182007 0.014919999986886978 0.4182499945163727
chemistry 0.534820020198822 0.5378400087356567 0.3558099865913391 0.455810010433197 0.1964000016450882 -0.8873299956321716 0.9000800251960754 -0.41064000129699707 -0.7000899910926819 0.7521700263023376 -0.22558000683784485 -1.03410005569458 0.0012410000199452043 1.17330002784729 -0.15493999421596527 0.624239981174469 0.09499900043010712 0.4613800048828125 0.04596899822354317 0.07240000367164612 -0.7555599808692932 -0.22945000231266022 0.25075000524520874 -0.39252999424934387 0.1111999973654747 -0.5412499904632568 0.2987000048160553 -0.6064500212669373 0.5726500153541565 -0.2562499940395355 -1.1820000410079956 0.5539600253105164 -0.7904300093650818 -0.3520500063896179 -0.4054900109767914 -0.08423399925231934 -0.517300009727478 0.6547600030899048 -0.7252500057220459 -0.12987999618053436 -0.04637699946761131 -0.5140500068664551 -0.8380600214004517 -0.9515600204467773 -0.2879999876022339 0.5169600248336792 -0.29096999764442444 0.8595499992370605 -0.5705299973487854 -0.24327999353408813 0.59934002161026 -0.642300009727478 0.30518999695777893 0.44328001141548157 0.07273899763822556 -0.7269099950790405 0.10899999737739563 -0.06708300113677979 0.34213000535964966 0.026491999626159668 -0.15365000069141388 0.9313700199127197 -0.4840500056743622 0.11642000079154968 0.9682499766349792 0.2742699980735779 0.866919994354248 0.35815998911857605 0.7713000178337097 0.1994599997997284 -0.16468000411987305 0.45917999744415283 0.8646699786186218 0.11415000259876251 -1.031000018119812 0.680649995803833 0.6323599815368652 -0.8843299746513367 -0.17753000557422638 0.09003899991512299 -0.18591000139713287 0.38444000482559204 -0.7142000198364258 -0.24963000416755676 -1.003100037574768 0.9733099937438965 0.965179979801178 -0.883430004119873 -0.8571400046348572 -0.8827000260353088 0.2525399923324585 -0.6495599746704102 -0.01679999940097332 1.4081000089645386 0.35506999492645264 0.7168400287628174 -0.031215999275445938 -0.6412500143051147 0.26603999733924866 0.7404699921607971
dynamite 0.2080399990081787 0.28036999702453613 -0.4678800106048584 -0.946690022945404 0.2023400068283081 -0.16621999442577362 0.8097000122070312 0.0659400001168251 -0.30456000566482544 0.5324599742889404 0.42465001344680786 0.9654099941253662 -0.7003499865531921 1.089900016784668 -0.3700999915599823 0.3329299986362457 0.5616400241851807 0.32214999198913574 -0.6827300190925598 0.6358399987220764 0.4065699875354767 -0.12467999756336212 0.5041700005531311 -0.3275499939918518 0.28665000200271606 0.4338400065898895 -0.41078001260757446 0.36445000767707825 0.06851900368928909 0.23632000386714935 0.2641200125217438 0.23059000074863434 -0.5543100237846375 0.27856001257896423 0.05886299908161163 -1.0713000297546387 0.08036799728870392 0.1608700007200241 0.41881999373435974 -0.34810999035835266 0.2559800148010254 0.22885000705718994 0.4860300123691559 -0.19404000043869019 -0.46779999136924744 -0.06259799748659134 -0.10918000340461731 0.11777999997138977 -0.4633699953556061 0.6404200196266174 -0.849590003490448 0.4670499861240387 0.5780199766159058 0.654449999332428 -0.32580000162124634 -0.8121600151062012 -0.6854199767112732 0.43369999527931213 -0.10430999845266342 -0.2778100073337555 0.41995999217033386 1.016800045967102 -0.9020400047302246 0.983959972858429 0.1973000019788742 -0.6449900269508362 0.23919999599456787 -0.07165200263261795 0.10858999937772751 -0.7237300276756287 -0.03978300094604492 -0.3385399878025055 1.1252000331878662 0.7732999920845032 -1.1514999866485596 0.4046599864959717 0.9732800126075745 -0.3155600130558014 -0.4063200056552887 0.5855200290679932 0.6139600276947021 -0.79448002576828 -0.5032399892807007 -0.3353700041770935 0.14248999953269958 0.5341600179672241 0.3126400113105774 -0.18482999503612518 -0.7481899857521057 -0.6316800117492676 0.5813000202178955 0.17956000566482544 -0.20261000096797943 -0.16136999428272247 0.15071000158786774 -0.3389799892902374 -0.19528000056743622 0.13604000210762024 1.2072999477386475 -0.017308000475168228
caress -0.65420001745224 -0.09207800030708313 0.21558000147342682 0.03415599837899208 -0.19480000436306 0.4928399920463562 -0.42010998725891113 0.06155199930071831 0.06496399641036987 0.07444000244140625 0.2807199954986572 -0.08729500323534012 0.05445199832320213 0.20096999406814575 0.6514400243759155 -0.22221000492572784 -0.28387999534606934 0.0708409994840622 0.026856999844312668 0.19492000341415405 0.1315300017595291 -0.2828400135040283 -0.08950900286436081 0.21424999833106995 0.5186899900436401 0.8817399740219116 -0.22819000482559204 0.08639299869537354 0.7441999912261963 -0.4052700102329254 0.549560010433197 0.07446599751710892 0.45392999053001404 -0.30660000443458557 -0.5929099917411804 0.069241002202034 0.009804699569940567 -0.08946099877357483 0.48451000452041626 -0.30483001470565796 0.3764300048351288 0.14383000135421753 -0.09871699661016464 0.6156600117683411 -0.6701800227165222 0.48837000131607056 -0.16173000633716583 0.38708001375198364 -0.25 0.11003000289201736 -0.41743001341819763 0.4571099877357483 0.24834999442100525 0.2517099976539612 0.4518600106239319 0.7931200265884399 0.05719299986958504 -0.03304700180888176 -0.5514100193977356 -0.3382300138473511 0.7428399920463562 0.40970999002456665 -0.34564998745918274 -0.3076600134372711 -0.602590024471283 0.12728999555110931 0.0763150006532669 0.6122900247573853 -0.2689499855041504 -1.1089999675750732 -0.10649000108242035 -0.17510999739170074 0.793150007724762 0.3889400064945221 -0.030897999182343483 0.322299987077713 -0.17598000168800354 -0.17106999456882477 0.4221400022506714 -0.030990999191999435 0.08315499871969223 0.23463000357151031 -0.2552500069141388 0.6699000000953674 -0.05908700078725815 -0.2991200089454651 0.12841999530792236 0.3411700129508972 0.23904000222682953 -0.12925000488758087 -0.09950599819421768 0.27469998598098755 0.18775999546051025 -0.4686700105667114 0.42917001247406006 -0.34011998772621155 -0.27265000343322754 0.28130000829696655 -0.39590999484062195 0.5755299925804138
ugly 0.2658199965953827 0.03196699917316437 0.4484800100326538 -0.9017999768257141 -0.9464799761772156 0.3444199860095978 -0.29809001088142395 0.29100000858306885 0.5295199751853943 -0.08782199770212173 0.047244999557733536 -0.06630100309848785 0.20217999815940857 0.20225000381469727 0.7132999897003174 1.0266000032424927 -0.5583699941635132 0.11655999720096588 0.47345998883247375 0.3737500011920929 0.6703000068664551 0.29350998997688293 -0.024911999702453613 0.07065100222826004 0.5749099850654602 -0.12922999262809753 -0.3142400085926056 0.14850999414920807 -0.052806999534368515 0.16967999935150146 0.27142998576164246 0.07321099936962128 0.5849199891090393 -0.4947800040245056 -0.4669699966907501 -0.4693799912929535 -0.5337899923324585 -0.48423999547958374 0.6255699992179871 0.02120799943804741 0.08844999969005585 -0.18253999948501587 -0.2678700089454651 -0.7237799763679504 -0.5148500204086304 0.40463000535964966 0.4018400013446808 0.8713600039482117 -0.3387700021266937 -0.35486000776290894 0.054749999195337296 -0.45030999183654785 0.016126999631524086 0.8202400207519531 -0.05309300124645233 -1.6258000135421753 0.5388399958610535 0.9102799892425537 0.24316999316215515 -0.4293000102043152 -0.45225998759269714 0.718999981880188 -0.7726100087165833 -0.635450005531311 0.7870500087738037 -0.5880399942398071 0.6524400115013123 -0.296099990606308 -0.5929399728775024 -0.48271000385284424 0.20754000544548035 -0.17589999735355377 -0.29635998606681824 0.41624000668525696 0.17610999941825867 0.3414500057697296 -0.4937799870967865 0.31360000371932983 -0.45326998829841614 0.2833400070667267 -0.03915899991989136 0.07690999656915665 0.3965100049972534 0.7383700013160706 -0.912060022354126 -0.7781299948692322 -0.7623800039291382 -0.03210299834609032 -0.1329299956560135 -0.36559000611305237 -0.10129000246524811 0.12533999979496002 -0.289139986038208 0.05765499919652939 0.1807900071144104 -0.5194399952888489 -0.7669199705123901 0.21321000158786774 -0.09812700003385544 0.2845500111579895
tia 0.5324400067329407 -0.7285299897193909 -0.25648999214172363 0.37261998653411865 -0.6360300183296204 -0.22412000596523285 -0.29771000146865845 0.44446998834609985 0.3910300135612488 -0.6221399903297424 0.08772700279951096 0.3352299928665161 0.034393999725580215 0.5537899732589722 -0.24501000344753265 0.10492999851703644 -0.15193000435829163 0.04422900080680847 -0.40942999720573425 0.24063999950885773 -0.590749979019165 0.4765399992465973 0.1809300035238266 0.6225900053977966 0.7297199964523315 0.5521299839019775 0.11522000283002853 -0.5857800245285034 -0.1912200003862381 -0.34575000405311584 -0.2666099965572357 0.4634400010108948 0.715969979763031 0.6233800053596497 0.3576900064945221 0.7222399711608887 0.33524999022483826 0.6241499781608582 0.4151900112628937 0.09294400364160538 0.5176100134849548 0.28336000442504883 -0.515720009803772 0.11692000180482864 0.18694999814033508 -0.2788900136947632 -0.23649999499320984 0.07556100189685822 -0.3621000051498413 0.5105699896812439 -0.147039994597435 0.4761100113391876 -0.09484700113534927 0.042500000447034836 0.24305999279022217 0.28933000564575195 0.08144500106573105 0.7944700121879578 -0.49570998549461365 0.143669992685318 0.11785999685525894 0.24167999625205994 0.4717000126838684 0.40834999084472656 -1.0259000062942505 -0.05599899962544441 -0.016587000340223312 0.02610200084745884 0.1628500074148178 -0.03951700031757355 0.32927000522613525 0.23274999856948853 -0.30640000104904175 -0.12246000021696091 0.6271100044250488 -0.24999000132083893 0.181099995970726 -0.30338001251220703 -0.3472500145435333 -0.5618500113487244 -0.4404599964618683 -0.7703800201416016 0.17486999928951263 -0.14698000252246857 -0.6319800019264221 0.19673000276088715 0.11588999629020691 -0.05781399831175804 -0.6941699981689453 -0.15987999737262726 0.4377399981021881 0.680079996585846 -0.40619000792503357 0.17433999478816986 0.0004193299973849207 -0.1795700043439865 0.2497200071811676 -0.5694199800491333 -0.4655599892139435 0.007914399728178978
torrance 0.07598999887704849 -0.10045000165700912 0.37000998854637146 -0.9503499865531921 0.09721899777650833 0.441430002450943 0.8059300184249878 0.675320029258728 -0.36063000559806824 0.22737999260425568 -0.16064999997615814 0.0168830007314682 -0.983269989490509 0.22982999682426453 0.3548400104045868 0.21411000192165375 0.09688100218772888 0.642520010471344 -0.3999899923801422 0.3617999851703644 -0.16276000440120697 0.6666499972343445 0.254720002412796 0.015042000450193882 -0.057092998176813126 0.0751350000500679 -0.2156199961900711 -0.7523099780082703 -0.12438999861478806 -0.06042199954390526 -0.6158699989318848 0.263949990272522 -0.6301599740982056 -0.01741800084710121 0.8539599776268005 -0.06880400329828262 0.48104000091552734 -0.004421699792146683 0.5086399912834167 0.11851000040769577 -0.10373999923467636 -0.0824970006942749 0.07869499921798706 -0.013627000153064728 0.44964998960494995 0.6133000254631042 1.0641000270843506 0.03252800181508064 -0.23714999854564667 0.3245300054550171 0.21336999535560608 -0.3541400134563446 0.10711999982595444 -0.9947400093078613 0.20375999808311462 -0.6315299868583679 -0.052841998636722565 0.2919900119304657 -0.16347000002861023 -0.04940599948167801 0.13008999824523926 -0.14153000712394714 0.5529900193214417 0.419189989566803 -1.0565999746322632 -0.48096999526023865 0.13431000709533691 0.2410700023174286 0.3421899974346161 0.4296700060367584 0.09277299791574478 0.5721700191497803 -0.5430799722671509 -0.8233100175857544 -0.21650999784469604 0.29109999537467957 0.8909599781036377 -0.05860700085759163 -0.10845000296831131 0.49540001153945923 0.5218499898910522 -0.01256099995225668 -0.26712000370025635 0.8090000152587891 0.6002399921417236 -0.27981001138687134 -0.00827690027654171 0.4939500093460083 -0.10007999837398529 0.2557600140571594 -0.9756199717521667 0.31352001428604126 0.5431399941444397 0.3702000081539154 -0.39923998713493347 0.8836899995803833 0.6231099963188171 -0.43744999170303345 -0.33414000272750854 0.5185800194740295
carnation -0.0037771998904645443 -0.295199990272522 -0.47696998715400696 0.3086000084877014 0.07203099876642227 0.39730000495910645 0.430869996547699 0.010544000193476677 0.44909998774528503 0.028730999678373337 -0.40953001379966736 0.059836000204086304 -0.2542400062084198 0.6024100184440613 0.07831600308418274 0.6828799843788147 0.8354600071907043 0.16763000190258026 1.0827000141143799 -1.0146000385284424 -0.11422000080347061 0.3814300000667572 -0.10138999670743942 0.19131000339984894 0.36735999584198 0.8896600008010864 -0.550279974937439 0.015402000397443771 0.025338999927043915 -0.4386799931526184 0.799809992313385 0.5531799793243408 0.8997700214385986 -0.08246699720621109 -0.02078299969434738 0.11931999772787094 0.8489800095558167 0.3589699864387512 -0.5035499930381775 -0.6933900117874146 0.6252300143241882 -0.09032099694013596 0.03258499875664711 -0.18592999875545502 0.2463199943304062 0.6444399952888489 0.2964499890804291 0.4860999882221222 -0.17768999934196472 -0.18522000312805176 -0.22769999504089355 -0.06672099977731705 -0.4231399893760681 0.44804999232292175 -0.47470998764038086 -0.06244799867272377 -0.6926900148391724 0.1464100033044815 -0.3800800144672394 -0.4956899881362915 -0.13019999861717224 -0.021683000028133392 -0.45083001255989075 -0.47172999382019043 0.4546700119972229 0.35947999358177185 -0.11247999966144562 -1.1818000078201294 0.18517999351024628 0.03060300089418888 -0.5705699920654297 0.6093699932098389 -0.7943099737167358 -0.10187999904155731 -0.6574699878692627 0.613319993019104 0.43274998664855957 0.468860000371933 -0.5631499886512756 0.28137001395225525 -0.3487800061702728 -0.265529990196228 0.6765699982643127 0.591480016708374 0.7170400023460388 0.01411799993366003 0.7614499926567078 -0.1572899967432022 0.12746000289916992 -0.43615999817848206 0.10768000036478043 -0.390749990940094 -0.597320020198822 -0.010875999927520752 -0.7985699772834778 -0.7465699911117554 -0.4904699921607971 0.5762400031089783 -0.8390499949455261 -0.6104699969291687
filth -0.26747000217437744 0.11305999755859375 0.8571400046348572 -1.3278000354766846 -0.18616999685764313 0.8796799778938293 -0.6768900156021118 0.05277099832892418 0.28769001364707947 0.5099499821662903 -0.1063700020313263 0.5029799938201904 0.12411999702453613 -0.15198999643325806 0.24410000443458557 0.14151999354362488 0.2648800015449524 0.45906001329421997 -0.15279999375343323 0.13357000052928925 -0.11071000248193741 0.35947999358177185 0.08811099827289581 0.06397999823093414 0.1892399936914444 0.5734099745750427 0.10028000175952911 0.126910001039505 0.5450599789619446 -0.37904998660087585 0.1998399943113327 -0.7267799973487854 -0.0701650008559227 0.5688499808311462 -0.13875000178813934 0.06571800261735916 0.19226999580860138 0.1564200073480606 0.24363000690937042 -0.24999000132083893 -0.5089200139045715 0.4634000062942505 -0.697950005531311 0.04059299826622009 -0.2612299919128418 -0.03258199989795685 -0.052060000598430634 -0.16118000447750092 0.10655999928712845 0.1648699939250946 -0.27542999386787415 -0.004558499902486801 -0.485260009765625 0.3071900010108948 -0.6823700070381165 -0.1133899986743927 0.20719000697135925 0.4971199929714203 -0.6083999872207642 -0.36976999044418335 0.8190199732780457 0.11009000241756439 -0.30772000551223755 -0.1142600029706955 0.1711300015449524 0.288129985332489 0.5029500126838684 -1.2297999858856201 0.3527899980545044 -0.9389899969100952 0.35054999589920044 -0.20089000463485718 0.08740399777889252 0.4216800034046173 0.10461000353097916 0.27803000807762146 -0.3607400059700012 0.2906700074672699 -0.5368199944496155 0.2617399990558624 0.03586899861693382 0.5375499725341797 0.4496699869632721 0.878279983997345 0.1437399983406067 0.4380500018596649 0.32043999433517456 -0.15762999653816223 -0.8683300018310547 0.5666700005531311 -0.2001499980688095 -0.20097999274730682 -0.48217999935150146 0.7414799928665161 0.38440999388694763 -0.816860020160675 -0.08651000261306763 -0.44642001390457153 0.5060499906539917 0.36917001008987427
blade -0.9674299955368042 -0.014732999727129936 -0.5346199870109558 -0.2648400068283081 -0.10446999967098236 -0.15734000504016876 -0.09137800335884094 0.04979800060391426 0.3773399889469147 -0.047054000198841095 -0.28216999769210815 -0.16869999468326569 0.45798999071121216 0.7674400210380554 -0.06101100146770477 0.3969399929046631 -0.04938000068068504 0.05592900142073631 0.4719400107860565 -0.47701001167297363 0.5140900015830994 -0.5859599709510803 -1.0463000535964966 0.29319000244140625 1.7359000444412231 1.1145000457763672 -0.23038999736309052 -0.2833999991416931 -0.02501700073480606 -0.18931999802589417 0.5351499915122986 0.3370699882507324 0.009995800442993641 0.15561999380588531 0.48517000675201416 -0.20795999467372894 0.06520500034093857 -0.21901999413967133 0.5394300222396851 -0.2710700035095215 0.0067842998541891575 -0.12043999880552292 -0.28870999813079834 0.07775100320577621 -0.9739099740982056 -0.22631999850273132 0.14167000353336334 -0.7583400011062622 0.46467000246047974 0.9352200031280518 -0.5302000045776367 0.06893700361251831 0.041172999888658524 1.1114000082015991 0.2809300124645233 -1.0326999425888062 0.298660010099411 0.6814600229263306 0.8937399983406067 0.13841000199317932 0.9000099897384644 0.5239700078964233 -0.7424100041389465 1.1298999786376953 0.4209100008010864 -0.6231200098991394 0.20864999294281006 0.3424200117588043 -0.19065000116825104 0.42508000135421753 -0.29256999492645264 0.12669000029563904 0.5011000037193298 0.7570000290870667 0.20837000012397766 -0.2515600025653839 -0.09034900367259979 0.4949299991130829 0.5786799788475037 0.4168800115585327 -0.11251000314950943 0.6825399994850159 -1.1998000144958496 0.10345999896526337 -0.17156000435352325 -0.13839000463485718 0.4953100085258484 0.15654000639915466 0.30827000737190247 0.14865000545978546 -0.4352700114250183 0.22306999564170837 0.13145999610424042 0.6259999871253967 0.4287799894809723 -0.8290899991989136 -0.06085599958896637 -0.12582999467849731 1.4522000551223755 -0.23017999529838562
tuba 0.25540000200271606 0.19580000638961792 0.08650600165128708 -0.483599990606308 -0.27008000016212463 0.8059899806976318 -0.17745999991893768 0.18951000273227692 0.45416000485420227 0.5775399804115295 -0.2977299988269806 -1.2098000049591064 -0.5569000244140625 0.8023099899291992 -0.46650001406669617 0.2673099935054779 0.3651599884033203 0.08416000008583069 0.12910999357700348 0.34714001417160034 0.05007699877023697 -0.32982999086380005 -0.34544000029563904 0.032207999378442764 0.7883999943733215 0.33482998609542847 -0.6013100147247314 -0.2901799976825714 0.4816400110721588 0.9613000154495239 -0.5907700061798096 -0.5879799723625183 -0.007523700129240751 0.24975000321865082 -0.7191500067710876 -0.41133999824523926 0.02702300064265728 0.5814099907875061 1.0033999681472778 -0.14180000126361847 0.9063699841499329 0.12204000353813171 0.7490400075912476 0.05076799914240837 0.1114099994301796 0.005863300058990717 0.4069800078868866 0.12088999897241592 -0.4627400040626526 0.13512000441551208 -1.0577000379562378 0.6916900277137756 0.012215999886393547 -0.27897998690605164 -0.7156400084495544 0.287339985370636 -0.32975998520851135 -0.5900599956512451 -0.391539990901947 0.9274200201034546 0.028106000274419785 -0.08476399630308151 -0.38359999656677246 -0.23927000164985657 -0.8712700009346008 -0.5001000165939331 0.31586000323295593 0.2552199959754944 -0.03925599902868271 -0.2563999891281128 -0.12229999899864197 -0.5976600050926208 0.9434599876403809 0.130840003490448 0.002962500089779496 -0.6693500280380249 0.38335999846458435 -0.03894700109958649 1.1282999515533447 -0.13779999315738678 0.2999500036239624 -0.6518700122833252 -0.7931200265884399 -0.390859991312027 -0.057009000331163406 0.9211300015449524 0.16021999716758728 -0.9097599983215332 -0.05223900079727173 -0.2416200041770935 -0.7696400284767151 0.9784200191497803 -0.4197100102901459 -0.1563200056552887 -0.47224000096321106 0.33425000309944153 -0.9102399945259094 0.2115900069475174 0.4645000100135803 0.14167000353336334
drama 0.41600000858306885 0.1681700050830841 0.29594001173973083 -0.28022998571395874 0.19399000704288483 0.21694999933242798 -0.29343000054359436 -0.001143299974501133 -0.5735099911689758 0.1896899938583374 -0.11427000164985657 0.24300000071525574 -0.39500001072883606 0.8303899765014648 -0.3748599886894226 0.051568999886512756 0.12851999700069427 0.15779000520706177 0.5910500288009644 0.9539200067520142 0.17866000533103943 -0.504580020904541 0.33882999420166016 -0.9114900231361389 1.1075999736785889 0.015277000144124031 0.46566998958587646 0.14117999374866486 -0.3406600058078766 0.04217800125479698 -0.6732500195503235 -0.037216998636722565 -0.4224399924278259 0.08007299900054932 -0.2987000048160553 -0.2945899963378906 0.05104200169444084 0.03259599953889847 -0.36970001459121704 0.27702000737190247 0.07712099701166153 0.2481600046157837 -1.2558000087738037 0.35286998748779297 0.7000499963760376 -0.3549399971961975 -0.13776999711990356 -0.4003100097179413 0.4165799915790558 0.16687999665737152 -0.7182400226593018 -0.3517700135707855 0.4463599920272827 1.2036999464035034 0.2647300064563751 -2.549299955368042 -0.10005000233650208 0.22624999284744263 0.559689998626709 0.4485499858856201 0.015421999618411064 1.6188000440597534 -0.45006999373435974 -0.8482000231742859 0.8100000023841858 -0.4364599883556366 0.19460000097751617 0.1701200008392334 -0.23027999699115753 1.0425000190734863 0.052111998200416565 -0.10628999769687653 -0.04264499992132187 0.8289899826049805 -0.5361899733543396 0.686269998550415 0.052048999816179276 0.23586000502109528 -0.1925400048494339 -0.5173500180244446 -0.8356099724769592 0.13157999515533447 0.6628900170326233 0.020597999915480614 -1.6914000511169434 0.16404999792575836 -1.0394999980926514 0.09938099980354309 0.24514000117778778 -0.7741900086402893 0.06810499727725983 -0.26252999901771545 -0.27869001030921936 0.5795999765396118 0.21205000579357147 0.3442099988460541 0.5494599938392639 -0.37358999252319336 -0.00849740020930767 0.5065100193023682
daisy -0.1602099984884262 -0.450300008058548 -0.439300000667572 -1.095900058746338 0.05111199989914894 -0.08414600044488907 -0.1389700025320053 0.2162500023841858 -0.034015998244285583 0.08444199711084366 -0.41648000478744507 0.09094999730587006 -0.2381799966096878 0.24699999392032623 -0.2618800103664398 0.05658400058746338 0.21100999414920807 0.25220000743865967 0.14848999679088593 0.5097000002861023 0.09345900267362595 0.291159987449646 0.17636999487876892 0.46880999207496643 1.1536999940872192 1.0633000135421753 -0.5082200169563293 -0.4740999937057495 0.1497199982404709 0.7678700089454651 0.5496000051498413 0.3496699929237366 1.4746999740600586 -0.5590800046920776 0.2818399965763092 0.6811800003051758 0.5433099865913391 -0.23486000299453735 0.3188999891281128 -0.16753999888896942 -0.38545000553131104 -0.02474300004541874 -0.1982100009918213 -0.17788000404834747 -0.5651900172233582 0.38352999091148376 -0.2898600101470947 0.3288800120353699 0.09438899904489517 0.8952599763870239 -0.6336899995803833 0.5426700115203857 0.2691499888896942 -0.059450000524520874 -0.10719999670982361 -0.5105599761009216 -0.8906800150871277 0.7220100164413452 -0.29714998602867126 0.1071700006723404 0.08072900027036667 0.8377500176429749 -0.14948999881744385 0.8733599781990051 0.16750000417232513 0.3015100061893463 -0.007983200252056122 -0.6254000067710876 0.49570998549461365 0.3954800069332123 -0.503250002861023 -0.21841999888420105 -0.5467600226402283 -0.4960800111293793 -0.293040007352829 0.846530020236969 0.2542499899864197 -1.0901000499725342 -0.7143599987030029 0.37709999084472656 -0.7443100214004517 -0.8188499808311462 0.09368900209665298 -0.060123998671770096 -0.06145299971103668 0.26319000124931335 0.09640800207853317 -0.24084000289440155 0.23994000256061554 -0.3017500042915344 -0.05609799921512604 -0.4436900019645691 0.038231998682022095 -0.09587900340557098 -0.12240999937057495 -0.3553299903869629 -0.31022998690605164 -0.8974300026893616 -0.045673999935388565 -0.20378999412059784
sickness -0.02490299940109253 0.414249986410141 0.7252100110054016 0.23292000591754913 -1.1334999799728394 0.19351999461650848 -0.03289800137281418 0.29548999667167664 0.11411000043153763 -0.6107000112533569 -0.39980000257492065 0.5041800141334534 0.18618999421596527 -0.20664000511169434 1.0703999996185303 -0.4562999904155731 0.059755001217126846 -0.11283999681472778 -0.0905890017747879 -0.7779300212860107 0.031846001744270325 -0.1410599946975708 -0.46175000071525574 0.5475299954414368 0.2744100093841553 1.0992000102996826 -0.06467899680137634 -0.3344700038433075 -0.04427399858832359 -0.4173299968242645 -0.39236998558044434 -0.15880000591278076 -0.46340999007225037 -0.17940999567508698 -0.33899998664855957 0.4303100109100342 -0.04048699885606766 0.2464199960231781 -0.18458999693393707 0.10441000014543533 -0.5588499903678894 1.086300015449524 -0.22803999483585358 -0.9948800206184387 0.18419000506401062 0.46004998683929443 0.10971000045537949 0.31551000475883484 -0.12205000221729279 -0.14542999863624573 -0.03922099992632866 0.10976000130176544 -0.41644999384880066 0.7421900033950806 0.6694899797439575 -0.2160000056028366 0.5672699809074402 0.04565099999308586 0.282039999961853 0.5289599895477295 0.7659299969673157 0.9002299904823303 0.04743799939751625 -0.27682000398635864 0.03826700150966644 0.5578299760818481 0.3100399971008301 -1.6162999868392944 0.7263200283050537 -0.802079975605011 -0.8477399945259094 -0.6047099828720093 0.16437000036239624 0.6779299974441528 0.5229899883270264 0.38144001364707947 0.4328100085258484 -0.07088299840688705 -0.8154699802398682 0.5473999977111816 -0.044176001101732254 0.3046799898147583 0.20547999441623688 -0.31755998730659485 -1.1270999908447266 -0.2856599986553192 -0.009248999878764153 0.15277999639511108 -0.7388899922370911 0.38986000418663025 0.20757000148296356 -0.6446099877357483 0.6113499999046326 0.4124400019645691 0.6392099857330322 0.22953000664710999 0.22040000557899475 -0.031168999150395393 0.11597000062465668 -1.125599980354309
jamel 0.2870599925518036 0.6509900093078613 -0.20326000452041626 -0.4801799952983856 -0.07906900346279144 -0.23240000009536743 -0.23576000332832336 -0.2956100106239319 -0.29054000973701477 -0.25995001196861267 -0.17363999783992767 -0.3080799877643585 -0.6292700171470642 0.3435100018978119 0.4989199936389923 0.1627500057220459 -0.54926997423172 -0.08507800102233887 -0.47475001215934753 -0.4101499915122986 0.20178000628948212 -0.4065999984741211 0.30724000930786133 -0.8363999724388123 0.24269999563694 -0.15583999454975128 0.03351999819278717 -0.4506700038909912 -0.6884400248527527 0.11173000186681747 -0.1522199958562851 -0.4583300054073334 0.13770000636577606 -0.31224000453948975 0.21220000088214874 0.09353899955749512 -0.3298799991607666 0.12042000144720078 -0.1579499989748001 0.6522200107574463 -0.16245000064373016 0.06595099717378616 -0.1421699970960617 0.5799499750137329 -0.3175399899482727 -0.35523998737335205 -0.37088000774383545 0.3395799994468689 -0.2382500022649765 0.47773000597953796 0.3142099976539612 0.7572500109672546 0.019301999360322952 -0.1934400051832199 -0.07601500302553177 0.2552799880504608 -0.8699700236320496 0.012773999944329262 -1.2230000495910645 -0.24866999685764313 -0.20981000363826752 -0.5558500289916992 0.2709200084209442 -0.21660000085830688 -0.23156000673770905 -0.727840006351471 0.36520999670028687 0.0638979971408844 -0.7029200196266174 0.08738599717617035 0.19043000042438507 0.009197800420224667 0.05063699930906296 -0.2794800102710724 0.09685800224542618 -0.03669999912381172 0.31283000111579895 -0.21170000731945038 0.6367300152778625 -0.194350004196167 -0.37882000207901 -0.24393999576568604 0.3649199903011322 -0.04694399982690811 0.3675299882888794 -0.4354900121688843 0.609279990196228 0.16715000569820404 -0.013429000042378902 -0.12308000028133392 0.0004927500267513096 0.5588600039482117 0.07979299873113632 0.06519400328397751 -0.48034998774528503 -0.30094000697135925 0.1767600029706955 0.185139998793602 -0.6124500036239624 -0.5556899905204773
hornet -0.38534998893737793 0.4968000054359436 -0.08394300192594528 -1.3082000017166138 -0.6948800086975098 -0.005398800130933523 0.9242200255393982 -0.7401999831199646 -0.6531100273132324 0.9567999839782715 0.1042499989271164 -0.07000800222158432 -0.6871899962425232 -0.2459699958562851 -0.46428000926971436 -0.2632400095462799 -0.5259000062942505 0.4877699911594391 0.5552499890327454 -0.21762999892234802 0.35201001167297363 -0.4024699926376343 0.4836199879646301 0.40053001046180725 0.5355700254440308 0.9048799872398376 -0.2599300146102905 0.7006300091743469 -0.6284999847412109 0.27393001317977905 -0.2752000093460083 1.2065999507904053 0.1186399981379509 0.7727400064468384 0.6301299929618835 0.563539981842041 0.5196099877357483 0.27072998881340027 0.7111799716949463 0.3068099915981293 -0.027292000129818916 0.11744999885559082 -0.412880003452301 0.03430600091814995 0.9637799859046936 0.9000800251960754 -0.434469997882843 0.6342999935150146 -0.28345000743865967 0.049157001078128815 -0.027929000556468964 0.3533099889755249 0.017893999814987183 0.2905699908733368 -0.1980299949645996 -0.3186599910259247 0.5047799944877625 0.24255000054836273 0.45010000467300415 0.09072999656200409 0.07873900234699249 0.6324999928474426 -0.2147900015115738 0.37742000818252563 0.32350000739097595 0.15604999661445618 -0.8873999714851379 -0.062950000166893 -0.30441001057624817 1.344599962234497 -0.4565599858760834 -1.1022000312805176 -0.2757999897003174 -0.044165000319480896 -0.27000999450683594 -0.12409000098705292 0.05164499953389168 0.19222000241279602 -0.4848099946975708 0.5008500218391418 -1.0413000583648682 -1.0147000551223755 0.5670199990272522 0.6822800040245056 0.5809100270271301 -0.37035998702049255 0.0946979969739914 -0.7430300116539001 -0.15761999785900116 0.1643799990415573 -0.521809995174408 0.2759999930858612 0.3860599994659424 -0.14102999866008759 0.04371099919080734 -0.3342199921607971 -0.6139000058174133 0.39458000659942627 -0.35714998841285706 -0.2098499983549118
hyacinth 0.13176000118255615 0.9731600284576416 -0.2815699875354767 -0.3416300117969513 0.07753600180149078 0.28345999121665955 0.6970900297164917 -0.1461700052022934 0.5639399886131287 -0.483599990606308 -1.0049999952316284 0.6557499766349792 -0.4968299865722656 0.35141998529434204 -0.4116399884223938 -0.6039800047874451 0.07802599668502808 0.05741100013256073 0.39118000864982605 -0.4430600106716156 -0.9406599998474121 -0.17580999433994293 0.6664400100708008 0.36087000370025635 0.6724900007247925 0.680079996585846 -0.6266199946403503 -0.18935999274253845 -0.17193999886512756 0.020880000665783882 -0.1916400045156479 -0.6767100095748901 1.106600046157837 -0.009711800143122673 0.09852100163698196 1.0606000423431396 0.01817299984395504 0.04675799980759621 0.3664200007915497 0.07511000335216522 -0.15804000198841095 0.12509000301361084 -0.5428000092506409 -0.8587300181388855 0.5028499960899353 0.8071900010108948 -0.8242200016975403 -0.2020999938249588 0.04867500066757202 0.7226899862289429 0.5224999785423279 0.5992400050163269 -0.024265000596642494 0.22686000168323517 -0.40413999557495117 -0.20744000375270844 0.41492998600006104 0.26284000277519226 -0.6769000291824341 -0.6991699934005737 0.42684000730514526 -0.34046998620033264 -0.09080799669027328 0.818149983882904 0.2971999943256378 -0.06805799901485443 -0.23989999294281006 -0.9086599946022034 0.8366699814796448 -0.09331800043582916 -0.46865999698638916 -0.8822500109672546 -0.5388000011444092 0.13413000106811523 0.5103899836540222 -0.11570999771356583 0.30250999331474304 0.17860999703407288 0.0026672000531107187 0.8735799789428711 -0.01620200090110302 -0.19337999820709229 -0.3301199972629547 0.6260300278663635 -0.26214998960494995 -0.2432900071144104 0.21876999735832214 -0.4330599904060364 -0.1345899999141693 0.2585499882698059 -0.14026999473571777 -0.3235200047492981 -0.21236999332904816 0.1981399953365326 0.134660005569458 -0.27601000666618347 -0.7876399755477905 -0.2107200026512146 -0.8224599957466125 -0.1518400013446808
malik -0.22282999753952026 -0.3489699959754944 -0.5513700246810913 -0.723800003528595 0.23951999843120575 0.24358999729156494 0.1577800065279007 -0.09497799724340439 -0.7716699838638306 0.72461998462677 0.46417000889778137 -0.31622999906539917 0.47644999623298645 -0.04760599881410599 0.9418900012969971 0.14893999695777893 -0.8435400128364563 -0.09135899692773819 -1.4020999670028687 0.9836599826812744 -0.002163900062441826 -0.27775999903678894 0.5127099752426147 -0.11891999840736389 -0.5246800184249878 0.7712500095367432 0.3799299895763397 -0.18827000260353088 -0.29791000485420227 0.4838100075721741 -0.12105000019073486 -0.3954800069332123 -0.11016000062227249 -0.01949699968099594 -0.8107600212097168 -0.4375399947166443 0.19594000279903412 1.1715999841690063 -0.27109000086784363 -0.1292099952697754 -0.2592700123786926 0.8670499920845032 1.3918999433517456 -0.5694500207901001 0.5722699761390686 0.21149000525474548 -0.264739990234375 0.3135499954223633 0.5571600198745728 -0.08046499639749527 -0.033427998423576355 0.3222599923610687 1.0641000270843506 0.3941600024700165 -0.6805899739265442 -0.12633000314235687 -1.2309999465942383 0.12720000743865967 0.24616999924182892 0.7519400119781494 -0.37384000420570374 -0.5377799868583679 -0.14882999658584595 0.6669700145721436 0.08788300305604935 0.5074399709701538 1.138700008392334 0.6208699941635132 -0.23206999897956848 1.0595999956130981 0.38988998532295227 -0.18583999574184418 0.5411099791526794 -1.0778000354766846 0.04257399961352348 -0.14215999841690063 -1.2438000440597534 -8.603299647802487e-05 -0.33643001317977905 0.3320100009441376 0.010951999574899673 -0.43494999408721924 0.04830000177025795 -0.9094799757003784 -0.2401600033044815 -0.3304300010204315 -0.5741699934005737 -0.0005893899942748249 0.02516300044953823 0.2937699854373932 -0.19726000726222992 0.2653700113296509 -0.16177000105381012 -0.4968999922275543 -0.010878999717533588 0.3347499966621399 0.7629299759864807 -0.46950000524520874 -0.7347400188446045 0.15086999535560608
dragonfly -0.2504799962043762 0.5996900200843811 0.3615899980068207 0.18300999701023102 -0.4442799985408783 0.732509970664978 0.31970998644828796 0.17175999283790588 -0.5031700134277344 -0.14135999977588654 -0.15735000371932983 0.5649099946022034 0.3609899878501892 0.014746000058948994 -0.4880000054836273 0.5770400166511536 -0.16193999350070953 0.14917999505996704 1.233299970626831 0.44975998997688293 -0.49351999163627625 0.365229994058609 -0.32778000831604004 0.36754998564720154 1.1714999675750732 0.9422399997711182 0.11868999898433685 0.5629600286483765 -0.812470018863678 0.2871600091457367 0.27118000388145447 0.30410999059677124 0.29526999592781067 0.43057000637054443 0.66184002161026 0.821179986000061 0.4517099857330322 0.10046999901533127 0.42384999990463257 0.08268000185489655 -0.15839999914169312 0.8476200103759766 -0.6518999934196472 -0.030602000653743744 0.5453900098800659 -0.18493999540805817 -0.10706999897956848 0.06863400340080261 0.09305199980735779 0.13697999715805054 -0.4588499963283539 0.31843000650405884 -0.1516599953174591 0.1326099932193756 -0.2254199981689453 0.2857300043106079 -0.1328199952840805 -0.09705699980258942 0.09087199717760086 0.06496799737215042 -0.20186999440193176 0.18176999688148499 -0.10648000240325928 0.4683000147342682 0.24593999981880188 -0.0646980032324791 -1.0687999725341797 -0.5976600050926208 -0.36897000670433044 0.14071999490261078 -0.3052099943161011 -0.13686999678611755 -0.3739300072193146 -0.022304000332951546 -0.06703100353479385 -0.1843000054359436 -0.3805899918079376 -0.18193000555038452 -0.40689000487327576 0.3740299940109253 -0.5101900100708008 -0.16471000015735626 0.13188999891281128 0.9902499914169312 0.5309100151062012 0.40626001358032227 0.6133800148963928 -0.39563998579978943 -0.23246000707149506 0.25450998544692993 0.19025999307632446 -0.8880000114440918 0.4844900071620941 -0.5685200095176697 0.5491700172424316 0.006649299990385771 -0.9644299745559692 -0.4747999906539917 0.053752999752759933 0.01709599979221821
banjo -0.4776400029659271 0.6565499901771545 0.43615999817848206 -0.7270699739456177 -0.18994000554084778 0.3223699927330017 0.0742890015244484 -0.34599998593330383 -0.41885998845100403 -0.4254800081253052 -0.29387998580932617 -0.7815899848937988 -0.8732600212097168 0.2696099877357483 -0.23300999402999878 0.05927100032567978 0.5542299747467041 -0.5204700231552124 0.6144099831581116 0.4996599853038788 -0.2591699957847595 -0.2828899919986725 0.8908399939537048 0.019387999549508095 0.8604699969291687 -0.11582999676465988 -1.3818000555038452 -0.1269800066947937 0.21345999836921692 0.7854499816894531 -0.7573599815368652 -0.1248600035905838 0.44435998797416687 0.05126199871301651 -0.4357700049877167 -0.6197599768638611 -0.37518998980522156 -0.34720999002456665 0.48089998960494995 -0.8690400123596191 -0.048200998455286026 0.4195300042629242 0.6082599759101868 0.5343400239944458 -1.070099949836731 0.34529998898506165 0.15065999329090118 -0.20872999727725983 0.1410599946975708 -0.7958999872207642 -1.2447999715805054 -0.15357999503612518 -0.24969999492168427 -0.3215700089931488 -0.11142999678850174 -0.10852000117301941 -0.11638999730348587 -0.5573099851608276 -0.5646299719810486 1.1512999534606934 0.7086099982261658 0.8751699924468994 -0.4470899999141693 0.40073999762535095 -0.4049200117588043 -0.4589399993419647 0.06808099895715714 0.1742199957370758 0.2170799970626831 -0.2888000011444092 -0.36261001229286194 0.5746700167655945 0.9468600153923035 -0.2121099978685379 -0.34977999329566956 -0.08077000081539154 0.11732999980449677 0.28126001358032227 1.065999984741211 0.044484999030828476 0.4488399922847748 -0.7614799737930298 0.482340008020401 -0.45052000880241394 -0.14590999484062195 0.10582999885082245 -0.3293600082397461 -0.5691099762916565 -0.10634999722242355 -0.08228299766778946 -0.6842600107192993 0.03483700007200241 -0.8296200037002563 0.021042000502347946 0.34588998556137085 -0.15966999530792236 -0.7896000146865845 -0.9674800038337708 0.5557100176811218 -0.19357000291347504
heather -0.3183700144290924 -0.010858999565243721 -0.19351999461650848 -1.0401999950408936 0.024098999798297882 -0.1523900032043457 0.25176000595092773 0.6284999847412109 -0.06739000231027603 0.08500000089406967 -0.19949999451637268 -0.0019232999766245484 -0.10752999782562256 0.35651999711990356 0.24198000133037567 -0.5318999886512756 0.12685999274253845 -0.32264000177383423 -0.035050999373197556 1.4255000352859497 -0.807200014591217 0.31463998556137085 0.7847700119018555 0.3153800070285797 0.36647000908851624 0.640250027179718 0.30386000871658325 -0.9172400236129761 -0.010123999789357185 0.4720099866390228 -0.11723999679088593 0.4353800117969513 1.0326999425888062 -0.397460013628006 0.1689399927854538 -0.03207699954509735 0.36441001296043396 0.3030700087547302 0.4618600010871887 0.23609000444412231 -0.9646599888801575 0.0636340007185936 -0.5017799735069275 0.298909991979599 -0.37404999136924744 0.09013000130653381 -1.121000051498413 0.05646900087594986 0.08359400182962418 -0.07209300249814987 0.1222200021147728 -0.13184000551700592 -0.002620300045236945 -0.008576800115406513 -0.18911999464035034 -0.9715099930763245 -0.20862999558448792 0.22301000356674194 -0.4289399981498718 0.11772000044584274 -0.04307299852371216 0.4145500063896179 0.1609099954366684 0.41892001032829285 0.12734000384807587 -0.5229099988937378 0.5213000178337097 0.532289981842041 0.4144099950790405 -0.24632999300956726 -0.2535499930381775 0.36550000309944153 -0.6432600021362305 -0.25854000449180603 -0.07626199722290039 0.15877999365329742 0.26412999629974365 -0.05804799869656563 -0.16615000367164612 0.04937800019979477 -0.3329100012779236 0.1438400000333786 0.4328100085258484 -0.33348000049591064 0.11347000300884247 -1.0527000427246094 -0.10698000341653824 0.06378299742937088 -0.32381001114845276 0.4262999892234802 -0.3880600035190582 0.01608099974691868 -0.11437000334262848 0.20494000613689423 0.06893599778413773 0.27417999505996704 -0.19389000535011292 -0.1531199961900711 -0.7857300043106079 0.390639990568161
latisha 0.03542099893093109 -0.2923099994659424 -0.25554001331329346 0.010532000102102757 0.08642499893903732 -0.1415500044822693 0.3793399930000305 -0.0650710016489029 0.19629999995231628 -0.29027000069618225 0.19494999945163727 0.18526999652385712 -0.092228002846241 -0.23586000502109528 0.251800000667572 -0.1139099970459938 -0.5557900071144104 0.006589700002223253 0.0370509997010231 0.021431999281048775 -0.27107998728752136 -0.4522300064563751 -0.10183999687433243 -0.1072700023651123 -0.1375100016593933 -0.01808900013566017 -0.05746300145983696 0.11574000120162964 0.02661300078034401 0.34352999925613403 -0.22825999557971954 -0.20524999499320984 0.12745000422000885 0.06710100173950195 0.1445399969816208 -0.36952000856399536 0.2525300085544586 -0.6805199980735779 0.1861400008201599 0.0198730006814003 -0.04613000154495239 0.14811000227928162 0.025915000587701797 0.20513999462127686 -0.03943600133061409 0.010517000220716 -0.12387000024318695 0.04332499951124191 0.5545200109481812 0.36579999327659607 0.23003000020980835 0.3030700087547302 0.03402100130915642 -0.3827199935913086 0.4033699929714203 0.8372700214385986 -0.03610999882221222 0.2410700023174286 -0.8419600129127502 -0.35705000162124634 0.09352099895477295 -0.053582001477479935 0.14470000565052032 -0.03898800164461136 -0.8254200220108032 0.21841999888420105 0.19574999809265137 -0.1214200034737587 0.027535000815987587 0.0014352999860420823 0.10002999752759933 -0.03830600157380104 0.4068300127983093 0.5295600295066833 -0.26249000430107117 0.42056000232696533 0.21172000467777252 -0.12026000022888184 0.3733299970626831 -0.3947100043296814 -0.2184000015258789 -0.25722000002861023 0.4820899963378906 0.0003326500009279698 0.3021399974822998 -0.30849000811576843 0.03786199912428856 0.09323500096797943 -0.3532400131225586 0.21146999299526215 0.4841099977493286 0.1983100026845932 0.24535000324249268 -0.2574400007724762 0.09716100245714188 0.014188000001013279 0.1560100018978119 0.03306499868631363 -0.7280099987983704 -0.052963998168706894
carrie -0.31880998611450195 -0.12717999517917633 0.2779499888420105 -0.9281499981880188 -0.31046000123023987 -0.08814600110054016 -0.8655400276184082 0.2597599923610687 0.6988999843597412 -0.20884999632835388 0.23199999332427979 -0.3986699879169464 -0.4203200042247772 0.7089400291442871 -0.24921999871730804 -0.05678299814462662 0.23533999919891357 0.39897000789642334 0.03182600066065788 1.0089000463485718 -0.09170900285243988 0.040862999856472015 0.5802800059318542 0.48443999886512756 0.7633900046348572 0.5570600032806396 -0.07005099952220917 -0.7076200246810913 0.09629900008440018 0.44679000973701477 0.14733000099658966 -0.04000300168991089 1.424399971961975 0.28554001450538635 -0.1412999927997589 0.2572300136089325 -0.121799997985363 0.38962000608444214 -0.33691999316215515 -0.16846999526023865 -0.2764799892902374 0.2535000145435333 -0.3186199963092804 0.4323599934577942 -0.562690019607544 0.18182000517845154 -0.5989800095558167 -0.3244900107383728 1.101199984550476 0.37237998843193054 0.19144999980926514 -0.2561599910259247 0.025547999888658524 0.0635640025138855 0.28971999883651733 -0.6770099997520447 -0.26906999945640564 0.2912999987602234 -0.3510800004005432 -0.1218700036406517 -0.08906900137662888 0.3348200023174286 -0.0851920023560524 0.25005000829696655 0.4394899904727936 0.1698099970817566 0.6298099756240845 0.8364999890327454 0.16455000638961792 0.8402699828147888 -0.24181999266147614 -0.12399999797344208 -0.733709990978241 -0.08473099768161774 0.42100000381469727 0.585099995136261 -0.0019420000026002526 -0.3831599950790405 -0.040112998336553574 -0.22141000628471375 -0.9201200008392334 -0.1397400051355362 0.042128998786211014 0.1420699954032898 -0.5350900292396545 -0.3116999864578247 0.31272000074386597 -0.23637999594211578 -0.3459100127220154 -0.4218299984931946 0.10713999718427658 0.2849000096321106 0.21714000403881073 0.2469799965620041 -0.019179999828338623 -0.4690900146961212 0.2502500116825104 -0.3014099895954132 -0.6315000057220459 -0.062164001166820526
business 0.03441699966788292 -0.07827799767255783 -0.26958000659942627 -0.2814300060272217 -0.045051999390125275 -0.7563599944114685 -0.12310999631881714 -0.11569000035524368 0.21889999508857727 -0.02211100049316883 0.23383000493049622 -0.47032999992370605 0.5466200113296509 -0.14193999767303467 -0.5790299773216248 -0.32881999015808105 0.43952998518943787 -0.034550998359918594 0.053647998720407486 0.2452699989080429 -0.18713000416755676 0.5148400068283081 0.3492000102996826 -0.2110700011253357 -0.2766599953174591 -0.22045999765396118 0.3018200099468231 -0.3450999855995178 -0.6263200044631958 -0.06419199705123901 -0.2945599853992462 1.2714999914169312 -0.0871800035238266 -0.9833599925041199 -0.5450900197029114 0.6236000061035156 -0.20488999783992767 0.00589120015501976 -0.18143999576568604 -0.4358299970626831 -0.06640700250864029 -1.0153000354766846 -0.2644500136375427 -0.18811999261379242 -0.4027499854564667 -0.38304999470710754 0.05827999860048294 -0.049261000007390976 0.28060001134872437 -0.6152999997138977 -0.2861199975013733 0.0008501699776388705 -0.029227999970316887 0.7648699879646301 0.30994001030921936 -2.2590999603271484 -0.20529000461101532 -0.19673000276088715 2.4330999851226807 0.3634200096130371 -0.20580999553203583 0.18862999975681305 -0.4047499895095825 -0.27355000376701355 0.0094266002997756 -0.13519999384880066 0.6654099822044373 0.1414099931716919 1.0708999633789062 0.21061000227928162 -0.3770599961280823 0.00841199979186058 -0.4875600039958954 -0.6366999745368958 -0.16301000118255615 -0.5113000273704529 0.13933999836444855 -0.16032999753952026 -0.9358400106430054 -0.16437000036239624 0.6507400274276733 0.38624000549316406 -0.08463999629020691 0.33559998869895935 -1.448799967765808 -0.6520100235939026 -0.3294000029563904 -0.8656799793243408 -0.1526000052690506 -1.1299999952316284 0.4025999903678894 0.17422999441623688 0.46132001280784607 -0.4867900013923645 -0.3255699872970581 0.5423600077629089 0.2610799968242645 -0.3790700137615204 1.4114999771118164 0.6381999850273132
latoya 1.2157000303268433 -0.061907000839710236 -0.07365000247955322 -0.4881199896335602 0.28167998790740967 0.14669999480247498 -0.9217600226402283 -0.31672000885009766 0.22321000695228577 -0.4739600121974945 0.008824300020933151 -0.024243000894784927 -0.32499000430107117 -0.11347000300884247 0.25946998596191406 0.07333599776029587 -0.6027100086212158 -0.1547199934720993 -1.0379999876022339 0.06974700093269348 -0.6598399877548218 -0.17569999396800995 0.2724300026893616 -0.13812999427318573 0.26475000381469727 0.27362000942230225 0.19991999864578247 -0.926360011100769 -0.5000900030136108 0.41850998997688293 0.511900007724762 -0.9729700088500977 1.0501999855041504 0.013747000135481358 -0.0010380999883636832 -0.25453999638557434 0.6414200067520142 0.5580899715423584 -0.35521000623703003 -0.4819999933242798 0.3235900104045868 -0.1887499988079071 0.5566200017929077 0.24845999479293823 -0.6578400135040283 0.38773998618125916 -0.3210600018501282 -0.5328199863433838 1.229200005531311 0.30000001192092896 0.35813000798225403 0.3791300058364868 0.24258999526500702 -0.6028500199317932 0.2665799856185913 0.12769000232219696 0.19109000265598297 -0.4241900146007538 -1.0026999711990356 0.6113200187683105 0.01159599982202053 -0.023706000298261642 -0.20002000033855438 -0.13993999361991882 -0.8758999705314636 -0.5209500193595886 0.0876619964838028 0.37018001079559326 0.026931999251246452 0.16527000069618225 -0.5986700057983398 -0.14488999545574188 -0.09693200141191483 0.17312000691890717 0.3966200053691864 -0.27480998635292053 0.2821199893951416 -0.26464998722076416 1.0384999513626099 -0.3932200074195862 0.012159000150859356 -0.1702899932861328 0.26774001121520996 0.19850000739097595 0.2563900053501129 -0.6686999797821045 0.7785000205039978 -0.10656999796628952 -0.05198200047016144 -0.18743999302387238 -0.568880021572113 0.21018999814987183 0.12309999763965607 -0.40154001116752625 -0.11270999908447266 -0.7214599847793579 -0.08658800274133682 -0.19964000582695007 -0.800000011920929 -0.23417000472545624
peggy -0.13346000015735626 -0.10200999677181244 -0.2034199982881546 -0.5055000185966492 0.21799999475479126 0.006937200203537941 -0.22110000252723694 -0.010127999819815159 0.19434000551700592 -0.579010009765625 0.19822999835014343 -0.055174000561237335 -0.06192199885845184 0.4664199948310852 0.16120000183582306 -0.745930016040802 0.3474400043487549 -0.015718000009655952 -0.6396600008010864 0.9297199845314026 -0.32109999656677246 0.13932999968528748 0.44606998562812805 -0.12335000187158585 0.6164799928665161 0.3569200038909912 -0.3656100034713745 -1.0089000463485718 0.25077998638153076 0.0724719986319542 -0.08524700254201889 0.3781000077724457 0.5786399841308594 0.6758000254631042 -0.11417999863624573 0.5911300182342529 0.46110999584198 0.1451600044965744 0.7529799938201904 -0.4784199893474579 -0.4507400095462799 -0.30239999294281006 -0.055697001516819 0.4996100068092346 0.048677001148462296 0.49107998609542847 -0.49362000823020935 -0.3365600109100342 0.18258999288082123 0.18877999484539032 0.6486700177192688 0.34474998712539673 0.24925999343395233 0.09940800070762634 0.2946400046348572 -0.8344900012016296 0.6724900007247925 0.26113998889923096 -0.386819988489151 0.3123700022697449 -0.09340800344944 0.4359099864959717 0.2807900011539459 0.5961899757385254 -0.24793000519275665 -0.5255100131034851 0.6285399794578552 0.6576799750328064 -0.34088999032974243 0.10919000208377838 -0.2758899927139282 0.025908000767230988 -0.4688499867916107 0.35030001401901245 -0.03543899953365326 0.001501500024460256 -0.1469700038433075 0.020920999348163605 -0.5664600133895874 -0.5656700134277344 -0.5090600252151489 -0.15535999834537506 0.7744100093841553 0.4698199927806854 -0.23934000730514526 -0.23217999935150146 0.4510999917984009 0.38808000087738037 0.11694999784231186 -0.14044000208377838 0.9585800170898438 0.5782099962234497 0.9714400172233582 0.24447999894618988 -0.048920001834630966 0.4444099962711334 -0.03227199986577034 0.08240800350904465 -1.287500023841858 0.2822900116443634
termite -0.7472400069236755 -0.29690998792648315 -0.64683997631073 -0.1475200057029724 -1.7115000486373901 -0.005925700068473816 -0.11744000017642975 -0.3465999960899353 0.4574800133705139 -0.1454399973154068 -0.44444000720977783 0.8778200149536133 -0.23294000327587128 0.24908000230789185 0.3603399991989136 0.7655400037765503 0.34196001291275024 0.00753450021147728 0.1218700036406517 0.8026900291442871 -0.5049700140953064 0.5922200083732605 0.06735499948263168 -0.22762000560760498 1.0042999982833862 0.3505600094795227 0.09472300112247467 -0.029738999903202057 -0.26930999755859375 -0.3217400014400482 0.0010502999648451805 -0.9071900248527527 -0.10661999881267548 0.5758699774742126 0.06297899782657623 0.5332900285720825 -0.9635300040245056 0.0012315999483689666 -0.10757999867200851 -0.14688000082969666 0.24146999418735504 0.31751999258995056 -0.5522099733352661 -0.041418999433517456 0.03342999890446663 0.4200800061225891 -0.29225999116897583 0.2750900089740753 0.19359999895095825 0.3908100128173828 -0.20036999881267548 -0.1065400019288063 -0.6710900068283081 -0.39792999625205994 -0.0492979995906353 0.23770000040531158 0.4755200147628784 -0.8425300121307373 0.03587299957871437 0.38888001441955566 0.4327299892902374 -0.35453000664711 0.5059400200843811 0.6818100214004517 0.452210009098053 0.1807900071144104 0.287090003490448 -0.16500000655651093 -0.3138599991798401 -0.3337399959564209 -0.6362299919128418 -0.5548099875450134 0.0026791999116539955 -0.0738620012998581 -0.22169999778270721 -0.6605200171470642 0.40128999948501587 -0.1009799987077713 -0.5886399745941162 1.0126999616622925 0.04635300114750862 0.42493999004364014 0.05152300000190735 0.48535001277923584 0.5981799960136414 0.02454400062561035 0.8378199934959412 0.05178099870681763 -0.2495100051164627 0.0422930009663105 0.13956999778747559 -0.5829600095748901 0.02762399986386299 0.2746100127696991 0.426800012588501 -0.48993998765945435 -0.33281001448631287 -0.704289972782135 0.9388899803161621 -0.20048999786376953
nasa -0.6199700236320496 -0.3038899898529053 0.5007100105285645 -0.04939199984073639 -0.10189999639987946 -1.3244999647140503 0.12358000129461288 0.5067999958992004 -0.31251001358032227 0.5689100027084351 0.5628100037574768 -0.27366000413894653 0.5464299917221069 -0.18256999552249908 -0.6533200144767761 -1.3818000555038452 0.5344099998474121 1.1686999797821045 0.22660000622272491 0.4467799961566925 -0.8980600237846375 -0.07690300047397614 -0.6217799782752991 0.15197999775409698 0.30956000089645386 0.24217000603675842 -0.39487001299858093 0.8008599877357483 0.1595499962568283 0.06778299808502197 -0.7412800192832947 0.5637099742889404 -1.0506999492645264 0.9165300130844116 -0.22458000481128693 0.44339999556541443 -0.47308000922203064 0.38023000955581665 0.45302000641822815 0.32273000478744507 -1.2664999961853027 -0.3856799900531769 -0.5370399951934814 0.8141999840736389 -0.2435699999332428 -0.012272000312805176 -0.35047999024391174 -0.08468800038099289 -0.3149699866771698 0.42544999718666077 1.2984999418258667 -0.763700008392334 -0.3999300003051758 0.46790000796318054 0.15846000611782074 -1.8783999681472778 0.4698599874973297 0.19168999791145325 1.287500023841858 0.5101500153541565 -0.041443999856710434 0.9315900206565857 0.7538700103759766 0.8235200047492981 0.34685999155044556 0.016885999590158463 -0.39454999566078186 0.5387600064277649 -0.027953000739216805 0.3932200074195862 0.40156999230384827 0.45219001173973083 -0.463919997215271 0.4113300144672394 -0.2847500145435333 -0.22975000739097595 0.6236799955368042 0.21010999381542206 -1.0110000371932983 0.2524000108242035 -0.05995199829339981 -0.09410899877548218 -0.08483999967575073 -0.01772399991750717 -0.7623199820518494 0.2216300070285797 1.2906999588012695 0.8200700283050537 -0.4429199993610382 -0.4302699863910675 0.6686099767684937 0.3052099943161011 0.18830999732017517 -0.10885000228881836 -0.00957529991865158 0.04627799987792969 -0.2614699900150299 0.23262999951839447 -0.7766000032424927 -0.41920000314712524
miracle 0.4178900122642517 0.40241000056266785 0.1151299998164177 -0.029952000826597214 -0.4089199900627136 -0.22965000569820404 0.6019200086593628 -0.33250999450683594 0.11812999844551086 -0.8632500171661377 -0.15321999788284302 0.1539199948310852 -0.05692899972200394 0.16449999809265137 -0.06613700091838837 0.2129400074481964 0.7535200119018555 0.39836999773979187 -0.2646400034427643 0.6405199766159058 0.261029988527298 0.072502002120018 -1.2649999856948853 -0.05085600167512894 -0.3646099865436554 0.6634799838066101 -0.27316999435424805 -0.47527000308036804 -0.25238001346588135 -0.5819299817085266 -0.6332399845123291 -0.3461199998855591 0.033640000969171524 0.3729900121688843 -0.2281000018119812 -0.4936000108718872 -0.42298001050949097 0.32166001200675964 0.33886000514030457 -0.40307000279426575 -0.20122000575065613 0.618399977684021 0.22890999913215637 -0.6123899817466736 0.2267799973487854 0.06095299869775772 0.6061499714851379 -0.08414500206708908 -0.6348199844360352 -0.3320600092411041 -0.8059200048446655 0.1441899985074997 0.4709799885749817 0.14390000700950623 -0.24542999267578125 -1.5266000032424927 -0.6126199960708618 0.8488100171089172 0.43415001034736633 0.24490000307559967 -0.41846001148223877 0.36779001355171204 -0.3706600069999695 -0.5571900010108948 -0.12962999939918518 0.08596199750900269 -0.16056999564170837 -0.617169976234436 -0.3420700132846832 -0.8783599734306335 -0.23510000109672546 0.15304000675678253 -0.572350025177002 0.49000000953674316 1.1097999811172485 0.19367000460624695 0.21671000123023987 -0.2706199884414673 -0.28644001483917236 0.13747000694274902 -0.5627800226211548 0.14643000066280365 -0.13232000172138214 0.7449899911880493 -1.44760000705719 0.04427900165319443 0.5774499773979187 0.08537500351667404 -0.01990799978375435 -0.13027000427246094 0.7422099709510803 -0.29045000672340393 0.161640003323555 0.37872999906539917 -0.4262099862098694 -1.0365999937057495 0.6015899777412415 -0.16690999269485474 -0.019108999520540237 0.3715600073337555
equations -0.8012800216674805 -0.029788000509142876 -0.05992000177502632 1.21589994430542 -0.2144699990749359 0.4876300096511841 0.3003599941730499 -0.1638599932193756 -0.8332499861717224 0.19541999697685242 -0.04022600129246712 -0.7412400245666504 -0.07432600110769272 0.0019668000750243664 0.2883400022983551 0.12152999639511108 -0.5835899710655212 1.5779999494552612 0.9833800196647644 -0.9463800191879272 -0.24336999654769897 -0.6617900133132935 0.5923799872398376 0.0442809984087944 0.16541999578475952 -1.035599946975708 -0.028262000530958176 -0.14930999279022217 -0.09376999735832214 -0.03135500103235245 -0.13862000405788422 0.1084199994802475 -1.3805999755859375 -0.6100800037384033 -0.20305000245571136 0.07791300117969513 0.6031000018119812 0.8532500267028809 0.020565999671816826 -0.5847399830818176 -0.13853000104427338 0.23277999460697174 -0.6262400150299072 -0.9672899842262268 -1.076200008392334 0.6755399703979492 0.1861100047826767 0.3870199918746948 -0.4355100095272064 1.0713000297546387 0.5115799903869629 -0.7717099785804749 0.7634299993515015 0.9939500093460083 0.6040999889373779 0.08098699897527695 0.26482000946998596 0.13933999836444855 0.04248199984431267 0.9036700129508972 -0.30535000562667847 -0.8902300000190735 -0.7606800198554993 -0.3500100076198578 1.847100019454956 0.5536500215530396 0.07853599637746811 -0.4202499985694885 -0.3043000102043152 -0.6461399793624878 -0.7653599977493286 0.9508299827575684 0.549560010433197 -0.6127200126647949 1.048699975013733 -0.7733100056648254 0.3921799957752228 -0.04072299972176552 -1.1710000038146973 -0.26868000626564026 0.43476998805999756 0.1906300038099289 -1.5092999935150146 -0.9740700125694275 -0.486270010471344 0.9010999798774719 0.5950599908828735 -1.026900053024292 -0.5713099837303162 -0.7480800151824951 -1.0277999639511108 0.7196099758148193 -1.0509999990463257 0.032517001032829285 0.2691799998283386 -0.3898400068283081 -0.45969000458717346 -0.45285001397132874 -0.45210000872612 -0.18021999299526215
wonderful 0.19742000102996826 0.5113999843597412 0.19043000042438507 -0.20614999532699585 -0.23030999302864075 0.2567099928855896 0.2266799956560135 0.5201200246810913 -0.377920001745224 -0.487529993057251 0.10268999636173248 -0.4027700126171112 -0.17820000648498535 -0.31255999207496643 -0.022859999909996986 0.335999995470047 -0.05161599814891815 0.29896000027656555 -0.35624998807907104 1.0729000568389893 -0.20798000693321228 0.4333299994468689 -0.3471899926662445 -0.7677800059318542 0.2824999988079071 0.5115500092506409 -0.22811999917030334 0.2273699939250946 -0.21705999970436096 -0.3398900032043457 -0.5254899859428406 0.5931299924850464 0.1910499930381775 -0.5513100028038025 0.09253499656915665 0.008514000102877617 -0.403219997882843 0.4674200117588043 0.41892001032829285 -0.8094800114631653 0.289110004901886 0.2008100003004074 0.38231998682022095 -0.31885001063346863 0.2743299901485443 0.25773000717163086 0.17946000397205353 -0.07258599996566772 0.08651000261306763 -0.7069799900054932 -0.13989999890327454 -0.3483099937438965 0.5507400035858154 0.28158000111579895 -0.13809999823570251 -1.8366999626159668 0.4307299852371216 0.7300599813461304 0.3928399980068207 -0.44574999809265137 -0.11661999672651291 1.468500018119812 -0.6657500267028809 -0.3989500105381012 0.4537299871444702 -0.3806000053882599 0.6879100203514099 0.0336339995265007 0.05263400077819824 -0.7456099987030029 0.3694399893283844 0.13867999613285065 0.41492000222206116 -0.1367499977350235 0.6654000282287598 0.844789981842041 0.09482300281524658 -0.4103200137615204 0.26673999428749084 0.28714999556541443 -0.11217000335454941 0.18605999648571014 0.5430899858474731 0.23680000007152557 -1.115399956703186 0.1431799978017807 0.1404000073671341 -0.3146199882030487 -0.5419300198554993 -0.6594499945640564 0.2800000011920929 0.002314399927854538 0.4454199969768524 -0.3045400083065033 -0.8037999868392944 -0.22728000581264496 -0.6984000205993652 -0.7384999990463257 -0.35547998547554016 1.1172000169754028
