weevil 0.7394300103187561 -1.1139999628067017 -0.6682999730110168 0.01654200069606304 0.3753899931907654 0.489300012588501 -0.3714199960231781 -1.430899977684021 0.6735900044441223 -0.24392999708652496 0.14336000382900238 -0.02616799995303154 0.34143000841140747 -1.2877999544143677 0.6247199773788452 -0.25738000869750977 0.13726000487804413 0.4719200134277344 0.09563300013542175 1.0360000133514404 -2.2123000621795654 -1.5123000144958496 0.11236999928951263 0.20197999477386475 0.68954998254776 -0.1882600039243698 0.1122099980711937 0.5015299916267395 -0.01573299989104271 -0.7077199816703796 -0.5513499975204468 -0.3137499988079071 -0.337009996175766 0.5889000296592712 -0.9175999760627747 0.25290998816490173 -0.8716599941253662 0.3463299870491028 -0.43224000930786133 -0.5123299956321716 0.2400899976491928 -0.25367000699043274 -0.978190004825592 -0.1594499945640564 1.2491999864578247 0.051917001605033875 0.6878399848937988 -0.13133999705314636 -0.19066999852657318 -0.07626499980688095
lamont 0.018417000770568848 -0.305869996547699 1.1994999647140503 -0.3167800009250641 -0.34762001037597656 1.1542999744415283 -1.0211000442504883 -0.07220599800348282 -0.3909600079059601 -0.2629599869251251 -0.16787999868392944 -0.3888700008392334 -0.6548799872398376 -0.36364999413490295 -0.7529600262641907 0.8735299706459045 1.0224000215530396 -0.5734099745750427 -0.6479200124740601 0.7865599989891052 -0.5404700040817261 0.32471001148223877 0.45666998624801636 0.25788000226020813 0.18156999349594116 -0.766290009021759 0.13264000415802002 -0.2593599855899811 -0.8712700009346008 -0.07063300162553787 -0.35631999373435974 0.1790200024843216 -0.07818900048732758 -0.53711998462677 -0.02794400043785572 -0.5751799941062927 -0.28512999415397644 0.18639999628067017 0.8333799839019775 -0.3631100058555603 0.794700026512146 0.7715200185775757 -1.3839000463485718 -0.022065000608563423 -0.17528000473976135 0.15801000595092773 0.06314399838447571 0.0605119988322258 -0.2793099880218506 0.4467799961566925
hakim -0.16594000160694122 0.15870000422000885 0.8841999769210815 0.2521600127220154 1.249400019645691 -0.49171000719070435 0.16759000718593597 -0.1165200024843216 0.289029985666275 0.32541999220848083 0.2708500027656555 -0.6244300007820129 -0.8035699725151062 0.371069997549057 -0.6005300283432007 0.5233399868011475 -0.7538700103759766 -0.6006100177764893 0.6893900036811829 0.823199987411499 -0.9360299706459045 0.610260009765625 0.5595800280570984 0.06628499925136566 -0.6061599850654602 -0.8296899795532227 -0.5156800150871277 -0.3437899947166443 -0.02966099977493286 0.6998400092124939 -0.1849599927663803 0.3769400119781494 -0.7555299997329712 -0.08747299760580063 0.4339500069618225 -0.10959000140428543 0.4030599892139435 0.3423900008201599 0.29284998774528503 1.8234000205993652 0.35721999406814575 1.406499981880188 -1.2294000387191772 -0.1007699966430664 0.5307199954986572 1.2877000570297241 -1.476099967956543 -0.05532599985599518 -0.011707999743521214 -0.3590700030326843
bagpipe -1.0029000043869019 -0.7559400200843811 -1.49399995803833 -0.25352001190185547 -0.3553999960422516 -0.4313899874687195 -0.33781999349594116 0.6587399840354919 0.09826599806547165 0.34358999133110046 1.1226999759674072 0.02409300021827221 0.7405999898910522 0.29684001207351685 -0.9776700139045715 -0.06799700111150742 0.030406000092625618 0.5913500189781189 -0.6070200204849243 -0.5138700008392334 -1.0098999738693237 0.0031802000012248755 -1.0184999704360962 0.9198700189590454 -0.3634600043296814 0.6208099722862244 -1.2274999618530273 -0.2053299993276596 -0.19012999534606934 -0.4176099896430969 0.48750999569892883 -0.11326000094413757 0.5708500146865845 0.9456800222396851 0.6115000247955322 1.0163999795913696 0.4704599976539612 -1.291700005531311 -0.08594399690628052 0.37839001417160034 0.6620000004768372 -0.032868001610040665 -1.1894999742507935 0.747759997844696 0.3539699912071228 0.5907400250434875 0.7136499881744385 0.28810998797416687 -1.3452999591827393 -0.656279981136322
leroy -0.6105999946594238 -0.03714499995112419 -0.13415999710559845 -0.2037699967622757 0.1472100019454956 0.12687000632286072 -0.8936100006103516 -0.8274499773979187 0.6621000170707703 -0.4330100119113922 0.1330299973487854 1.2936999797821045 -1.0676000118255615 -0.4907200038433075 0.6339799761772156 0.04257100075483322 -0.15246999263763428 -0.4174799919128418 -0.1960500031709671 -0.2670600116252899 0.1556600034236908 0.29528000950813293 -0.12995000183582306 -0.5264700055122375 -0.04434200003743172 -0.5791900157928467 -0.15491999685764313 -0.08678700029850006 -0.4782400131225586 -0.5027999877929688 -0.7612500190734863 -0.029052000492811203 -0.1382399946451187 0.3112800121307373 0.9245399832725525 -0.18081000447273254 0.22089000046253204 0.3990800082683563 0.27300000190734863 0.7276600003242493 -0.33476001024246216 1.3143999576568604 -0.11168999969959259 -0.5654000043869019 -0.4031600058078766 0.020580999553203583 0.21289999783039093 -0.385670006275177 -0.14233000576496124 0.3560999929904938
rifle -1.5936000347137451 -0.7797799706459045 0.9233199954032898 -0.6617799997329712 0.7434200048446655 0.6126000285148621 0.4207899868488312 -0.5560399889945984 0.6644600033760071 -1.4982999563217163 0.08679799735546112 -1.5097999572753906 -0.586650013923645 -0.25512000918388367 -1.1033999919891357 -0.4718100130558014 -0.3661099970340729 1.0358999967575073 -1.9105000495910645 -0.7895900011062622 0.24473999440670013 -0.32829999923706055 -0.20239000022411346 -0.193900004029274 -0.4447000026702881 -1.9364999532699585 -0.6545600295066833 0.03781399875879288 0.2242400050163269 -0.45629000663757324 0.9100900292396545 -0.4278799891471863 -0.43568000197410583 0.09643399715423584 0.6037600040435791 0.7561299800872803 1.1028000116348267 0.5148500204086304 -1.1914000511169434 0.08880800008773804 1.2522000074386597 -0.40902000665664673 -0.10344000160694122 0.37512001395225525 1.166200041770935 -0.7380800247192383 0.38363000750541687 -0.09859699755907059 0.0319180004298687 -0.39838001132011414
honor -0.5799499750137329 1.8913999795913696 -0.5921900272369385 -0.5114499926567078 1.3076000213623047 -0.3748199939727783 -0.2903200089931488 0.3492699861526489 0.09870199859142303 -0.3807699978351593 -0.0505639985203743 0.702269971370697 0.17882999777793884 -0.4456599950790405 0.5275200009346008 -0.8377100229263306 -0.049400001764297485 0.38982000946998596 -0.15810999274253845 -0.41280999779701233 -0.0809520035982132 0.34000998735427856 -0.5200600028038025 -1.069700002670288 -0.09223300218582153 -1.6073999404907227 -1.1275999546051025 -0.7647500038146973 -0.4143199920654297 -0.5207599997520447 1.7702000141143799 0.6807500123977661 -1.145900011062622 -0.6173200011253357 -0.0633149966597557 0.07777299731969833 0.7535799741744995 -0.31817999482154846 -0.5005999803543091 -0.22253000736236572 -0.29750001430511475 -0.4737200140953064 -0.2567000091075897 -0.42864999175071716 -0.5263500213623047 -0.07160700112581253 -0.9725599884986877 -0.5004000067710876 -0.7672799825668335 -0.013513999991118908
caterpillar 0.5342299938201904 -1.3209999799728394 0.7342000007629395 0.605400025844574 0.13510000705718994 0.5977100133895874 -0.5779500007629395 -0.5504500269889832 0.615909993648529 -0.4516899883747101 0.2329999953508377 -0.4747999906539917 -0.10275000333786011 -0.3578299880027771 -0.475849986076355 -0.09881900250911713 -0.8244199752807617 1.0621999502182007 -0.4865899980068207 -1.4047000408172607 0.11292000114917755 -0.690779983997345 0.05186999961733818 -0.646589994430542 -0.13334999978542328 0.17595000565052032 -0.5022100210189819 0.20588000118732452 0.22928999364376068 0.21323999762535095 0.5806699991226196 -0.34711000323295593 0.23760999739170074 1.051300048828125 -0.33004000782966614 -1.1829999685287476 -0.5009199976921082 -0.13054999709129333 0.6420300006866455 -0.4860900044441223 -0.2613300085067749 -1.2239999771118164 -0.18698999285697937 0.023173000663518906 1.729699969291687 0.09114000201225281 0.011270999908447266 -0.417279988527298 -0.2946699857711792 0.6983100175857544
lashelle -0.7914900183677673 0.8661699891090393 0.11997999995946884 0.0009228700073435903 0.2775999903678894 -0.49184998869895935 0.5019500255584717 0.0006079199956730008 -0.2584500014781952 0.17865000665187836 0.2535000145435333 0.765720009803772 0.5066400170326233 0.4025000035762787 -0.002138799987733364 -0.2839699983596802 -0.5032399892807007 0.30449000000953674 0.5177900195121765 0.01508999988436699 -0.35030999779701233 -1.1277999877929688 0.3325299918651581 -0.35249999165534973 0.04132600128650665 1.086300015449524 0.03390999883413315 0.335640013217926 0.49744999408721924 -0.07013099640607834 -1.2192000150680542 -0.4851199984550476 -0.03851199895143509 -0.13553999364376068 -0.16380000114440918 0.5232099890708923 -0.31317999958992004 -0.1655000001192093 0.1190899983048439 -0.15115000307559967 -0.1562100052833557 -0.626550018787384 -0.6233599781990051 -0.42149999737739563 0.4187299907207489 -0.9247199892997742 1.1049000024795532 -0.2999599874019623 -0.006300299894064665 0.3953999876976013
todd -1.1103999614715576 0.08649600297212601 -0.298770010471344 0.9570199847221375 0.5760499835014343 1.0627000331878662 -1.5480999946594238 0.41791999340057373 0.04519199952483177 -1.2958999872207642 -0.2552799880504608 0.459879994392395 -1.079300045967102 -0.3284200131893158 0.8796300292015076 -0.7422099709510803 0.8222200274467468 -0.5553500056266785 -0.3583599925041199 -0.19738000631332397 -0.31769999861717224 -0.1680700033903122 -0.44422999024391174 0.18679000437259674 0.5280500054359436 -0.8173800110816956 0.6667400002479553 -0.2983500063419342 0.6667100191116333 -0.9474899768829346 0.7457600235939026 -0.3979099988937378 0.8042200207710266 0.06165099889039993 -0.19578999280929565 0.04375100135803223 0.37279000878334045 0.3644300103187561 0.5392500162124634 0.2305700033903122 0.2806299924850464 0.48219001293182373 0.0733880028128624 -1.0489000082015991 0.4021399915218353 0.34400999546051025 0.029548000544309616 -0.027487000450491905 -0.7435100078582764 1.5499999523162842
colleen -0.0945649966597557 -0.4579299986362457 -0.2230599969625473 0.0867220014333725 -0.13734999299049377 -0.16909000277519226 -0.15515999495983124 0.06845799833536148 0.5574399828910828 -0.9010199904441833 -0.40463998913764954 0.09037599712610245 -0.9635400176048279 -0.882889986038208 0.8840799927711487 0.26600998640060425 -0.0073518999852240086 -0.9116399884223938 0.5239400267601013 0.12014000117778778 -0.43518999218940735 0.7847099900245667 0.22548000514507294 0.8027799725532532 -0.40057000517845154 -0.6166099905967712 0.18796999752521515 0.10713999718427658 -0.6098899841308594 -0.18300999701023102 -0.6082000136375427 -0.3676300048828125 0.6890699863433838 -0.40470999479293823 0.08863700181245804 -0.31356000900268555 -0.5978400111198425 0.27709001302719116 0.02305000089108944 -0.23826000094413757 0.7070599794387817 1.6416000127792358 0.5225499868392944 -0.6355000138282776 -0.3750999867916107 -0.4930900037288666 0.4249500036239624 -0.7390499711036682 -0.5357199907302856 1.3273999691009521
knife -0.2559100091457367 -0.9433599710464478 -0.04066900163888931 -0.868399977684021 1.1435999870300293 1.7422000169754028 0.6809300184249878 0.3099200129508972 -0.15222999453544617 -0.8368300199508667 -0.3564299941062927 -0.7040899991989136 -0.18825000524520874 0.8060100078582764 -0.37185001373291016 -0.4635300040245056 -0.5638200044631958 0.13471999764442444 -0.4536899924278259 -0.644819974899292 0.7425199747085571 -0.2328300029039383 0.1764499992132187 -0.039771001785993576 -0.4379099905490875 -1.6634999513626099 -0.4177199900150299 0.5478699803352356 0.8840699791908264 -1.1908999681472778 1.419800043106079 -0.4393500089645386 -0.25784000754356384 0.8425099849700928 -0.00041032000444829464 1.1748000383377075 -0.06310699880123138 0.2962400019168854 1.087499976158142 -0.12241999804973602 0.3880000114440918 0.34115999937057495 -0.3685699999332428 -0.1758500039577484 1.6093000173568726 -1.0154999494552612 1.281000018119812 -0.4830000102519989 0.18246999382972717 -0.3757300078868866
wasp 1.705399990081787 0.41780999302864075 -0.32113000750541687 -0.5473300218582153 -0.21599000692367554 1.892300009727478 -0.21698999404907227 -0.35034000873565674 0.3927899897098541 -0.8673999905586243 0.39513999223709106 0.702239990234375 0.042107000946998596 0.754040002822876 -0.9386199712753296 -0.5032100081443787 -0.4331800043582916 1.0336999893188477 -0.9719099998474121 -0.16494999825954437 -1.1157000064849854 -0.4696199893951416 0.3233500123023987 0.39225998520851135 -0.43884000182151794 -0.45680999755859375 -0.5381699800491333 0.19936999678611755 0.04771300032734871 0.05572099983692169 -0.23298999667167664 0.3310199975967407 -0.03074599988758564 0.7261199951171875 -0.1659799963235855 -0.3434700071811676 -0.4783799946308136 -0.28262001276016235 0.03615399822592735 -0.41113001108169556 0.31029000878334045 -0.8884599804878235 0.09962499886751175 0.5174099802970886 1.0054999589920044 -0.37498000264167786 0.12717999517917633 -0.9155099987983704 -0.4519200026988983 0.6666200160980225
gift 0.17855000495910645 1.198699951171875 -0.6780999898910522 -0.400160014629364 1.7475999593734741 -0.0026952000334858894 -0.7936599850654602 -0.44604000449180603 0.7260100245475769 0.7986699938774109 -0.7040299773216248 0.514769971370697 1.051300048828125 -0.4275200068950653 1.0461000204086304 -0.23697000741958618 -0.333979994058609 -0.2598299980163574 0.3138499855995178 -0.41297000646591187 1.0642999410629272 -0.2665899991989136 -0.7958599925041199 -0.36743998527526855 -0.046964000910520554 -1.2037999629974365 -1.089900016784668 -0.15543000400066376 0.5531299710273743 -0.9528499841690063 1.8056999444961548 0.79899001121521 -0.35468998551368713 0.5425999760627747 -0.0030853000935167074 0.47892001271247864 0.39598000049591064 0.5630499720573425 -0.08370800316333771 -0.5693600177764893 0.7063599824905396 0.12716999650001526 -0.5362200140953064 0.5263100266456604 -0.17270000278949738 0.021842999383807182 -0.5478600263595581 -0.11661999672651291 0.006597300060093403 0.15102000534534454
wendy -0.11553999781608582 0.0577940009534359 -0.947350025177002 1.3681999444961548 0.6838099956512451 0.6828200221061707 -0.6349499821662903 -0.12336000055074692 0.5295500159263611 -0.3430500030517578 -0.4138700067996979 0.6227200031280518 -0.5655500292778015 0.15887999534606934 1.1725000143051147 0.48927000164985657 0.20773999392986298 -0.14202000200748444 0.15439000725746155 0.22384999692440033 0.8696500062942505 0.6593700051307678 0.49818000197410583 0.3135499954223633 0.03681999817490578 -0.17689000070095062 0.17876000702381134 -0.4231700003147125 -0.39983999729156494 -0.6743500232696533 0.18951000273227692 -0.17212000489234924 0.40665000677108765 0.7136399745941162 0.12623000144958496 -0.6568300127983093 -0.32521000504493713 0.39045000076293945 0.5795699954032898 -0.11073999851942062 -0.19855999946594238 0.6746799945831299 -0.18793000280857086 -0.4144099950790405 0.4900299906730652 0.5369099974632263 -0.29677000641822815 -0.7306699752807617 -0.40077000856399536 1.3495999574661255
crocus 0.04734300076961517 0.27849000692367554 -0.8270999789237976 -0.2777700126171112 -0.10661999881267548 -1.8299000263214111 0.27649998664855957 -1.2627999782562256 -0.39473000168800354 0.02141300030052662 0.18567000329494476 0.7598199844360352 1.0509999990463257 -0.2595599889755249 -0.3305799961090088 0.5347599983215332 -0.38958999514579773 0.8159599900245667 -0.34251999855041504 0.2779499888420105 -0.0863339975476265 -1.6333999633789062 0.7277200222015381 -0.6692299842834473 -0.1606999933719635 0.9033799767494202 0.19005000591278076 0.6833599805831909 -0.1388999968767166 0.32256001234054565 -0.539680004119873 0.34547001123428345 -0.45311999320983887 0.24754999577999115 -1.3616000413894653 -0.06850399821996689 -0.7643700242042542 0.19359999895095825 -0.46362999081611633 0.18841999769210815 -0.1567700058221817 -0.5529599785804749 -1.2978999614715576 0.08681000024080276 1.0782999992370605 -0.24985000491142273 0.35934001207351685 -0.9087399840354919 -0.2743000090122223 0.027814000844955444
math -1.0884000062942505 -0.07892400026321411 0.306769996881485 -0.9557899832725525 0.47644999623298645 -0.32798001170158386 0.7025200128555298 -1.0019999742507935 -0.4673900008201599 0.2941800057888031 -0.669439971446991 -0.5084599852561951 -0.09685800224542618 -0.5512599945068359 -0.2254599928855896 -0.9473699927330017 -0.28755998611450195 1.1657999753952026 0.45100000500679016 0.13749000430107117 -0.028542999178171158 0.21759000420570374 0.2533299922943115 0.47422999143600464 1.1265000104904175 -0.6800699830055237 -1.0724999904632568 -1.351199984550476 -1.1246999502182007 -0.8857100009918213 2.134700059890747 0.30425000190734863 -0.1623000055551529 -0.7622600197792053 1.4352999925613403 0.5650500059127808 0.018657000735402107 0.9073100090026855 0.6655399799346924 -0.2771799862384796 -0.8563899993896484 -0.7883300185203552 -0.11144000291824341 0.9447299838066101 -0.2082200050354004 0.49922001361846924 2.343100070953369 0.9630200266838074 0.4723599851131439 0.5252599716186523
gnat 0.47957998514175415 -1.1441999673843384 -0.36309000849723816 -0.09675999730825424 -0.32019999623298645 0.24089999496936798 0.21401000022888184 -0.569100022315979 0.42785000801086426 -0.1811700016260147 0.25793999433517456 0.10918000340461731 0.926580011844635 0.4653800129890442 -0.23723000288009644 -0.18761999905109406 -0.5181400179862976 1.3676999807357788 -0.7547600269317627 0.08908600360155106 -1.1574000120162964 -0.3006899952888489 0.3061800003051758 -0.48379001021385193 0.624019980430603 0.2584500014781952 0.047467999160289764 0.6629300117492676 0.4710800051689148 -0.07197000086307526 -0.686489999294281 -0.3858700096607208 -0.3380799889564514 1.2970000505447388 -0.3606800138950348 0.18244999647140503 0.2451300024986267 0.02684600092470646 -0.13323000073432922 0.1767600029706955 0.5540099740028381 -0.1456100046634674 -0.5471000075340271 0.6905800104141235 0.3794899880886078 -0.027340000495314598 0.42864999175071716 0.5027199983596802 -0.8510299921035767 0.6524699926376343
kate 0.025321999564766884 0.9751099944114685 -0.47181999683380127 -0.6383200287818909 0.36041000485420227 1.7099000215530396 -1.242400050163269 -0.388619989156723 0.4780699908733368 -0.7594599723815918 0.15042999386787415 0.7909899950027466 -0.7332199811935425 -0.20010000467300415 1.204300045967102 0.11492999643087387 0.44835999608039856 -0.2782500088214874 -0.14799000322818756 -0.4637500047683716 0.22684000432491302 1.461899995803833 -0.1400900036096573 0.9114300012588501 0.7731000185012817 -0.5326899886131287 -0.07922700047492981 0.08688600361347198 -0.2567700147628784 -0.4537599980831146 0.24237999320030212 0.33362001180648804 0.05017299950122833 -0.2730199992656708 0.03819900006055832 -0.4147700071334839 -0.25911998748779297 -0.44275999069213867 0.05070900171995163 -0.8672000169754028 0.4771000146865845 0.8864099979400635 0.18127000331878662 -1.4873000383377075 -0.21577000617980957 -0.62322998046875 0.6937500238418579 -0.944159984588623 -0.41121000051498413 0.9473000168800354
chemistry -0.9716600179672241 1.3028000593185425 -0.8785600066184998 -0.03378500044345856 0.3405199944972992 0.39388999342918396 0.39535999298095703 -0.5512599945068359 -0.4599300026893616 0.8138200044631958 0.9524800181388855 0.3784799873828888 -0.2798900008201599 0.3206599950790405 0.06532800197601318 0.36476999521255493 0.4641300141811371 1.0356999635696411 -0.37637001276016235 -0.023920999839901924 0.9771000146865845 0.4937500059604645 0.842710018157959 -0.3719500005245209 0.17855000495910645 -0.6635199785232544 -0.8559499979019165 -0.5208899974822998 -0.3883099853992462 0.10169000178575516 1.5923999547958374 -0.6162300109863281 -0.5669299960136414 -2.1545000076293945 0.6316199898719788 0.47784000635147095 -0.4386900067329407 1.930999994277954 1.6746000051498413 0.3644300103187561 0.09521599858999252 -0.6821600198745728 0.054843999445438385 0.32969000935554504 0.3948099911212921 0.5607900023460388 1.2666000127792358 0.7117900252342224 -0.2037999927997589 0.21541999280452728
dynamite -0.004318600054830313 -0.3835200071334839 1.0246000289916992 0.06892099976539612 0.08007799834012985 0.9582800269126892 0.11781000345945358 -0.19508999586105347 -0.42076998949050903 0.9378700256347656 -0.029608000069856644 -0.18875999748706818 -0.1569799929857254 0.47843998670578003 0.581030011177063 -0.19167999923229218 0.8524199724197388 1.7889000177383423 -1.1644999980926514 -0.12658999860286713 0.8550099730491638 0.2639000117778778 0.32829999923706055 -0.12110999971628189 0.14830000698566437 -0.874210000038147 -0.9797199964523315 0.17308999598026276 0.5658800005912781 -0.8679800033569336 0.2671099901199341 -0.67781001329422 -1.0468000173568726 0.4312399923801422 0.4003100097179413 1.207200050354004 0.42879000306129456 0.32958999276161194 0.713100016117096 0.48791998624801636 0.7230899930000305 0.21243000030517578 -0.11959999799728394 -0.4451900124549866 0.11867000162601471 0.3494099974632263 -0.47051000595092773 0.08636800199747086 0.22373999655246735 -1.2036000490188599
caress -0.20409999787807465 -0.31964999437332153 0.035829998552799225 -0.35332998633384705 0.24211999773979187 0.2313999980688095 1.0231000185012817 0.7876399755477905 -0.007387099787592888 0.34147000312805176 0.15007999539375305 0.7466300129890442 0.8880599737167358 0.3832800090312958 -0.47036001086235046 0.10803999751806259 -0.24806000292301178 0.2775999903678894 0.7177299857139587 -0.658079981803894 -0.2813799977302551 0.6242200136184692 0.45353999733924866 -0.6154099702835083 1.1619000434875488 0.4403499960899353 -0.326229989528656 0.3667599856853485 0.6770300269126892 -0.5705199837684631 -0.5306900143623352 0.4853399991989136 -0.011001000180840492 1.1032999753952026 -0.37299999594688416 0.34240999817848206 -0.1912200003862381 -0.3078500032424927 -0.09542100131511688 -0.6213200092315674 0.29374000430107117 -0.08357100188732147 0.0015589999966323376 -0.3036400079727173 0.005836700089275837 -0.2189899981021881 0.36427000164985657 -0.5855299830436707 -0.45118001103401184 -0.2335200011730194
ugly -0.11268000304698944 -0.38776999711990356 -0.9251199960708618 0.080144003033638 0.2912600040435791 0.971589982509613 0.34384000301361084 -0.23600000143051147 -1.0077999830245972 0.05746399983763695 -1.1780999898910522 -0.2622300088405609 -0.8062099814414978 0.34953999519348145 1.0332000255584717 -0.19425000250339508 -0.11004000157117844 0.22314000129699707 -0.24020999670028687 -0.01575700007379055 -0.8368200063705444 0.3627200126647949 -0.007986100390553474 0.36939001083374023 0.40648001432418823 -0.9944199919700623 -0.9127600193023682 1.424399971961975 1.6579999923706055 -0.47067999839782715 1.3279999494552612 0.15171000361442566 0.26590999960899353 -0.25446999073028564 -0.9313700199127197 0.4854399859905243 -0.2636899948120117 -0.6513299942016602 -0.299019992351532 -0.9916599988937378 -0.7712600231170654 -0.22989000380039215 -0.14167000353336334 0.35624998807907104 0.7662799954414368 0.2513900101184845 0.2749199867248535 -0.2496500015258789 0.8095600008964539 0.21417999267578125
tia 0.38826000690460205 0.544219970703125 -0.06374000012874603 0.5712599754333496 -1.2105000019073486 0.28446000814437866 0.5382400155067444 -0.01923299953341484 -0.05216100066900253 0.31213000416755676 0.7452999949455261 0.5521100163459778 -0.6373000144958496 -0.031289998441934586 0.5994399785995483 0.44238001108169556 -0.5862699747085571 0.46024999022483826 0.9587799906730652 -0.7416800260543823 -0.400409996509552 1.0358999967575073 -0.47995999455451965 0.4382300078868866 0.8940799832344055 0.576740026473999 0.08868400007486343 -0.011944999918341637 -0.5575100183486938 -0.2226399928331375 -0.39379000663757324 0.11607000231742859 -0.09606800228357315 0.6693900227546692 -0.04354599863290787 -0.6866099834442139 0.19399000704288483 -0.1387300044298172 0.7307100296020508 0.3731600046157837 0.10384000092744827 0.27020999789237976 0.8255000114440918 -0.2107200026512146 -0.030439000576734543 -0.3646099865436554 0.6210399866104126 -0.7813199758529663 -0.10407999902963638 0.2739900052547455
torrance 0.15877999365329742 -0.04277700185775757 -0.16402000188827515 0.7238799929618835 -0.2822999954223633 -0.38745999336242676 -0.8075199723243713 0.1648699939250946 0.21886000037193298 -0.07748900353908539 -0.3169800043106079 -0.2868100106716156 -0.6256800293922424 -0.606249988079071 -0.4058699905872345 0.0455860011279583 0.4567300081253052 0.5715299844741821 -0.7031099796295166 -0.25429999828338623 -1.1053999662399292 1.103700041770935 -0.6333500146865845 0.31084001064300537 -0.0051934001967310905 -0.28095000982284546 0.7580699920654297 0.13005000352859497 -0.6866999864578247 -0.5746700167655945 -0.14480000734329224 -0.4716799855232239 0.0067714001052081585 0.3709000051021576 1.1045000553131104 -0.6119599938392639 -0.18494999408721924 0.5038999915122986 0.7283899784088135 -0.771589994430542 0.38905999064445496 0.009219500236213207 0.5783100128173828 0.00409690011292696 0.40156999230384827 0.8893499970436096 0.2933900058269501 -0.5123100280761719 -0.08751600235700607 0.5034999847412109
carnation -0.2386299967765808 -0.03155500069260597 -0.8096500039100647 -0.13603000342845917 -0.3818899989128113 0.5728700160980225 -0.8270999789237976 -0.95728999376297 -0.43349000811576843 0.49184998869895935 0.6569100022315979 -0.04548799991607666 0.8521900177001953 -0.13837000727653503 0.1648699939250946 -0.3162199854850769 -1.2991000413894653 0.4632599949836731 -0.06397899985313416 0.1488499939441681 -0.4005100131034851 -0.805840015411377 0.13474999368190765 -0.5955600142478943 -0.9757800102233887 0.21854999661445618 -0.1540600061416626 1.198699951171875 1.2128000259399414 0.2727699875831604 -0.6597999930381775 0.07596000283956528 -1.4492000341415405 0.4160600006580353 -0.9013000130653381 0.12364999949932098 -0.8536499738693237 -0.13696999847888947 0.17361000180244446 -0.31723999977111816 -0.027347000315785408 -0.4241200089454651 -0.760420024394989 -0.8400499820709229 -0.012709000147879124 0.305869996547699 -0.6009299755096436 -1.215999960899353 0.5944700241088867 -1.1881999969482422
filth -0.08955900371074677 -0.5428799986839294 -0.38670000433921814 -0.8848699927330017 -0.6513000130653381 0.355430006980896 0.5157700181007385 -0.6474699974060059 0.8682500123977661 1.1277999877929688 0.2721399962902069 -0.056432001292705536 -0.23104999959468842 -0.11449000239372253 0.4030900001525879 -0.028377000242471695 0.9070799946784973 0.4846400022506714 0.5554999709129333 0.17267000675201416 -0.677370011806488 0.6336899995803833 0.4608500003814697 0.04940300062298775 0.46830999851226807 0.41624000668525696 -0.9503200054168701 0.6829900145530701 0.7398099899291992 -0.1748500019311905 0.12568999826908112 0.3443000018596649 -0.4786800146102905 0.1890300065279007 -0.9924600124359131 0.9494799971580505 0.18047000467777252 -0.9835900068283081 0.7836599946022034 0.27208998799324036 -0.07319799810647964 -0.1173200011253357 -0.5285000205039978 -0.039264000952243805 -0.09593299776315689 0.4611299932003021 -0.09345699846744537 -0.5970900058746338 0.1291400045156479 -1.3587000370025635
blade -0.4127900004386902 -0.21111999452114105 0.583549976348877 -0.01873300038278103 0.08554600179195404 1.4515999555587769 0.8241599798202515 -0.4490799903869629 0.16202999651432037 -0.6666100025177002 0.19172999262809753 0.5064799785614014 -0.6472899913787842 0.7066799998283386 -0.6370300054550171 0.0032971000764518976 -0.2745499908924103 0.7446600198745728 -0.5919100046157837 -0.677049994468689 -0.027424000203609467 -1.2496000528335571 0.22540000081062317 -0.08756300061941147 0.23097999393939972 -0.9665600061416626 -0.09323599934577942 0.8159300088882446 0.6281300187110901 -1.0181000232696533 1.4925999641418457 -0.510129988193512 0.42399999499320984 0.7571399807929993 -0.6940500140190125 0.684499979019165 0.09816999733448029 0.2596000134944916 -0.06111599877476692 -0.5918899774551392 0.6226599812507629 -0.059126000851392746 -0.9150300025939941 -0.2022700011730194 0.37202000617980957 -0.7071999907493591 1.5097999572753906 -0.8667600154876709 -0.7311400175094604 -0.06989499926567078
tuba -1.117400050163269 -0.09272599965333939 -0.9508799910545349 -0.22548000514507294 -0.0949610024690628 -0.35506999492645264 0.8542699813842773 1.1160000562667847 -1.0191999673843384 1.246899962425232 0.6494699716567993 0.3237699866294861 0.5321599841117859 0.11951000243425369 -1.0181000232696533 -0.1807900071144104 0.07045000046491623 1.1944999694824219 -0.11804000288248062 0.49327000975608826 -0.5849699974060059 -0.16726000607013702 -0.2156900018453598 0.9255200028419495 -0.5731599926948547 -0.17215999960899353 0.3296999931335449 0.4548099935054779 0.4597499966621399 -1.5999000072479248 0.6224600076675415 -0.21209000051021576 0.49088001251220703 1.2710000276565552 1.6471999883651733 0.7781500220298767 0.8748999834060669 -0.4736199975013733 0.5039799809455872 1.378999948501587 0.30059999227523804 0.5360100269317627 -0.15331000089645386 -0.5425300002098083 0.05075100064277649 0.7232900261878967 0.3888700008392334 0.33754000067710876 -1.0392999649047852 0.09281899780035019
drama -0.25725001096725464 0.8661100268363953 -1.2086000442504883 -0.06573999673128128 -0.09248899668455124 0.5993899703025818 0.27601000666618347 -0.1689399927854538 -0.4534200131893158 0.6149799823760986 -0.598609983921051 0.16022999584674835 -0.6236299872398376 1.291700005531311 0.6809800267219543 -0.8842300176620483 0.05736599862575531 0.9665200114250183 -1.1159000396728516 0.7064700126647949 1.1684000492095947 1.2553000450134277 0.21854999661445618 0.6850200295448303 0.32012999057769775 -1.1342999935150146 -1.3072999715805054 -0.02127699926495552 -0.23127999901771545 0.005837299861013889 2.291599988937378 0.04111900180578232 0.45427998900413513 -0.962149977684021 -0.2021999955177307 0.8882200121879578 -0.21207000315189362 -0.5354800224304199 -0.37064000964164734 -0.8618299961090088 -0.20463000237941742 0.5648300051689148 -0.3982599973678589 -0.7885599732398987 -0.783519983291626 0.06804899871349335 0.8059499859809875 -0.3453100025653839 -0.29989999532699585 0.6619300246238708
daisy 0.6743299961090088 0.3792400062084198 -0.47569000720977783 0.8190500140190125 0.08775400370359421 1.25409996509552 -0.47407999634742737 -0.4388200044631958 -0.12713000178337097 -0.31452998518943787 -0.10467000305652618 0.6207600235939026 0.16847999393939972 -0.38098999857902527 0.17539000511169434 -0.056768998503685 -0.5277799963951111 0.5997499823570251 0.00667909998446703 -0.2710599899291992 -0.49182000756263733 -0.8387600183486938 0.4555099904537201 0.8946200013160706 0.5384699702262878 -0.5331500172615051 -0.4544700086116791 0.07998300343751907 0.22197000682353973 -0.6532800197601318 0.0683479979634285 -0.29530999064445496 -0.2958100140094757 0.8283299803733826 0.05269100144505501 -0.624530017375946 -0.6952999830245972 -0.07338599860668182 -0.08298999816179276 0.48561999201774597 0.004285600036382675 0.4718799889087677 -0.8472399711608887 -0.4084399938583374 0.8111900091171265 -0.6001700162887573 -0.029124999418854713 -1.8681000471115112 0.09669200330972672 0.4322499930858612
sickness 1.09089994430542 0.12748000025749207 -0.5430499911308289 -0.919160008430481 -1.041200041770935 0.6603400111198425 0.7850099802017212 0.2364100068807602 1.3026000261306763 -0.02754800021648407 0.693310022354126 0.21820999681949615 0.29732000827789307 -0.5113999843597412 0.9574900269508362 0.20330999791622162 -0.6088799834251404 0.24208000302314758 -0.7539600133895874 -0.3517400026321411 -0.8272200226783752 0.5358700156211853 0.2542000114917755 -0.14358000457286835 0.867139995098114 -0.5476599931716919 -0.49147000908851624 0.03347799926996231 0.6839699745178223 1.341599941253662 1.1154999732971191 0.9201899766921997 -0.1444000005722046 0.06346999853849411 -0.3776699900627136 0.4845300018787384 0.3126699924468994 -0.5758500099182129 1.1653000116348267 -0.017463000491261482 -0.45677000284194946 0.14242999255657196 0.24560999870300293 1.142199993133545 0.6253200173377991 -0.41944000124931335 0.5435900092124939 -0.5696200132369995 0.5227400064468384 -0.3443300127983093
jamel -0.9933599829673767 -0.12466999888420105 -0.05024699866771698 -1.0799000263214111 1.0322999954223633 0.29023998975753784 -0.16584999859333038 -0.7095100283622742 -0.4844599962234497 -0.12977999448776245 -0.4906199872493744 -0.05413400009274483 0.052324000746011734 0.09160800278186798 -0.6634399890899658 0.013186999596655369 0.27480998635292053 -0.829010009765625 -0.23479999601840973 0.1130400002002716 -0.6059499979019165 0.5018100142478943 0.4155299961566925 0.47407999634742737 -0.045598000288009644 0.04537900164723396 0.9016799926757812 0.5504999756813049 -0.3066500127315521 -0.3685399889945984 -1.7767000198364258 -0.528190016746521 0.2418999969959259 0.29234999418258667 0.8533200025558472 -0.529009997844696 0.2913700044155121 0.4418399930000305 -1.2524000406265259 0.18799999356269836 1.1044000387191772 0.846589982509613 0.12211000174283981 -0.32392001152038574 0.4556100070476532 0.5398399829864502 0.12337999790906906 0.25374001264572144 -0.11852999776601791 0.3252899944782257
hornet 1.020799994468689 -0.6534500122070312 0.29050999879837036 0.46810999512672424 0.20311999320983887 0.2601499855518341 -0.5146899819374084 -0.8659899830818176 0.12093999981880188 -0.3690800070762634 0.7621899843215942 0.5775600075721741 -0.1620199978351593 0.5784400105476379 -0.9965500235557556 -0.35425999760627747 -0.9783099889755249 1.0159000158309937 -2.6142001152038574 -0.2563000023365021 -1.4693000316619873 0.22832000255584717 0.13565999269485474 -0.23733000457286835 -0.7915400266647339 -0.2562499940395355 -0.04308699816465378 0.21448999643325806 0.7919899821281433 0.3421800136566162 0.030556000769138336 0.4368000030517578 -0.49783000349998474 0.5098999738693237 0.33083999156951904 -0.545490026473999 0.3663899898529053 -1.205299973487854 -0.4817200005054474 -0.478659987449646 0.9183400273323059 -0.26010000705718994 -0.23165999352931976 -0.04340900108218193 0.5527300238609314 1.0765000581741333 0.20857000350952148 -0.013124000281095505 -0.6534199714660645 1.4321999549865723
hyacinth 1.2408000230789185 0.024640999734401703 -0.899869978427887 -1.205299973487854 -0.3415699899196625 0.3317599892616272 0.19885000586509705 -0.3542900085449219 1.0399999618530273 0.01756099984049797 0.36581000685691833 1.3158999681472778 0.9440799951553345 -1.3839000463485718 -0.11999999731779099 -0.3637099862098694 -0.09315100312232971 0.5762100219726562 -0.2917099893093109 -0.8182700276374817 -1.1282999515533447 -0.9099500179290771 -0.06926699727773666 -0.28992000222206116 0.07337400317192078 0.04556199908256531 0.2355699986219406 0.7428900003433228 0.32587000727653503 0.26559001207351685 -0.6525300145149231 0.3889099955558777 -0.37386998534202576 0.3190400004386902 -0.32071998715400696 0.47095000743865967 -0.30219998955726624 0.08918499946594238 0.6160699725151062 -0.0721220001578331 0.6233299970626831 0.3918899893760681 -0.12190999835729599 -0.5231599807739258 0.729610025882721 0.6020699739456177 -0.14527000486850739 -1.4558000564575195 0.2895500063896179 -0.2442599982023239
malik -0.7642499804496765 -1.083899974822998 0.09865400195121765 0.4211699962615967 1.5319000482559204 -0.42263999581336975 0.46424999833106995 0.26903000473976135 0.10606999695301056 0.133310005068779 0.148389995098114 0.3616099953651428 -1.666599988937378 -0.4591299891471863 -0.378710001707077 0.20101000368595123 0.30028998851776123 -0.21886000037193298 0.021656999364495277 1.1818000078201294 -0.11964999884366989 1.6606999635696411 1.127500057220459 0.11341000348329544 -0.2367199957370758 -0.7220799922943115 0.38207998871803284 -0.6171799898147583 -0.5669599771499634 0.23579999804496765 0.8359400033950806 -0.30713000893592834 0.12499000132083893 0.8007199764251709 1.5181000232696533 0.5463100075721741 0.5018100142478943 -0.0653349980711937 0.3930700123310089 1.3336000442504883 0.15212999284267426 1.0221999883651733 -0.9850900173187256 -0.11794999986886978 0.16927999258041382 -0.06687700003385544 -0.7793999910354614 0.8730300068855286 0.948889970779419 -0.4200400114059448
dragonfly 2.0179998874664307 -0.4272899925708771 -1.1670000553131104 0.5268200039863586 0.3287000060081482 0.7550899982452393 -0.253030002117157 -1.0942000150680542 0.652459979057312 0.02543400041759014 0.48385000228881836 0.6971799731254578 0.785319983959198 0.34404000639915466 0.25703999400138855 -0.2788600027561188 -0.7575899958610535 1.1684999465942383 -0.7903000116348267 -0.1469700038433075 -1.2049000263214111 0.10937999933958054 -0.15963999927043915 0.016377000138163567 0.047412000596523285 0.7020999789237976 -0.15756000578403473 0.7904300093650818 0.19155000150203705 0.19537000358104706 -0.039799999445676804 -0.32401999831199646 0.09121000021696091 1.0119999647140503 -0.11784999817609787 0.057500001043081284 -0.0314829982817173 -0.7548900246620178 -0.4784500002861023 -0.3861199915409088 0.24142000079154968 -0.5617499947547913 -0.09677600115537643 0.6553099751472473 -0.16314999759197235 0.392300009727478 0.05110099911689758 -0.5852000117301941 -0.37549999356269836 0.014553000219166279
banjo -1.6342999935150146 -0.6180199980735779 -1.4670000076293945 -0.25165000557899475 -0.9859799742698669 0.8179600238800049 -0.43198999762535095 0.4965499937534332 -1.128000020980835 0.40838998556137085 0.29826998710632324 1.0712000131607056 0.7367200255393982 0.44084998965263367 -0.4950999915599823 -0.48475998640060425 0.06747999787330627 0.6485599875450134 0.1077599972486496 -0.9476900100708008 -0.4490000009536743 -0.08749300241470337 -0.657010018825531 0.23925000429153442 1.1578999757766724 0.030558999627828598 -0.19609999656677246 -0.16529999673366547 -0.8193299770355225 -1.0853999853134155 1.020799994468689 -0.5764099955558777 0.6952499747276306 0.9964500069618225 1.1101000308990479 0.9750900268554688 0.35071998834609985 -0.3853600025177002 0.36243999004364014 -0.3553299903869629 -0.24598999321460724 0.5825899839401245 -0.9158099889755249 -0.1951500028371811 0.5654600262641907 0.44106999039649963 1.3427000045776367 -0.10673999786376953 -0.9126499891281128 -0.16784000396728516
heather -0.4581499993801117 0.5289099812507629 -0.6985099911689758 0.304390013217926 0.14125999808311462 1.2303999662399292 -1.1454999446868896 0.18342000246047974 0.2633099853992462 -0.5737500190734863 -0.21747000515460968 0.3759399950504303 -0.05982999876141548 -0.42895999550819397 0.558459997177124 0.1952899992465973 0.5043399930000305 -0.270220011472702 0.4510200023651123 -0.05033300071954727 -0.2200399935245514 1.3107999563217163 1.1015000343322754 0.4823099970817566 0.27351999282836914 0.04278400167822838 0.5192999839782715 0.5062900185585022 -0.3361699879169464 -0.5421000123023987 0.25172001123428345 -0.35951998829841614 0.43939998745918274 0.13982999324798584 0.07496999949216843 -0.6299200057983398 -0.48309001326560974 -0.24969999492168427 0.7689099907875061 -0.6917399764060974 0.0666939988732338 0.3114199936389923 -0.022533999755978584 -0.7266899943351746 0.42254000902175903 -0.678629994392395 -0.17470000684261322 -0.7304800152778625 0.10273999720811844 0.9363600015640259
latisha -0.22648000717163086 -0.7996699810028076 0.39493998885154724 -0.43031999468803406 -0.3969399929046631 0.005305199883878231 0.05989899858832359 0.29701998829841614 0.2402700036764145 0.6839799880981445 -0.04706300050020218 -0.058118999004364014 0.6020500063896179 0.07603000104427338 0.0019526999676600099 -0.0540740005671978 -1.1676000356674194 0.019166000187397003 0.6133000254631042 0.3546600043773651 0.11427000164985657 0.6315299868583679 0.01278700027614832 -0.05001100152730942 1.2144999504089355 0.8102899789810181 0.43463000655174255 -0.1041100025177002 -0.2599300146102905 -0.10098999738693237 -1.8039000034332275 -0.24041999876499176 0.7379900217056274 0.42813000082969666 0.5502200126647949 0.03996099904179573 0.2878499925136566 0.1361600011587143 -0.7104700207710266 0.19189000129699707 -0.04000600054860115 0.18400999903678894 -0.11747000366449356 -0.3137199878692627 0.5725700259208679 -0.2508699893951416 0.4808399975299835 -0.051614999771118164 -0.008072899654507637 0.18482999503612518
carrie -0.7175099849700928 0.5875499844551086 0.04417400062084198 0.14422999322414398 -0.12541000545024872 0.9260900020599365 -0.610230028629303 -0.04319100081920624 0.22923000156879425 -0.456169992685318 -0.4101400077342987 0.5878199934959412 -0.5397400259971619 -0.4087800085544586 0.7667099833488464 0.3557400107383728 -0.3126299977302551 -0.4284600019454956 1.169700026512146 0.45746999979019165 -0.06534600257873535 0.5033699870109558 0.1363700032234192 0.7730600237846375 0.7580500245094299 -0.5630199909210205 -0.2815900146961212 -0.14263999462127686 0.03835799917578697 -0.8736400008201599 -0.11911000311374664 0.35054999589920044 0.5181900262832642 -0.31158000230789185 -0.05736999958753586 0.03661400079727173 0.0671359971165657 -0.38646000623703003 0.24959999322891235 -0.3759700059890747 -0.1886499971151352 0.8687999844551086 -0.484470009803772 -0.8550800085067749 -0.44986000657081604 -0.1271200031042099 0.3167000114917755 -1.2455999851226807 -0.09285999834537506 0.9461600184440613
business 0.02369300089776516 0.13315999507904053 0.023130999878048897 0.4983299970626831 0.0268740002065897 -0.4325200021266937 -1.1363999843597412 -0.8200100064277649 0.22387999296188354 -0.03211899846792221 -0.06965100020170212 0.3985700011253357 -0.5827500224113464 0.0950080007314682 -0.023643000051379204 0.23237000405788422 -0.42440998554229736 0.6570900082588196 0.5780199766159058 -0.5160199999809265 1.8252999782562256 0.12951000034809113 -0.6177300214767456 0.39280998706817627 -0.3575400114059448 -1.6778000593185425 -0.45201000571250916 -0.47075000405311584 0.1948699951171875 0.3582800030708313 3.6033999919891357 0.32864999771118164 0.4728800058364868 -0.3378700017929077 -0.46233999729156494 -0.5162799954414368 -1.375499963760376 0.707889974117279 0.46480000019073486 -0.16186000406742096 -0.09610000252723694 -0.28523001074790955 0.3004699945449829 0.5090199708938599 0.0813559964299202 -0.01563899964094162 -0.5102099776268005 0.34584999084472656 0.2420099973678589 0.8223699927330017
latoya -0.7319700121879578 0.6085699796676636 -0.4876999855041504 -0.5583999752998352 0.9602400064468384 0.711899995803833 -0.6151599884033203 0.19235000014305115 -0.1875700056552887 0.5479300022125244 0.1617099940776825 0.8231800198554993 -0.2833699882030487 -0.7171499729156494 0.4213100075721741 0.3220899999141693 -0.4198000133037567 -1.6313999891281128 0.3022800087928772 -0.36305001378059387 -0.2883000075817108 1.1094000339508057 -0.2558099925518036 -0.15376999974250793 -0.26848000288009644 0.6400399804115295 0.9978500008583069 -0.037588998675346375 -0.18111999332904816 -0.928629994392395 -1.242799997329712 -0.06378500163555145 1.0176000595092773 -0.16955000162124634 0.9101399779319763 -0.5138000249862671 0.42333999276161194 -0.5430600047111511 0.1488499939441681 -0.18446999788284302 0.12915000319480896 0.33017998933792114 0.2348800003528595 0.004967399872839451 0.2844200134277344 -0.03385100141167641 0.3369100093841553 -0.836430013179779 -0.6984300017356873 0.09713999927043915
peggy -0.12081000208854675 0.8573799729347229 -0.15841999650001526 0.17730000615119934 0.06890600174665451 0.5550199747085571 -0.6807000041007996 0.11502999812364578 -0.10260000079870224 -0.7899699807167053 -0.3100999891757965 1.0250999927520752 -0.1123799979686737 0.8194100260734558 0.3873000144958496 0.12092000246047974 -0.26927998661994934 -0.009459800086915493 0.3829500079154968 -0.030943000689148903 0.30386999249458313 1.2522000074386597 -0.18046000599861145 -0.4495700001716614 0.8754600286483765 -0.5449699759483337 0.10361000150442123 -0.03229900076985359 -0.01261099986732006 -0.5415899753570557 -0.39726001024246216 -0.1318800002336502 0.05751900002360344 -0.1726199984550476 -0.315420001745224 -0.2937900125980377 0.37251999974250793 -0.006014800164848566 0.290039986371994 -0.11400999873876572 0.10168000310659409 0.36699000000953674 0.6265900135040283 -0.534030020236969 -0.2916199862957001 -0.23928000032901764 -0.43463999032974243 -1.176800012588501 -0.5768899917602539 1.426200032234192
termite 0.9236500263214111 -0.07345300167798996 -0.75941002368927 0.2533000111579895 -0.2780100107192993 -0.03758399933576584 -0.3404099941253662 0.023684000596404076 0.6085699796676636 -0.7564700245857239 -0.2819100022315979 0.8000400066375732 0.5426499843597412 0.1949699968099594 -0.3591800034046173 0.4699600040912628 0.8142899870872498 -0.013372000306844711 -0.44683000445365906 0.3765699863433838 -0.6686999797821045 -0.8568599820137024 -0.4749799966812134 -0.6573399901390076 -0.49507999420166016 0.2959800064563751 -0.3647400140762329 0.40964001417160034 1.0850000381469727 -0.2691799998283386 -0.5306599736213684 -0.7142199873924255 0.1445000022649765 -0.03477900102734566 -0.5277500152587891 0.958840012550354 0.2149599939584732 -0.3639799952507019 1.0795999765396118 0.5715500116348267 -0.34398001432418823 -0.5530800223350525 -0.05297800153493881 1.7537000179290771 1.1268999576568604 -0.4029900133609772 0.032648999243974686 0.19315999746322632 0.12325000017881393 -0.08871199935674667
nasa 1.5866999626159668 0.5699899792671204 1.3600000143051147 0.18649999797344208 -0.6792200207710266 -0.28867998719215393 -1.407099962234497 -0.21187999844551086 0.8102700114250183 -0.8423600196838379 0.5241199731826782 0.6657099723815918 -0.25540000200271606 1.5875999927520752 0.2703799903392792 0.5267199873924255 -0.14764000475406647 0.680679976940155 -1.19159996509552 -0.47819000482559204 0.10995999723672867 0.6635900139808655 -0.23170000314712524 -1.395400047302246 0.8405100107192993 -0.9625499844551086 0.018736999481916428 0.024126000702381134 -0.47411999106407166 0.42816001176834106 1.1456999778747559 -0.15974000096321106 -1.0809999704360962 -1.388200044631958 -0.2966499924659729 0.13158999383449554 0.4792099893093109 0.33643001317977905 0.5889300107955933 -0.3519099950790405 0.039395999163389206 -0.19530999660491943 0.3323200047016144 0.0196090005338192 -0.5922999978065491 0.05017700046300888 0.5726100206375122 1.1374000310897827 -0.8011199831962585 1.037600040435791
miracle 0.8936600089073181 0.4281899929046631 -0.7293099761009216 -0.326200008392334 0.3760400116443634 0.08991199731826782 -0.46755000948905945 0.25850000977516174 0.7453799843788147 1.0640000104904175 0.1614599972963333 -0.030269000679254532 -0.04058700054883957 0.16357000172138214 0.6927499771118164 -0.2364799976348877 0.08422700315713882 -0.1289999932050705 -0.4163300096988678 0.4208599925041199 -0.7087799906730652 -0.1406800001859665 -0.5596500039100647 -0.21819999814033508 0.7882099747657776 -0.7561500072479248 -1.507099986076355 -0.13850000500679016 0.7116600275039673 -0.40349000692367554 1.2675000429153442 0.4899199903011322 -0.6386200189590454 0.40318000316619873 -0.36550000309944153 -0.32486000657081604 0.5685399770736694 0.10350999981164932 0.9370399713516235 -0.05489100143313408 -0.6063500046730042 -0.5177800059318542 -0.5643200278282166 -0.32945001125335693 0.6139799952507019 0.7972800135612488 0.05137399956583977 -0.14112000167369843 0.40481001138687134 0.27967000007629395
equations 0.8479099869728088 0.04654499888420105 0.27336999773979187 0.16453999280929565 0.4106999933719635 1.0282000303268433 1.2724000215530396 -0.7345799803733826 -1.6088999509811401 0.3305000066757202 1.0085999965667725 0.5502399802207947 -0.9103599786758423 -0.0901620015501976 0.29495999217033386 0.0010000000474974513 0.7995799779891968 -0.20208999514579773 0.12159000337123871 -1.6510000228881836 -0.48980000615119934 -1.080899953842163 0.20911000669002533 0.3017899990081787 0.661620020866394 1.0245000123977661 -0.018288999795913696 -0.23925000429153442 0.3031100034713745 1.0217000246047974 1.6892999410629272 -1.1957000494003296 -1.1871999502182007 -1.4538999795913696 0.6917799711227417 -0.15158000588417053 -0.39372000098228455 0.5024200081825256 0.9748700261116028 1.7544000148773193 0.6669099926948547 0.2667500078678131 -0.7671700119972229 1.2330000400543213 -1.7865999937057495 -0.431659996509552 2.0631000995635986 1.2437000274658203 0.3370699882507324 -0.7449100017547607
wonderful 0.2353300005197525 0.9132000207901001 -1.2007999420166016 0.006559500005096197 1.2842999696731567 -0.10495000332593918 -0.4692800045013428 -0.16064000129699707 -0.0023046000860631466 0.8821899890899658 -0.5822700262069702 0.49886998534202576 0.28536999225616455 0.021316999569535255 0.702049970626831 -0.24932000041007996 0.6396499872207642 0.6805800199508667 -0.09648899734020233 -0.6928399801254272 -0.14632999897003174 1.1342999935150146 -0.1586499959230423 -0.03447699919342995 1.464400053024292 -0.46222999691963196 -1.382099986076355 0.4521099925041199 0.9922000169754028 -0.5595899820327759 2.0020999908447266 0.540340006351471 -0.08053900301456451 -0.021476000547409058 0.02685599960386753 0.4290499985218048 -0.11890000104904175 0.6976400017738342 -0.029882000759243965 -0.5807700157165527 0.20490999519824982 0.09588800370693207 -0.3968200087547302 -0.18708999454975128 0.21904000639915466 0.5769400000572205 0.0661420002579689 -0.16162000596523285 -0.02466999925673008 0.8462600111961365
moth 1.6313999891281128 -0.20104999840259552 -1.4895000457763672 0.9783899784088135 0.9800000190734863 1.2735999822616577 0.009119600057601929 -1.0612000226974487 0.9256399869918823 -0.6614000201225281 0.7942900061607361 -0.1423099935054779 1.4508999586105347 -0.043088000267744064 0.6643900275230408 0.3500100076198578 -1.0032000541687012 0.8500400185585022 -1.7617000341415405 0.12004999816417694 -1.6894999742507935 -0.8147500157356262 0.3108699917793274 0.6579999923706055 0.3672899901866913 -0.2750000059604645 -0.41012999415397644 0.9202600121498108 0.5620800256729126 0.711080014705658 -0.12036000192165375 -1.5132999420166016 -0.6482700109481812 1.4315999746322632 -0.14869999885559082 -0.876010000705719 -0.513729989528656 -0.17072999477386475 -0.7690600156784058 -0.04718799889087677 0.5230500102043152 -0.03753099963068962 0.3686800003051758 0.07642699778079987 0.9700999855995178 0.9765899777412415 0.09853699803352356 -1.3468999862670898 -0.22579999268054962 -0.4380800127983093
magnolia 0.19744999706745148 0.5366100072860718 -0.6986100077629089 0.8109999895095825 0.0409110002219677 -0.7045999765396118 -0.7937099933624268 -0.9248300194740295 0.575980007648468 0.07254300266504288 -1.2253999710083008 0.1817999929189682 -0.013334999792277813 -0.35381001234054565 -0.1412699967622757 -0.022214999422430992 -0.052317000925540924 1.2932000160217285 -0.08104600012302399 -0.4431299865245819 0.04364600032567978 0.16695000231266022 0.03871399909257889 0.09320300072431564 -0.19312000274658203 0.5630499720573425 -0.0326789990067482 1.000100016593933 0.35686999559402466 -1.0967999696731567 0.4214099943637848 -1.1313999891281128 -0.05177899822592735 0.8296700119972229 0.3155199885368347 -0.5562400221824646 -0.35815998911857605 -0.6370300054550171 0.04079899936914444 -0.43797001242637634 -0.6366699934005737 -1.0444999933242798 -0.24161000549793243 -0.32385000586509705 0.3945100009441376 0.7829200029373169 0.08465100079774857 -1.664199948310852 -0.6233999729156494 0.23104000091552734
emily -0.5263199806213379 0.5779600143432617 -0.2346699982881546 -0.2895500063896179 -0.11210999637842178 1.0638999938964844 -0.7705600261688232 0.23115000128746033 0.33219999074935913 -0.8149899840354919 -0.47617998719215393 0.6335099935531616 0.1491599977016449 -0.20543000102043152 0.4808399975299835 0.0245169997215271 -0.32113999128341675 -0.7232099771499634 0.131400004029274 -0.09257899969816208 0.31022998690605164 1.0364999771118164 0.21578000485897064 0.14841000735759735 1.570099949836731 -0.5078499913215637 -0.18393999338150024 -0.6480299830436707 -0.5229700207710266 -0.39427000284194946 0.5107600092887878 -0.17357000708580017 0.5289999842643738 -0.3511500060558319 -0.28461000323295593 -0.4988200068473816 -0.4305900037288666 -0.39489999413490295 0.8461800217628479 -0.7952700257301331 -0.35311999917030334 0.5184299945831299 0.10826999694108963 -0.8462700247764587 0.10603000223636627 -0.06617400050163269 0.5159599781036377 -1.7972999811172485 0.19779999554157257 0.9678199887275696
paul -0.09646499902009964 1.1385999917984009 -0.25749000906944275 -0.9957799911499023 0.34209001064300537 0.22506999969482422 -1.3788000345230103 -0.3977299928665161 -0.30437999963760376 -0.07319100201129913 -0.01126800011843443 0.6417499780654907 -1.3503999710083008 -0.557449996471405 0.575980007648468 -0.5867400169372559 0.6032999753952026 -0.8178399801254272 -0.7019400000572205 -0.41200000047683716 -0.7664300203323364 0.7889400124549866 -0.7781100273132324 -0.16635000705718994 -0.15995000302791595 -1.1553000211715698 0.4953500032424927 -0.20389999449253082 -0.9691799879074097 0.2903999984264374 1.6160999536514282 -0.3542099893093109 0.40549999475479126 -0.6602100133895874 -0.45708999037742615 -0.51323002576828 1.3494999408721924 0.07498099654912949 0.5146499872207642 0.2587200105190277 0.7484800219535828 0.9922800064086914 -0.3889099955558777 -0.6001600027084351 0.4810599982738495 0.9174000024795532 -1.2254999876022339 -0.7729099988937378 -0.49612998962402344 1.0521999597549438
cheer -0.5869699716567993 0.06754600256681442 -0.30724000930786133 -0.5758500099182129 0.3340199887752533 -1.2827999591827393 -0.31821998953819275 0.8131499886512756 -0.45726001262664795 0.7120699882507324 -0.2839600145816803 -0.424019992351532 0.3707900047302246 -0.29739001393318176 0.35512998700141907 0.02758600004017353 0.3419699966907501 0.32078999280929565 -0.6212199926376343 -1.1912000179290771 -0.19742999970912933 0.1309400051832199 -0.37540000677108765 0.13256999850273132 0.5245199799537659 -0.882390022277832 -0.7144899964332581 0.45280998945236206 -0.07310199737548828 -0.6917700171470642 1.1299999952316284 1.9277000427246094 0.09452799707651138 0.2229599952697754 -0.4599800109863281 -0.09748999774456024 0.017643999308347702 -0.6318399906158447 -0.19099999964237213 -0.6317800283432007 -0.3180199861526489 0.17166000604629517 -1.0556000471115112 0.10807999968528748 1.0958000421524048 0.051642000675201416 -0.05616600066423416 -0.08822699636220932 -0.28213000297546387 -0.18449999392032623
horrible 0.3614000082015991 -0.5513799786567688 -0.7005400061607361 -0.3030700087547302 0.4266600012779236 0.11796999722719193 0.704990029335022 0.39487001299858093 -0.1293099969625473 0.29190999269485474 -0.7230600118637085 0.0180830005556345 -1.0525000095367432 -0.06070699915289879 1.722499966621399 -0.4154700040817261 0.01782499998807907 0.11326999962329865 -0.14057999849319458 0.050926998257637024 -0.6592699885368347 0.7419599890708923 0.23532000184059143 -0.10605999827384949 0.9855499863624573 -0.777649998664856 -1.705899953842163 0.5198799967765808 1.9422999620437622 -0.34244999289512634 1.163100004196167 0.3602299988269806 0.3284600079059601 -0.6633599996566772 -0.5229799747467041 0.7895500063896179 0.5166100263595581 -0.5741400122642517 0.3275200128555298 0.19739000499248505 -1.128600001335144 -0.21247999370098114 0.3191399872303009 0.29861998558044434 0.6593000292778015 0.5155799984931946 0.0643329992890358 0.23910999298095703 0.6070899963378906 0.44516000151634216
accident 0.7979699969291687 0.1941000074148178 0.15859000384807587 0.61176997423172 -0.6485199928283691 0.8766499757766724 -0.32175999879837036 1.2285000085830688 0.9882000088691711 -1.069000005722046 0.2618100047111511 -0.5892000198364258 -0.9344199895858765 -0.03068399988114834 1.121500015258789 -0.27772998809814453 -0.792959988117218 0.9010499715805054 -1.2588000297546387 -0.34233999252319336 0.19429999589920044 0.8370400071144104 -0.25929999351501465 0.03846700116991997 1.4283000230789185 -1.6900999546051025 -0.6125699877738953 0.43187999725341797 0.8442699909210205 0.6596400141716003 2.0504000186920166 -0.26517000794410706 -0.06443300098180771 -0.5205600261688232 0.5470799803733826 0.18201999366283417 0.8780800104141235 -0.4841099977493286 0.9062700271606445 0.9260299801826477 -1.1569000482559204 -0.1256999969482422 0.6034200191497803 -0.3324100077152252 0.3070400059223175 -0.3991999924182892 -0.050585001707077026 0.22642000019550323 1.295799970626831 -0.13743999600410461
sue-ellen -0.7914900183677673 0.8661699891090393 0.11997999995946884 0.0009228700073435903 0.2775999903678894 -0.49184998869895935 0.5019500255584717 0.0006079199956730008 -0.2584500014781952 0.17865000665187836 0.2535000145435333 0.765720009803772 0.5066400170326233 0.4025000035762787 -0.002138799987733364 -0.2839699983596802 -0.5032399892807007 0.30449000000953674 0.5177900195121765 0.01508999988436699 -0.35030999779701233 -1.1277999877929688 0.3325299918651581 -0.35249999165534973 0.04132600128650665 1.086300015449524 0.03390999883413315 0.335640013217926 0.49744999408721924 -0.07013099640607834 -1.2192000150680542 -0.4851199984550476 -0.03851199895143509 -0.13553999364376068 -0.16380000114440918 0.5232099890708923 -0.31317999958992004 -0.1655000001192093 0.1190899983048439 -0.15115000307559967 -0.1562100052833557 -0.626550018787384 -0.6233599781990051 -0.42149999737739563 0.4187299907207489 -0.9247199892997742 1.1049000024795532 -0.2999599874019623 -0.006300299894064665 0.3953999876976013
bongo -0.4865899980068207 0.20329000055789948 -0.2059600055217743 0.7241899967193604 -0.48284998536109924 -0.11405999958515167 0.027103999629616737 1.0356999635696411 0.14553000032901764 1.1287000179290771 0.6657500267028809 0.20758000016212463 0.4517599940299988 -0.1984100043773651 0.03192799910902977 0.3330700099468231 -0.7005599737167358 0.36320000886917114 0.4191100001335144 0.5280900001525879 -0.6968299746513367 0.5729299783706665 1.2740000486373901 -0.4146899878978729 0.05938500165939331 -0.1509300023317337 -0.17388999462127686 -0.0007189299794845283 -0.4737299978733063 0.902459979057312 0.1140500009059906 -0.18253999948501587 -1.0952999591827393 0.9487400054931641 0.8043699860572815 0.3693599998950958 -0.08914600312709808 0.40498000383377075 0.23458999395370483 0.35809001326560974 0.10831999778747559 1.041599988937378 -1.6358000040054321 -0.7562199831008911 -0.02086699940264225 0.7630100250244141 -1.2347999811172485 -0.14841000735759735 0.037369001656770706 -1.2933000326156616
brett -0.9926499724388123 -0.08164399862289429 -0.3092400133609772 -0.06923100352287292 0.46671000123023987 0.6707800030708313 -1.6038000583648682 -0.32886001467704773 0.17507000267505646 -0.38631999492645264 -0.48976001143455505 0.8841599822044373 -1.2374000549316406 -0.23235000669956207 0.29287999868392944 0.13391999900341034 1.3874000310897827 -0.8687599897384644 -1.3560999631881714 0.6719599962234497 -0.6797599792480469 0.5899400115013123 0.057684000581502914 -0.37373998761177063 0.4403199851512909 -0.5733500123023987 1.1979000568389893 -0.29155999422073364 0.5032600164413452 -0.7318099737167358 0.3227599859237671 0.026652000844478607 0.7956699728965759 0.3640199899673462 0.5644000172615051 0.2223300039768219 1.0537999868392944 0.5852800011634827 -0.20013999938964844 0.13224999606609344 0.4194599986076355 0.5152199864387512 -0.2864699959754944 -0.14079999923706055 0.8079699873924255 0.5270199775695801 -0.3973200023174286 0.09727399796247482 -0.2957499921321869 1.4251999855041504
grief 0.941860020160675 0.9952099919319153 -0.3502100110054016 -0.5632200241088867 0.8120200037956238 0.6879600286483765 0.7566499710083008 1.249500036239624 0.06713099777698517 0.4816400110721588 -0.3622399866580963 -0.0792670026421547 -0.23869000375270844 -0.40748998522758484 0.41881000995635986 -0.21110999584197998 -0.9698600172996521 -0.005318299867212772 0.4339500069618225 -0.420960009098053 0.07233799993991852 1.809499979019165 -0.11653999984264374 -0.46057000756263733 1.1376999616622925 -0.7136200070381165 -0.8705999851226807 0.04931600019335747 0.7964199781417847 0.4717000126838684 1.4692000150680542 1.4908000230789185 0.648389995098114 -0.6677899956703186 -0.876829981803894 0.44203001260757446 -0.31064000725746155 -1.1301000118255615 0.8538500070571899 0.05824999883770943 -0.05345400050282478 0.014864999800920486 -0.6542999744415283 0.34711000323295593 0.6515700221061707 0.8847200274467468 -0.36838001012802124 -0.20476000010967255 -0.47819000482559204 -0.6736099720001221
tyrone -1.2346999645233154 0.0016005999641492963 -0.14505000412464142 -0.08190300315618515 -0.010071000084280968 0.605239987373352 -0.5378199815750122 0.7764899730682373 -0.2994399964809418 -0.8541499972343445 -0.3184800148010254 0.03890100121498108 -1.2714999914169312 -1.4244999885559082 -0.1666100025177002 0.6174600124359131 0.804419994354248 -0.0555649995803833 -0.26754000782966614 0.1774500012397766 -0.46647000312805176 0.2585799992084503 -0.11422999948263168 0.7876200079917908 -0.3681100010871887 -0.44595998525619507 0.3052299916744232 -0.2361299991607666 -0.12634000182151794 -0.8064900040626526 -0.010431000031530857 -0.083187997341156 0.5814999938011169 -0.15053999423980713 1.6557999849319458 0.3082999885082245 -0.11089999973773956 -0.6740900278091431 0.5320600271224976 0.0037165998946875334 -0.5352200269699097 0.8969399929046631 -0.868939995765686 -0.6033200025558472 -0.9799100160598755 0.3670800030231476 0.6672999858856201 -0.3645699918270111 -0.5754500031471252 -0.14541000127792358
lisa -0.27417001128196716 0.879800021648407 0.06575600057840347 0.7575799822807312 0.22579999268054962 0.5981199741363525 -1.0765000581741333 0.10694999992847443 0.3130500018596649 -0.31161001324653625 0.09248100221157074 0.56454998254776 -0.38352999091148376 -0.2469100058078766 0.7971799969673157 -0.09112200140953064 -0.5047500133514404 -0.7062900066375732 0.4712499976158142 0.12330999970436096 -0.48969000577926636 0.6504600048065186 0.15017999708652496 0.4386500120162964 0.45671001076698303 -0.9111199975013733 0.4038200080394745 0.18238000571727753 -0.1668899953365326 -1.0760999917984009 0.541670024394989 -0.09965500235557556 0.5152199864387512 -0.9205300211906433 -0.4130600094795227 -0.22043000161647797 0.015293000265955925 0.3716700077056885 0.4897199869155884 -0.6922600269317627 0.41637998819351196 0.657069981098175 0.1822499930858612 -1.183899998664856 0.3272700011730194 0.0045924000442028046 0.09402500092983246 -1.409000039100647 -0.050324998795986176 1.375100016593933
numbers 0.12789000570774078 -0.12575000524520874 1.148900032043457 -0.669510006904602 0.7244799733161926 -0.05518899857997894 -0.5989699959754944 -0.42836999893188477 -0.06763199716806412 -0.3275200128555298 0.04170599952340126 -0.3790299892425537 0.3954299986362457 -0.3753800094127655 0.7545899748802185 -0.35717999935150146 -0.17260999977588654 -0.7545300126075745 -0.3705799877643585 -0.8709999918937683 -0.33087998628616333 -1.1562000513076782 0.4438000023365021 0.5052300095558167 0.23951999843120575 -0.6784200072288513 -1.2242000102996826 -0.2826400101184845 0.40053001046180725 -0.07601399719715118 3.25219988822937 0.5024200081825256 0.7589899897575378 -0.7336699962615967 0.21929000318050385 0.006341500207781792 0.21775999665260315 -0.41389000415802 -0.6229599714279175 0.13605999946594238 -0.2627899944782257 0.05093799903988838 0.06088100001215935 0.4779999852180481 -0.2501299977302551 -0.45906999707221985 0.16845999658107758 0.530210018157959 0.11049000173807144 0.011593000032007694
jail -0.028193999081850052 0.004143000114709139 -0.19485999643802643 -0.6172099709510803 0.35192999243736267 -0.3760800063610077 0.6099299788475037 1.0906000137329102 0.0751739963889122 0.26322999596595764 -0.9242600202560425 -0.6083499789237976 -0.04812600091099739 -0.4848499894142151 1.2020000219345093 -0.33428001403808594 -0.5644800066947937 0.17569999396800995 0.14824999868869781 0.6019399762153625 0.5291200280189514 0.8672599792480469 -0.10632000118494034 0.6631100177764893 -1.3910000324249268 -2.4802000522613525 1.1605000495910645 0.056074999272823334 0.27351000905036926 -0.19231000542640686 1.930899977684021 -0.8265399932861328 -0.45278000831604004 -0.323170006275177 0.76910001039505 0.5063199996948242 0.6954299807548523 -0.6550099849700928 0.4593900144100189 -0.19368000328540802 -0.597599983215332 0.8484600186347961 0.577530026435852 0.9419699907302856 -0.1266999989748001 -0.9061999917030334 -0.3675299882888794 -0.9411799907684326 0.1913599967956543 -0.3767699897289276
stephanie -0.7823100090026855 0.5627400279045105 -0.0805559977889061 0.2189600020647049 0.14295999705791473 0.5375999808311462 -0.5733699798583984 0.021416999399662018 0.42333000898361206 -1.253600001335144 -0.004493299871683121 -0.10119999945163727 -0.4570100009441376 -0.6585800051689148 0.7596700191497803 0.025498000904917717 -0.1551699936389923 -0.8085500001907349 0.34426000714302063 -0.06060300022363663 -0.15035000443458557 0.2796100080013275 0.17737999558448792 0.40557000041007996 0.4165099859237671 -0.6652899980545044 -0.08910100162029266 -0.39164999127388 0.048900000751018524 -0.35569000244140625 -0.18312999606132507 0.07806599885225296 -0.1182200014591217 -0.2902500033378601 -0.31784000992774963 -0.20161999762058258 -0.2971700131893158 0.6321600079536438 0.42201998829841614 -0.4657500088214874 1.0271999835968018 0.6279000043869019 0.42122000455856323 -1.4485000371932983 0.9773899912834167 -0.5130100250244141 0.1412699967622757 -1.2675000429153442 -0.06637399643659592 1.3121999502182007
shaniqua -0.3527100086212158 -0.4159800112247467 0.20601999759674072 0.07899600267410278 -0.24279999732971191 0.08872699737548828 0.47516000270843506 0.5090399980545044 -0.2199700027704239 0.26495999097824097 -0.604640007019043 0.3929300010204315 0.181209996342659 -0.6874300241470337 -0.49452999234199524 -0.20344999432563782 0.02882399968802929 0.3665199875831604 1.5753999948501587 0.2015399932861328 -0.08356799930334091 -0.19497999548912048 -0.1633100062608719 -0.048172999173402786 0.7450199723243713 0.8233399987220764 0.7635599970817566 0.11344999819993973 -0.21459999680519104 -0.34314998984336853 -1.5156999826431274 -0.017057999968528748 0.688510000705719 0.5185199975967407 -0.021599000319838524 -0.09767500311136246 -0.1720999926328659 0.19912999868392944 -0.11744000017642975 -0.1205499991774559 -0.6679900288581848 -0.5697500109672546 -0.6543499827384949 0.2364100068807602 0.1737000048160553 -0.9247099757194519 -0.15797999501228333 -0.7229999899864197 0.5049399733543396 0.15246999263763428
harmonica -1.5097999572753906 0.03683299943804741 -0.9586399793624878 -0.036251001060009 -0.7735999822616577 0.4142799973487854 -0.1157199963927269 0.7300400137901306 -1.2099000215530396 1.2467999458312988 0.734000027179718 1.371399998664856 -0.17191000282764435 0.871649980545044 -0.385019987821579 -0.8072599768638611 0.0026682999450713396 0.2877900004386902 -0.14520999789237976 -0.9578800201416016 -0.3107900023460388 0.156810000538826 -0.6575499773025513 0.09051799774169922 0.5781199932098389 0.4973500072956085 0.08247999846935272 -0.12088000029325485 -0.11087000370025635 -0.8782299757003784 1.2173999547958374 -0.46406999230384827 1.3741999864578247 0.3795500099658966 0.31762999296188354 1.1552000045776367 0.6149200201034546 -0.49441999197006226 0.5028300285339355 -0.12836000323295593 0.3957200050354004 0.3728399872779846 -0.717199981212616 -0.15671999752521515 0.588890016078949 0.2074200063943863 1.0993000268936157 -0.5039100050926208 -1.062600016593933 0.0877629965543747
beetle 1.2941999435424805 -0.4891299903392792 -0.4790099859237671 0.4652700126171112 0.7521799802780151 0.9484800100326538 -1.2684999704360962 -1.5951000452041626 0.44514000415802 -1.34660005569458 0.4121600091457367 0.5460500121116638 0.26267001032829285 -0.6086099743843079 1.0048999786376953 0.3223699927330017 -0.20716999471187592 1.4104000329971313 -1.1669000387191772 -0.7658500075340271 -1.4240000247955322 -1.6104999780654907 0.17956000566482544 0.543470025062561 0.14673000574111938 -0.38277000188827515 -0.34970998764038086 1.2056000232696533 0.5843499898910522 0.49862998723983765 0.011625999584794044 -0.68190997838974 -0.4084799885749817 0.5197100043296814 0.021335000172257423 0.1133200004696846 -0.8257399797439575 -0.3832800090312958 -0.466839998960495 -0.7833799719810486 0.03989399969577789 -0.8599100112915039 -0.41207998991012573 0.18520000576972961 1.4853999614715576 0.3531300127506256 0.3418999910354614 -0.6132199764251709 0.6446200013160706 -0.4757100045681
flute -0.3843500018119812 0.4300299882888794 -1.7719000577926636 -0.18525999784469604 -0.35036998987197876 0.9060699939727783 0.6317099928855896 0.6489999890327454 -0.9765200018882751 0.9295200109481812 0.8496000170707703 0.989870011806488 0.4430299997329712 1.1914000511169434 -0.8972300291061401 -0.9937099814414978 -0.3173699975013733 0.7817299962043762 -0.48465999960899353 -0.9969199895858765 -0.19833999872207642 -0.030239999294281006 0.1662299931049347 0.16272999346256256 0.3116700053215027 0.40035000443458557 -0.2967900037765503 -0.003520200029015541 -1.1053999662399292 -1.1482000350952148 1.7343000173568726 -0.5909000039100647 0.4639599919319153 1.188099980354309 0.8226699829101562 0.40347999334335327 0.6414999961853027 0.10029000043869019 1.1159000396728516 0.44231000542640686 0.30133000016212463 -0.02725199982523918 -0.4535999894142151 -0.120169997215271 0.47534000873565674 0.6693300008773804 1.2785999774932861 -0.5151100158691406 -1.3583999872207642 -0.10887999832630157
grandfather -0.14316000044345856 0.7832800149917603 -0.24492999911308289 -0.8730499744415283 1.1920000314712524 0.7066599726676941 -1.0836999416351318 0.3130199909210205 -0.7557100057601929 -0.27917999029159546 0.26249000430107117 1.0305999517440796 0.06297300010919571 -0.5557600259780884 0.2981500029563904 -0.09779399633407593 -0.4678199887275696 0.31957998871803284 0.059863001108169556 0.3745400011539459 -0.260919988155365 0.3538999855518341 -0.605459988117218 -0.0704450011253357 1.1384999752044678 -1.739400029182434 -0.6725299954414368 -0.9013599753379822 0.3375000059604645 0.29350000619888306 0.9140599966049194 -0.5489400029182434 -0.17170999944210052 0.3627299964427948 0.5362300276756287 0.19177000224590302 -0.3197000026702881 0.7433500289916992 0.41940000653266907 0.5550400018692017 -0.10795000195503235 0.5187900066375732 -0.4965899884700775 0.008067100308835506 0.39344000816345215 0.04633500054478645 -0.5179600119590759 -1.6486999988555908 -0.08621799945831299 -0.16458000242710114
marriage 0.331059992313385 0.7070800065994263 -1.409999966621399 -0.34871000051498413 0.5093700289726257 2.2802000045776367 -0.4165399968624115 0.2368299961090088 -0.24869999289512634 0.21143999695777893 -0.21932999789714813 0.4025300145149231 -0.05639300122857094 -0.29131999611854553 0.9670400023460388 0.24966000020503998 -0.8640400171279907 -1.3314000368118286 1.1777000427246094 0.41648998856544495 0.317220002412796 0.6089900135993958 -0.559939980506897 0.43292000889778137 0.32047000527381897 -1.7058000564575195 -0.24605000019073486 -1.0844999551773071 0.49689000844955444 0.3077999949455261 2.0297000408172607 0.08260499686002731 -0.9063599705696106 -0.27566999197006226 0.036343999207019806 -0.9068400263786316 -0.03457900136709213 -0.08998200297355652 -0.39465999603271484 -0.2991099953651428 -0.6047400236129761 -0.22062000632286072 -0.20685000717639923 0.7343400120735168 -0.7429500222206116 -0.22585999965667725 -0.3781200051307678 -1.3823000192642212 0.10909999907016754 0.3492099940776825
aunt 0.7071999907493591 1.0923999547958374 -0.45603999495506287 -0.5089499950408936 0.3431299924850464 1.1648000478744507 -0.9066399931907654 0.6865699887275696 -0.09165000170469284 0.009248300455510616 -0.3047800064086914 1.1119999885559082 0.6166899800300598 -0.4379499852657318 0.7169299721717834 0.13565999269485474 -1.0872000455856323 -0.07803600281476974 0.9038199782371521 0.5560600161552429 -0.020368000492453575 1.1990000009536743 0.2657800018787384 0.3975600004196167 1.2037999629974365 -1.1217999458312988 -0.8220000267028809 -0.13808000087738037 0.5707399845123291 -0.532260000705719 0.5447900295257568 0.161530002951622 -0.031223999336361885 0.7400699853897095 0.4208100140094757 -0.0019821999594569206 -0.3890700042247772 0.13461999595165253 0.8609600067138672 -0.4505600035190582 -0.13652999699115753 0.6655600070953369 -0.15615999698638916 -0.6514599919319153 0.2535400092601776 -0.14762000739574432 -0.2811799943447113 -1.9549000263214111 0.4103499948978424 0.40421000123023987
diana 0.8853300213813782 1.597100019454956 -0.16459999978542328 0.14956000447273254 0.40880998969078064 0.7634199857711792 -0.8052800297737122 0.5542299747467041 0.12477999925613403 0.08300600200891495 -0.3839400112628937 0.5823000073432922 -0.7242699861526489 -0.5767800211906433 1.0693999528884888 0.15389999747276306 -0.9372699856758118 -0.7923200130462646 0.08573800325393677 -0.23874999582767487 0.39368999004364014 1.680299997329712 0.12437999993562698 -0.2177799940109253 0.4105300009250641 -0.7424799799919128 -1.0602999925613403 0.027730999514460564 -0.05009400099515915 0.07732599973678589 0.24979999661445618 0.2098499983549118 0.19825999438762665 -0.29888999462127686 0.09955199807882309 -0.284060001373291 0.42937999963760376 -0.21559999883174896 -0.1520400047302246 -0.3184100091457367 0.33476999402046204 0.3416999876499176 -0.12014000117778778 -0.29416999220848083 0.29139000177383423 -0.1474200040102005 -1.087399959564209 -1.4200999736785889 0.3383300006389618 -0.3455300033092499
spider 1.5571000576019287 -0.3685399889945984 -0.37088000774383545 0.7953600287437439 0.6130200028419495 1.2404999732971191 0.30347999930381775 -0.9558600187301636 0.7437899708747864 0.01763099990785122 -0.07977200299501419 0.948140025138855 0.04627000167965889 0.7221999764442444 0.6298199892044067 -0.2370699942111969 0.07310499995946884 0.7628899812698364 -1.238700032234192 -0.4624600112438202 -0.5814499855041504 -0.31571000814437866 0.8425700068473816 0.0406309999525547 0.2853200137615204 -0.2077600061893463 -1.0342999696731567 0.2706100046634674 -0.030634000897407532 -0.7432000041007996 0.6665400266647339 -0.3070000112056732 0.007683999836444855 0.7023400068283081 -0.41804999113082886 0.27017998695373535 -0.5 -0.350849986076355 -0.13808000087738037 -1.1676000356674194 -0.2468699961900711 0.036472998559474945 -0.15501999855041504 0.2289399951696396 0.5168499946594238 -0.13606999814510345 0.622160017490387 -1.895300030708313 0.12212000042200089 -0.19292999804019928
technology -0.25722000002861023 -0.0933850035071373 1.1370999813079834 0.9514700174331665 -0.45155999064445496 -0.5530200004577637 -0.4863699972629547 -1.6476000547409058 0.594219982624054 0.7521100044250488 0.7417299747467041 0.263729989528656 -0.291810005903244 0.2123900055885315 -0.8643100261688232 0.8708599805831909 -0.34193000197410583 0.9905200004577637 0.026312999427318573 -0.2523399889469147 1.4177000522613525 0.002531300066038966 -0.6584299802780151 -0.35971999168395996 0.569819986820221 -1.6079000234603882 -0.1969500035047531 -0.997189998626709 0.0022330000065267086 0.04641599953174591 3.257499933242798 -0.268449991941452 -0.09459000080823898 -1.3316999673843384 -0.03993399813771248 -0.15860000252723694 -0.8549000024795532 1.0836999416351318 0.20208999514579773 -0.18875999748706818 0.34615999460220337 -0.3207400143146515 0.26552000641822815 0.4889799952507019 0.6563799977302551 0.5043200254440308 0.8015699982643127 0.581820011138916 -0.06895600259304047 0.39337000250816345
rachel 0.22699999809265137 1.5130000114440918 0.019633999094367027 -0.15986000001430511 0.8565800189971924 1.3020000457763672 -0.9808800220489502 0.14094999432563782 0.07635600119829178 -0.5788300037384033 -0.18195000290870667 -0.27390000224113464 -0.38672998547554016 -0.5259600281715393 0.955299973487854 0.45840999484062195 0.9465399980545044 -0.5394399762153625 -0.027566999197006226 0.5583800077438354 0.026945000514388084 1.1548999547958374 -0.22609999775886536 0.5019699931144714 0.7233899831771851 -0.4663499891757965 0.17135000228881836 -0.14996999502182007 -0.11084000021219254 -0.6218600273132324 0.18895000219345093 -0.25826001167297363 0.1642400026321411 -0.30619001388549805 -0.007910099811851978 -0.15324999392032623 0.2972300052642822 -0.09690000116825104 0.3318699896335602 -0.5009300112724304 0.725350022315979 0.20535999536514282 -0.2049800008535385 -1.3005000352859497 0.9117900133132935 -1.1684999465942383 0.2886500060558319 -1.0516999959945679 -0.3303000032901764 1.0286999940872192
cannon -0.34125998616218567 -0.061170000582933426 0.9333900213241577 -0.48938000202178955 -0.16881999373435974 0.7694699764251709 0.11971999704837799 -0.11674000322818756 -0.544920027256012 -0.44433000683784485 -0.4431599974632263 -0.10516999661922455 -0.08670900017023087 0.13391999900341034 -1.0489000082015991 -0.10756000131368637 0.4921000003814697 0.6252599954605103 -1.51419997215271 -0.8847699761390686 0.2884500026702881 0.262580007314682 0.10792999714612961 -0.9258599877357483 -0.04353699833154678 -0.6703500151634216 0.22245000302791595 0.28499001264572144 0.32135000824928284 -0.2271299958229065 1.0601999759674072 -0.8946300148963928 -0.145579993724823 -0.04126200079917908 0.19644999504089355 0.659089982509613 0.8506399989128113 -0.3408699929714203 0.19177000224590302 0.49908000230789185 1.003600001335144 0.7036200165748596 -0.4131599962711334 -0.47519001364707947 0.9435300230979919 0.148389995098114 -0.42612001299858093 -0.5681999921798706 -0.6244000196456909 0.3087399899959564
calculus -0.18262000381946564 0.659850001335144 -0.5766699910163879 -0.05419600009918213 -0.20788000524044037 0.2558499872684479 1.4839999675750732 -0.6686099767684937 -0.9110699892044067 0.3139899969100952 0.54475998878479 0.34602999687194824 -0.6222500205039978 0.01539700012654066 -0.3178099989891052 0.13214999437332153 -0.6411799788475037 0.32997000217437744 0.7738500237464905 0.10168000310659409 -0.28564000129699707 -0.7396600246429443 0.24660000205039978 0.7516099810600281 0.3231399953365326 -0.522409975528717 -1.503999948501587 -0.46744999289512634 -0.2683500051498413 0.4833599925041199 0.8467699885368347 -0.4196299910545349 -0.6687999963760376 -0.3781999945640564 1.1699999570846558 0.008945699781179428 -0.6667199730873108 1.3408000469207764 0.8651099801063538 1.5506999492645264 0.3006399869918823 0.1507599949836731 -0.26771000027656555 1.5149999856948853 -0.6723799705505371 -0.11827000230550766 2.317699909210205 1.3861000537872314 0.20627999305725098 -0.003567799925804138
horn -0.024018000811338425 -0.30223000049591064 -0.6318600177764893 -0.1163799986243248 -0.10057000070810318 1.059399962425232 -0.3376399874687195 -0.0351639986038208 0.020899999886751175 -0.3273699879646301 0.37828999757766724 0.5067899823188782 -0.16705000400543213 0.5606899857521057 -0.6864100098609924 -0.14162999391555786 0.4426400065422058 -0.08849599957466125 -0.4729999899864197 -0.3008100092411041 -0.6522600054740906 0.0976950004696846 -0.0028311999049037695 -0.013392999768257141 0.3223100006580353 -0.5550199747085571 -0.005214099772274494 0.4566200077533722 -0.00391709990799427 -0.5565800070762634 1.9072999954223633 0.1057099997997284 0.13765999674797058 0.6964399814605713 0.4390600025653839 0.4285300076007843 -0.05959799885749817 -0.9566400051116943 0.49277999997138977 0.7991899847984314 -0.37533000111579895 1.2723000049591064 -0.4699000120162964 -1.3427000045776367 0.20090000331401825 0.7141199707984924 0.4377799928188324 -0.2383899986743927 -0.5162000060081482 -0.2959100008010864
female -0.31575000286102295 0.7446100115776062 -0.11565999686717987 -0.3060699999332428 1.5240000486373901 1.913699984550476 -0.3919999897480011 -0.6755599975585938 -0.10509999841451645 -0.1745699942111969 1.069200038909912 -0.6861699819564819 1.2178000211715698 1.0285999774932861 0.356330007314682 -0.40841999650001526 -0.3441300094127655 0.6753299832344055 -0.5443000197410583 -0.21131999790668488 -0.6122599840164185 0.9561899900436401 0.43981000781059265 0.5963900089263916 0.029580000787973404 -1.1064000129699707 -0.4899600148200989 -0.8241599798202515 -0.9724799990653992 -0.05959400162100792 2.3959999084472656 0.7426900267601013 -0.16043999791145325 -0.6931599974632263 0.5589200258255005 0.22891999781131744 0.013605000451207161 -0.4485799968242645 -0.5296499729156494 -0.9628199934959412 -0.544439971446991 0.1828400045633316 0.16550999879837036 0.33445999026298523 0.5343199968338013 -1.4823999404907227 -0.3457399904727936 -0.8283399939537048 0.10107000172138214 0.024413999170064926
tashika -0.7914900183677673 0.8661699891090393 0.11997999995946884 0.0009228700073435903 0.2775999903678894 -0.49184998869895935 0.5019500255584717 0.0006079199956730008 -0.2584500014781952 0.17865000665187836 0.2535000145435333 0.765720009803772 0.5066400170326233 0.4025000035762787 -0.002138799987733364 -0.2839699983596802 -0.5032399892807007 0.30449000000953674 0.5177900195121765 0.01508999988436699 -0.35030999779701233 -1.1277999877929688 0.3325299918651581 -0.35249999165534973 0.04132600128650665 1.086300015449524 0.03390999883413315 0.335640013217926 0.49744999408721924 -0.07013099640607834 -1.2192000150680542 -0.4851199984550476 -0.03851199895143509 -0.13553999364376068 -0.16380000114440918 0.5232099890708923 -0.31317999958992004 -0.1655000001192093 0.1190899983048439 -0.15115000307559967 -0.1562100052833557 -0.626550018787384 -0.6233599781990051 -0.42149999737739563 0.4187299907207489 -0.9247199892997742 1.1049000024795532 -0.2999599874019623 -0.006300299894064665 0.3953999876976013
maggot 1.498900055885315 -0.571940004825592 -0.46397000551223755 -0.4557099938392639 -0.7019799947738647 0.2908700108528137 0.5478900074958801 -0.5548700094223022 0.574999988079071 1.2072999477386475 0.09023799747228622 0.11999999731779099 0.44699999690055847 0.5094599723815918 -0.2870999872684479 -0.26535001397132874 -0.5321599841117859 1.06850004196167 0.20021000504493713 0.27706000208854675 -0.9099699854850769 -0.13596999645233154 0.2639099955558777 0.12804000079631805 -0.1651500016450882 0.48451000452041626 0.11784999817609787 0.3743300139904022 0.34863999485969543 0.15283000469207764 -0.208639994263649 -0.1493699997663498 -1.2136000394821167 0.7234500050544739 -0.5455600023269653 0.17494000494480133 0.11765000224113464 -0.11806000024080276 0.9736700057983398 0.05573200061917305 -0.09288699924945831 -0.3323799967765808 -1.526900053024292 0.9416300058364868 1.2990000247955322 -0.5686399936676025 0.8840100169181824 -0.6338599920272827 -0.2807700037956238 0.5534899830818176
harry 0.08502600342035294 0.4082300066947937 0.38137000799179077 -0.2868900001049042 0.6067100167274475 0.146029993891716 -0.6708099842071533 -0.11403000354766846 -0.2619200050830841 -0.2528199851512909 -0.948390007019043 1.5758999586105347 -0.6492699980735779 -0.35863998532295227 0.7356200218200684 -0.28461000323295593 0.3088200092315674 0.36215001344680786 -0.7180600166320801 0.031161999329924583 0.49145999550819397 0.17483000457286835 0.2621299922466278 0.05173899978399277 0.4682599902153015 -1.6050000190734863 0.2731499969959259 -0.7596799731254578 -0.4376800060272217 -0.04567600041627884 0.731719970703125 -0.8842399716377258 0.029002999886870384 -0.3249000012874603 -0.23266999423503876 0.0643329992890358 0.12355999648571014 -0.2771399915218353 -0.05854500085115433 -1.148900032043457 0.6045899987220764 0.5844699740409851 -0.7373899817466736 -0.2432900071144104 0.7307599782943726 0.8238499760627747 -0.25863000750541687 -1.3723000288009644 -0.7882500290870667 0.9161700010299683
art -0.6362800002098083 1.2969000339508057 -1.277999997138977 -0.2974500060081482 0.32062000036239624 -0.6375899910926819 -1.031599998474121 -1.4836000204086304 -0.7353699803352356 0.7603999972343445 -0.01564900018274784 0.18865999579429626 0.11918999999761581 0.02590000070631504 0.420879989862442 -0.2634600102901459 0.33992999792099 0.12065000087022781 -0.3020699918270111 0.024764999747276306 1.2486000061035156 0.39136001467704773 -1.1759999990463257 0.15051999688148499 0.037567999213933945 -1.0189000368118286 -1.6132999658584595 -0.5340099930763245 -0.119159996509552 -0.8580899834632874 2.546099901199341 -0.7231400012969971 0.3818100094795227 -1.4622000455856323 -0.5874599814414978 0.8285300135612488 -0.19442999362945557 0.9246699810028076 0.15477000176906586 0.2503899931907654 0.8446199893951416 0.07579900324344635 0.7215999960899353 -0.026481999084353447 0.27818000316619873 0.6809200048446655 0.22120000422000885 -0.7143099904060364 -0.34964001178741455 -0.03386799991130829
vacation 1.287500023841858 1.2585999965667725 -0.7129700183868408 -0.15497000515460968 -0.6196500062942505 -0.8005200028419495 -2.0028998851776123 0.4195899963378906 -0.07532799988985062 -0.21366000175476074 -0.8460299968719482 -0.08260499686002731 0.9982100129127502 0.11348000168800354 1.6988999843597412 0.6596500277519226 -0.32471001148223877 -0.2480500042438507 -0.04788900166749954 0.08139500021934509 0.4810200035572052 0.5166500210762024 -0.5788000226020813 0.7412599921226501 0.3108200132846832 -0.6728100180625916 -0.2503899931907654 0.22735999524593353 1.1557999849319458 0.5409600138664246 1.5812000036239624 0.915120005607605 -0.8890200257301331 0.5296400189399719 0.5339999794960022 0.1331000030040741 -0.5146099925041199 0.36750999093055725 -0.14438000321388245 -0.43314000964164734 -0.5299100279808044 0.4801799952983856 0.49344000220298767 0.4678899943828583 -0.466839998960495 -0.39632999897003174 0.16859999299049377 -0.2327899932861328 0.22120000422000885 0.7204200029373169
firearm -1.1348999738693237 -0.861329972743988 0.4260300099849701 -0.2155199944972992 0.7441800236701965 1.3802000284194946 0.487419992685318 -0.4745599925518036 1.1295000314712524 0.19463999569416046 0.7159000039100647 -0.17590999603271484 0.24887000024318695 -0.4531700015068054 0.6225399971008301 -0.23884999752044678 -0.6684499979019165 0.79653000831604 -0.5904099941253662 -0.7993199825286865 0.5470100045204163 -0.7556800246238708 -0.48159998655319214 0.0009724799892865121 -0.8495500087738037 -1.5947999954223633 0.24015000462532043 -0.04745800048112869 1.9926999807357788 -0.42882001399993896 0.18028999865055084 -0.4839400053024292 -0.2943899929523468 -0.928820013999939 1.023900032043457 0.8361899852752686 0.8795400261878967 -0.5284299850463867 -0.46689000725746155 0.9587000012397766 0.03793000057339668 -0.2634499967098236 0.425029993057251 1.3421000242233276 0.07919500023126602 -1.2838000059127808 -0.22698000073432922 0.6693199872970581 0.7629299759864807 -0.21591000258922577
aisha -0.038245998322963715 0.47955000400543213 -0.06351199746131897 -0.44426000118255615 1.142300009727478 0.43327000737190247 -0.19057999551296234 -0.21367000043392181 0.6763200163841248 0.2178799957036972 -0.09652099758386612 0.03288700059056282 -0.2852799892425537 -1.0647000074386597 -0.19085000455379486 0.3603900074958801 -0.5041999816894531 -0.3463999927043915 1.1359000205993652 1.4048999547958374 -0.5889400243759155 1.1241999864578247 0.7310100197792053 0.40648001432418823 0.41253000497817993 -0.16885000467300415 -0.028813999146223068 0.0576619990170002 -0.048489999026060104 -0.5878499746322632 -0.6951900124549866 0.21121999621391296 0.09333900362253189 0.6484799981117249 0.6710399985313416 -0.17860999703407288 0.03431599959731102 -0.04644099995493889 -0.4706299901008606 0.7839900255203247 0.048020001500844955 0.4342299997806549 -1.1202000379562378 -0.45080000162124634 0.17817999422550201 -0.9645299911499023 -0.36528998613357544 -0.7861899733543396 0.17490999400615692 0.013849999755620956
jonathan -0.3909200131893158 -0.1743900030851364 -0.2811799943447113 -0.018046999350190163 0.6128600239753723 -0.3937300145626068 -0.7830700278282166 0.029167000204324722 0.2826099991798401 0.3955399990081787 -0.31147000193595886 0.8550599813461304 -0.6898800134658813 -0.4804700016975403 0.6957299709320068 -0.29135000705718994 1.1196000576019287 -1.0247000455856323 -0.05641600117087364 0.6258800029754639 0.023029999807476997 0.9092299938201904 0.5259000062942505 0.0220979992300272 -0.31220000982284546 -0.5464000105857849 0.7374399900436401 -0.5941900014877319 -0.4382599890232086 0.17913000285625458 1.2091000080108643 -0.9847000241279602 0.09938900172710419 -0.1959799975156784 -0.1725199967622757 0.39563998579978943 -0.15494999289512634 0.2680400013923645 1.2101999521255493 -0.3219299912452698 0.8303999900817871 1.2211999893188477 -0.4587000012397766 -0.8519899845123291 0.0875990018248558 0.6321799755096436 0.041804999113082886 -0.450219988822937 -0.7548800110816956 1.1642999649047852
geoffrey -0.1279900074005127 0.0036832999903708696 -0.6361799836158752 -0.603380024433136 -0.4281899929046631 0.12460999935865402 -0.5564600229263306 -0.47933998703956604 -0.27748000621795654 -0.6468600034713745 -0.6495000123977661 1.0010000467300415 -0.6855900287628174 -1.663100004196167 0.452890008687973 -0.07016599923372269 1.0866999626159668 -0.8462799787521362 -0.5558599829673767 0.02381500042974949 0.22960999608039856 0.07500900328159332 -0.026372000575065613 0.06799899786710739 0.557919979095459 -0.8303700089454651 -0.7338100075721741 -0.8223699927330017 -1.1680999994277954 0.6340699791908264 -0.11550000309944153 -0.7353000044822693 0.18000000715255737 0.1458600014448166 0.907480001449585 -0.6505200266838074 0.13290999829769135 0.32067999243736267 -0.20916999876499176 0.19707000255584717 0.5983800292015076 1.2137000560760498 -0.17403000593185425 -0.6347000002861023 0.3553999960422516 -0.5211399793624878 -0.031005000695586205 -0.3873800039291382 0.39998000860214233 1.0979000329971313
orchid 1.0090999603271484 0.44359999895095825 -1.780500054359436 1.2462999820709229 0.4967600107192993 -0.07886700332164764 -0.2476699948310852 -0.549239993095398 1.2192000150680542 0.427729994058609 0.2810699939727783 0.1893399953842163 2.1257998943328857 0.15737000107765198 0.723800003528595 -0.43869999051094055 0.1080700010061264 0.9416300058364868 -0.951770007610321 -0.4042699933052063 -0.23411999642848969 -1.0003000497817993 0.06584399938583374 -0.03318699821829796 -0.18379999697208405 -0.028463000431656837 -0.47429999709129333 0.19797000288963318 -0.22203999757766724 -0.26455000042915344 0.19444000720977783 -0.7473400235176086 -0.20556999742984772 0.2910799980163574 -0.25439000129699707 -0.3429900109767914 -0.9156699776649475 -0.30924999713897705 -0.10699000209569931 -0.8496699929237366 -0.5669800043106079 -0.5255900025367737 0.21367000043392181 0.20653000473976135 1.5978000164031982 -0.24356000125408173 -0.020250000059604645 -1.5602999925613403 -0.12591999769210815 -0.20034000277519226
alphonse 0.4732300043106079 -0.8748000264167786 -0.6836900115013123 -0.46202999353408813 0.28334999084472656 0.35381001234054565 -0.28426000475883484 -0.823989987373352 -1.177899956703186 0.1992799937725067 -0.15006999671459198 0.5214800238609314 0.05298899859189987 -0.30702000856399536 -0.6171000003814697 -1.354200005531311 -0.13274000585079193 -0.5138099789619446 0.22022999823093414 0.10592000186443329 -0.5033900141716003 -0.14948000013828278 0.4232900142669678 -0.8893100023269653 -0.4769099950790405 0.007052099797874689 -0.0770379975438118 -0.09837000072002411 -0.2019300013780594 0.2580600082874298 -1.3521000146865845 -0.43393999338150024 -1.176300048828125 0.04796300083398819 -0.02749899961054325 -0.38666000962257385 -0.6017500162124634 1.1936999559402466 0.6766200065612793 0.48938998579978943 0.5451499819755554 0.4877299964427948 -0.03920900076627731 -0.9359700083732605 0.7096099853515625 -0.03531600162386894 -0.7064899802207947 -0.982509970664978 1.0752999782562256 0.3714999854564667
sunrise 0.4985800087451935 0.47780999541282654 -0.7146000266075134 0.3513199985027313 -0.1428699940443039 -0.7541499733924866 -0.885420024394989 -0.3838599920272827 0.849049985408783 0.2524999976158142 -0.07603699713945389 -0.6305599808692932 0.41398999094963074 0.419869989156723 0.051819998770952225 0.6398599743843079 -0.3774699866771698 0.2502500116825104 -1.169700026512146 0.1167600005865097 0.6984800100326538 0.8359299898147583 0.16261999309062958 0.27219000458717346 0.21724000573158264 0.28821998834609985 0.051851000636816025 0.6972699761390686 0.5143899917602539 -0.2650099992752075 1.0329999923706055 0.4332300126552582 -0.809220016002655 0.3054099977016449 -0.11563000082969666 -0.8711000084877014 0.22316999733448029 -0.8099600076675415 0.19781999289989471 0.7691400051116943 -0.5202500224113464 -0.2677899897098541 -0.6785699725151062 -0.1542000025510788 -0.5725100040435791 0.25846999883651733 0.4148600101470947 -0.6109600067138672 -0.24535000324249268 0.24851000308990479
jermaine -1.3992999792099 0.532069981098175 0.4647899866104126 -0.35249000787734985 0.43094998598098755 -0.31428998708724976 -1.1410000324249268 -0.07020799815654755 0.44137999415397644 1.6337000131607056 0.6098999977111816 0.5493999719619751 -1.545699954032898 -0.8141700029373169 0.12438999861478806 -0.0767040029168129 0.5824300050735474 -1.0851000547409058 -0.7664300203323364 -0.5163300037384033 -0.980929970741272 0.5162799954414368 0.26118001341819763 -0.523389995098114 -0.9405500292778015 0.018092000856995583 1.475100040435791 0.06824900209903717 0.9055399894714355 -0.8119300007820129 -0.041728001087903976 -0.17111000418663025 -0.05956700071692467 -0.36820998787879944 1.1717000007629395 0.029012000188231468 0.6549999713897705 0.03302700072526932 0.24580000340938568 0.3632600009441376 0.08346100151538849 0.8392400145530701 -0.971560001373291 -0.5034899711608887 0.4624499976634979 -0.02013999968767166 0.18110999464988708 -1.069000005722046 -0.6157400012016296 -0.19920000433921814
roach 0.06686799973249435 -0.9660300016403198 -0.20976999402046204 0.029705999419093132 0.11569999903440475 -0.3677099943161011 -0.30333998799324036 -0.26686999201774597 0.21875999867916107 0.41835999488830566 0.1682800054550171 1.5787999629974365 -0.5502200126647949 0.05683000013232231 0.27897000312805176 0.1712699979543686 0.41736000776290894 0.6965299844741821 -0.7201300263404846 -0.3370699882507324 0.04117099940776825 0.47196999192237854 0.6834700107574463 -0.13662999868392944 0.19617000222206116 0.07898399978876114 0.3168199956417084 -0.16402000188827515 -0.18482999503612518 0.002526399912312627 0.46970000863075256 -0.7958199977874756 0.7441700100898743 0.4834800064563751 0.2224300056695938 -0.3680799901485443 0.0987820029258728 -0.5635499954223633 0.3852599859237671 -0.3055799901485443 -0.284060001373291 0.4207099974155426 -0.5369499921798706 0.02818799950182438 0.4161899983882904 -0.1377599984407425 0.06580500304698944 -1.2818000316619873 -0.7564899921417236 1.1617000102996826
heaven 0.0668950006365776 0.7408599853515625 -0.10805000364780426 -0.8625699877738953 1.4610999822616577 -0.557699978351593 0.07862500101327896 -0.07782299816608429 0.4338499903678894 0.6796799898147583 -0.23064999282360077 0.7840099930763245 -0.05314800143241882 0.1078300029039383 0.40498000383377075 0.4496900141239166 0.5032299757003784 -0.07631999999284744 -0.48284998536109924 0.27046000957489014 0.1285499930381775 0.261570006608963 0.5000900030136108 0.40827998518943787 0.7245799899101257 -0.7516400218009949 -1.2936999797821045 -0.030760999768972397 0.6380900144577026 -0.9306399822235107 1.4794000387191772 0.00191430002450943 -0.48205000162124634 0.5080400109291077 -0.45302000641822815 -0.4827300012111664 0.4121899902820587 -1.1518000364303589 -0.23282000422477722 -0.19888000190258026 -0.24778999388217926 -0.549049973487854 -0.6830400228500366 0.20096999406814575 -0.2903200089931488 0.19683000445365906 0.10248000174760818 -1.7265000343322754 -0.28492000699043274 -0.5438100099563599
buttercup 0.6086300015449524 0.029339000582695007 -1.2582000494003296 -0.022235000506043434 0.6086000204086304 0.43143999576568604 -0.0867609977722168 -0.15454000234603882 -1.0789999961853027 -0.5478399991989136 0.1371999979019165 0.7074699997901917 0.8238400220870972 -0.7351899743080139 0.16730999946594238 0.43268999457359314 0.35280001163482666 1.2851999998092651 0.4462200105190277 -0.13378000259399414 -0.4220399856567383 -0.9404900074005127 -0.0782419964671135 0.6286399960517883 0.2442599982023239 0.5702000260353088 -0.3847399950027466 0.6607800126075745 0.4491899907588959 -0.09983299672603607 -0.35008999705314636 -0.17985999584197998 0.1336199939250946 1.2771999835968018 -0.10907000303268433 0.22446000576019287 -1.3380999565124512 -0.6481000185012817 0.43101999163627625 -0.10301999747753143 -0.2213200032711029 -0.48085999488830566 -0.73471999168396 -0.3595600128173828 1.3344999551773071 -0.4692400097846985 0.5056300163269043 -0.7626699805259705 -0.018482999876141548 -0.2291399985551834
kareem -2.1449999809265137 0.6461499929428101 0.4498499929904938 1.1033999919891357 0.9757699966430664 -0.3349300026893616 -0.10949999839067459 -0.2051900029182434 -0.06443600356578827 0.11347000300884247 -0.14879000186920166 0.1312199980020523 -0.8921599984169006 0.27601999044418335 0.21985000371932983 0.6473699808120728 0.7663999795913696 -0.2865599989891052 -0.20824000239372253 0.7219899892807007 -0.8928099870681763 0.6316199898719788 0.529229998588562 -0.3912599980831146 -0.049984000623226166 -0.2127700001001358 0.3400000035762787 -0.4981299936771393 1.3415000438690186 -0.2027900069952011 -0.4081200063228607 0.3445099890232086 -0.028635000810027122 -0.2849000096321106 0.8260599970817566 1.0434000492095947 0.2873300015926361 0.1147100031375885 0.06361199915409088 1.9569000005722046 -0.46439000964164734 1.3819999694824219 -0.964709997177124 0.5180100202560425 0.17720000445842743 0.16335999965667725 -0.755370020866394 0.2939999997615814 -0.19666999578475952 0.2992500066757202
wardell -0.5993099808692932 0.19086000323295593 0.5877199769020081 -0.26082998514175415 0.10620000213384628 -0.04339300096035004 -0.6600599884986877 -0.6224200129508972 0.35409998893737793 -0.4302999973297119 -0.07876099646091461 0.3874000012874603 -0.6213700175285339 -0.450219988822937 -0.10954999923706055 0.7664200067520142 0.07603300362825394 -0.7426400184631348 0.13558000326156616 0.02507700026035309 1.2960000038146973 1.3142999410629272 -0.2537600100040436 0.2568399906158447 0.9713299870491028 0.7760599851608276 -0.404229998588562 -0.2264299988746643 0.1684899926185608 0.9182000160217285 -0.8708199858665466 -0.7267699837684631 1.5765999555587769 -1.1080000400543213 -0.10650999844074249 0.017071999609470367 -0.662880003452301 -0.4949699938297272 0.6233400106430054 -0.5101199746131897 1.3050999641418457 0.19166000187397003 0.39184001088142395 -1.2769999504089355 1.1511000394821167 0.3362399935722351 0.5177199840545654 -0.02810800075531006 0.8270099759101868 0.44894999265670776
nichelle 0.8087800145149231 -0.5664299726486206 0.8906400203704834 0.772059977054596 1.1309000253677368 0.47620001435279846 1.5118000507354736 0.6079000234603882 0.46873000264167786 0.42010000348091125 -0.07201500236988068 -0.055397000163793564 -0.6088299751281738 -0.06784600019454956 0.5116000175476074 0.512470006942749 -0.037029001861810684 0.4422700107097626 0.971019983291626 0.5876700282096863 -0.25519001483917236 0.9558600187301636 0.9890499711036682 0.348580002784729 -0.8868499994277954 0.24455000460147858 0.06374800205230713 -0.20266999304294586 0.5541999936103821 -0.837119996547699 -2.0178000926971436 -1.163699984550476 0.19151000678539276 -0.6497099995613098 1.3732999563217163 0.18915000557899475 0.2134000062942505 -0.41749998927116394 -0.7129899859428406 0.20635999739170074 -0.2040800005197525 0.8353599905967712 0.23662999272346497 -0.8164899945259094 -0.3113499879837036 -0.9077100157737732 0.04736800119280815 -0.6832600235939026 -1.3669999837875366 0.9722399711608887
he -0.2009200006723404 -0.0602709986269474 -0.6176599860191345 -0.8443999886512756 0.5781000256538391 0.14670999348163605 -0.8609799742698669 0.6704999804496765 -0.865559995174408 -0.18233999609947205 0.15855999290943146 0.45813998579978943 -1.0162999629974365 -0.3587400019168854 0.7386900186538696 -0.24048000574111938 -0.33893001079559326 0.25742000341415405 -0.7819200158119202 0.08352799713611603 0.17749999463558197 0.9177299737930298 0.6453099846839905 -0.19896000623703003 0.3741599917411804 -2.752500057220459 -0.09158600121736526 0.040348999202251434 -0.06479199975728989 -0.3146600127220154 3.394399881362915 0.0449410006403923 -0.5503799915313721 -0.6533399820327759 0.10435999929904938 0.016394000500440598 0.2438800036907196 1.0084999799728394 0.31411999464035034 -0.3380599915981293 -0.1692499965429306 0.10227999836206436 -0.621429979801178 0.19829000532627106 -0.3614700138568878 -0.24769000709056854 -0.38988998532295227 -0.33316999673843384 -0.041659001260995865 -0.01317100040614605
